0.6474834747840251
-1.039905408973703
0.4909607149618158
0.2791929488720965
-0.1058323512289878
-0.0880068951040062
0.1121133979339593
0.0748114109453806
0.0848854533938444
0.1313804667180395
0.1702611115190375
0.0244690561611307
0.0904347451727276
0.1631262688828133
-0.0466495770652672
-0.0078012476498991
0.0055001797748418
0.1359031654839935
0.230189881059858
0.0420517144655333
0.2910235467707009
0.2899670858694246
0.3968282691506967
0.1183438223776602
0.2325525840579537
0.2400609796179191
-0.0636255682642836
0.0574820690978244
0.3276411701429057
0.1753806571805444
0.2906821326792034
0.4829385643867068
0.4754295154989704
0.359972556275599
0.0788288829785942
0.4969435308635637
-0.1410451931613285
-0.1448833836348929
0.1386248296327724
0.0982611159287997

0.5081662927110452
-0.1273464094091945
-0.0785228669868313
0.0718830612118678
0.0705555169479325
0.1055280517607879
0.1070761444145379
0.0465335499595074
0.1777181747115082
0.1706032273731572
0.2577952055255791
-0.0780853904719176
0.445108510968084
0.1966020112422127
-0.6089664423017327
-0.0442061513126136
0.541230810216837
0.2334938648301568
-0.1179980352586136
0.2431515848689516
0.2617736675715144
0.3255402254093025
0.4137204928649964
0.1183911262224106
0.2899236923232458
0.2004835895062482
-0.0615480819453391
0.0415256377962894
0.2215916940438275
0.1123802513138447
0.168660143212131
0.2279399732489374
0.2646740593159916
0.2433648481947772
-0.0345051809014057
0.271617091108722
0.15596874611884
-0.0409855126357603
-0.2551664679656186
0.5610249339489423

-2.2417248068148656
0.5195953419408633
0.2873525854893403
-0.0699210867829093
-0.4474360802486097
-0.4740064666230862
-0.1693637591614772
-0.2826650228955552
-0.5672286405012188
-0.5080681131522738
-0.7579473273496987
0.3204751928166856
-1.4125152467667523
-0.7206462622858225
2.232397768824206
0.0580544007665266
-1.8009719498565817
-0.2239057970384331
0.7868335166130437
-0.8765405287576935
-0.3316227320871123
-0.6704327984790772
-0.819732243578804
-0.2660520593800869
-0.4554205189886505
-0.5955991588333741
0.1580702300304448
-0.13665448556702
-0.6252730642546298
-0.4035658899243875
-0.6045442169295131
-0.9454543697107428
-1.0398488942986268
-1.0849702016317986
0.3381513241335397
-1.2075690636931289
-0.7271711794417696
-0.0821089995191464
1.5159470775063415
-2.609300734957454

0.0015744896672512
-0.002956878981813
0.0001956572183577
0.001665937580132
0.0010938383467098
-0.0014778119082037
-0.0016884599548974
0.0032322079491261
-0.0028676394613661
0.0029531548861834
-0.0058744263546002
0.013264987439524
0.009999285398704
-0.0658041592598078
-0.0342704924921183
0.085814598201583
0.1341297632990553
-0.0821749418622285
-0.3508092718182295
0.5962136572419408
-0.5722922122736056
0.6219892252998431
-1.1894344471234242
2.394169750308813
-2.2808091125035395
1.5005873946474049
0.4491704028181652
-0.3525296768510208
0.077749834407232
0.5412121518121062
0.2133251868327234
0.5266699100510193
0.538167002254087
0.5600449377929875
-0.1622527317246062
0.5946016945151467
0.3804412056992227
0.0730697719683601
-0.8622513572415444
1.413057001577328

