-0.5017030950571945
0.1246492453056603
-0.1867616417989323
-0.2362429445322506
-0.2155620132503127
-0.2108918026061046
-0.0491886631676564
-0.1702287451375789
-0.0448218068580761
0.0423032514402385
0.0001651705918943
-0.0616214052756548
-0.0310362359371088
-0.0140616623074337
-0.0221596542883417
0.0151352111274394
0.0211050122367388
-0.0829117001360551
0.0702691435532109
0.0920486146983463
0.0157146540738749
0.0117048106364816
0.0518279475355
0.0828910276209519
0.0945965318278175
0.1489714712084602
0.1785769332601263
0.2590092020357141
0.0285204345867549
0.0021283704859665
0.3670068387976238
0.1545225308433717
-0.0965250335383873
-0.1038473367769202
0.0138159990740209
0.0661630502898528
-0.0192813923853443
-0.1539843762677278
-0.0867567204292146
-0.3869248383390894

0.2930021713513254
-0.3377773632382576
0.3979291001154257
0.1933947573324454
0.3046521621824898
0.3796103850118822
-0.0580616561076206
0.2546572917677855
0.398527000089491
0.0462967289420634
-0.2897970381212144
0.4151986065747272
0.1524372008707657
0.1534421341481931
0.286934161731022
0.178319902219497
0.3999645124502363
-0.6490051039652807
0.350155325112636
0.5903709182515949
-0.14816568404778
-0.1762243911945221
0.2368806073276015
0.2705367376350267
0.0878951002795962
0.279878163721644
0.2530696611724814
0.3607673830610104
-0.2836300167439991
1.5308842655311103
-0.931463302462999
-0.9414778475801292
0.5526464115341275
0.6265578539153662
-0.0914333308783822
-0.2971358388562776
0.2508073833903728
0.0632364294303001
0.0889433554130169
0.1753250393977486

-2.2645926912659062
1.6438923319978296
-1.575203096424405
-0.584889968520101
-1.0435464601297852
-1.0507508979685791
0.0332233848028573
-1.1491416674128698
-0.29947828819999
0.2892526426991482
-0.0209104818249316
-0.7158674834084968
-0.1827161254035295
-0.3666098469040524
-0.4887856749815293
-0.315042021412956
-0.5853351143087284
0.5645084718455976
0.1459735707243079
-0.6666576733464172
-0.2665453296566659
0.0221541046133873
-0.1469362011618453
-0.3933536818992822
-0.4130600981449324
-0.5934557742586862
-0.7466881032887321
-0.9718298447811948
0.0671568086622846
-1.706221612814352
0.436187812436441
0.7663335941293021
-0.3825936659966548
-0.7325342336430744
-0.3910942900317507
-0.1718805855527766
-0.3597496301380221
-0.907063445573538
-0.6171254980647193
-1.3797141025430064

-0.0945434964781528
0.118965938702374
-0.0609277591138713
0.0190182112959918
-0.0055316766304774
0.0025818592399178
-0.0030461292297308
0.0035797220358
-0.0009287639131738
-0.0023069796903595
0.001481767069204
0.001463352729172
-0.0026157193108626
0.0022604749861455
-0.0022664520581695
0.0045557783575415
-0.0100801441274911
-0.0195049567392372
0.085640549923932
0.0402202976550307
-0.1089651527786688
-0.1655440506583569
0.107391423400636
0.4466827026696209
-0.7861303657169918
0.7934636395153417
-0.9403431014947448
2.111419754805564
-6.665491564553889
11.939583984543772
-5.617157114950753
-3.0698298644649387
1.097090416520066
2.2376209791308224
0.4140007172441646
-1.0285880203513906
0.5728282042473308
0.5459656263832994
0.296906237237966
0.8501917975416569

