0.2151117802493326
-0.170505541633688
0.150973452241284
0.0757326698545752
-0.0088148275657352
0.0120116722148072
0.0679176793379024
0.0761323961936268
0.1017570431041492
0.1453641717962459
0.155864324887528
0.0369474685060446
0.1048873102123924
0.0593525248667769
0.0169723744742437
0.0649886443484818
0.1095554748114969
0.1468720437126167
0.2170548653179896
0.2971951923283593
0.3634569031814532
0.1584407309845882
0.1638855875024853
0.1635310845015495
0.0490770857582514
0.0267600845929691
0.0950009309697403
0.1727267872221055
0.2127831992872464
0.2262908361306371
0.3402570775854223
0.5007051537553683
0.4578922572295095
0.1690549205580427
0.3213934592255918
0.1921999674414711
-0.0290091437851251
-0.1076893162537085
-0.0364291243897044
0.1429716234194316

0.3677896779766376
-0.0505894522100696
0.1432870437338337
0.0884987969151965
0.0166927960234875
0.0572308424164386
0.1218200114022747
0.1089110385617914
0.1556608973342209
0.2147743092823948
0.2074250009962768
0.0498281639565549
0.1908756342975378
0.0655715560354874
-0.0988359665460624
0.0918148162707866
0.2310280188997238
0.1655032532718559
0.2384760366456374
0.3527181288285928
0.3887371275587408
0.1685319675272773
0.1811538164981798
0.1934220383656478
0.0686834598654713
0.0198822007967258
0.0628244150950051
0.1311247809253878
0.1532684068691096
0.133135450928328
0.2008610397244057
0.2375645279658891
0.2631472798378214
0.0812303595717621
0.2018052284191852
0.1469692441381729
-0.0288401481641852
-0.1257569434524983
-0.0242288091724661
0.4428395934214525

-1.965895347401545
1.5799334469040274
-2.544675739092613
0.0475166158486146
0.8553630860521974
-0.4753277199997789
-0.8818224757587177
-0.0068100381203612
-0.6815976371034201
-0.5617866267035911
-0.7374796702329449
0.3247934281181052
-1.2932663799012836
-0.3315022188534482
1.5358209065841408
-0.6862070907222083
-1.0011104289796957
0.3736100154190579
-0.6595141391391335
-0.5327848729350042
-0.753439246438039
-0.3323716030144733
-0.1145653975744279
-0.7793243451533646
-0.0126868516651848
0.1695866688801557
-0.2353482774810147
-0.5459396925368019
-0.3926506047510951
-0.3603803678170407
-0.8329985595650644
-0.8787092512197701
-1.1746845066043816
-0.2352666147468589
-0.2646914039934483
-1.4803142216704477
-0.4530503147351918
0.9988790112215956
1.47389529722603
-3.045519069075646

0.0011546389781351
-0.0048412855715165
0.0080435008576239
-0.003177238288277
-0.0035331107341827
0.0025135678835648
0.0014259211842378
-0.0023443701605169
0.0016976070335466
-0.0016523289015995
0.0033049246212663
-0.000408195974731
-0.041778300346155
0.0382163202161846
0.083436251767963
-0.0576426122093996
-0.2125795876419487
0.4206980716967168
-0.4647411818603424
0.5893904280682837
-1.482075018048937
6.6565417859799405
-22.901722231178024
25.7136280224897
-1.3744721811086449
-7.572624310316939
-2.485372632921547
3.465205300113815
2.09812939372323
-1.9562703655914369
1.269412653682159
0.2330469891553895
0.7003374626067791
0.0647197865989889
0.1613944152199027
0.7883006203895727
0.2431763133294171
-0.5502453455771257
-0.8668702104754825
1.6935543749828932

