-0.4191303571644936
-0.2097930029571008
-0.0060185962834542
0.1957848684251703
-0.0056431954654544
-0.1657376104340442
-0.1346920190089856
-0.0135553510338398
-0.0658357540663814
-0.1428335045936409
-0.1316962827626953
-0.1592625460572747
-0.0310171105576114
-0.1440387265978073
-0.0772097278566812
0.0698562320458027
0.0636268009958101
-0.0791058494480292
-0.0352727276975869
0.0168250278282252
-0.0186664477114727
0.0096000873654466
0.0221651605937186
-0.0196340351674408
0.0401053842001195
0.0251178604046378
0.0111435955449459
0.0145867096303665
0.0365628136714039
0.0637338294054709
0.1052878726427815
0.0889968515368744
0.0204953019167347
0.0831770162649556
0.0481691476983461
-0.1660965789080532
-0.1123304145541394
0.160175848641125
0.2678393874959674
-0.753934470596863

0.4305109823907991
0.1336171227641528
0.0286503464852198
-0.2394426515811219
0.0730176562431517
0.294215694894598
0.2510019930615851
0.0779695542827216
0.207417044713777
0.3979145151482455
0.4407238821376959
0.5513276444604717
0.1671072709212993
0.3575571906869291
0.3192354653961781
0.0021432088575152
-0.1009154048756684
0.1691704763498764
0.2458487138961446
0.1298338520498002
0.2453590742212807
0.263131586399879
0.1955973760533949
0.0774619126438788
0.1518404829930175
0.0382285680181492
0.0352787088689015
0.0528491414697316
0.1158500759075911
0.163227449542869
0.2251632102285218
0.2996925631553085
0.3230023748829543
0.0129669484989682
0.2856086995263396
0.212414257941058
-0.0155080914969174
-0.1747667855735185
-0.0957048624692981
0.638927576338935

-1.5686312973003589
0.7023329997289857
-1.6932253642430564
0.7947200319354595
0.2738300342997501
-0.6632881293302181
-0.686508532922518
-0.0315659859558562
-0.4645896055509882
-0.7021010519140599
-0.7398812965975684
-0.9415791102487334
-0.1543861930372382
-0.6778288362658585
-0.8696471502364909
0.6559091278979322
0.3694935875477255
-0.9579699182841228
-0.0861376761492445
-0.3098161359553414
-0.5358988031219264
-0.568745724010277
-0.574600880288622
0.130185768871205
-0.8036925547885155
0.0117722236977649
0.0227979785069954
-0.3067190373127872
-0.5390129574381551
-0.3623009977840836
-0.8436783073989216
-0.9155566952326144
-1.157835636175663
0.1341746314839992
-0.7954651248091847
-0.9430032942959404
-0.3306214289587059
0.5741782705298225
1.3700447757279224
-2.780479245475349

0.001468510254152
-0.005875624612268
0.0073518186610224
-0.0003432889901635
-0.0035053413565763
-0.0005738265847624
0.0020304411977711
0.0002630141568836
-0.0010912427765902
0.0006155663067909
-0.0002796940433145
0.0003046345111406
-0.0009922523419013
0.0019981446522418
0.0013869733049081
-0.00454100158773
-0.001197010016848
0.0054561288995831
0.0003491331252868
-0.0081998083515777
0.0146581599957276
-0.0333185371683868
0.1366754748006331
-0.5764423746256125
0.7268121323400492
0.8274761396187612
-1.311673246092228
-1.8832807217251817
4.883246306773882
-4.689300988210982
3.095087520259789
-0.4377499070640037
1.1028859021878246
-0.5752885851521949
0.878806215123106
0.4853769573076315
0.0397763949175851
-0.3632367449980082
-0.7255219964721566
1.5652935636255658

