-0.0018368490651679
-0.1381256242178737
0.01784491971276
0.0376036726890962
0.0186008104254256
0.0062700861256741
0.00278415766572
0.0016502255947173
0.0208820624832835
0.0459785134847636
0.0606309365042122
0.0849524387590726
0.0363938095857371
0.0448550223113283
0.0423493033806781
0.0269950325038309
0.029947459765251
0.0760739081620277
0.1294922842141638
0.1424894278068276
0.2211930282731779
0.2865978220307703
0.2200463899194044
0.1141262592080294
0.1300678863655259
0.0757254889303553
0.0695199377349082
0.120240693149724
0.1830361656222328
0.2183364769485263
0.296415013268411
0.4430535899593267
0.3241770509687601
0.1713284489806463
0.2097737378907231
0.0792142811800294
-0.0343922973709803
-0.0638009080750232
-0.0430045244892993
-0.0494637280069027

0.3486425627431331
-0.0026459758991501
0.0603545343960153
0.0404954196986672
0.0217205869050185
0.0572213005438211
0.1021232482411823
0.0740163883883908
0.087398820077567
0.177856953811419
0.2140188239693428
0.2364425983911786
0.1421825131846122
0.1346072910045236
0.0052260383252966
0.0484301948795619
0.1609674124555077
0.1905573221746881
0.1879068410839
0.2730481898700491
0.3714669442816863
0.4739677616854885
0.3479302513199643
0.1952364790882079
0.2381815539302099
0.0972608968888034
0.0518873422579988
0.1250431991005938
0.1934599712341102
0.181889778928797
0.2369522030710285
0.2779138579838535
0.252746676662138
0.0860175344208474
0.1991117875045783
0.1103775080192166
-0.0285461798425604
-0.0917097581828788
0.0002299821237345
0.4163339983974763

-2.02201905978452
1.660851249430337
-2.0559563208275544
-0.3166046774763726
0.7409545603527669
0.111647426025319
-0.8153935691395932
-0.3478755702613232
-0.0851324082827181
-0.6243552872171387
-0.5226942834959882
-0.6925335607439547
-0.0167890682600931
-1.2257734601196597
0.7590658043344655
0.2028394274008991
-0.8603369454395469
-0.2523050329912967
-0.0171577365531447
-0.6734123327823172
-0.6286166807250809
-0.8840839314435313
-0.8301908807929903
0.1639498300365878
-1.246528789082964
-0.001970715531815
0.2128074829319196
-0.57152522166026
-0.7055190175682807
-0.4106287660111728
-1.0105535438811484
-1.0714702225853534
-1.3303155279696015
0.1553570493059837
-1.0087332237905475
-0.9776765476568406
-0.2593235517013429
0.5999836725332153
1.3522217764939832
-2.8565187322548686

0.0015265784066363
-0.0059271814860911
0.007170784289438
-0.0003561203584993
-0.0032330520329278
-0.0002750073397003
0.0017575324083974
-0.0005514809161441
0.0002688896492431
-0.0004928174358683
0.0005736076366543
-0.0003853568857929
-0.007685025595854
0.0564247210367722
-0.0641792776667427
-0.0888567566602763
0.1115128980012199
0.1963482048811597
-0.4710555080447249
0.4974514615244753
-0.4904400888069238
0.8285129914141263
-2.4233161688638973
5.049532333421862
-3.779839066091349
0.117779139972306
1.4186226641092876
0.3193241867618747
-0.4689909887979628
0.6632079755951491
0.3608415697512546
0.549545261957517
0.6254115631271129
-0.0649435286109002
0.45355261054884
0.4952775432984378
0.1649176224323768
-0.3230411276725742
-0.7805059495279888
1.561940728914912

