-0.2847536925541014
0.106272978489352
-0.1802850846332253
-0.1625264091325958
0.0719501524247615
0.0894977598381485
-0.0451412104554411
-0.1141956388479475
-0.0076090103862848
-0.0311699554005322
-0.037238906686144
-0.0142134751335082
0.0029647978529762
-0.026790215880628
-0.0134822456997734
0.0469413421157002
0.039885124861303
0.0200032058611157
0.0849220430532355
0.1038703910950553
0.1548876040997789
0.2095907881826715
0.1764428036250371
0.042658436848825
0.1713305077345805
0.0515026058397733
0.0106852630336856
0.105501715636199
0.1673208553011946
0.1627782482631597
0.2667316426851318
0.2920160041885486
0.2469119776202302
0.092427623243524
0.1841034877691258
-0.0001225418244696
-0.0508438038571905
0.077071842126557
0.1309069006489413
-0.4678808561176102

0.7036982490668647
-1.7878042640681466
0.2798480540010635
2.583487609359245
-0.6429522372007191
-1.3075217467150644
0.2228771333808817
1.0920950572718269
-0.3118166611037473
0.403292540162836
0.3051288594410316
0.3598648844471821
0.1527990181328058
0.218973888757046
0.0022874416061287
0.1492186038641856
0.2605703249235659
-0.7279335023689547
0.7573695649213523
-0.0632599718709311
0.3180889859033023
0.3074855365205589
0.3258325173095466
-0.12609982391043
0.6875771789363565
-0.1112464784665451
-0.2810583808742735
0.2931898855913545
0.1820582732815837
-0.0102832623694709
0.0979806065794493
0.0836045595920099
0.1311009532095381
-0.0224288270159584
0.0721147684077247
0.1419997398531317
0.0618276747644631
-0.0841992072860212
-0.1962084377658036
0.3607739751620532

-2.007584099321356
2.403492457684293
-2.304901868156355
-0.7483417621968446
-0.0319101603192582
0.8691303569281366
-0.3566475964526447
-1.187057969724652
0.0199479924014784
-0.7253265740184539
-0.6773657556920448
-0.7433566180212491
-0.2500730069916299
-0.6396679955060492
0.2234235516544184
-0.2447873946502508
-0.6464039715552063
1.4822849861868954
-1.282087941477249
0.1086891746219302
-0.5305112990439494
-0.5524870679129543
-0.6422658268735162
0.2772265254615895
-1.1582624166687694
0.0171422272844832
0.348376212374633
-0.5349909380698507
-0.5820873603749288
-0.2353805387180546
-0.6864773387638882
-0.7396140421668864
-0.9904286370162668
0.1159360880808175
-0.5498006966580713
-0.9405580596317424
-0.4563365225729711
0.5425620789623076
1.4415914632588769
-2.751861330256361

0.0014616086879897
-0.0058745979834356
0.007371407383209
-0.0003319467713889
-0.0035219193546
-0.0006101975019487
0.0020223274456245
0.0003309665635179
-0.0010902879245989
0.0004916003270195
7.347218785765066e-06
-0.0005339694948882
0.0021025784417941
-0.0030743833355824
-0.0029761931994104
0.0012904396260675
0.010392865920411
0.0002440776929949
-0.029689671235031
0.048135573508653
-0.0613788649106861
0.1218209118407469
-0.4467761910331324
1.5209476203751644
-0.895625192923828
-3.3145610334583653
1.6998615291054124
8.43625212463366
-13.758586591970303
9.644399491021575
-3.128839405471941
1.6783459680099673
0.0975501238885524
0.4805227780640048
0.0260018614685847
0.4834778066529962
0.2852448521236548
-0.2711886041737707
-0.8246430773960467
1.5484556455253131

