-0.2217487073137653
-0.0535202468616577
-0.1885007047830136
-0.1695592428856678
-0.1074700717486673
-0.0638195789581899
-0.0647797509548736
-0.0247538637910133
0.0231623983751689
-0.0088929677286383
-0.0394893299647898
0.0059922080539591
-0.0003942823548515
0.0173217596376815
0.0368006078437091
0.016085882133484
0.005353314420191
-0.0308851819422297
0.127720176993381
0.0888482315335665
0.0029917959406914
0.1337620599349693
0.1558156990437511
0.2172314834886148
0.2734499608607716
0.0941260741652271
0.2173545811680744
0.0939274191139631
-0.2105716765344273
0.0185087324396666
0.524231844060301
0.0266043270637018
-0.14466190993411
0.2433940786661809
0.0750682229926814
0.1015370085632766
0.0636027192841764
-0.1784891927988214
0.8941316393897241
-0.9701833743477428

0.1274090127217672
0.0275960488253074
0.2514137155016367
0.3100592306633067
0.2660242495727461
0.0354183986669987
0.0446631792758402
0.2445062242710554
0.1981724936494538
0.104240319669556
0.0137655930845396
0.3172193955586778
0.2150391443702825
0.3062605454377822
0.2500942858955899
-0.0637222917972783
1.2002907140286248
-1.6057637625767025
0.2814124589531604
0.9767763365015448
-0.4020338194708233
0.2188021521470254
0.2842465672217498
0.3077399210797958
0.3324586891630173
0.295245497141197
-0.3312105962068498
0.2198311406407744
0.9009506173410624
0.2505845743045586
-1.5511678608838566
0.2564148772358704
0.948447443028118
-0.5369294263030739
0.273116140453619
0.066305225176194
0.1428539935883489
0.0610018989048599
-0.0506626248643922
0.2032282949172134

-1.351201856176713
-0.0336533129135594
-1.154040601922267
-0.9498115937712108
-0.8819637469122068
-0.0663176050778132
-0.9578530260691724
-0.043995495704166
0.0910609711992551
-0.477972288640104
-0.3417525905322958
-0.3684200832811545
-0.5256421870767632
-0.5453201431028828
-0.4898547004859767
0.2804031942608632
-2.616612005616992
3.027286533901236
0.097704942936915
-1.9657056414383915
0.4333536010939841
-0.1232739592524995
-0.6506627586385736
-0.5993096232823866
-0.7865900235623978
-0.5546530336686741
0.4243407252214033
-0.6763204842147458
-1.234497695367858
-0.152138960824827
1.7303522453298024
-0.7949190078009928
-1.326082421560847
0.298439010951152
-0.9257872031479366
-0.7861553863361357
-1.0154020712965226
-0.4637140835771561
0.2366522504684465
-1.453712913969043

-0.2832479148149429
0.2629400895717024
-0.1157880294078633
0.0462970888207716
-0.0328721324994965
0.0349061367302811
-0.0161336978424405
-0.0083211987554802
0.0054320432252784
0.0052763397740594
-0.004492433807531
0.0009610351719182
-0.0001617792396927
0.0005314808441711
-0.0018257710492315
0.0036760024324174
0.0083706221738368
-0.0182778124541507
-0.0176611884748041
0.0302624885287144
0.0460567974362663
-0.1280365757261687
0.1610282391525667
-0.2204693853225651
0.5810232528968922
-2.7691423858832365
8.962549035944537
0.487062483271137
-31.269109340882235
30.89169536420741
0.9745230070182423
-9.016871288531426
-0.3130923323101595
3.666996773879734
-1.234735791882421
1.0505797863635464
0.2915200492130156
0.6873084165286798
-1.0036524057422471
1.4896246670636744

