-0.4145565776746616
-0.2226806885133903
-0.202196312806124
-0.2011484770915289
-0.1278666418917364
0.0570608343216076
0.0272565803849925
-0.1144261143065347
-0.0906034846678373
-0.0325868884043151
-0.0851407133723015
-0.0762522839987363
-0.0498953698638993
-0.0256670638157425
-0.0642442129838143
0.024183705952571
0.0345911046381563
0.0108895239312786
0.0535576545086318
0.0564569285768642
0.0938762432022498
0.1357812908915472
0.1806542499007064
0.0638227672782757
0.1025753844596905
0.1112146091042449
0.0051283825513159
-0.0216195196045113
0.0270404026256161
0.1302687054604525
0.2101916376014995
0.0199878135690386
0.1439030938667947
0.1005934480356696
0.0947941670591903
-0.0938764936658437
0.1524383604287281
0.2837030612292451
0.0556918998580014
-0.7866870971322453

0.1480574309484632
0.1456914485179251
0.0966883549058053
0.2508912021228925
0.1324833704899617
-0.0487072260339358
0.0275118271258105
0.2348577196939316
0.2145030969497727
0.1736857451603984
0.2846087499400793
0.3468261738791168
0.313366463592298
0.1020146579886384
0.2464284101271084
0.1123011669895094
-0.0881510841644579
-0.1590719550213244
0.2883596817352046
0.2153068395860707
0.1801700948388235
0.3636810458466257
0.3931622064779337
0.1751662492541683
0.2671502508125086
0.1279183823279385
-0.0468222510137312
0.0350172945597097
0.1583069835453998
0.090785984136463
-0.1287142072811267
0.0999447411840448
0.1017014492318426
0.1019611559362258
0.1242979005360253
0.0659937621038457
0.0631189980104678
-0.0202394592915843
-0.0268207721506919
0.1885166988244783

-1.33112793558878
-0.7364628319277126
-0.8187712470861984
-0.1834635253411165
-1.3569731351836194
0.4607939670403365
0.3354074466120323
-0.9154457657218252
-0.4128299449035097
-0.2924986505889474
-0.6906401367668463
-0.6609762598496319
-0.6988092188783411
-0.0380852031560145
-0.4801793835011502
-0.5482181821168983
-0.0052711252057447
1.48368285173168
-1.5630331667319062
0.1502372629338816
-0.4512031169178565
-0.5997565848588321
-0.7975929374712273
-0.2277277251344697
-0.5920717485765284
-0.617264583474545
0.6393505913446063
0.0725136631965199
-0.9933247094499892
-0.5616387057452852
0.6145268317505983
-0.9459787926667024
-0.5199524442591854
-0.8389445648679089
-1.031995302650145
-0.0103274152753025
-1.6087174962837991
0.2674101841668049
1.946099161831899
-2.6931982117148947

-0.0069140244934555
0.0038624874731735
-0.002337864693002
0.0007939581912974
0.0024571730653324
-0.0024951328891537
-0.0010613187733421
0.0020439360334628
-0.0004086178314835
-0.0004799232732215
0.0004754829603714
-0.0005337981387722
0.0014878020142356
-0.005696650799355
0.0090468953131426
0.0035842477857822
-0.009881124504779
-0.0086523308346298
0.0149406544827788
0.0046719062980474
-0.0260636177317017
0.051836791052178
-0.1650039091686963
1.015053305195452
-4.404982230442869
2.652474467807657
8.576405862009725
0.2754424828476274
-27.99178328027286
28.49772559984976
-6.942750939925475
-2.258522176903837
2.464704646208164
-0.3020686094398263
0.965822034274673
-0.3401450658399352
1.3344724398802603
-0.2816142694333166
-1.4312268049189518
1.804642063603396

