-0.2183417804370881
-0.0409177743161868
-0.1079373269115394
-0.1634992847679423
-0.1432523576124483
-0.0853734649510765
-0.0638440490078161
-0.0664675653537539
-0.0087129351432014
0.0192948243555433
-0.0005610037682648
-0.0192107404323673
0.0024822145179648
0.0191687428451392
0.0307211089434806
0.0728390023309277
-0.0048412674988963
0.0111346852733521
0.0782423602085764
0.0706691568137701
0.0407057877198404
0.0710816971292946
0.1247577288561971
0.1683466286122614
0.2329099158946915
0.2770975656948943
0.149930311799247
0.0683708809252866
0.0466870372427023
0.085237889322085
0.2107470920219185
0.0910724275047815
-0.0069195918111038
0.0511473097799252
0.1112517270684708
0.0609603110079554
0.0546070350540788
-0.064450900160613
0.1789852251596511
-0.3541261392584231

0.1294603372467153
-0.0815132190701492
0.263575633681739
0.2693912888692867
0.2928477129314946
0.3655362094608493
-0.2929636126312702
0.4809276099616647
0.3595035180572097
-0.0281655450537109
-0.2419714919003122
0.4747830222660652
0.1046791013306565
0.2153841726073035
0.2924764900330606
0.1143194040706813
0.5236778428615192
-0.7738246088347509
0.2333656850319917
0.689642415742626
-0.2564442263458611
0.0196854655342911
0.3431451816074525
0.1807427055620571
0.3243888744658563
0.3321512512225132
0.1685749310712432
-0.3782767364820109
1.202897829697257
0.5820241813798073
-1.7893355943336189
-0.2263928187090403
1.2102044095719486
-0.0899920034656529
-0.2765917561847207
0.2914663414537067
0.0355514631365973
0.1784128067815741
-0.0423731830673118
0.2032757899498413

-1.334942427853869
0.347770528642318
-1.046712641561505
-0.7752002943458062
-1.0862093500025791
-0.7893422281289016
0.0749253130117106
-1.228964239856597
-0.0747453077776193
0.2284392696530633
-0.1869612226664621
-0.6519064194271852
-0.2070788110300218
-0.4365823139589241
-0.5231823646245866
-0.1599943660488031
-0.9626787588038218
1.105206903642245
0.1988748825951873
-1.2043190422996832
0.0457760938476079
0.1398645603400958
-0.6071322540912629
-0.4356934696970516
-0.7040548440868198
-0.8355454643137371
-0.4130571005234872
0.4230226464108407
-1.986492273733527
-0.5906205552577957
2.2397965788233667
-0.1312340202272053
-1.7315799533668288
-0.1297040837653195
-0.0345307959985537
-0.9776906581843856
-0.7299752874867524
-1.173798306784166
0.0999983083644545
-1.4130727604594635

-0.8011714530055858
0.9707460663567266
-0.4865464433332758
0.1625319965278711
-0.0584526736743133
0.0387127415004494
-0.0382539371452942
0.0173748839276209
0.0067918535382817
-0.0048903132018361
-0.0031108481039478
0.0020280412578032
0.0002105842205024
-0.0004020319981079
0.000292924442278
-0.0010359996333498
0.0083178249234859
-0.0273511947258128
0.0039857406032362
0.0471567883964508
-0.0003768522826896
-0.1111386167959519
0.1516736371870844
-0.128378596878181
0.1268965561106494
-0.2307975842633859
-0.058409213442769
7.994365072069624
-29.352612166788223
28.68742617566315
0.3521065103962323
-8.478199999772118
-2.1196241896878907
4.762026369862687
-0.942998773532969
0.3572735371198212
0.5527996752852369
0.6733202527624247
-0.2955848126694312
1.1748145007299968

