-0.8536846989892144
0.0051587920490827
0.2089052739812642
-0.38255366818245
-0.2875766737271957
-0.3394597460552622
-0.4015973957156318
-0.1114610724469035
-0.246796213442364
-0.1604808493565293
0.0026207957780554
0.0342271147445555
-0.0711885193785956
-0.1336195846064385
-0.107362019452077
-0.0739953995902668
-0.1442547641423022
-0.167418003911512
-0.1782279050694936
-0.057311856826967
-0.1359103003578749
-0.0697944972528396
0.0425423163432783
0.0152589116761974
-0.0696553517990522
-0.0713014452612662
-0.0403142435064017
-0.1035950089181081
-0.0865384542528205
-0.1351561059028456
0.0958487630861663
-0.0073295529809646
-0.1141958792120593
-0.1022214124830414
-0.0908496123722495
-0.1451943520751618
-0.1927204645063613
-0.3757232962587046
-0.3662599111668557
-0.6716523726513423

0.2754787374332809
0.1026816733753217
0.0292048633071686
0.121857718746766
0.2749745528568163
0.3505563317243036
0.3990460793715894
0.1952483574768376
0.1618048912266891
0.1418132461951541
0.1007499541537308
0.0923696108703789
0.1234208218253204
0.1650865548687897
0.1977266793815052
0.2262213743861898
0.2817074575801691
0.3662163008834491
0.3613498790484799
0.2062026886580705
0.1580715750607283
0.0883354735867505
0.0447745612949573
0.0652999391422602
0.1145734977340613
0.1532704725215724
0.1853511615698802
0.2460613304650379
0.3150356090153184
0.2356619291529273
0.1476289098909988
0.1395039679232416
0.0820770556555757
0.0649755517522514
0.0985256041469715
0.1468921857334585
0.1840801753551728
0.2515749289767341
0.2591182889201613
0.3957902217503368

-1.6619134652551295
0.5196528620562828
-0.0315115117632851
-0.8209125327199663
-0.5199145456442893
-0.8402412811692939
-0.9572817004999176
-0.1953993930530105
-0.6128569356326871
-0.6292896172541997
0.160783167672026
0.2222932053337991
-0.2378114007735889
-0.5062682535706453
-0.2924594245386277
-0.1320283428542966
-0.5517756981101879
-0.526180241078277
-0.6932703489078497
-0.1871258547956882
-0.5234814726628915
-0.2237879889471854
0.1652206846004361
-0.2390112558732919
-0.4985384598368753
-0.2781507114697394
-0.5584721485611976
-0.7744133220180236
-0.9642025462997648
-0.8676213677905859
0.0834175542786959
-1.4131552968952534
0.0603617361889915
0.2876479486434224
-0.5428302073627638
-0.7637727412217973
-0.2613889210363101
-0.9547024426265848
-0.7826099430179246
-1.2537761298947594

-0.2642202544566766
0.2708540740649361
-0.01708820133571
-0.0765289393271974
0.0435353325097687
-0.0157480068236445
0.0069733962104992
-0.0060489713146367
0.0042952486597674
0.0016436564684844
-0.0028672431589227
-0.0014213984731776
0.0017918258571841
0.0011024563372818
-0.00210299472137
0.0015727939518262
-0.0010034567590012
0.0007321544561915
-0.0004418738246505
-0.0076727877812985
0.0564895881266259
-0.0642253400238899
-0.0889286544752766
0.1115236222672918
0.1964647589501225
-0.4711066478521986
0.4973511109328141
-0.4902093224749342
0.8279594784784655
-2.4210034935443057
5.039371773964969
-3.7650413552754687
0.1291327813186077
1.392670487232226
0.2957849490074937
-0.3887701864247415
0.5749254377767408
0.4378459934081817
0.4513899797237279
0.8300367164903281

