-0.4805882039030841
0.0540165034804881
-0.3233328835050814
-0.3244578442558198
0.1209918501447758
0.1954597351598434
-0.0190077699596859
-0.2110671609008123
-0.0850015028823166
0.0249315311615178
-0.1008348736426134
-0.0613940866221457
-0.0603828179161555
-0.0024640471680818
-0.0734367531554913
-0.008411819425223
-0.0003364426508138
0.0096432767358345
0.1042621630851646
0.0543307285579705
-0.0114691086330739
0.0933640448759627
0.1203672925453405
0.1531728493427857
0.1983058490608558
0.069602864384396
0.1334233120277571
0.0794184529426941
-0.0428872282583856
0.0589788022590561
0.2655715012148393
0.0126243999925961
0.108320623065366
0.1084742547540239
0.0694621349195614
0.0081705667609319
-0.055722415435101
0.1946803058902559
0.2119773797581639
-0.7500794417867693

0.1804924434435662
0.1414973591336431
-1.0083985599417138
1.9397563979241703
-0.1137429609872037
-0.9645688754675558
-0.0857587621634063
0.8777376054285075
0.1206919400148956
-0.0656083386378699
0.4000318870598158
0.2399858639761357
0.4182679045258518
-0.1142635493972115
0.3543480508679471
0.9307278192444488
-0.3744246855113368
-1.741172349929253
0.9636548612827842
1.119530422042904
-0.6058480847725499
0.2020497709285927
0.3707819527709816
0.2874894391544738
0.3889347492700834
0.1594178591481894
0.1364542933375946
0.0707481260392036
0.2330676536470005
0.2070507366947871
-0.6039483086513681
0.4828677297913907
-0.0517568586625417
0.1292374054975407
0.128910281071214
0.0885357218732229
0.0729990675856926
0.1476956633389791
-0.3008643545420988
0.3356355357413512

-1.5442259295146952
0.0400808700545588
-0.113353831511376
-2.457209575834758
0.562172295851141
1.2385058957862571
-0.2658446735164583
-1.3557437009251414
-0.1664594547409205
-0.0849071774322255
-0.7677335327976086
-0.5259769389604846
-0.7914617420399639
0.1007658970640555
-0.3142576145828474
-1.9573215597165667
0.0750317814037615
3.56717397707329
-0.9044918239210662
-2.3941803034037155
0.6596459616792458
0.0433662271234532
-0.8483013711590072
-0.5432101395194417
-0.879259632705265
-0.3397704733478917
-0.2563624322804862
-0.4288143573200305
-0.3936995540141988
-0.2707576445338244
0.3514934119384988
-0.9390209425487056
-0.3841741088630673
-0.8265571175005615
-1.009285631876551
-0.6656700975451506
-0.5578355694415614
-1.1027023031237415
2.2285408540698897
-2.556323952840968

5.00404528640613e-05
-0.0002544143074239
0.0003985396742366
0.0008589309313697
-0.0017089905103424
-0.0004506263665453
0.0015889550730198
0.0004342488304237
-0.0016627393103339
0.0009692987014915
-0.0001449896882246
-0.0003430443156094
0.0013653779184769
-0.0061199007453548
0.0119211849291787
0.0115226420401035
-0.0129703367396933
-0.0274034455021156
-0.0082548897827319
0.0456550706117661
0.0491377904557793
-0.1642537538568814
0.2103640962842475
-0.2813585811870226
0.6812379436543927
-2.7039494762718865
6.445269015116307
3.972081354439246
-27.06487552225073
27.256615746798182
-6.156596383265456
-3.8389451502479184
3.436233954291966
-0.6172106877255759
0.9595916406704736
0.1620027905523378
0.5735062017762836
0.5260717195505061
-1.4608782147078103
1.635712157779782

