-0.8227449747774552
0.0773374693675861
-0.8077708651096674
0.053156242623406
0.2631302546779728
-0.0198591000367999
-0.2902934432029275
-0.1892349479808874
-0.0250830496650753
-0.1749360964397384
-0.2566693472248263
-0.2583587029367942
-0.3371405625387941
0.0285995496971972
-0.4513989236432604
-0.1533828196970241
0.3660288960727555
0.0673108223725571
-0.2320698791260702
-0.1446187833273665
0.0346018984568553
-0.0564037750586899
-0.1037128156374279
-0.0934925134879197
-0.1038082567745245
-0.0844911502628983
0.0606534651850637
-0.025040221826514
-0.2733912287349561
-0.0141668364423907
0.4240347904744274
-0.4572740994338132
0.0100788208170564
-0.2317945427868016
-0.3089662164267198
-0.1956222373342474
-0.289779916253792
-0.3041674452209822
1.092881097116139
-1.4655490795477213

0.4064269151620235
0.0849106919577083
0.1996419056098725
-0.0461023211363906
0.0128182754174484
0.1344796795203386
0.1873351325374849
0.1232157384996207
0.1311210036077414
0.258792921941702
0.3532009034638335
0.4516250147489469
0.5223287588681897
0.1426812537164632
0.3838333894159434
0.2858809368830538
-0.0481407226634845
-0.1036921510778559
0.0518173391092541
0.194841425310148
0.1641803556533771
0.1082893570697908
0.2230991630892589
0.283235182580726
0.3037652502190858
0.1255135526945519
0.2372784604619524
0.0704454326742553
-0.0736354322889246
0.0769266537414529
0.2208560530161123
0.1501011595839295
0.1805888729063748
0.3007275814527724
0.3361884465082463
0.2596090378083956
0.1722172948189721
0.0573772616781766
-0.0715103716105109
0.3918300344044999

-1.458345515618923
0.186862482952463
-1.4863850830197158
0.0725108507330776
0.4602392279417374
-0.1601442444108745
-0.6781172992531036
-0.3071441706129881
-0.1010685435590061
-0.5084537645471119
-0.6202759581440653
-0.6953032017957976
-0.90788292498462
0.0979574895014883
-1.259278476682503
-0.4076471701077244
1.0063065934670494
0.2110548741422243
-0.7311465619393931
-0.5850885711286107
0.141886338973368
-0.3468568496694612
-0.581822231842986
-0.6094754228053185
-0.8716466422952922
-0.1560178167705798
-0.6941042633007788
-0.546132435323129
0.4907779076228231
-0.103841516367532
-1.2149241326019773
-0.0291921922753103
-0.7847050140843201
-0.8786581328513463
-1.123585889189502
-0.7170793279851507
-0.5767629329185087
-1.153802247522069
2.144291842392456
-2.3504824179269543

5.523125548818439e-05
-0.000274443086593
0.0004279138135283
0.0008959372637914
-0.0017247250181747
-0.000521682246335
0.0015360853300946
0.0005203577117434
-0.0014902932379738
0.0006298541300819
0.0001489172237695
-0.0005630467584128
0.0014511248652768
-0.0037774706314568
0.0001413740605033
0.0138390350397426
0.0022740579817815
-0.0169953198479755
-0.0202649900261409
0.0158886747620962
0.0549034265120895
-0.0927204014814739
0.0830897257789932
-0.0805044992394342
0.1287285226318904
0.037131534425237
-2.9080194215188837
6.604015163436712
4.459518780687685
-24.259392658416445
25.203512808045858
-10.728356473214998
2.7198107951003143
0.171677457006508
0.6378512248264273
0.3723575680255521
0.3237259687586787
0.687310064466669
-1.437352504532154
1.585046050101058

