-0.8205577238051511
0.0115235471139561
-0.6128869561266335
0.2750606167548632
-0.570980286413566
-0.1900617829879653
0.2184224944259611
-0.223424618560786
-0.2766517211557704
-0.2526007984967334
-0.3513972050838621
-0.184184527882094
-0.0579147082055114
-0.3549268784944893
-0.099737546073333
0.1899898384954857
0.149099641906965
-0.1947891149494546
-0.1914877261271025
0.0415099119394507
-0.1196745372669363
-0.1118329873588821
-0.1234917689377973
-0.0733664921455377
-0.0522169098497757
-0.0738194279581282
0.0316444909488798
0.0044872167319283
-0.1022225406642374
-0.0419875908480346
0.0212981309494906
-0.165832537607544
-0.1531039269105622
-0.3058538386588244
0.1247954243551169
-0.2815110327996314
-0.4512512118575112
0.0847303318264676
0.6659263346601515
-1.2414824750113505

0.4015860804843415
0.0495680184679028
0.3340514121216503
-0.1397458912358456
0.1711555833119337
0.2633415856321197
0.1033656408091656
0.1127584187524956
0.3380400580365937
0.3849322674974719
0.5111945370105778
0.304716653177612
0.1281120474737877
0.3289961724005094
0.21260678039022
0.0255332142762413
-0.0705671185791363
0.0688227835208215
0.2138117655921115
0.1839172359985623
0.1639007946983073
0.277215296615027
0.3154072011070409
0.2010765526059106
0.1284383857522965
0.1804717035171852
0.0704317387143437
-0.0256099283846073
0.0572207375504239
0.2066458274186907
0.1905771658062547
0.2473719497159467
0.3407129180610784
0.3213391558571109
0.0857650366349148
0.2905396153476939
0.130744636652548
-0.0975718463496162
-0.1043681396559114
0.5080152178764444

-1.4433254064966188
0.0653854921252595
-1.3721398681291133
0.8815912053289701
-1.4063229468354748
-0.5527868206970061
0.5883513034183291
-0.6170364096837635
-0.6309487089505386
-0.6751061517571519
-0.8725185713015727
-0.5804023789536514
0.1241131519631695
-1.1590514449281142
-0.4457487863299145
0.7351469727466652
0.4742396315127363
-0.7332271544892247
-0.630959885064178
0.1256202201391463
-0.546808848055417
-0.5488339857467092
-0.7077965706469812
-0.5790328711939268
0.01935064517352
-0.7769443420212373
-0.1675166130326046
0.1458638684325063
-0.3718365523110881
-0.6219097036521036
-0.5072027767291392
-0.8855972752969281
-1.003648382051158
-1.1853937497093252
0.1196791251931841
-1.178715937763122
-0.7584656589268208
0.3307742361790609
1.1293687632891325
-2.218083075845285

-0.0028402945294831
0.0017760631471467
-0.0002035757992981
-0.0020314580360854
0.0043105407561166
-0.0012702579876237
-0.0038326154589284
0.0042525306125409
-0.0021752658618622
0.0008973630867621
-0.000607054544743
0.0008577757522826
-0.000344579216918
0.000883028141933
-0.0049289308072117
-0.0015635944427374
0.0072162674674122
0.0076100975128466
-0.0093248155249942
-0.0166160267779411
0.0408395365721238
-0.0612887879451143
0.1320826371812092
-0.5067454929043407
1.7396485667877124
-1.1538897384677285
-3.3279431832266333
1.8800302370922328
8.457171318112948
-13.970686468787804
9.8234713861161
-3.214921061246566
1.7076102266196778
0.0796312518047636
0.4854719713232933
0.0993163549904235
0.5604155674418965
0.0547510607130107
-0.9408830023423456
1.4644868792854275

