-0.0012546384553277
-0.1017720800015278
0.0266860181891388
-0.0099280946214041
-0.0368464919736625
0.006783977021137
0.0248653538051394
0.0103248183653786
0.0172400480358627
0.0423168733503984
0.0555660906245753
0.0871090392725183
0.0591540340805867
0.0336938861980422
0.0414007844508115
0.0169616522848498
0.0032266004770829
0.0419384426252382
0.1011493290491026
0.0996758637802169
0.1095756207717634
0.1649430997951152
0.2437035392652361
0.3063300242234653
0.2078253557275824
0.1220238292378195
0.1369461357312234
0.095536503099857
0.0865432188268088
0.1004825057753652
0.1611923616554956
0.306056668777251
0.2508505836659586
0.3071873333275936
0.2095213298008835
0.1428657036063038
0.1339947684564431
0.0056842996718837
-0.0814553585583379
-0.0955751054424797

0.4446341313910144
-0.1063090709251212
0.2782167870061124
0.1531698961310714
0.0037035345028924
0.2029856586230513
0.1313886666104592
-0.0651788726286497
0.0662185354671066
0.2124132218033292
0.1801787040905584
0.2502397068216156
0.1785714358113613
0.1479934492443572
-0.0470523995973717
-0.0104054040908115
0.1522755394340636
0.1940581485257259
0.1529149264306392
0.1250563495524423
0.1311891567869144
0.3352794663711495
0.3631938998686781
0.4753438189470542
0.2943746834164621
0.1891364056632407
0.2647542880820666
0.0679036782223184
0.0116829528249564
0.0876160248591586
0.1953913063903131
0.1072999781900879
0.2183680737450684
0.2668020686180776
0.2406168627892279
0.1162680032121431
0.2311600127273763
-0.0622486442312198
-0.1617158246114431
0.4709664399281157

-2.1649717510617625
0.7953392633202881
-1.417391506693151
-0.4724363515799296
0.0738878427095797
-1.4004818623926718
-0.2050531607590471
0.9116170397199224
-0.8987635555722339
-0.3611327896421684
-0.5378337579691332
-0.6646848107347821
-0.2720285590628255
-0.7520237677765131
0.4737885468776361
0.080470653649262
-0.770669536000549
-0.0802039698703005
0.299174777932182
-0.7264138300054211
-0.1789838516492926
-0.5867326169435684
-0.7552490175676424
-0.936505248885094
-0.7757079420149748
0.0647759194310238
-1.1689975596093196
-0.0147029113841921
0.1158228591044803
-0.5058241513232841
-0.6782570686850673
-0.5030848852568043
-0.9911275825043504
-1.082752114687135
-1.339052934094068
0.4436678113032847
-2.648927918606861
0.2153896035528018
2.7860637918209985
-3.3466427676389787

0.0399350294603477
-0.0469056698397394
0.0151513793860261
0.0064257257935011
-0.0154261629874627
0.0137111711696763
0.005688474885281
-0.011696304729802
-0.0018340047623644
0.0076233596941009
-0.0046679902593325
0.0045642359452408
-0.0031316306132788
-0.0006335852050364
0.0087744100685571
-0.0014406340347247
-0.0070268849037369
-0.0033778452229899
0.0032591332564912
0.0049090144046755
-0.0006400326054687
-0.0033409541398404
0.0002574373592099
0.0036486387647765
-0.0023378002183698
-0.0006344380663323
0.0071060931228991
-0.0033281135236278
-0.0056646232925289
0.0012638141826291
0.0045549203775053
-0.00128353196623
-0.0017365072176563
0.0003837849816514
0.0026800508126157
0.0107838589538246
0.0087416598230044
-0.0295972423727116
-0.0332193526927114
0.0544910668890364

