-0.0035421974685034
-0.1245469874481219
0.0121809418479298
0.0300521201682726
0.0151883343452394
0.0081375469947027
0.0064215256509002
0.0041283035913876
0.0192758891495765
0.0448993262657793
0.0632946623655548
0.0846428251323077
0.0331754256262134
0.0441863996011718
0.0356961217392242
0.0123222620543913
0.0072586862271624
0.0485230774717623
0.1039911845544356
0.1025776236292728
0.1206538647504506
0.1850119745984952
0.2630785472919082
0.2982254282107781
0.1481298136790281
0.1370356430551093
0.1185840361387776
0.0828783602899123
0.0961654876355775
0.1242185367371549
0.1789564563285681
0.3103731560872986
0.2909132075782114
0.3122013878282068
0.1843521693873218
0.1623966881519796
0.0997164006448861
-0.0234566260968114
-0.080561874521782
-0.0698871486089153

0.3645272411632848
-0.0520733448220545
0.1089837779714671
0.0686551999582599
0.0022866050992408
0.0433472282063782
0.1123546484599134
0.074795281132861
0.0887740683433694
0.1834431059692498
0.2164977767796866
0.2343914484811156
0.1348707258163409
0.1638624291243907
-0.0652127888980728
-0.017506972814658
0.1524026012643795
0.1988911531527738
0.1557264537089182
0.1345521058767125
0.1753091218109329
0.3463676114170724
0.3987249001869051
0.4694648727152368
0.1867354973465321
0.275681120686456
0.1887042617350824
0.0322225896108785
0.0424796163352323
0.1232594350965191
0.188410543169014
0.1274221794952425
0.2401203554092678
0.2792406020493832
0.1835985640989635
0.1598377630897908
0.1695922446069438
-0.0803704540919054
-0.1171247376539744
0.4568453688745419

-1.9996514440749331
1.7127036021332591
-2.3051786240215515
-0.2890626349191412
0.8679677975629035
0.1028616265259937
-0.8875784715331718
-0.3384142902503451
-0.0797722786747818
-0.6413270293636015
-0.5318885542070899
-0.6912288410854416
0.0202745865982494
-1.3278674440990037
0.918680822039982
0.3202419924139419
-0.9292790945469116
-0.2832015728186436
0.308079680848125
-0.6225330449843661
-0.2646138113949164
-0.6597922741155675
-0.7715048629567153
-1.0119169459897432
-0.3061009630421752
-0.5834584649924057
-0.6470018817389247
0.1801471870870295
-0.2031041339965953
-0.6500631316666635
-0.4689007563857495
-0.7108140019709236
-1.0205769125249236
-1.1738364299167623
-1.0951696578363168
0.4656579306755531
-2.607185106391866
0.3208896985214694
2.5721299749928908
-3.249163213424976

0.0304476439680339
-0.0263428806052759
-0.0026713587736452
-0.0005768053415625
0.0012474254493774
0.0048956179038772
0.005121475906837
-0.0005828203919049
-0.0047921142195188
-0.0002661424365338
0.0007121240323047
0.0046038998545831
-0.0093771001863612
0.0077352629623746
0.0066765286345689
-0.0044873689108694
-0.0069693877548812
-0.0014143497184657
0.0044693140877082
0.0035300718352833
-0.00226086413117
-0.0019510576268094
0.0006715484065485
0.0041404337278512
-0.0075866907143921
0.0068773881745261
0.0041849803271067
-0.0059319202809452
-0.0042609969247867
0.0033836013499199
0.003520084588523
-0.0031938658606226
0.0002908808109605
-5.208347019793024e-05
0.0004406327479395
0.0162575790377603
0.0083708470072265
-0.0312996278069927
-0.0343391652484562
0.0541271590547554

