-0.7370635806205309
-0.3413740334982762
-0.4594573771048582
0.1771434144268122
-0.5746487930312013
-0.0900019176733706
0.1633064732673353
0.0499000500730264
-0.21462326388151
-0.2219063774057484
-0.048825891314095
-0.2212571514252913
-0.2400578110238088
-0.2790113466874055
-0.1559042608318524
-0.1491124872440601
-0.1179450194277068
0.0556966809217661
-0.0085239568288902
-0.0978552342445059
-0.0816989478282809
-0.0491863808656788
-0.1055540068743372
-0.1092633790367964
-0.1039790349358253
-0.0581964972579833
-0.003961886797502
0.0376472565048597
-0.2162585663309243
-0.0690343486960005
0.3314445517461012
-0.3616241914179319
-0.0401650909795252
-0.2451089251371272
-0.3215322367100621
-0.0323352518365152
-0.6292695145697333
0.2429350724153022
1.0609979128636615
-1.6512066302442436

0.3801672273270689
0.2226788594036526
0.2382096254276582
-0.007497643454582
0.0974339486612488
0.1321704524895607
0.123769749608861
0.0852822107154261
0.1000384128093704
0.1732123103615403
0.2402475390653467
0.3087694516675407
0.4286376380667017
0.5067764803631604
0.3233238380809312
0.2712551959751569
0.1917125321024346
0.0328572853175637
0.0220863800277676
0.1172735307032365
0.1718356695283562
0.1718043859417491
0.2380827126536793
0.3175629813285514
0.286032920222337
0.1357643524178422
0.1936666330263548
0.0455272595080309
-0.021943248159587
0.0960147774308684
0.1966689306024935
0.1699394193307397
0.2219929759510454
0.3218280542974004
0.338348168856795
0.1993191494084892
0.1223262728442363
0.026455488613196
0.0289380959232071
0.2969222329134877

-1.2871144544859336
-0.6323478782530229
-0.9664183964755132
0.5078885540266864
-1.1649972769088386
-0.352707937937143
0.1672772016630872
0.1854390053728207
-0.3681382023472372
-0.6355372444431546
-0.1546220231025905
-0.5631631777157686
-0.6536440589361762
-0.7622114465800968
-0.4865778019046874
-0.3017984484249794
-0.4677675446346533
0.171666117653877
-0.0165106560487211
-0.4548261180080322
-0.267849025386592
-0.3141768595899065
-0.6174047741980419
-0.6976113629541196
-0.8892997833224593
0.1389938098076709
-1.1761655571797878
-0.1489480135457165
0.5104118284824781
-0.3630338844538626
-1.1332263059493832
-0.0511091360469279
-0.9417122020280436
-0.921393840984578
-1.200161635182552
-0.1887907247155082
-1.5029444918720931
0.0542418418829085
1.8894708266743736
-2.440181935998092

-0.0055233635261551
0.0029982887925339
-0.0016495819582636
-0.0004323179544798
0.0037591356030829
-0.0016073437126221
-0.0027299244709936
0.0005043436342967
0.0021670538673532
-0.0002519104771803
-0.001374734318308
0.0010745927492084
-0.0005671454872047
0.0004590317811298
-0.0002809587704328
-0.0051769398276009
0.0168548646467193
-0.0002984277106356
-0.0259897048776687
-0.0069143060556327
0.0672784021016456
-0.0873266405624945
0.0822341791893161
-0.108613770508753
0.2678762394264036
-0.3279324837626425
-2.897963303866133
6.264562063087829
5.252984832843269
-23.353901616295857
23.45130168153085
-10.353025267904703
3.304950282179436
-0.184798857482841
0.8641205557112307
-0.0865957136727117
1.0680730241915313
-0.1502521831486502
-1.3793507093592454
1.761109866723121

