-0.32305270557644
-0.0503535974567536
-0.1662844560590128
-0.2428494585073005
-0.2250785650571865
-0.1394603775363898
-0.0973488730547415
-0.1080827223667408
-0.018502950233153
0.0183805032399011
-0.0191059171010604
-0.0542359381383627
-0.027707261909335
-0.0225135997576846
-0.0233791446464708
0.0237662153385888
-0.0255627387850578
-0.0192327202073343
0.0695213292217081
0.0678095763342554
0.0228468437039811
0.0458303471050237
0.0965070906550261
0.1283396641320515
0.1783718427795932
0.2114258801284307
0.1279999836077175
0.0319975043540706
0.000675164550965
0.0802335157480782
0.2453781575745206
0.0776090218446288
-0.0599934589766026
0.0080154650004575
0.0747386761377043
-0.0153594802613415
-0.0368301373655844
-0.1770533317330561
0.1663991109961856
-0.4778633729453305

0.1162398966679218
-0.0659260067048339
0.251177599800151
0.2592685409634507
0.2834149115181411
0.3486244655348393
-0.2765657142546818
0.4496956961283219
0.3481495335460018
-0.0160186374677813
-0.2437561199480521
0.466731605125648
0.098411179727633
0.2203104911706158
0.2823592188695019
0.1603203076422796
0.4120362293004951
-0.6411070036528089
0.3507296737299909
0.5010753303204883
-0.1729286106820033
0.05949643107286
0.3390160066830077
0.2155555989588169
0.3566712829472711
0.3697470471182015
0.182387554153032
-0.3447459653627612
1.1795876419957274
0.5805011447720353
-1.7124069488937994
-0.2684164002564937
1.1825566756819657
-0.0588358144464161
-0.2817009299379527
0.2899495901556315
0.0366221891959672
0.1756220530387942
-0.0385926589688502
0.1981585640701047

-1.3161013511526063
0.3906063009801191
-1.022296230539549
-0.8025754974620168
-1.0220811537738166
-0.7803360948059658
0.0947321375241789
-1.1882654257360694
-0.0840814086889431
0.2143311842472181
-0.1641200534434482
-0.6516772272833105
-0.1939979857591008
-0.4449617402705893
-0.506210079343996
-0.2384122541523424
-0.7696214281248792
0.8679566265119376
0.0116336226197742
-0.8884404231537715
-0.0854703201123002
0.0625307595404427
-0.5946604497246909
-0.4965677951541808
-0.7622409067906474
-0.9057332027193616
-0.4435674840948237
0.349642548247899
-1.901324734440248
-0.5616509730845229
1.9989045935462773
-0.0878568891217709
-1.6234952931820996
-0.1941707488513809
-0.0608307338413827
-0.9626190965994188
-0.7434733647977741
-1.1398188836640333
0.0476186180860465
-1.3223461081980885

-0.8011714530055858
0.9707460663567266
-0.4865464433332758
0.1625319965278711
-0.0584526736743133
0.0387127415004494
-0.0382539371452942
0.0173748839276209
0.0067918535382817
-0.0048903132018361
-0.0031108481039478
0.0020280412578032
0.0002105842205024
-0.0004020319981079
0.000292924442278
-0.0010359996333498
0.0083178249234859
-0.0273511947258128
0.0039857406032362
0.0471567883964508
-0.0003768522826896
-0.1111386167959519
0.1516736371870844
-0.128378596878181
0.1268965561106494
-0.2307975842633859
-0.058409213442769
7.994365072069624
-29.352612166788223
28.68742617566315
0.3521065103962323
-8.478199999772118
-2.1196241896878907
4.762026369862687
-0.942998773532969
0.3572735371198212
0.5527996752852369
0.6733202527624247
-0.2955848126694312
1.1748145007299968

