-1.09574602402666
0.4790273750131099
-0.3141796675917401
-0.3537158544537545
-0.3459044453024162
-0.4475329217986286
-0.1342872324144368
-0.2805992521308268
-0.2086420761893632
0.0665612791710328
0.055752137922846
-0.0817431197552573
-0.20091087746774
-0.1003110098684544
-0.0704075296580442
-0.1850997873041637
-0.1661953479489954
-0.2050734946316981
-0.0316380238035772
-0.1311360524797586
-0.1463096888580393
0.0079633004937158
0.1073026795129134
0.0166960041329297
-0.1095046361087198
-0.0785468699484351
0.0063111190039048
-0.0986787757057691
-0.0784468516986665
-0.1090695575300643
-0.0353616759926358
0.0799079500484038
-0.0991429993660028
-0.1130300220210743
-0.1083532904731731
-0.1245946637375254
-0.0880778215718535
-0.3940307222211281
-0.2428372887019387
-0.7341729247724337

0.3654786939101305
0.0355274616882653
0.0719312429109055
0.2520600386234217
0.3170663898807265
0.4008612281925474
0.2081493866057406
0.171259145945455
0.1430518466018889
0.0839345871741095
0.0796333582287833
0.1200261956754325
0.179646701946175
0.2129819862856342
0.2433364390103119
0.3190376745305666
0.3955463766293968
0.3824773268657621
0.1825866268767547
0.2242713908116848
0.111427621170378
-0.0154977647933963
-0.0086993951344608
0.071551461760704
0.12962498459866
0.1326664933430088
0.1383775826182976
0.1906116279411563
0.2705784377300437
0.3056508190015755
0.1560173348075932
0.1719834722822916
0.1247271692197647
0.0539324919766069
0.0600079615706169
0.1154029915326261
0.1591809408426549
0.2160763930996997
0.1971526653546365
0.4097604081318748

-2.1660987350192253
1.5018779886149272
-1.264999249652576
-0.4396697660665415
-0.8831673820430356
-0.9859507179634518
-0.3625608556924891
-0.5317826715229446
-0.6608477728225526
0.199032614132099
0.1925440799685302
-0.3217957161131844
-0.5134916925735221
-0.1987372344159854
-0.285131921130598
-0.5342330483354307
-0.534947148283572
-0.7230050549948206
-0.031844226675474
-0.6620075338941201
-0.4945193193770231
0.4924662015517931
0.2204009428946312
-0.5433627681409334
-0.5540179294976695
-0.0633917727317562
-0.425042545798109
-0.6834561639113333
-0.7903277457613589
-1.0705700941982244
-0.2585082672254998
-0.8645845771228017
-0.5823710878601545
0.38572289618411
-0.2096526247932902
-0.883567676244656
-0.0667520293745768
-0.878252060788917
-0.5709939230670347
-1.3514043635613255

-0.0211526588892868
0.0249873156672919
-0.0109986163193104
0.0023921128867364
-0.0003527447060123
-7.51675674001007e-06
0.0003869927593777
-0.0016125811571663
0.0026362865894088
-0.0012505895637862
-0.0009878708598606
0.0011840357001666
0.0003628472995288
-0.0018533774111441
0.002382673919363
-0.00230605601
0.0027279285442268
-0.0057738761644937
0.0131868559069947
0.0100900663855725
-0.0658902326831436
-0.0343412276838747
0.0858980750763706
0.1343013009523633
-0.0822176052469843
-0.3511970198286099
0.5966792707245403
-0.5725419321111934
0.622008023918978
-1.1888845690394494
2.388400376979817
-2.252090768244351
1.4743432143917434
0.4054731695362158
-0.3090302683673311
0.1718824081501646
0.3388862933222096
0.4159143761974413
0.3360747289673456
0.8352335169407159

