-0.5230772654945077
0.1344328591180559
-0.1355340702764047
-0.2476995463154536
-0.188205997995729
-0.2368960139974278
-0.0605248271169367
-0.1572147642212118
-0.1064780245114203
0.021978892459373
0.0584943182993635
0.0078677732135184
-0.0465866469000378
-0.0421473945193159
0.0120873370340917
0.0108894931459717
0.0267503902224504
0.0686293348221663
0.015858790952639
0.0449991528234285
0.0381722670956717
0.0168645555607081
0.0329548126945433
0.0613981073114103
0.0699171096612595
0.0640950092766961
0.1060013259800036
0.1590119226480161
0.2129428313294141
0.2481212438726779
0.0915477169679075
0.2581826154662356
0.0945524569409813
-0.0777347240533156
-0.0573095129200177
0.0382044331214805
0.0249733523391116
-0.1682602993990231
-0.0753144809162234
-0.3968190321862693

0.1543921165243501
-0.1093999921415439
0.2125762030728289
0.2573046235586322
0.2640032459086847
0.3827945467840455
0.1014515362798415
0.1669745673686354
0.30173282505105
0.1145699346092263
-0.1087143457742178
0.0269127198504726
0.1954263007343804
0.1227672082591869
0.0933693452248125
0.1742147126899958
0.1974853122981619
0.218396691395222
0.0739688967581193
0.1247221732306039
0.1053906615850497
0.0632788977933794
0.1010971081283848
0.1328423237812447
0.1212150819476603
0.0889729929020771
0.1508591001623828
0.2104427828414643
0.209606316836093
0.2012238758997092
0.0586636220953992
-0.0029475056980046
0.0631333803963693
0.0427526114293894
0.0290356352891932
0.0388684761034391
0.0514768579045561
0.1005947656946389
0.076248252425063
0.1817555088547231

-2.564209080550502
2.179520913172534
-1.813465709830848
-0.4394395624936651
-1.0061487743900606
-1.0726860915162335
-0.3812605898017434
-0.3419971521909384
-1.2163839213999794
0.0485368213173031
0.906005122720314
-0.2611852394205928
-0.978049221472065
0.1077214254089802
-0.0999036478038972
-0.3978877707678855
-0.2560799212292862
-0.3356477583630375
-0.082718637393645
-0.0250616728801048
-0.339380932978935
-0.0604331210550415
-0.1251803746356866
-0.291494103825535
-0.3259269270704705
-0.1913115191487562
-0.4591974248258584
-0.629188639077776
-0.7640051426133008
-0.9117087686091684
-0.2958262210592464
-0.3387014518661875
-0.6423929587594382
0.1503779808296771
-0.1535873204926896
-0.7212188001453942
-0.1255502182720254
-0.8784433206553958
-0.5700473608269735
-1.421186827871228

-0.0124267964430815
0.0087773696856682
0.0011272161444954
-0.002714176892522
0.0012499467800424
-0.0004458631184141
0.0002357475555204
-0.000835886910116
0.0027037969440502
-0.0019511229141263
-0.0016720035525195
0.0013825079485041
0.0015514505498965
-0.0014606251164874
-0.0003666972900067
0.0014972520492853
-0.0027161529989881
0.007803045493482
-0.0296988693334662
0.0452780727312062
0.0572780022521688
-0.032007551203691
-0.1183712388452821
-0.0746193286062962
0.1685231000781437
0.2807207866834755
-0.691163108648882
0.7680050447741886
-0.8752871951023649
1.3995434361828922
-0.5522784675391931
1.0121040479895649
0.1612080516102971
-0.2572719387004625
0.0996333028200603
0.4404839443983842
0.131179254475246
0.4443841148463535
0.344626717285758
0.8309338947034501

