-0.0490021279008832
-0.0617135895973539
-0.0019799897533521
-0.0298768700494428
-0.0083636849847552
0.0066623191102232
0.0153656375426625
0.0071883505340092
0.0092008984868462
0.0260800540744795
0.0324244295896233
0.0515926252875589
0.083348167343872
0.1137241496209621
0.0899317715550776
0.035695298266738
0.0363738780457081
0.0407471062137108
0.0916415075683596
0.08733129227138
0.106317334155213
0.1528884678934072
0.2271032472106032
0.3032890932995835
0.3077517661159618
0.1057295219706551
0.1751454420248828
0.1271966756647752
0.079922061073103
0.0633071209121284
0.1324967504383386
0.3375723320331525
0.1942863704518492
0.2990016205851938
0.2375413265100357
0.0986029328704238
0.2004846777397633
0.0981626718740394
-0.0700419358189815
-0.225602031958415

0.356618298026165
0.1872729048304792
0.1778708635590878
0.0976380351203108
0.0999201910928469
0.0554292704592334
0.0303287395875861
0.0043248116597578
0.0333791297337138
0.1179639883068534
0.1258882276928079
0.134544770039785
0.2246767253282794
0.29080172862551
0.1823815236331722
0.0726141968487881
0.155266209005345
0.145343774436548
0.125290236788295
0.1383359416910135
0.1598179688634351
0.2695089920917612
0.3582690628647889
0.4664152910023068
0.4265919777487441
0.2007038154972634
0.2358445792988388
0.1322125750837161
0.0524720939666268
0.0594771001359538
0.127165531982786
0.1384854850724347
0.1880757907180685
0.249755751930703
0.2730275813123226
0.164472115164479
0.0709155127777655
0.0070800550376692
0.0422456238193149
0.2831885686869845

-1.5900171116620625
-0.722197214799998
-0.9950086881988242
0.2973387643903337
-1.3208790432190385
-0.1305412962214175
0.2237912430870688
0.2522585094081951
-0.2014838101924485
-0.8370135113019521
0.0726981542662167
-0.4484355931696635
-0.52044676685257
-0.5715179053896908
-0.4966437838409083
0.3051303855473894
-1.1438480125293065
0.0663983721822574
0.5582113285792238
-0.866002730690829
-0.2648746621526023
-0.4085374971227391
-0.7775206983882132
-0.8945186504431831
-1.0877764687949274
0.0414691590472551
-1.1751065358525206
-0.2284980500790556
0.2411934957758704
-0.3719570484078994
-0.7645402503037768
-0.4257167541802856
-0.8873417936258966
-1.0547190395398565
-1.3243139509427126
-0.2019972081252167
-1.748818991340583
0.1134993950514718
2.3112115456388764
-3.0143811602597563

-0.0055312536770046
0.002939370728239
-0.0014334964792907
-0.0006539557591174
0.0030495108823009
-0.0014108348904895
-0.0015725319081019
0.0012870064169717
0.0008355784498439
-0.0025584694195564
0.0026521463064005
-0.0012604807610371
-0.0004652182543098
0.0039343770327691
-0.027242809210934
0.1579571717983106
-0.2634250774189852
-0.1757542644770182
0.46509547862068
0.3972155202676476
-1.4343328452547712
1.5875088148838246
-1.337307285253491
1.4059668022334664
0.149143332195356
0.4818109113873826
0.2481122774730179
0.1338700384514645
-0.0751592002591369
0.2343476839082169
0.3407817305660639
0.1852974581370534
0.4425506237768211
0.4942473243654452
0.6426143219958997
0.0630004786845244
0.966021973322013
-0.1511672156274013
-1.3535274273800642
1.7622383643660091

