-0.4564549255189175
-0.2076888170041803
-0.2263015616965089
-0.0135196095960993
-0.1593247933061192
-0.0540462018929649
0.0140172698003154
0.0008547710870589
-0.0616683037344406
-0.0871584547186266
-0.068358277197863
-0.0820978181507951
-0.118822008170986
-0.1181677892798234
-0.0586191992954168
-0.0926691197208748
0.0034245577335496
0.0195895261873901
-0.0063006590892003
-0.0127949274036707
-0.0121584296097392
0.0143862666734634
0.0172399505495296
0.0362751943085116
0.0500986183171339
-0.0117974801802889
0.1104684824047373
0.0087693958062926
-0.1200971435282353
0.0321311033893928
0.2842293979109686
-0.1159451341830193
0.0751360964178942
-0.0155911665415347
-0.027642259813534
-0.0905173249725672
-0.0467702378684819
0.2503637401661716
0.208793943700813
-0.8363086663555349

0.4560178367285932
0.2323032520768673
0.3268723886498695
-0.11827418412224
0.1426964454718661
0.2038294623817681
0.1646908027058103
0.0497909377105873
0.0660346908035242
0.2051563798950678
0.2763225155259503
0.3076505957711637
0.4440087023499248
0.5234418370585381
0.2957151363641941
0.3252434182649328
0.1997579989533361
-0.0541219888407413
-0.0142123693292575
0.1574105125007834
0.1501906409961057
0.1038835459597425
0.201665448393528
0.2407331905301252
0.2367163815929825
0.061374374871094
0.2348396816496944
0.018824727648216
-0.0808895965718318
0.0999895450596622
0.20999038089293
0.1254120215397312
0.2146446378769959
0.3071397336380732
0.3270369027040293
0.1944927608835826
0.1790565575423366
-0.0506270093385358
-0.0994028921109526
0.5180407499588094

-1.470795758568073
-0.7055444786235301
-1.0762267058273762
0.5735870128924312
-1.290820604818366
-0.3811941645240271
0.1940245770541406
0.2038715458752923
-0.4006798855991683
-0.6738649128136565
-0.1633756699244469
-0.5890460463373467
-0.6754404230037375
-0.7870939704736117
-0.4490078747014135
-0.4417685725728534
-0.3305061398758052
0.2344199433796865
-0.0602750884457911
-0.4717679060717529
-0.1480958685383384
-0.2964796464811883
-0.513053243197088
-0.5931044316085906
-0.7576542173977219
0.1049220116569128
-0.9614078888148802
-0.1215849593812523
0.3314484107416907
-0.3103736445560505
-0.8758336215326502
-0.1817458216975747
-0.8417147451033761
-0.9060905438593182
-1.1896519431150163
-0.1668683000513159
-1.6242122114408597
0.1715798200672941
2.197492312529357
-2.950552048559402

-0.0055233635261551
0.0029982887925339
-0.0016495819582636
-0.0004323179544798
0.0037591356030829
-0.0016073437126221
-0.0027299244709936
0.0005043436342967
0.0021670538673532
-0.0002519104771803
-0.001374734318308
0.0010745927492084
-0.0005671454872047
0.0004590317811298
-0.0002809587704328
-0.0051769398276009
0.0168548646467193
-0.0002984277106356
-0.0259897048776687
-0.0069143060556327
0.0672784021016456
-0.0873266405624945
0.0822341791893161
-0.108613770508753
0.2678762394264036
-0.3279324837626425
-2.897963303866133
6.264562063087829
5.252984832843269
-23.353901616295857
23.45130168153085
-10.353025267904703
3.304950282179436
-0.184798857482841
0.8641205557112307
-0.0865957136727117
1.0680730241915313
-0.1502521831486502
-1.3793507093592454
1.761109866723121

