-0.4909492727240879
0.1295471780425307
-0.3565118938520126
-0.3236585413527553
0.1104008587039951
0.196358824051793
-0.0002738746174568
-0.1973611171814461
-0.1013745345886463
0.0215686626546732
-0.0891214511606582
-0.0664071712937705
-0.0552493130149484
-0.011790554040917
-0.0763564346179185
0.0156534208220499
0.0341291849753092
0.0117551066329219
0.0587464783183476
0.047424365462212
0.079786090285244
0.1287331120651377
0.1690280039471959
0.1447160272761032
0.0389202671581923
0.1318363483104611
0.0335211502957113
0.023268212526082
0.0847048756059125
0.1255661908162962
0.1680644838341658
0.1579983665112666
0.1757784816579489
0.126982885673437
0.0331582964549097
0.0213675785995364
0.0397556172101954
0.1664473484472319
0.1011101047846517
-0.7089286495720474

0.214438745530597
0.0268945780644741
-0.9370042507305432
1.971541888081842
-0.1277305679963058
-0.9991752495283652
-0.1080227693428707
0.8966197204480293
0.1487256287068137
-0.0977902418112721
0.3970755504870414
0.2491142925035873
0.3734284565923148
0.0537495607674747
0.1543488816216962
0.5066041136738667
-0.0984007178435055
-0.8987571426566325
0.978249451134932
-0.008693552380521
0.1379860947149045
0.3604280107243506
0.3729420723684346
0.3221122056849976
0.0334887726909742
0.5619626502187705
-0.2404776457944677
-0.0816566857169863
0.2802521599541922
0.1340942716576234
-0.098989523097147
0.1658502309935911
0.0855693017361178
0.1612020697372991
-0.0791652661556787
0.2482653761709765
0.1257589312281669
-0.1835915483338236
-0.2271648167197031
0.4064127991844685

-1.641728957298929
0.4893862210507213
-0.5024875208350742
-2.437229295778341
0.6743978193061252
1.316843892727667
-0.2619247475135326
-1.4171685675185872
-0.1920352728359993
-0.021265157288066
-0.7680371720855014
-0.5381795700799142
-0.7115406174779295
-0.1716520538028907
-0.1686380444414308
-0.9589089968192132
-0.0844557772219539
1.882974285801436
-1.4851157366336776
-0.2463022154258938
-0.0991240600069857
-0.6880225359482431
-0.68129899828042
-0.7104690793771197
0.1017903485870464
-1.123467237196568
0.2218880486821751
0.1228428103518034
-0.6592179666361034
-0.467615691754708
-0.2188916013645924
-0.8289078931590896
-0.7913619427121276
-1.141599915996563
0.5023744888431512
-1.7314861939765922
-0.971018509736187
1.2877515376040738
1.7156891670258716
-3.0744949282630114

0.0001444606563062
-0.0007563763219411
0.001649345715027
1.1858190167932112e-05
-0.0020909501869378
-0.0002476787143121
0.0018758164573704
0.0004972234901514
-0.001784244284974
0.0008135707011753
5.973455507109648e-05
-0.0004256038709328
0.0009988393047733
-0.0018818252838734
-0.0041339546796385
0.0141990995022622
0.0058811520116216
-0.0236897551868119
-0.0213787069223391
0.0815357509831456
-0.100130040829827
0.107933827885801
-0.1919492167799442
0.6046987470581067
-1.1776566231090917
-2.5465421655571103
5.929863666075729
6.055776226833018
-22.34240900492307
21.06502017653341
-9.019957453161169
3.169470686637251
-0.2405446235693642
1.0010379645482934
-0.5992281832887674
1.2703107208224775
0.5997759934068279
-0.8859056117339572
-1.1319314419513666
1.9448406991073204

