0.1943555577616452
-0.0719811297287988
0.1138403156608657
0.071574414094661
0.0021871318425769
-0.0077528006165871
0.0201087372103902
0.0415320853013922
0.059657879426558
0.0780857213928223
0.1035059532968303
0.1496949856537387
0.1797754831220535
0.0866676696420638
0.0844059495198726
0.0706046821292635
0.0312045996156363
0.0661279542352382
0.141309630993386
0.1552199209366214
0.2033137446919268
0.3049477795370927
0.3886016485961788
0.3018192675972956
0.1455535316303426
0.1755700709886549
0.1027828540129196
0.0934340409574683
0.1639362805112648
0.2147513579939964
0.2737464573462412
0.4332617992247451
0.4730634374232356
0.3920659646059367
0.1937727836123917
0.2600786049282509
0.0917704823191212
-0.0545773336738875
-0.0637626232804797
0.0709575434735702

0.3962086107139259
-0.0315041593350316
0.2023142813394818
0.1350121407588278
-0.011247145699667
-0.0098070959713367
0.0690861594053878
0.0590986743972955
0.0628530876999806
0.1299440494846132
0.1372582329743979
0.1908957487086209
0.2211140099099182
0.1501192875512982
-0.0198198132356051
0.0735797705128949
0.1634340626399481
0.1219664141850666
0.0986891501908786
0.1803150138951498
0.2178295959696689
0.3313470766639845
0.4086050277356758
0.3087045983050254
0.1499948877592142
0.2266304124667513
0.0737338240876955
0.0320509598164995
0.1088945905632103
0.1475992646191851
0.161625934478972
0.1914017431679029
0.2729046522686914
0.242120610140845
0.0964746644409567
0.2334149046433224
0.0397932186588904
-0.1481082114845862
-0.0657868609946465
0.4552481704456013

-1.8441927674883232
0.641118855162887
-1.8653734045955876
-0.5352482972486603
0.8660538911040124
0.360902983862792
-0.790725177265286
-0.5413764473422048
0.1592715209722193
-0.4289164566017333
-0.4062469348804781
-0.5053616614042798
-0.4794675896164718
-0.4717308761742782
0.2775266392182287
-0.2268334618946582
-0.6999296441301884
0.1509447901471678
0.1960683669581896
-0.8181965724912128
-0.1697224036844856
-0.7249909982083809
-0.7641080654536018
-0.7859116766886589
0.1617290583775273
-1.1397298572696355
0.020501808729825
0.167775676495219
-0.5416602538868484
-0.5818218670715204
-0.4114056070136087
-0.931563297196974
-0.96706288852324
-1.3107179919868228
0.5535237134441083
-2.0239268846933816
-1.045060796568381
1.5186640978175383
1.8705204698170543
-3.42919388771007

0.0001689971470769
-0.0008283727472349
0.001653039890455
0.0002106550100865
-0.0019995973057104
-0.0004646018706155
0.0015181136537848
0.0006048746429297
-0.0009695174489374
-0.0001019602594496
0.0004400482586711
-0.0002245419454551
-0.0007071539534126
0.0113385303178197
-0.0622641167079841
0.0616998867804212
0.0927530506534162
-0.1003434301965923
-0.2038836772788587
0.4525789614630776
-0.4600643440781233
0.4384764998502384
-0.7001354633679476
1.545019959978592
-1.43836812384362
1.8002409839764235
-0.0154913248960117
-0.5353430022327316
0.2955537092422994
0.5711628623597359
0.0805247981456183
0.5365917886257165
0.4932286796624792
0.6843207208246226
-0.3065062405729104
1.0783643689571094
0.5674382335753462
-0.8338977629382749
-1.092954375238079
1.9155676795060377

