-0.4555245794345668
-0.2032950844549974
-0.229643706888049
-0.0389486973721006
-0.1413992415138203
-0.034140590340947
-0.0061619533774353
-0.0610028812099904
-0.1014144083442094
-0.0847620881593459
-0.126481313012424
-0.149223013366692
-0.1293649417708868
-0.0394392248249362
-0.1552658087654091
0.0113673087768496
0.095089052681175
-0.0318579256445157
-0.0648751434962456
0.0164513190417806
-0.0067229676642224
0.0029711803286117
0.0316042217758948
0.0017245528868718
-0.0020890969789314
0.0792731971796703
0.0508581316376359
-0.05125131111859
-0.0987167317934877
0.0683022480370949
0.2623024928531613
-0.1106223851294119
0.0718174879695222
-0.0157311939756032
-0.0171890020671387
-0.1114546494156704
0.0123496302642659
0.2493781179002099
0.1446051691983951
-0.8019184134414904

0.4541466815063466
0.2303852367428293
0.319919020323334
-0.0603200336770645
0.1667403307186252
0.1811958983136523
0.1462918761742412
0.1092337691543345
0.1960031617195238
0.3162562951233822
0.3962066140675953
0.5273634342920241
0.5142973220384738
0.1357433024478223
0.4730069716699581
0.161839137296272
-0.1456988318722362
0.0339456092643922
0.2403333666965427
0.1625909328130899
0.1579016071528031
0.2502561579696628
0.2636533601714917
0.0977538802788931
0.1406832323158932
0.1492115518500628
0.0470148863495562
-0.0785999205892979
-0.0313839262282063
0.1563943022876976
0.1966926366691116
0.1020164469486209
0.2239856631569806
0.2952205751612426
0.3057788716003276
0.1738832685525221
0.1592530652683284
-0.050379603708383
-0.0699045309921519
0.4943636086334143

-1.4648043558222323
-0.6983475302494163
-1.0590942722893235
0.3836961463615786
-1.286718723084764
-0.068475314233121
0.1614877974054513
-0.3608105534908583
-0.6393657710872654
-0.3511430256833242
-0.7670659458185674
-0.8024309568121117
-0.9233297003749388
0.2139229187819917
-1.648298190437156
0.2185379564819551
0.9875306286117844
-0.6545735080961823
-0.6993909659467797
0.1327415595110711
-0.5657630617659354
-0.4952456546501183
-0.6694680135616726
-0.2974390573050046
-0.0944468576138601
-0.6271123723858737
-0.1634689140972149
0.2491238198155713
-0.0717833147578262
-0.4794583169247187
-0.6260434824216059
-0.2343549891418244
-0.8457792185345717
-0.8590877506369363
-1.1541971422028647
0.020166216895161
-1.8133274176383676
0.3237609718562414
2.184272390712236
-2.958967077581618

-0.0068053048862317
0.0038093475097339
-0.002317259186959
0.0007859362465856
0.0024811074534227
-0.0024917016359438
-0.0011178318721632
0.0020191301443157
-0.0002582626036376
-0.0006307788533606
0.0005514619201042
-0.0005227603932977
0.0011093633344652
-0.0019447597122392
-0.0037119325231523
0.0060763804242861
0.0106611068335197
-0.0092820213484027
-0.0307846668580676
0.0641571780438876
-0.071879462116245
0.0903640363808953
-0.2164271652078604
0.7709445399233961
-1.0361848513451382
-3.005787787543101
1.769455189056609
7.199728741129503
2.519580472971128
-24.462816395518036
25.209076237022984
-10.704470834387562
3.221381104399242
-0.1656743932166547
0.8429991771297359
-0.1830694894519451
1.1371810760131762
-0.2070742710837667
-1.3624149373415249
1.7557052748177124

