-0.0481566190664075
-0.0617614943790039
-0.0024913459578626
-0.0290452147142753
-0.0058799575151944
0.0089724925628491
0.0176004263319633
0.0101318007779883
0.0136305850985583
0.0360463988423933
0.0555494359305483
0.0818833563562411
0.0976582609411532
0.0287696670390346
0.0606166442570007
0.0406613806259978
0.0127237046469575
0.0563038289079535
0.126500723403642
0.1197641139549704
0.1795989441553715
0.2581110384456169
0.3059248527156357
0.1476308828051525
0.1258995264237059
0.1127608041809022
0.0618170426452122
0.0630440716215197
0.0991722144880342
0.09331923648457
0.1261249728965056
0.3203452760397185
0.1972552884293907
0.293034612828385
0.214595597247833
0.0967003846316921
0.2018977838253131
0.09410336213272
-0.0738569246211641
-0.2294216387152517

0.3585600750247141
0.1857205817985983
0.18434139622858
0.1080844144563975
0.0901539297675766
0.0507261031792706
0.0457045758157893
0.0566569914102033
0.093473585978421
0.1462544425900276
0.1826153546731102
0.2483175233364446
0.2587061349296393
0.1112732439498779
0.0720003092564769
0.0817739542485126
0.1170566136659802
0.1507144890581877
0.1824877358352832
0.2286197242251612
0.2974301157164955
0.4323005490335831
0.4748554129168835
0.2552241862701311
0.2133113684802589
0.1648718755649968
0.0870045015474731
0.0558414197487557
0.0674644850791014
0.0922149283036104
0.1228526366187649
0.1277746469867082
0.1855201479835273
0.2434634989440068
0.2646643298942959
0.1322365419166675
0.0558618237210406
0.0213974254627239
0.0673642958605164
0.2560604116985425

-1.5850593408102878
-0.7118791966714046
-0.9855141552693067
0.1052127788451717
-1.2494734172220907
0.2457637447039728
0.1288446566033604
-0.425942838612078
-0.3804500874586612
-0.3240510508884169
-0.5306102498716329
-0.6200800241174648
-0.5688755621356049
-0.3659785119845355
-0.067043592139255
-0.0274045961380319
-0.4730438799106177
-0.1482200136142238
-0.054818230680562
-0.6231363853603896
-0.4773754292961083
-0.825317472144731
-0.9791095113307486
-0.4227832686486654
-0.322107430937825
-0.8604987954071637
0.1384531355934747
0.1469939818945362
-0.4470843430707912
-0.5304224348925524
-0.3437550197621877
-0.5683085359199977
-0.8691895744397533
-1.0071390062919436
-1.282563193274597
0.0065742167224877
-1.964333298412717
0.2804406140699664
2.3038406169056045
-3.025396417232399

-0.0069033793156643
0.0038645105430149
-0.0023374641318043
0.000700239532716
0.0026259004897699
-0.0023586402595912
-0.0013038266242237
0.0017349309157529
0.0001937689370692
-0.0007191586591795
0.0002066013946596
0.0004532135415348
-0.002807247933104
0.0203893164123808
-0.0659120929576545
0.0118417861406493
0.1152562955440318
-0.0085425806721871
-0.2768003924413321
0.4065324867387606
-0.376459092720854
0.4161774370693681
-0.8747857631963236
1.948359680633494
-1.9512147776525084
1.4689076871806397
0.4682226134936187
-0.3457912328163407
-0.1787567954243415
0.3382452258021591
0.404221462666756
0.1240924157169885
0.4547470375717498
0.4718468921344718
0.6201423281265469
-0.0340309736304302
1.0709715979831076
-0.2392923437130117
-1.352672004178998
1.7754863829138017

