-0.4684547002377251
-0.0247414776867953
-0.232447317597132
-0.3378969051341521
0.0569357537903569
0.1813439901498253
0.0243212563738083
-0.1728721510633777
-0.1138131339240188
0.0163087831416501
-0.0651494857682418
-0.0688419033071758
-0.0560512297057951
-0.0139856486397196
-0.0648330253670225
0.0019170594059117
0.0244518310868844
0.012959624129061
0.0664338278918433
0.0445081756018449
0.0636413080799809
0.1242273471348019
0.1573107693932555
0.182933259381503
0.0334478396738771
0.1437569307709912
0.0587196247410768
0.0107199500842044
0.0567795096510643
0.1232288830979904
0.1777533448123281
0.1232588200946979
0.1718037286262891
0.1297082785936273
0.0431966560943281
0.0042401498452619
0.0659001674730644
0.1943009626800718
0.093693404075098
-0.7326162059919588

0.1466524594968322
0.2434524865119381
-1.0041632514215917
1.8715436238297616
-0.0655004748652968
-0.992061954637704
-0.1798626314615395
0.9047178688941316
0.273534161918487
-0.2414515640003669
0.4034209673958713
0.2385681727239113
0.34038669314259
0.2214625022205686
-0.1232260749155424
0.774650251355898
-0.0163541744557187
-1.1343988553513429
0.9141510087515712
0.2578946251929386
-0.0863510216413719
0.4163162775126629
0.3230661390034313
0.419946458020178
-0.0291833607882719
0.6388777773680101
-0.1697119017386516
-0.18878487093823
0.2610008595832069
0.2525263135068493
-0.2284067896878021
0.2110545324547318
0.0662306901645066
0.1586286761540858
0.0077413423295484
0.123391225860114
0.193076893656119
-0.1584755319046443
-0.2497369553861557
0.403834300609271

-1.455919739860843
-0.3718390876516503
0.4309085267580433
-2.703782655166779
0.2183558238984694
1.3899495087924765
0.081086559054456
-1.381612535965105
-0.5117423819809732
0.2495784409773075
-0.759653841417584
-0.515919398854841
-0.653984033782218
-0.465371544493462
0.322824645849885
-1.4534078838064928
-0.2630352406806023
2.329303729695803
-1.3043503961465532
-0.8018945518142346
0.3199882472898125
-0.7852609768546673
-0.6001017217191502
-0.866687199983862
0.0663192132284429
-1.098729361634162
0.0686205051251052
0.252635916390427
-0.596239023983981
-0.5966372391587903
-0.0367400487921915
-0.8164517892496889
-0.7477080882023097
-1.1009510950841614
-0.1445710607043084
-0.8226607857412935
-1.451161295037765
1.104984766354845
1.8631213113633696
-3.0455022111164536

-0.0002446165134312
0.0004812018757779
-0.0015217487048531
0.0025568233907106
-0.000721105179906
-0.0016980392998871
0.0004455473597247
0.0012969686619755
-0.0004799055576152
-0.0005841094079038
0.0006268215760132
-0.0004153385848208
0.0004083315764473
-0.0002574145520018
-0.0051767519978499
0.0168274229384086
-0.0002943082625156
-0.0259632852156905
-0.0069085075128467
0.0672339275034641
-0.0872877953583385
0.0822184110513837
-0.1086218620317821
0.2679783952278223
-0.3288183278787293
-2.8950857389403035
6.264047094559868
5.248400722807335
-23.353806211310182
23.461458570550388
-10.36621293652632
3.315203907919093
-0.1937542168974013
0.8785765447947597
-0.0796689585690637
0.6422183948660257
0.876281344087227
-0.7628884208492417
-1.218782692648558
1.9326771660604465

