-0.039957250444162
-0.0769289115188431
0.0029229916927973
0.0058035165626173
-0.0054004421453816
-0.0011027494903376
0.0097906191113147
0.0105111999683226
0.0153882366516484
0.0295699029341468
0.0439281234044214
0.0684832256065628
0.1008600144770431
0.0745684426829636
0.0374242000201048
0.0486623727492647
0.0222276447933579
0.0441630565218013
0.1032588481644705
0.1102981854902046
0.1409290208318457
0.212119372442802
0.2899590176099187
0.289748210745219
0.1183940334407214
0.1465503151679676
0.1022737174055518
0.0765928869308753
0.1148660710128974
0.1505522737257409
0.1938175415472867
0.3333437148451967
0.3316144946157063
0.3037671895358383
0.146893548378572
0.1947866998667273
0.0987186904968963
-0.0282198637384856
-0.0970380827806922
-0.1173547000564966

0.3875989930403021
0.0601756536143767
0.1521106663323308
0.1423598103962599
0.0131116525641733
-0.0019797159216103
0.0614514594900414
0.0479770191035567
0.0609922823719401
0.141843522788328
0.1365321500735802
0.2065565417141111
0.259370225435614
0.2299463521904072
-0.0037323868843338
0.1092511915216225
0.1604991966918977
0.1343745258497515
0.1354834923441404
0.1915955218349527
0.2295717575511645
0.3625415497835627
0.4546803129362739
0.4505134532772435
0.1526754544318942
0.3020736588428473
0.1350916905784453
0.0222379568865874
0.0808184447459756
0.1512591245166813
0.1814223140641962
0.1608152612457018
0.2648627527283309
0.2728242226409596
0.1295504584529433
0.2058858221467838
0.0655266312739147
-0.1269391257716794
-0.0579901063314408
0.4320751279931702

-1.7425550731966126
-0.1175973428996444
-0.8371279043493047
-0.9992968514078766
0.406180460507609
0.4606191797768084
-0.5032451295214018
-0.4913454410906646
-0.0326198908262972
-0.3495654514632046
-0.4010136969619824
-0.5340902485146017
-0.5600654902191268
-0.6013636965521889
0.2821261600315985
-0.5127558760706218
-0.5713435304000879
0.2196410091502863
0.1094279185860545
-0.9132581240059529
-0.134890067613269
-0.7949992504993051
-0.8351718481309329
-1.052789682848693
0.056985640131657
-1.1828850351369895
-0.1780353150847855
0.296770386309324
-0.5005652908760377
-0.7243416922136712
-0.3479136574869698
-0.9429211158018488
-1.0183375052846635
-1.3625793585342003
-0.1939138467408113
-1.0611078634073372
-1.6653776572263328
1.3394495533717046
2.103455363656829
-3.4265850527639534

0.0190221619275268
-0.0236195755036147
0.0094795540540782
0.0129049213639942
-0.0013993069614122
-0.0086896589228259
-0.0051830164306822
0.002349172471847
0.0052114134377355
0.0001335995257126
-0.003191323801573
8.235546502610799e-05
0.0035455255875146
-0.0023410760650237
-0.0006390221466177
0.0071022681110883
-0.0033236082801533
-0.0056582697243502
0.0012737516295809
0.0046067417664003
-0.0012093210772333
-0.0023881799809883
0.0017920505850207
0.0041340745289642
-0.0087616399328235
0.0100388063224065
0.0008316200262996
-0.0067517823213565
-0.0017701948381503
0.0046067637197849
0.001321038662175
-0.0032553810014237
0.0010337429146797
-9.434293067628238e-05
0.0070321394282582
0.0181837654538044
-0.0088469944649779
-0.037219896612886
-0.0228099191986027
0.0571351017924799

