-0.3230809226643278
-0.0631707928333253
-0.1597526159625902
-0.2494552804337763
-0.2278951602368099
-0.1296515321988469
-0.09546264135887
-0.112228040946556
-0.0377193086822562
0.0209737849211118
0.0236181205894586
-0.0134233432812899
-0.039988807794305
-0.025332427461203
0.0035165043788771
0.0036101730413412
0.04038746016904
0.0315184791426496
0.0033236005016491
0.0647106675995024
0.0360856392370671
0.0315427279207506
0.0575259766462887
0.0839014652674429
0.1083399614142726
0.1582220498934034
0.2065027450157943
0.2376870246696821
0.0178302079397755
0.1213396292962436
0.2233369723082622
0.0579786489420872
-0.036101974315359
0.0301847602686869
0.0636629391411054
-0.0140637874266866
-0.0425948764380205
-0.1702065632967381
0.1020652883781397
-0.4371793129669876

0.1186313609616668
-0.058565650914298
0.2447767271121773
0.2690043043019614
0.2769321713746652
0.3841401369966972
-0.4465154464969244
0.4477442405037101
0.6376755846589712
0.0593241945769021
-0.6462903124578374
0.1629404118960541
0.6044299947777289
-0.1662786835217574
0.2188245258135971
0.1935376437990451
0.2177033380294051
0.1792901630094867
-0.1793373105785395
0.4898970021914314
0.0095724554491571
-0.067496832677391
0.2203399755051646
0.2094966817941155
0.1629421543963395
0.2828224002701825
0.3003995275689832
0.3087872241161137
-0.1487502226506369
1.2003781059452852
-0.9248382921835788
-0.4421471899917892
0.6881701411643496
0.0870047519112671
-0.1766414604764627
0.213704277440344
0.0733153735894018
0.1622677950451768
-0.0009942100605612
0.1799887176725645

-1.3809355474462686
0.4435278140108668
-1.050901784624329
-0.8156164372183597
-1.0244749907136037
-0.8032996744116935
0.3654954687596682
-1.3386186999659926
-0.5374243594014149
0.3736363870192065
0.6422585277844614
-0.5801925662913834
-0.8430147959168254
0.3054728100627947
-0.4465337064148914
-0.3094532886166387
-0.3293922421934913
-0.3130912778323004
0.4035041464235914
-0.6149433709225329
-0.2171233442911481
0.0346520660596122
-0.277487738368257
-0.4404859454424431
-0.3922126156221224
-0.6890900756551985
-0.8100437740903732
-0.9642271948254972
0.2253078822429779
-2.079047083892986
1.0131591639147366
0.4982556930436901
-1.0845270083056646
-0.5308629006561209
-0.1155704242940239
-0.8847570017737573
-0.8211503186957738
-1.149874473753092
-0.1294829866490457
-1.255385076606963

-0.7115041242025567
0.8574769679585561
-0.4245890469253875
0.1416786098480971
-0.05196527023826
0.0365525819664246
-0.0374185388994805
0.0151270209847831
0.0087196692759305
-0.002672914448635
-0.004489857112281
-0.0003647540506451
0.0020755394670467
-0.0010194261604576
0.0010320056134915
-0.0012939224078476
0.0019154287846252
-0.0012864060429178
-0.0294416311171234
0.0935390197208707
0.0151134453952663
-0.1697912875317748
-0.0638742488818882
0.4765434774511101
-0.6256082006174407
0.6131617168095759
-0.8592668433174137
2.4293857939233923
-8.297975235263873
13.7158969572847
-6.339950774667085
-2.852645556171616
2.580639069961848
1.538323523491231
-1.3326463255351253
1.0790880203220028
0.2799156505338351
0.7859734188500037
-0.2059127847495984
1.1038149685490128

