0.1851605728507178
-0.3845965245235692
0.2197142323621866
-0.0985232318555731
0.0325584537166889
-0.0228433112863909
0.0385246411513733
-0.0261952523084523
-0.0482069630433077
0.0825612995542972
0.0452106416963259
-0.0314228247680676
0.0540029446918948
0.0588530799312134
0.0756182992764539
0.1266519892331216
0.1633117501897652
0.1487556466155223
-0.0349243478350356
0.2439189335636198
0.0724077805229001
-0.0584525449509287
0.1181303085252798
0.2013640691939753
0.1350468481497631
0.2726223604596558
0.3497462327520116
0.3250905305058517
0.2396662268537426
0.1667042649612995
-0.7423923722217083
1.5349676671876242
-0.3899353297295584
-0.2849861333060687
0.4960114249336033
-0.0340095318167211
0.1696048797283854
0.0061739630051062
0.1719903381475699
-0.2051334580483704

0.2977391790971034
0.0198121458943057
0.1467660208703601
0.2212803341986765
0.2332106054433624
0.1395056441601126
0.1371769507534194
0.0904961754312202
-0.0217305218559156
0.0346750271557534
0.0498441365878347
0.0464728155922333
0.1341757690768588
0.1355617325208389
0.1563957579144011
0.2944417001232122
0.3865302968184679
0.2533828393240359
0.1913137977824348
0.2505243008405952
0.0170058885712341
0.047787574686583
0.1858752777189477
0.2453545334166934
0.2369060798140271
0.3444025709055795
0.4348000715635399
0.3742664474230237
0.1741132409531151
0.2881507227131553
0.0795518326535405
-0.1222237738833653
0.0488589736997183
0.1939762509809633
0.1384688031026818
0.1622340703789519
0.2480083347390153
0.284683721224541
0.0535382376110203
0.3145238660553466

-1.7733073266479171
0.6291057714985698
-1.055881909792108
-0.7007470989579913
-0.9841254496538058
-0.4743470332387216
-0.4308935421752943
-0.674589323568097
0.232811176666762
0.0118503898739293
-0.1304479070884213
-0.0922651812635782
-0.4497229617422486
-0.1817431392228062
-0.3056683973272788
-0.5540525527427144
-0.6331471580074249
-0.5314360501044451
0.024564537135587
-0.7755734273604125
0.0856433384593474
-0.0396345824277402
-0.4552751451762499
-0.4958701033468333
-0.4713978976056873
-0.8519968422125278
-1.0169222051002038
-1.1244552434394453
-0.14895781034229
-1.0108634413850004
-0.1855854762674458
0.0161801442375268
-0.3529030244451485
-0.67691373413691
-0.4905460426383141
-0.8610755160599061
-1.038383696673103
-1.2845199592231775
-0.2301853903687884
-1.3263582464674852

0.0295423134137398
-0.0237898710800486
-0.0106528449878028
0.012179402588158
0.0064572678964707
-0.0025561829154225
-0.000116122826823
0.008667966016099
-0.0021286382533455
-0.0078899612561945
-0.0038767487825814
0.0035809231040775
0.005967997939725
-0.0001343001645594
-0.0047100900678355
0.0010455798860306
0.0085737278738033
-0.0009429058168515
-0.0005054628915641
0.0066576206031445
-0.0042203388522782
-0.0064936128403932
0.0011874403588989
0.0054511727735772
-0.0008391517927427
-0.0029596343918495
0.0060973482118628
0.0085516504428982
-0.0086785627524738
0.0094740548520484
-4.985031310192034e-05
-0.0076582066833859
-0.0020213617799726
0.0055595981461636
0.0023225265264156
-0.0058423023588204
0.0054012572576387
0.0169412551647409
-0.0429105983636633
0.0352283409058906

