0.1735384405264159
0.027300968180455
0.1488491366143285
0.0337699743749592
0.0379766400878673
0.1030181873501923
0.0507152731676756
-0.0943563352231244
-0.0217158603943303
0.1744489880062532
0.0470921448759945
0.0435600381627454
0.1549866056922765
0.1654284193617892
0.2093230622226817
0.1154505469449538
-0.0133121494986182
0.0642456120476697
0.2462879887667316
-0.0004167753288222
0.0051898259762427
0.1141083835583385
0.2031277376476676
0.1566286165864993
0.3002531264698339
0.3575481974395149
0.4783179136207094
0.0442528385521211
0.6998597079497452
-0.1871809281056782
-0.623141778306111
1.3905581647494374
-0.3280031700514128
0.0825179309425817
0.3729755210543132
0.2097464152045183
0.3138979245686445
0.1011279336066118
0.3104471231142496
-0.1233841715972089

0.3505622084413703
0.1506331349360719
0.2858102171519261
0.0979532171291941
0.1279213185306777
0.1208131658521155
0.0501302267792485
-0.0399458913561972
-0.017379249784639
0.119904876662941
0.120354184349683
0.0724669076698751
0.1701478858082064
0.2080868842646183
0.257180481638435
0.0552568581646625
0.123431242051141
0.1798316831959243
0.113671550039443
0.0510580458190205
-0.0168350433401447
0.1192395767050951
0.2074713604973154
0.2018966867015622
0.2529161847465964
0.3558634493955204
0.3631866509142864
0.1610707290223934
0.2442963258352978
0.1344071742310087
-0.0114887023867337
-0.0441093638068788
0.1312675167423668
0.1767020475870835
0.1359734717794883
0.2227077264834011
0.2722754264900616
0.2056714296211419
-0.0165951314691756
0.357211409328567

-1.5268829954600192
-0.6204445357358321
-1.2410380356712458
-0.2581066273294782
-0.703097773877258
-0.611730330743207
-0.002009803022095
0.3613933767361317
0.0613140710181496
-0.6446718032347599
-0.3292810139881585
0.0051272279490583
-0.5251813407
-0.3942002290618075
-0.5417159129473563
-0.0050852079194311
-0.5634997868567466
-0.2686539252367703
0.3146805011037439
-0.137109050099637
-0.0931888841094076
-0.4393971932452952
-0.3372450885176428
-0.2981113867812159
-0.677729738874005
-0.7709035694330512
-0.9827493071844924
-0.3042865521234567
-0.651903399295775
-0.4299144250176115
0.0726996860204199
-0.2019456224742823
-0.5595641964278214
-0.5283258564469309
-0.6046916608965517
-1.0015616273611765
-1.0509534364017603
-1.1798875972555145
0.7374107495844135
-2.041246591026083

-0.0173384517503947
0.0102862838619835
-0.0047158845916247
0.0044459879276499
-0.0031367447441445
-6.434134504165914e-06
-0.0042987445324422
0.0013933069786593
0.0091439884385055
0.0018261445653344
-0.0190846161368117
0.015448872417008
-0.0013484093209559
-0.0146008718103568
0.0716542729459191
-0.5336288827701654
2.1232977697770594
-0.706201142143286
-3.4364439801735327
-1.3469248759295671
5.301048025258156
7.285852917582622
-18.84168811301405
14.867897894374442
-5.557654662964421
2.397601659627218
-0.2022368050055075
0.8147839587016636
-0.1742456660593214
0.4538645972234072
-0.0144852653043506
0.0505580988061733
0.316562954057619
0.2576879503243344
0.3063091060899778
0.5218000398981361
0.5057527304209352
0.6917181517176771
-0.6207812493660537
1.2609679803687155

