0.1890259162918411
-0.0685930391026813
0.1045441015704788
0.0603093381568602
0.0077923947831899
0.0168482678948582
0.0540844220473471
0.0720702639948118
0.0920717959290205
0.1385316637378196
0.1658709414982976
0.0763116505396985
0.0791506055328027
0.0668477444685513
0.0219821271730883
0.02000022781738
0.0461848408668731
0.1000321706688768
0.1473710493554216
0.1570646034546821
0.2321956820886094
0.3277357181054739
0.3648539111582685
0.1626896278131517
0.1626000997753438
0.1380279916859877
0.0805561955490881
0.070436895571641
0.100963369268328
0.1255620325377091
0.1964270118129978
0.3322313792548685
0.286374204325969
0.3944815972562928
0.3480427442454816
0.2041607489069382
0.203040042235234
0.0603354445624374
-0.0461438903942518
0.0328046411385864

0.4147288346787161
-0.1405756734958841
0.3621468690326844
0.0983421674538041
-0.125601491665338
0.0413011278230734
0.2128994518915254
0.0486018746093895
0.1524913192461946
0.1944797108874502
0.2502768364101944
-0.001050741331564
0.3503349100669082
0.1750499613745552
-0.4797284977943841
-0.0312397535140282
0.4507962141999736
0.2221459167995063
-0.0590372911099765
0.2241110775979678
0.270083033521203
0.3307074573985055
0.4169773455782605
0.0938937231297855
0.268060140190773
0.2241006510877602
-0.0118064727714576
-0.0280343719636913
0.082385081853674
0.1160609736457574
0.1565877333038516
0.0476431510390383
0.2215542102349521
0.2199247850017301
0.2726136092084499
0.0653761676313399
0.327701621633283
-0.0302657916182514
-0.3304430780078151
0.5693766857696403

-1.8680830151421448
0.9542696296399568
-2.440731979414404
0.1560961621777571
0.9181139587860172
-0.4969974825983346
-0.9865761680874102
0.1487993889432704
-0.6700306618902784
-0.5245952505083449
-0.75441139371064
0.1203649438005082
-1.1261809529100624
-0.8390782808112213
2.1192694096297657
0.0510647919071365
-1.737934809556695
-0.1857575771914126
0.7349256494731566
-0.8822063550334499
-0.3322694316461158
-0.6825365622864625
-0.8321128810063467
-0.1946879335887328
-0.4297032132834044
-0.6735801229301838
0.1250732285116159
0.1140553315265756
-0.3512306079108854
-0.4733447074620369
-0.3719380317323645
-0.4275212381455084
-0.8290805246401357
-0.8836929536880691
-1.2486724674821188
0.0703657184859504
-1.9141210430186684
-0.2062694288431269
2.677221986131905
-3.195565054060584

0.0004679672235103
-0.002068135192224
0.004517749053781
-0.0027242869730828
-0.0018560859485263
0.0022160986890498
-9.537771863011428e-05
-0.0002611388980643
-0.0003923899689432
0.0009924639938592
-0.0023491066641395
0.0031534918372786
0.026628543721933
-0.062360592060692
-0.0493771042730025
0.0718608947573537
0.1432036362305241
-0.0565313473392965
-0.3654352721374043
0.579729062559776
-0.549882820310755
0.6156226706952286
-1.2350936431335262
2.530760062672085
-2.4719773965201566
1.3544735629916067
0.6862823758140766
-0.2167563424661842
-0.2504332329345481
0.2259035614883799
0.4386287294842899
0.1512551228555302
0.4254690581917921
0.4638013097335855
0.6370894801523546
-0.0518921769314287
1.0269638480639784
0.1011821492394763
-1.514774901356588
1.7730759984421025

