-0.8423345326218646
0.307935766214078
-1.0742690733637443
0.3093278463410117
0.2537109883821684
-0.3121020324410997
-0.3305759940517368
-0.0127108407247932
-0.3179260852782887
-0.2947727235146617
-0.3677845024297761
-0.1160310239360235
-0.1362898934853405
-0.3449796260450731
-0.0348068001781254
0.2258910411840491
0.1081657409193872
-0.2901987689334879
-0.1202597009425823
0.0430733605022742
-0.1657449948252598
-0.1024185534968966
-0.1375434490274159
-0.0064638944016933
-0.1857270809387447
0.0236465885609548
0.1868135486528097
-0.0359932285564783
-0.3320113481175205
-0.0272221643857748
0.39758347295463
-0.3988520580771433
-0.0342937928660725
-0.2248517737169391
-0.3269565835828867
0.0489974679755763
-0.6500451861724797
-0.0287970724472013
1.1264510746225955
-1.538962680002941

0.4093793940963671
-0.0142945398201307
0.2919953687677643
-0.0852711243004892
0.0411752984369655
0.200147579917409
0.2116409694206572
0.1715289079630136
0.3427893112233404
0.4344029267198043
0.5383655125182203
0.211518028669801
0.2024248176328681
0.3164714955782646
0.1609249073881412
0.0025456282551981
-0.0561834951181734
0.134654108598609
0.2375947027176751
0.1440906814615273
0.2283329856062075
0.2888728473809844
0.3289152572940453
0.072223546789671
0.2084107936319321
0.2079024965316672
0.0514343217307521
-0.1286538388719806
-0.0625311678024056
0.218624292656262
0.2515623477119705
0.0685462720883088
0.2501429652141694
0.3011995057557748
0.321553088761966
0.1430727580204725
0.2827270110893393
-0.0107058144564386
-0.1940460795814761
0.4917069366550826

-1.535391160315075
0.7936009216633153
-2.2543246338117444
0.5927291650904694
0.4935043696460495
-0.6965106476007957
-0.7282783449148341
-0.0800478009673666
-0.7740864147755666
-0.7556569674949416
-0.9352623194195986
-0.3625373349344492
-0.1833714736488112
-0.9981582277392936
-0.251572150818755
0.7442583264070084
0.2637090582764109
-0.8902361458826787
-0.37213867031119
0.0081805302664546
-0.648293546916034
-0.5408367120358442
-0.7931844715921847
-0.1707771361319001
-0.2713632175410191
-0.7105553053348951
-0.1803892665872042
0.326396204128003
0.0533897840339677
-0.5957680890387907
-0.8766366183798855
-0.0393978385988807
-0.969144299063104
-0.8296320441132452
-1.2057276898027665
0.0501387353679294
-1.755161669337273
-0.2067596729482741
2.3263539769014723
-2.6882356481159504

0.0004555083370223
-0.0020714408712625
0.0047056487554267
-0.0028655887316329
-0.0021916643005339
0.0023793361874509
0.0006782086355526
-0.0015223784866073
0.0007245665879818
-6.695080838081731e-05
-0.0005650662453846
0.0026834575933922
-0.0056990443535999
-0.0022716559066089
0.00233051983367
0.0101861418184916
0.0069706652769753
-0.0172132618058332
-0.0261100646251042
0.0717261397311689
-0.0882418705839353
0.1185597243244478
-0.2902717335781637
1.0458695856700757
-1.6101309814119578
-2.801850246294181
2.177091805808113
7.243729600321173
2.132298169571769
-24.70937245620037
25.681660621410035
-10.818999707852722
3.1369671099230425
-0.1183752195386413
0.8240270680471322
-0.1621367450262145
1.0664763570807534
0.1317332382633519
-1.5278256181688084
1.7627231124284786

