0.1742153666112238
0.0374389397834462
0.0867721614873044
0.0688908450209734
-0.0036607479186357
-0.0014536527565817
0.0623829633061082
0.0590668660701218
0.0558872286940414
0.1124148595944359
0.1419663947501809
0.1823466266713273
0.0699552552623887
0.1056746759442377
0.0932302001787928
-0.0010153417385696
-0.0439071098195166
0.0745906879979145
0.2105224962584034
0.1022758949730707
0.1350115410737304
0.2787645172968513
0.3196236362949811
0.4148050654000219
0.1055239382698458
0.1930695267525037
0.2387524859047328
0.0965214890933193
0.0218305438567996
-0.060722825550483
0.1294316728031494
0.5771895443804146
-0.0058863570619037
0.342349729972648
0.3299188694634397
0.3219122219038045
0.1008236971462177
0.2800982671408076
0.0453070416356845
-0.109197796351163

0.3687859023294975
0.1788387028204197
0.1312173087839865
0.1288300498414774
0.0535563545340271
0.0264238416922087
0.0635835130355105
0.0840176543540898
0.1041916673657847
0.1530291001043328
0.2009286968483526
0.2181594592893689
0.1440461133817875
0.0902009088139994
-0.0213349334984945
0.0197781401611408
0.1163774026689242
0.1403440010967979
0.1255983406125779
0.1293672863686137
0.1585369421826407
0.2811005060965265
0.3603442962132155
0.3874734329719376
0.1706897477506848
0.1920588795830779
0.155031672741294
0.0730048330015274
0.0325788016434709
0.030607978803934
0.0701536849640357
0.092535003505667
0.149178311989073
0.1761606307616192
0.2310743328906299
0.2627243482363795
0.1360061250930511
0.0332621775619833
0.0509814086920922
0.2904325142207578

-1.582185947919693
-0.8186920451030674
-0.3020110053570542
-1.1841296154569672
0.0579422803110122
0.451659235453401
-0.5622738986442847
-0.513152856170303
-0.0817440056930252
-0.5753907066508998
-0.5164668583714357
-0.6391687942357754
-0.0475276620879297
-1.28591803358569
1.1415251623583242
0.247602218139943
-1.1702242368858484
-0.138023330761641
0.530390221586242
-0.7236561725639113
-0.1857404653460776
-0.5806961735655471
-0.6767171914675045
-0.8981952693055174
-0.2025706702851358
-0.4226467058522817
-0.7100082276837272
0.032270285771823
0.1381906969893679
-0.1730913507276656
-0.5692851366137709
-0.4669618537016132
-0.3764583131830673
-0.822930154562711
-0.9555995121864086
-1.0874302670396134
-0.488834866972259
-1.0926371725018666
1.6409698609865762
-2.348297631255633

-0.000386806997371
0.0004263331467289
-0.0011104202636598
0.0021341088026607
-0.000705201391107
-0.0021667235588909
0.0015487296651136
0.0016133563691161
-0.0031127777092903
0.0028893310371313
-0.0030911739728258
0.0064718804649391
-0.016115323284492
-0.0108345686908374
0.0914266613029034
0.0346100457906047
-0.1196911885018823
-0.1696356006414786
0.1176630029394486
0.4637286961051035
-0.8123085449955091
0.7976010680872023
-0.8790185214209099
1.4447771709380126
-0.7398808085149401
1.206865361120339
0.2533283089764954
-0.3571756707810558
-0.1811896486139137
0.2806370790450273
0.4196211394061587
0.1432584601263377
0.1850614361510811
0.4452105601188251
0.483312514452194
0.540586892114132
0.3038861193473937
0.427948613463011
-0.7718520134476099
1.2363695216226605

