-0.7233764795426844
-0.1372730638360612
0.432137354018037
0.1573604103377695
-0.3277498074836019
-0.1832399790412668
-0.0043419437520171
-0.2056766598320409
-0.1672010151715583
-0.1164854976063093
-0.0770463327697143
-0.0867937141900519
-0.0255511942377312
0.0011611718505797
-0.0282694999864664
-0.0419330240760506
-0.0224889774337875
-0.0369926943084996
-0.0360443444077604
-0.0147388603685446
-0.0153981690157199
-0.043755761846436
0.0308714380117373
0.0467955738521714
0.0118315077620516
0.0024049615788644
0.0440135704902577
0.0506317206916135
0.0804297244551295
0.1077266459648331
0.0477265621290897
0.1518105022021443
0.0475182400617116
-0.0391594112883986
-0.0330506985139377
-0.0197597752285922
-0.0912593685971407
-0.1766683416429966
0.1568115975621968
-0.5297087868707221

0.5918320508197853
0.097588333011441
-0.252140695720859
-0.1550106998444043
0.3578991366087598
0.2972964684029417
0.1777864208823358
0.4246496620988937
0.4798709428795398
0.3424896498515838
0.1635060486127086
0.2830495557203558
0.1289470461680895
0.0793580843938803
0.1676895493608301
0.2130400432281922
0.1904494013757154
0.2871805589633585
0.3259599868458355
0.2915931970514118
0.1142878506307281
0.180571036516034
0.019199930509494
-0.0006811774304662
0.0832357904373684
0.1206789223243903
0.1216970761333854
0.160038631394573
0.2307666034887012
0.28894835753273
0.1132607760701902
0.1713614987228693
0.1581961093286679
0.0104738042152932
-0.0308764236960286
0.0579149372518362
0.2035606716970396
0.2300371503857189
-0.1260314856176292
0.5453161631903629

-2.1183720738860075
0.0114178586285881
0.8146031320249717
0.2346923058713871
-1.2269989908596564
-0.360973818679972
-0.4452920541869339
-0.8868132857783868
-0.9013221253897156
-0.6572481963040554
-0.2164606919144684
-0.7968643694155862
0.0296866275226411
0.0965146846151434
-0.419457466329505
-0.3042967492238757
-0.2424373779262996
-0.5054805633940611
-0.5506931578931888
-0.6028491814478469
-0.0792015590969768
-0.5607054252151908
-0.008764528064897
0.050219196156756
-0.3079347132613107
-0.3823058624638605
-0.3140069598994967
-0.5968637822056346
-0.7606215758704327
-0.9966533522446084
-0.3340195869206285
-0.4758107297550462
-0.8310344957145631
-0.0215511239977492
0.3083458812844873
0.0032027422764152
-0.7046480294751916
-1.2203279828214704
0.8906623864268347
-1.9324327612699488

0.0053417036836557
-0.0073292918469705
-0.0014866498951919
0.0048055122275605
0.001149073379341
-0.0038907755148393
0.002285415391848
-0.0007834928656552
0.0001507419234889
0.0004224486184238
-0.0021141230510273
0.0037671660569453
-0.0016392972987538
-0.001623690635622
0.0013096825817044
0.0004061511680779
-0.0006598763210265
0.0001379222001411
0.0004841987766765
-0.0028174624809549
0.0202944656968168
-0.0655017664095609
0.0117454650778139
0.1146047418638313
-0.0085341152182318
-0.275409321574903
0.4048910295121562
-0.3754370165281009
0.4156897762543167
-0.8751112021267635
1.9607985483131456
-2.0376235290332847
1.5662300924683734
0.596878957206303
-0.4180527774378987
-0.4499973640636466
0.3250419681022384
1.081191191905822
-0.7352700406250519
1.119979390504768

