-0.4909399314079599
0.1295040941353286
-0.3564028160182616
-0.3236288826065562
0.110191652649501
0.1963986585102818
-0.0002495153335546
-0.1973097366328272
-0.1014365089677466
0.0215662597316563
-0.0891194337404293
-0.0664288996635322
-0.0552609291084251
-0.0117803209695422
-0.0764403518382881
0.0156964315273065
0.0342128495563939
0.0117086823830388
0.0586649168953438
0.0474814852009324
0.0797428920262767
0.1287161826065831
0.1689904793175058
0.1446985847952371
0.0388899815396599
0.1318265630934339
0.0335209421093368
0.0232849458462666
0.0846630692127377
0.1255265498113542
0.1680231668244839
0.1579327444511414
0.1757149873405516
0.1269267636680601
0.0331776146770665
0.0212487240936604
0.0397442107241873
0.1664608396569435
0.1011718012020769
-0.7088042579781498

0.2144253959385324
0.0269638692673195
-0.9371877620780772
1.9713578522794724
-0.1269366518032072
-0.9994011631084204
-0.1085083450660596
0.8965693906123364
0.1492404337409112
-0.0982529967550445
0.3971869846806961
0.2489447750219124
0.3733402330975131
0.0536793394139878
0.1537852791416132
0.5076383077213611
-0.098103128587166
-0.9010955590868812
0.9794791519855888
-0.0087939097497817
0.1375019695121016
0.3603583844467337
0.3725829275277728
0.3219838918024187
0.0331776518601067
0.5625748218774169
-0.2417153418126029
-0.0809345227961983
0.2803474214353076
0.1336265203549323
-0.0988402772324314
0.165676613170589
0.0854740669112482
0.1610893082015615
-0.0791820154071422
0.2481855573747102
0.1255996058754166
-0.1833866618270759
-0.2270896457630802
0.4061766347714194

-1.6417301410436906
0.4893691622451133
-0.5024645528294039
-2.4367994906788253
0.6734644856105175
1.316972355566698
-0.2611272135629199
-1.417246303029035
-0.1926151840804588
-0.0206700173398239
-0.7681767081857909
-0.5379429055556199
-0.7114014466506793
-0.1716328109712565
-0.1674947966563109
-0.9607889308374018
-0.0851697855593642
1.8871731661467528
-1.487332835521266
-0.2461873163186907
-0.0983626973314855
-0.6879844750046874
-0.6808136836903012
-0.7102994379185393
0.1021842756983791
-1.124296006569291
0.2235532549017884
0.1219724092888677
-0.6594585508553202
-0.4668582761258738
-0.2190901693559364
-0.8285782150873664
-0.7911445572501525
-1.1413065071227166
0.5023494792299246
-1.7313151290929758
-0.9704642536515944
1.2873826110677025
1.7151789398458002
-3.0737535292206006

0.0001444606563062
-0.0007563763219411
0.001649345715027
1.1858190167932112e-05
-0.0020909501869378
-0.0002476787143121
0.0018758164573704
0.0004972234901514
-0.001784244284974
0.0008135707011753
5.973455507109648e-05
-0.0004256038709328
0.0009988393047733
-0.0018818252838734
-0.0041339546796385
0.0141990995022622
0.0058811520116216
-0.0236897551868119
-0.0213787069223391
0.0815357509831456
-0.100130040829827
0.107933827885801
-0.1919492167799442
0.6046987470581067
-1.1776566231090917
-2.5465421655571103
5.929863666075729
6.055776226833018
-22.34240900492307
21.06502017653341
-9.019957453161169
3.169470686637251
-0.2405446235693642
1.0010379645482934
-0.5992281832887674
1.2703107208224775
0.5997759934068279
-0.8859056117339572
-1.1319314419513666
1.9448406991073204

