-0.025534552340976
-0.098691535036232
0.0116762135286706
0.0177023271342629
0.0005235092343765
-0.0007943680461153
0.0069550851575326
0.009007710217701
0.016182595217025
0.0322600164096451
0.0482426421267194
0.074296669094321
0.1003650889643883
0.0463969941909113
0.0476961499741793
0.0420273068421373
0.0210438875139592
0.0501829365832972
0.1075795208871926
0.1185480383640176
0.1553055368263261
0.2339568628589724
0.3028897426997834
0.2337988953803346
0.1184146632393759
0.1274673432331063
0.084402715761242
0.0822403849936198
0.1313816518810477
0.1690290426317097
0.2130164042321123
0.3555392634815504
0.3594851016634249
0.268835893923268
0.1623603656755934
0.1791775158266347
0.0579056693671098
-0.0494791515777608
-0.0921162265800195
-0.0858703081331999

0.3978097804957679
-0.0312192273908229
0.1984641200927932
0.1360395163419081
-0.0082559147869199
-0.0088115678139824
0.0705856452386442
0.0645675381468332
0.0691806621604329
0.141096283987259
0.1575014860508865
0.2198708123914348
0.2624760171478293
0.1607906831472551
0.0235473694429324
0.0903709104755971
0.1483308538248849
0.1442132968459148
0.1491075056897488
0.2082154132990911
0.2596841651494421
0.3919613015434831
0.4792696894968505
0.3589314187155787
0.1803104471943146
0.2588301826743975
0.0849512400257856
0.0361064522399298
0.1222055694026725
0.1645608673897397
0.1752373988425014
0.1969553052921708
0.2787803941045729
0.2441742019341048
0.1017630079174419
0.2246484077588676
0.0358085538194456
-0.1398071875592129
-0.0546624824668012
0.4453733477582168

-1.895929911692349
0.7102705906756409
-1.9475418520772152
-0.5408554067987085
0.909643260536012
0.3759247235882613
-0.8289913197157334
-0.5692546883262698
0.164370585041519
-0.4531671394549683
-0.4550174301337623
-0.5554163159533307
-0.5758588328016916
-0.447005358781055
0.1181567030294274
-0.2854384351358379
-0.5187134290213445
0.0461679283542851
0.0288542155364028
-0.764301391935655
-0.2902677565067447
-0.8184550470260963
-0.8906029320173819
-0.8934168758504921
0.1697764384694803
-1.298933189101138
0.037618675274214
0.2038651132045389
-0.6318814754007351
-0.6441162900829882
-0.4486240451218647
-1.033433979260472
-1.0565591540514063
-1.4071214536101715
0.5663779942851612
-2.1522358650722464
-1.058719408096318
1.5647346245214555
1.904606426881448
-3.4581906954749995

0.0237034947991615
-0.0346897699083649
0.0158330619682961
0.0136860070719161
-0.0020315478235451
-0.0079151417417313
-0.003797052795052
0.00269968562117
0.0035984929976633
-0.0012716384969323
-0.0020369978624999
0.0006747479072357
0.0045255846282569
-0.0076732072864751
0.0068915508256598
0.0041746662495457
-0.0060115816341159
-0.0043366251481867
0.0034350381083367
0.003730574298506
-0.0031574652371386
-0.0007147273770597
0.0029691702113241
0.000208222968586
-0.0033780279262413
0.0078126021990504
-0.0028114967481266
-0.005594133403528
0.0012690395729928
0.0044689604673026
-0.0014502191684875
-0.0016914132148704
0.0011225551176868
-0.0001500867747844
0.0078941286869579
0.0218568038661728
-0.0116280984472707
-0.0390279608437846
-0.0234080739962536
0.0584860922636914

