-0.7751012597404099
0.0769054374961036
-0.0016815612370146
-0.4238902168679394
-0.2752605050314659
-0.420964865909236
-0.2516174047452849
-0.1039496742663219
-0.3589482363965712
0.0617148561307994
0.0449648057061139
-0.1647681067671766
-0.200741597799802
-0.0845653391521562
-0.2214337499672452
-0.2080382861519058
-0.2138427597228493
-0.0063084195930114
-0.2513507785300775
0.0181959536534998
0.0584119090922182
-0.0718515473205432
-0.0845441940902019
-0.0188500313250977
-0.0985904353152445
-0.0772415278983345
-0.1595227283622916
0.1479548829002283
-0.5346078150721567
-0.2562007139221153
1.0674628070443686
-0.0419389472657458
-0.6821693953647997
-0.1746523803724275
0.270414457036513
-0.3573313227247679
-0.2006486632923778
-0.440216850867326
-0.2967107863176925
-0.5748135372523194

0.2353654182162656
0.1091834822228669
0.0683042791191106
0.1840348336482517
0.302679212865926
0.3766984765989699
0.2748374623718604
0.1632236870038685
0.1595253235075008
0.1181633215661182
0.115892184696134
0.1638943243274916
0.2336771403557207
0.2931475714277489
0.3773108031007539
0.4681072086191334
0.3967989292887861
0.2053204769281622
0.1970103797454564
0.096659979962388
0.0250710069006535
0.0533781198318124
0.1379316371195845
0.185041291453127
0.2083978693322555
0.2850753022897247
0.3173971162334776
0.1531437816054131
0.0892837087024375
0.0976894821036428
0.0931257267710596
0.069814624790443
0.0685193146266859
0.0962276308606569
0.1327203004094845
0.1670453986779942
0.2142459482294396
0.3050125367531006
0.2182482466489715
0.3352420609352401

-0.9031473765065068
-0.2501367244317792
-0.1776628453602177
-0.6514327216019552
-0.7446608256289174
-0.915744770004868
-0.602419830729896
-0.3911103987971532
-0.4317081480541786
-0.1443036300294174
-0.0865572534669054
-0.2714918247889003
-0.411721944007607
-0.4054330247915845
-0.5550652094395747
-0.6714461931418794
-0.6270604534154876
-0.207748285220204
-0.3996497172769671
-0.2050858846523922
-0.030069896708407
-0.1358103253440677
-0.3561005944576867
-0.4212609344582751
-0.5372318115582969
-0.7802424232410607
-0.9182537119578617
-0.4663212427254012
-0.2178115204282871
-0.3163564272056768
-0.430368335716428
-0.2492494845480973
-0.1228370607150797
-0.258293612980498
-0.4629178968519178
-0.5723820103508676
-0.6254514459579574
-1.010664845253096
-0.6784602449255984
-1.090111831080186

-0.7901708646917515
0.960866635258011
-0.3817621664916349
0.0417305925570568
0.0125978907969109
-0.0094409533518457
0.0098602792022982
-0.01571278371014
0.0130721906411222
0.0003640011166388
-0.0052080773540427
5.760259755905555e-05
0.0025250445860162
-0.0014030228759292
0.000382114886283
3.375245654296053e-05
-0.0009270860158452
0.0082453555350992
-0.0273947087929663
0.0040668565533693
0.0472695308510783
-0.0004657995877214
-0.1114093279992593
0.1521688132335848
-0.1288542915855986
0.1273944397283578
-0.2317476016513208
-0.0570735231794898
8.00376778548113
-29.37574044315619
28.670987279746104
0.3783115412804063
-8.428535195086543
-2.1405504556511654
4.635180597909874
-0.7406116878261699
0.1650564131644829
0.7697585647874956
0.2120165915318839
0.9167254211024224

