-0.3934587868250763
-0.0915317302630352
-0.3006919192448438
-0.2723063916057464
-0.1377104048127694
-0.119525236736923
-0.065920223512847
-0.0311708776257064
-0.0056175744252873
-0.0027399681545408
-0.0227674039395721
-0.0405087600876578
-0.0289410511278833
-0.0180412574749172
-0.0223516254521319
0.0231062708072566
-0.0126413155689154
-0.0280732803855876
0.0478112117957822
0.0589724879022354
0.0289999389118844
0.0287815552496731
0.0488797742620247
0.0725299675846585
0.0991220297886571
0.1388760277076772
0.1864184825053295
0.237603781524127
0.0654991734082608
0.1022114866485966
0.2140015107130564
0.0758048011165194
-0.0270278749818259
0.0071241430952941
0.0526523100649487
-0.0012677899804854
-0.0471846067895834
-0.1584869771490971
-0.0014730216758527
-0.4043655829461411

0.1399383380302937
0.0470812229355622
0.2617091211864602
0.3120523326340636
0.2268834249161996
0.0177371146068544
-0.0977641799383312
0.2480705247717305
0.3761716918244814
0.0937939574446733
-0.2506745605705714
0.245385574722614
0.2658931782679868
0.1145318161114996
0.2860181971583971
0.1688107877564778
0.3496109795183034
-0.5171831144920584
0.2165140030694126
0.4550463027068511
0.0132761904240803
-0.0776697872653522
0.1259466529168389
0.2153939921141067
0.1722333945919546
0.223888607669426
0.2797064916677976
0.3063797404763207
-0.049718091110214
0.8548310962712835
-0.5495301761697189
-0.4135916075515933
0.4208067951692205
0.221820248067792
-0.1742843183839734
0.1642973979270942
0.0842705692947931
0.1495603663356988
0.046999463827436
0.1713646295433817

-1.3613176120092885
-0.1612811001916108
-1.1730233910514865
-1.0768744310003329
-0.5228973152497821
-0.5258296739706212
-0.3813158020240669
-0.0729936627778292
-0.1294090396126912
-0.2351028871856079
-0.1173655799131988
-0.3606991643304773
-0.3345123550534685
-0.3303339756172089
-0.487457292107609
-0.2637311755745037
-0.6360378948694244
0.6461305083381899
0.1561760261438367
-0.6017009735411749
-0.3398888985992034
-0.050338766035314
-0.0922164906579609
-0.3231362347141526
-0.4789869000085823
-0.542423076719175
-0.759024237194848
-0.9219891469464624
-0.1613443166888689
-1.2366131303974606
0.2849013312303658
0.3437016142030702
-0.58668124278983
-0.6122903566329041
-0.175521952494041
-0.7220084021255455
-0.762185093014163
-1.13814118343966
-0.3828590889597896
-1.3198882420146214

-0.0775886231792034
0.0640417448046484
-0.026053193773817
0.0106154279009265
-0.0093247737915536
0.0095400808280709
-0.0008683052195189
-0.0046516287548996
-0.0013002236616404
0.0026805890668325
0.001917763356279
-0.0015596436657848
-0.0014134690636821
0.0026521074224319
-0.0035831669637313
0.0080694650472246
-0.021576002155054
0.0028694235991631
0.0829419244479087
0.0199724258566734
-0.1189074720527603
-0.1458555547022243
0.1323555995120635
0.4082654971012696
-0.7717109182911049
0.7873883348914923
-0.9051800727591156
1.927004017244757
-5.876282875356962
10.63742393855953
-6.0634128655033965
-1.7410777222826848
2.410967836397844
1.2247408346285649
-1.257677628972452
0.9904146890697078
0.2756573640747103
0.7083739258466313
0.1532716996960334
0.8457130101627636

