0.0405276681106054
-0.1717328846389803
0.084691527443269
-0.0491653580546923
0.014498779414557
-0.0177169187691207
0.0351790392981128
-0.0212064927280871
-0.0501294660253854
0.0822269822812729
0.0452209188535449
-0.0280440165880802
0.063813337720353
0.0524921493088266
0.098740696972053
0.1232850525338921
0.1922260375498858
0.0116516062994407
0.0978312129533324
0.1848713019684549
0.0369921068638153
-0.0856314686974022
0.0589551817723439
0.2120414426604867
0.0986865536304301
0.1332662813424357
0.2634316558034709
0.3208702683693772
0.3517462718808491
0.3889925769841342
-0.914579969799936
1.815909438157508
-0.2636550786700371
-0.665660022301941
0.3678276360513678
0.2446503572208866
-0.0786458067114392
0.097818926792483
0.0137260834184619
-0.0659280142664143

0.3724932570977856
-0.0301396459126025
0.1982899123356736
0.2323582748079368
0.2443161298820279
0.1141828445568069
0.1621044636250072
0.066463499441416
-0.0349089458761206
0.0357088278275918
0.067248519866448
0.06608312109474
0.1307946310519092
0.1428339160247437
0.1925203341026009
0.3167499500161194
0.3808210158231276
0.1363227606294883
0.2492170409421387
0.2071984947580451
-0.0182617143781557
0.0051053758992814
0.1254776900963096
0.2023306156438818
0.1879531684221198
0.1961093151613267
0.2944798211969454
0.3723573414218416
0.357843989587826
0.190001536548791
0.2425708000476187
0.0170568000255997
-0.0299780518917913
0.0621158318831563
0.1377300753616453
0.1389811588189216
0.1262507221440393
0.2519657646853325
0.2067454821164908
0.3418608909725268

-2.131527588652353
0.882284316241817
-1.301495656368097
-0.7216781672012696
-1.0692109742109868
-0.2494655369291896
-0.8164180254295224
-0.394376253649325
0.3819504334905786
-0.0306428268763699
-0.2779404073735796
-0.1824507675191726
-0.3395893752949059
-0.2061578698816883
-0.4226925739227117
-0.5473114979400202
-0.6901082254471086
-0.1986255984075883
-0.3039115135046289
-0.5484360150878939
0.1969092988854792
0.0307928333937736
-0.3565226860983193
-0.4763424230086269
-0.3320081182782478
-0.4372531646769417
-0.797805295794441
-0.9257762459650706
-1.1577475777499495
-0.3772134622216918
-0.6216441860554012
-0.6761622124188681
0.0312569212399442
-0.0796393881471957
-0.5852144850997553
-0.6997868492026217
-0.503179955296796
-1.1394822111367462
-0.900778377327874
-1.4659086589791746

0.0373590945112727
-0.0381801589813661
0.0037976074988694
0.0067879639134507
0.0029348706704544
-0.0067641824934692
0.0064013360929483
0.0063536905912902
-0.0050066757889265
-0.0071951896122546
-0.0010707029143045
0.0050725430699975
0.0037701060588916
-0.002645700578632
-0.0024818710450853
0.0013498493942687
0.0059368674261808
-0.0097144727915471
0.0077631544617216
0.0066875074625169
-0.004656265622054
-0.0072050518628255
-0.0014999460008661
0.004714073460738
0.0039853640459392
-0.0022899932473535
-0.0027285629536632
0.0013032700854646
0.0053835836085649
-0.0078284921884565
0.0067557685895883
0.0040034311160026
-0.0061127187751285
-0.0040685702362325
0.0041581620323955
0.0035835881694164
-0.0070118483822269
0.0088299383719065
-0.0117959499533762
0.0130022555149215

