0.3871646676341054
-0.8516110538955904
0.6027816019726651
-0.2357798662379092
0.0633704171319561
-0.016638282778762
0.042352304445233
-0.0422244475654496
-0.0156936189888376
0.0859614531186316
0.0187513612697574
-0.0491147593927988
0.0608435738005728
0.0654427601962056
0.0325496230512718
0.1047260161394928
0.138612178108183
0.1845864834756638
0.1891116786558052
-0.0707976068632995
0.3407837916165411
-0.014435460269373
-0.0586453903163551
0.1860715589037103
0.171482210117677
0.1415689511003121
0.2997187997078311
0.3412609055071741
0.3944899856811859
0.2028984626322685
-0.6770145417831018
1.6678792386619787
-0.3951765393610525
-0.5322628183774337
0.523478283206259
0.0305820024992386
0.0519504446865612
0.0623349540319411
0.0410105772459258
-0.0910200040203108

0.2923367711468781
0.0354330741886253
0.0323503854024111
0.1956779315501777
0.1915351350679943
0.2341439813294533
0.1575514139165947
0.0863342413686283
0.06875808948188
0.0668084523628942
0.0142589027827291
-0.002898644129302
0.1135382630809017
0.1346514404986976
0.0897016103437066
0.2279068554843769
0.3212653090759053
0.4126950989521541
0.2815867949761373
0.2136307662136667
0.1476016702458086
0.0738891534144459
0.0994917367585724
0.1763462671003589
0.2105615248654518
0.241609825505498
0.3319238975823905
0.4112673072196053
0.3446729302305241
0.1864049422581813
0.246694163607794
-0.0297707728152674
-0.0342614718849744
0.0969514691492403
0.1552790518152435
0.1325723595852528
0.1577762328077005
0.2713766096168579
0.2019504580618781
0.3025757643282281

-2.1783223949295034
1.1949074470416048
-0.7933785720989129
-0.6802177893046584
-0.7158425049447984
-0.899972295856539
-0.5516410086439623
-0.1251539709136888
-0.7055269210943838
-0.4199698722936444
0.4084267678598591
0.62072788840951
-0.8557372089133035
-0.6345313556722795
0.4386865529668748
-0.7258157451933793
-0.4439276513554574
-0.722208250752535
-0.4683457190838087
-0.1810441306154395
-0.5253500817301455
-0.0655024619506242
-0.0809750491378493
-0.4592553940088645
-0.4813868493677059
-0.4998186429184845
-0.8839343463996039
-1.023151128953509
-1.1988708069725893
0.0045860105901047
-1.1717673438548473
-0.3963647279717162
0.370589162698174
-0.4173462460604906
-0.7824115970632812
-0.4629805284805843
-0.7824483602941681
-1.1558927467801492
-0.9253819386765992
-1.2323923163635346

-0.7698153283414252
0.963926352240388
-0.397144765325841
0.0585480630846761
0.0035378143487915
-0.005005619783894
0.0059742712361865
-0.0147713518575838
0.021969740828933
0.0033699528740159
-0.0181783636172939
-0.0158547588718584
0.0146328348208797
0.0341373962443911
-0.0473551046787464
0.0218061716504766
0.0061188854248023
-0.0567510121849583
0.4536632813734446
-3.230189109511469
7.01183041997311
4.210161319639929
-25.202406443995866
25.89476784408946
-9.724687367695635
1.2551670651036122
0.8965198760960084
0.2938809408432603
0.7323527243938766
-0.1681977445786674
0.8383687871364505
0.0394607533870849
-0.2356280930117424
0.2576684241912728
0.3668962566055923
0.2379241700842069
0.349192704292483
0.616174211550935
0.3648499977289493
0.8688925582763187

