-0.0389838
-0.0162146
0.0073458
-0.0107455
0.00478532
-0.040302
-0.0928115
-0.0520238
-0.0522575
-0.114162
-0.218064
-0.273145
-0.0851269
-0.145199
-0.0666868
-0.0631719
-0.0752578
-0.110155
-0.179178
-0.359831
-0.38692
-0.135866
-0.217454
-0.0955793
-0.0573356
-0.0791899
-0.154453
-0.344429
-0.514715
-0.270862
-0.148268
-0.255348
-0.249208
-0.151402
0.0192868
0.0149472
0.0872798
-0.0782608
-0.209346
-0.140175

0.228519
0.142262
0.139043
0.0257604
0.0015164
-0.0104782
0.0502639
0.0343286
0.0799652
0.130088
0.232927
0.241493
0.119788
0.148268
0.0593692
-0.00319704
0.0524188
0.0445195
0.113339
0.20182
0.172716
0.12813
0.0982038
0.0254329
-0.0264132
0.0450315
0.0174663
0.0845599
0.0361994
0.273927
-0.57963
-0.462745
-0.0329449
0.656436
0.436733
0.231492
-0.0113322
-0.134556
0.0917106
0.434836

-0.85013
-0.316846
-0.44318
-0.207565
-0.0424557
0.00713195
-0.0268509
-0.102303
-0.290488
-0.460235
-0.7564
-0.832132
-0.32906
-0.526236
-0.270598
-0.0555639
0.0105314
-0.196546
-0.485422
-0.670631
-0.702159
-0.319254
-0.446516
-0.11515
-0.0144103
-0.0370935
-0.197006
-0.424703
-0.422514
-0.645554
0.251312
0.307949
0.480823
-0.282742
-0.511017
-0.513614
-0.473509
-0.0930846
-0.200965
-1.17426

0.000276832
-0.0196938
0.0185219
-0.00178719
0.0116632
0.00177669
-0.0354363
0.0313285
-0.00686622
-0.00652374
0.00666406
-0.00440567
0.00232545
0.0115934
-0.0140171
-0.00627465
-3.8655e-05
0.0195574
-0.0157912
0.00648459
-0.00298451
-0.000474392
0.00898602
-0.00372996
0.00709548
-0.029976
0.0259559
-0.00661023
0.00131761
0.00825555
-0.0769271
-0.0878901
0.0732879
0.165405
0.0547256
-0.0658741
-0.0451452
-0.00499617
0.000864259
0.0168485

