-0.7327937901291324
0.086202316355035
-0.5953802593312412
0.3617052217423371
0.1162446328596978
-0.2810744198729779
-0.2788326314286068
-0.0140718046839672
-0.1677547326520235
-0.2721316597908698
-0.270974776171478
-0.3537238791657998
0.0021929228306964
-0.31686507543153
-0.3493331731689313
0.2047683067427673
0.3341851107032701
-0.1683182511124099
-0.2975068692091717
0.0275051887054771
-0.0134033469710191
-0.1418881834617639
-0.0888608389149504
-0.1251320594154942
-0.0251707320423592
-0.1232527809298677
0.0240235246355832
0.0628431248335156
-0.1496268955314896
-0.0804910139612069
0.1498922194774142
-0.2163407245174509
-0.1252706092342974
-0.2527314921531689
-0.2740455900697478
0.228315908380634
-0.8737634920046262
0.0385496564682331
1.1181636070332115
-1.5135800820142664

0.3593487377050969
0.0844212079925899
0.0732433312140277
-0.1720524327373211
0.056307951172428
0.2400974239784262
0.2199780680522328
0.0904354980107923
0.2041677339098101
0.3728168895942857
0.4242933193998328
0.5342693166666256
0.1186855326604387
0.3162857652502604
0.3543132976442621
0.0747466180971175
-0.1370569591505624
-0.0175470159402148
0.1948669807972164
0.2225709588424932
0.1026896814726399
0.2205651810727903
0.2845850157895329
0.3156588084980918
0.1107343867809778
0.21234006634763
0.1698810447029528
-0.0513245125214536
-0.0364409965297613
0.1903555362469505
0.2240145744345757
0.1553563552884143
0.3015199571741116
0.3511208061913197
0.2320205145254361
0.1844044274880976
0.2422053304404907
-0.0874124354544791
-0.1622189881237733
0.5171333084678499

-1.4467416767201988
0.98725520298284
-1.9204676080910028
0.545177610154291
0.4151116550232857
-0.4787607720835291
-0.6908220227699258
-0.1245132240229791
-0.3810599187826693
-0.6979122133775264
-0.6963006892397589
-0.937502208485409
-0.0034210048757451
-0.713294863788083
-1.1636313767836328
0.6554218726666642
0.9355916440584756
-0.5319481571923899
-0.9019273759490708
-0.0078506538636642
-0.1288760466429873
-0.6374678777479148
-0.5599905969208916
-0.8202953953497982
-0.238106304696721
-0.3704700631291358
-0.7201072867730423
0.200008902960689
0.0087217911738723
-0.6182030247316946
-0.6322846781183832
-0.5189139601563816
-0.985475767234926
-1.05124306817897
-0.9867565534194622
0.3823556448460126
-2.2679034932750013
0.2972071736996649
2.1626662487115857
-2.7255638820337365

0.0013787018024881
-0.005808660172829
0.0079404120663716
-0.0009712654246229
-0.0038207260297576
-0.0002059332427842
0.0023044301400087
-3.034070078572217e-05
-0.0010429827203289
0.0005941204547651
-0.0001279686160658
-0.0003611639333883
0.002563083117882
-0.0068594331954364
-0.0017544526050334
0.0049444519406645
0.0110302503165061
0.0037647809490143
-0.0211003615450696
-0.0217127930385139
0.0769479588077734
-0.1010244423809912
0.1365524012657267
-0.3250430134021785
1.1783570056346175
-2.2176646380390954
-2.2997294313986427
5.393833832093061
6.9682757021796125
-20.724510523481936
17.95086233408495
-7.223472474547102
2.7532332620708795
-0.153520140347367
0.9383541608457968
-0.6775552373621555
1.554242128539404
-0.0938018567890739
-1.495564889866322
1.770023132515324

