-0.7949534739270044
-0.061657085227308
-0.2816393495292617
-0.3049816347090451
-0.0826269711416552
0.111685960539486
-0.2429939879696002
-0.2575796520563362
-0.2771601624612489
-0.3555692601922635
-0.2098730680341907
-0.0600745700697226
-0.2691301552962961
-0.110980923190855
0.0349269170371719
0.0863172434583431
-0.0197210817218674
-0.1843525380158835
-0.0632282886135978
-0.0733700123514951
-0.1407698262660826
-0.1321378833326005
-0.0836340306739854
-0.0570947509566345
-0.0644308473955715
0.0095087638688962
0.0057489727257862
-0.0544637229957593
-0.0721414835979318
-0.0260590031635041
-0.0741593413334308
-0.133928206892617
-0.2110588934328691
-0.0296126294519327
0.0004565628538036
-0.1631854375529828
-0.3193752315702162
-0.1675742462582707
0.4771738932283848
-1.0322898366776097

0.3941153125734199
0.1034756555672895
0.069779192522762
0.0832846018687595
0.1430507430361811
0.1236219045301229
0.1702127742084231
0.2841670235936247
0.3799636929612953
0.4858708819919865
0.3002515490681976
0.1634294204760782
0.2225437572761369
0.1655959422371589
0.1035181574814283
0.0616921737087977
0.0579210775586981
0.1362947523749788
0.1967108312846288
0.2122665437118688
0.2731173316595612
0.3225344873218604
0.2042289893880028
0.1398103757584991
0.1411706883671845
0.0644160913744817
0.0461347790830043
0.0679604698090461
0.1307128323881556
0.1961444145836692
0.2537032948424974
0.3384722691563279
0.3162406032994085
0.1255951977659662
0.1855926974239482
0.1298204794120291
0.0598596005541379
0.016068130502252
0.0214465804424659
0.4138747478263757

-1.3596430628536145
-0.196817404444962
-0.3692760775665028
-0.6175994488542573
-0.4776535632055912
0.43408390838115
-0.7262552902506852
-0.524280416869535
-0.7428266105471599
-0.8554882429308598
-0.6507883340045986
0.1432436899991218
-0.9603319182320724
-0.3470750542099243
0.078533349894763
0.4749602550972293
-0.1558515711544756
-0.8159699725130243
0.0136118763954575
-0.4567532734109151
-0.5642817977823223
-0.6624919229596099
-0.5740381567438514
0.0919390594087703
-0.8797582540904141
0.0054246156192932
0.0275562603247539
-0.3568423796099185
-0.5684908770994739
-0.440274529456266
-0.902551790261922
-1.0195392504757723
-1.1199928409038102
-0.1186111671789491
-1.1157348159830804
0.1612721361362503
-0.1334368557264316
-1.0863700155133464
1.138734236884934
-1.8880202881923571

-0.0043215880152417
0.0048271189390407
-0.0057204003946965
0.0043268057211826
0.0009419510250843
-0.0038965836181205
0.0027546399232265
-0.0010561177148329
0.0003162744859653
-0.0001246883613431
0.0003738529956481
-0.0027889815438214
0.0063886345863144
-0.0005055394360468
-0.0052094719564732
-0.0027264599792672
0.003749607235317
0.0063851064227894
-0.0074628033840252
-0.0001899143420132
0.008418441003279
-0.0263675217018932
0.1295912087696981
-0.5956466520457974
0.7844604695659708
0.8052575824531698
-1.3643666367681433
-1.8633712469986616
4.952963845986793
-4.780378479630529
3.145897419005685
-0.4533576190178618
1.0601984420379504
-0.426497022126747
0.9899449197506524
-0.182673423442991
0.0103279162777789
0.6972435597058376
-0.7555535402977073
1.2043565186042915

