-0.98524990383826
-0.0523090231022849
0.3894760440400798
-0.1196452777293428
-0.4738359828230554
-0.151262355020265
-0.3816192462607666
-0.3654799890117368
-0.1170709733160716
-0.2317293503085764
-0.157210419102041
0.0130380408858171
0.0061924314288405
-0.0643760237027342
-0.1108641336779088
-0.0823637947208567
-0.0722596224640324
-0.1400112138724721
-0.154908994352333
-0.1635768995898151
-0.0581526995202125
-0.1366851855853737
-0.0337648826427982
0.0436835793317382
-0.0063586164717897
-0.0718318886197657
-0.0565055658452684
-0.0506091626015655
-0.0940080672950552
-0.0939069952777139
-0.0933763716498687
0.0629717905100951
-0.0676170654395265
-0.125944574693757
-0.1133997062223856
-0.0807809902583073
-0.1000185336924545
-0.3853606163488094
-0.1796956346228539
-0.7427405001389005

0.3505706140471593
0.0876138987631092
-0.047484653399168
0.0362152752246961
0.2587173167997878
0.2667915539456998
0.3677420905472243
0.4346065354738215
0.1751455674837183
0.1892536775734643
0.1701851114132254
0.0939763493653931
0.0881881008325367
0.1279857203669459
0.1655430894537217
0.1747987525522394
0.1919439081114118
0.2748422700388502
0.3398339843281782
0.3445581261695853
0.1743215250532852
0.1543456643959332
0.1001699844148307
0.0483512279503149
0.0609244928851861
0.1115222566881675
0.1576784261852984
0.1702305003450364
0.2515034930609759
0.3305096218267089
0.2528079589765261
0.1424740401922632
0.1573560426286586
0.0761786856029929
0.0489849841472386
0.0919214608509408
0.1519638418336173
0.2107278247792777
0.1592556180615994
0.4116435879681607

-1.7601457261675104
0.2995798032008152
0.3550022377445555
-0.4427028609308293
-0.7566082549905458
-0.4708404357782094
-0.8703085169978213
-0.9214970640511692
-0.2011929954329681
-0.6453583727148897
-0.5250495499863232
0.1434600376300342
0.1655370371091986
-0.2590249687579163
-0.4852322268850957
-0.1334991469707786
-0.232111790833113
-0.5193246261891343
-0.5422855412229242
-0.6874322182009014
-0.2459054198351901
-0.3631983186857482
-0.2881462339503742
-0.0280235341392228
-0.1682795194876263
-0.3804061323079363
-0.4345911854815334
-0.5157614737027258
-0.8320968331380103
-1.0185782559250711
-0.8929687576738399
-0.1522300362380823
-0.9720294153394212
-0.0706633718854814
0.0256149759474583
-0.4685184009719956
-0.3814335412924283
-0.7591051689045064
-0.4522587088379748
-1.3649927512511746

-0.0059749022243259
0.0013330656567183
0.0039499919806293
0.0001088105951844
-0.0028410356531232
0.0018250463243198
-0.0007487851085923
0.0004086398082738
-0.0004259250782211
-0.0002891994857812
0.002222344798476
-0.0014878246789617
-0.0013875842008432
0.0007847998620392
0.0010441281209356
-0.0003163526076548
-0.000747368148781
0.0007017703310195
-0.000303088756921
-0.0006840484110172
0.0113620249717809
-0.0624019728235147
0.06176987633781
0.0929330766217161
-0.1003803685977368
-0.2041980910658647
0.4528337911220361
-0.4599888910867062
0.4380783891820008
-0.6990073233633602
1.5395889213338416
-1.410112514263831
1.7516826214494616
-0.0447476687437264
-0.4487107006301504
0.3612763578697976
0.3095310194125789
0.3824798746890323
0.2656098875802065
0.8402824526175846

