-0.4601994506284512
-0.0784032196815824
-0.2920081074637086
-0.2156537814143912
-0.0298160806304572
-0.2474775122960371
-0.035474634248618
0.0882032436128891
-0.0712906500097138
-0.137972612191672
-0.0409836716219637
-0.1151977138596377
-0.1246003075383619
-0.1314344353344085
-0.0204386101509588
-0.1844984994251818
0.0664830860071617
0.0565142344932136
-0.0161168162330042
-0.0196260857187186
-0.0337159006729133
0.0204895278479481
0.0321671308634781
0.0086611734689555
0.0587885106934176
0.028188345721475
0.0779266768320871
0.1765407576846062
-0.5712286442250354
-0.1512469028894863
1.0894534640130713
-0.0223417931789449
-0.6048042318160047
0.068232900229503
0.2011810306492048
-0.2273396817971781
-0.032775866059025
-0.3119933133805557
0.2325572769859233
-0.6092128445080209

0.4393255590758396
0.121374296164144
0.3624307069757561
0.3159724336833169
0.0887998565646017
0.210289548457759
0.1858621985496051
0.080773156128935
0.1035423962405758
0.2222424425882173
0.2964642570995491
0.3564612645618544
0.506357669065159
0.5328018331888078
0.2552428884134044
0.3487229864928244
0.1460661340976121
-0.0347032227414171
-0.0326265132509335
0.0595877051998363
0.1094286516455615
0.1170728864905657
0.1089905030044513
0.1687200453302724
0.225686564243068
0.2287881904232532
0.1285456384276205
0.1004539748714439
0.012662802883459
0.0143985809363175
0.0891199072409044
0.1113425675254605
0.095442475368927
0.1060114092945919
0.160758308120605
0.2284432777737179
0.2864667004977539
0.3510853259727179
0.0170436456572795
0.4721437824711952

-1.431089965701028
-0.3492502009300107
-1.1503651071235792
-0.9091709835806746
-0.2790791989978826
-0.7167454137805765
-0.3440318691633131
0.0302113985900846
-0.1719755874272582
-0.509719330998319
-0.4771767899415449
-0.5608801366193003
-0.7967469704663033
-0.8040828435009203
-0.3656107167394071
-0.5741379659498933
-0.0924961864313694
0.1318425965285582
-0.0153076959497371
-0.2312149960785032
-0.2428771006681157
-0.2022737098863604
-0.2712307777832501
-0.478835742983606
-0.6027779667020383
-0.7196484462288851
-0.2905405091484965
-0.3644910279160828
-0.188300863299388
-0.0122722886148823
-0.2854198277047862
-0.363605839429404
-0.2735006746790905
-0.3415833049682307
-0.5309661118598793
-0.7529760365889637
-0.8751535627636812
-1.203505174559177
0.093881956750607
-1.6230912334204315

-0.0562050062330398
0.0421626295349641
-0.0170055869022425
0.0088509773565952
-0.0106194853520764
0.0109967471020335
-0.0022730708371471
-0.0044372082771675
0.0017130762712498
0.0019483325775904
-0.0018317802714541
0.0007922074012145
-0.0004202623046228
0.0008150959399854
-0.0039802524806061
0.0111789269417061
0.0036385104925643
-0.0157018683773046
-0.0151251994103074
0.00823739645002
0.0320935678243174
0.0027381097070235
-0.0796258204931144
0.1289640431234909
-0.2018999491296152
0.5791551389536187
-3.000749979674284
9.78991050346749
-0.1391050933776324
-31.69902900067674
31.134376636986133
1.4589382620666662
-9.029296349653803
-0.8188012254577356
3.967156875746217
-1.2840763883218198
0.979301565255627
0.4812945525506086
-0.0242563097304567
0.92282366216379

