-0.0317909300329418
-0.0604222739319214
-0.010201333873369
-0.0166018493607961
0.0036503504837479
-0.0586358603216959
0.0802157599842672
-0.0026088513650363
-0.0303456484964827
0.0659443820101687
0.0225057953341505
0.0631408760717768
0.0905458935905882
0.1263694368571242
0.0361980350400389
0.1583954609207742
-0.0828434678587448
-0.1426238321886832
0.3233126001792791
0.0739973604052905
0.0063819100735556
0.0808871148365896
0.1798772818161157
0.2171761166661931
0.2674407094705523
0.3921968991866922
-0.0822812098161175
0.5907602071281564
0.4875737843373509
-0.9874321993924072
-0.7439512439862226
2.2388539565680974
-0.3232562217704862
-0.7484983563827392
0.6866240928727791
-0.0670082351180403
0.1690110142387333
-0.0052202397204696
0.180535055252433
-0.1997944176740267

0.3479692204274537
0.0862078579740229
0.2751675183105638
0.2201487997078393
0.0983377047169561
0.1328469013517319
0.0823452964431846
0.0073153282573842
0.0240293998440567
0.1223247401925938
0.1421886838593373
0.1592020778682048
0.2518017768885766
0.3102852744883038
0.1172541660964291
0.0677604342549488
0.1398248190721547
0.138658993818717
0.1203293538401701
0.1026499506917698
0.0801566251581333
0.1752353790097143
0.2595053587725131
0.31920745011142
0.4226667645476533
0.4296042268040211
0.1882847887556822
0.2477432664723787
0.1959846702801903
0.0514333328043047
-0.0322227905587993
-0.0516047590017718
0.0828941086196097
0.1680313140949093
0.1391095630888419
0.1536976899826392
0.2424253847465275
0.2581310857726682
0.04490394358609
0.340600394717876

-1.5989220021759476
-0.2707946868158002
-1.2065354950591871
-0.8704823641653598
-0.3222810483575049
-0.7078252040141199
-0.2672428771504974
0.1412469251418199
-0.0603280878560826
-0.5063626554327065
-0.3188695773212091
-0.3944782743094122
-0.5896415064708492
-0.6511354187331261
-0.2225727935265924
-0.2166985458263426
-0.4400132109145293
-0.0522004078127451
0.1171685452769037
-0.2594966949340244
-0.2907282608122372
-0.3909541469941331
-0.4238004457163639
-0.6944848663625905
-0.887639160086459
-1.0650949614893557
-0.3054263942302121
-0.6332275860524543
-0.5367455205484365
0.0016765742504358
0.0487285197795289
-0.3388425817435649
-0.5006312488919482
-0.4652533923093134
-0.4977959339229372
-0.8542113725873338
-0.9622027950409244
-1.2826315061730655
0.0507770810055634
-1.66558873238256

-0.0585816987686916
0.0438577445521788
-0.0176470703452682
0.009203514074792
-0.0116959769709146
0.0139321389254333
-0.0025864187367075
-0.0087759010966413
0.0012367271189116
0.010990745523631
-0.0112885557357262
0.0053901889997543
-0.0003177772438173
-0.0109902142431493
0.1323816799098527
-0.7659185468109818
0.7034809619984735
1.205443515787009
-0.3436153487615497
-2.394292158216893
-0.7971874539579725
6.52928185017002
-7.34407498162408
4.713920936967916
-1.1684003262341056
1.357954875251363
-0.6043981357377259
1.0483713370747698
0.3326884795512944
-0.3490472477403741
-0.2054705293089772
0.2814735967929179
0.4353440786143463
0.1533478584519642
0.1366236073085276
0.5083087307359972
0.4049768414916097
0.7073233707704722
-0.1823919630948916
1.008211955464119

