0.124282189850834
-0.2667558636074312
0.1330541536235878
-0.0683852597811608
0.0264495277671789
-0.0329764173351703
0.0495146482084919
-0.025815502900898
-0.0543242238329931
0.0833009390882351
0.0479436589342929
-0.028368729437162
0.0600058750589233
0.0544473376469868
0.0945540455857201
0.1238113133796242
0.1855248955983806
0.0362366163584251
0.1083989191820241
0.1462181407640446
0.0239809503078941
0.0083809500638761
0.1547980260641746
0.1530582314851805
0.1862868169571562
0.2855391825734433
0.3744973348804382
0.2321052483773631
0.3295668268882377
0.0982547982534563
-0.8085318097748234
1.5326079211395598
-0.3807263520321658
-0.1658734478058003
0.4102157210437571
0.0152001718812755
0.1771638749798558
-0.0321318402175559
0.3031055813266902
-0.3182693745568991

0.2949161330382736
0.0431219820235161
0.1656988241219533
0.2356068099656172
0.2224369340744043
0.1048047312374057
0.1488927752953651
0.0633606829545593
-0.0194385426244752
0.0296347092503645
0.0574932229101003
0.0681949920532552
0.1286040159253096
0.1429179157892646
0.1853273535496386
0.3143705363067863
0.3741442539033702
0.1759545581682426
0.2307328692928298
0.1853382319186364
0.0267475649740659
0.0772540271386336
0.1949727550682471
0.2499285775956581
0.2680014897735735
0.3817250302680225
0.4500582864483634
0.3009770153680777
0.2237932979744281
0.2011243180813226
0.0360192239149761
-0.0626224359744421
0.0759914378706621
0.1767134265196623
0.1473697524278267
0.1888690765884716
0.2680781798963252
0.2460645369070705
0.0418208556317224
0.2958814891793627

-1.7237224133968132
0.4785732199818294
-1.1209209236241726
-0.7350835411945903
-1.0230456020486076
-0.1028041881133378
-0.9383225370836424
-0.3716476358294554
0.4506266164429694
-0.0240641067997907
-0.2928593325361355
-0.1797043524521102
-0.3486364417358141
-0.1881134204884551
-0.4149184506912317
-0.542023907487937
-0.6784234537583445
-0.2654194121968515
-0.2602251954636986
-0.5487059676700795
0.1521733901551926
-0.165022736289272
-0.5167699321809709
-0.4420758139562912
-0.5818111338113039
-0.9047236715198974
-1.084793077900655
-0.8977395429013364
-0.2092036363884137
-0.9007223822849864
-0.0391897420474594
-0.0926777940330536
-0.4703933582356719
-0.6367415132958625
-0.5492076568437774
-0.9687312292543376
-1.0910120409962922
-1.244216842770671
0.1129911798390642
-1.477075086100111

0.0310781575344892
-0.0288415906075377
-0.0040271949117435
0.0108961313992721
0.0065771302578602
-0.0094224711040244
0.0078860456122875
0.0065205148139076
-0.0051200187626255
-0.0077130072562565
-0.0016989092092172
0.0050870945773295
0.0047066758575915
-0.0023138137006649
-0.0037354246571825
0.0031728347209184
0.0086352683447623
-0.0075525708125788
0.0068081588880554
0.0038053303268607
-0.0067163821361885
-0.0048991555686394
0.0036187928220614
0.0045084861245587
-0.0033609545406513
-0.0004248943478052
0.0078568222314843
0.0024519469878661
-0.0032746410082676
0.0071631334167382
-0.0038340506577534
-0.0064257973839657
0.0013413076888406
0.0056831544149457
-0.000793309498775
-0.0048679016978632
0.0097805737470764
0.0103677782386754
-0.0431372510585695
0.0360699126669874

