-0.6603900524463425
-0.0085521398106539
-0.3504936039903178
-0.3811754985535976
-0.4112875120322039
-0.1317464600122805
-0.2718762834701915
-0.1722755592011257
0.0157100379744567
0.0343242290802837
-0.0694140986462726
-0.1430577661454065
-0.1441681097669344
-0.1002488072442576
-0.1763552006619424
-0.1992509593408726
-0.1990288376213878
-0.080315993883504
-0.1248708540651423
-0.0634756431903902
-0.0037353816113749
-0.0089716946755803
-0.0428787302051196
-0.0683139634519651
-0.0595603847044188
-0.0872965935157838
-0.1197779153379781
-0.0359816066820604
-0.1691525864819625
-0.0756091214747569
0.2684479139971382
-0.0477826709610753
-0.2178319787893236
-0.1017712990273983
-0.1190407902805583
-0.294408818502216
-0.3451052640277008
-0.486163314015766
0.2048898459266551
-0.8101441526986082

0.2750468771017339
0.1085844236846785
0.17382235127576
0.2908761430508373
0.3319099876286289
0.1557274414041632
0.1664017136477385
0.1347190792372795
0.0753063725093578
0.0761704477765849
0.1163171549673053
0.1648887829666323
0.2111719379071142
0.2547107321870819
0.331118515645615
0.4238252493967589
0.4077498841287633
0.2207335810668653
0.2055178909730228
0.1245104956294813
0.0278106061570286
0.0305924411959379
0.1145100182113629
0.1759286744688512
0.1890447933858165
0.2526680722937332
0.3159697407916128
0.2290345309717357
0.0906272632829998
0.1196945438962523
0.1098505667958258
0.0829653242113363
0.0976385022844666
0.1459446107472237
0.1933526861827705
0.2473381027409677
0.3294111685445801
0.2808255830311542
0.1032216949362692
0.2928596312021929

-1.0914174416231912
-0.0588931636810091
-0.7450961092586005
-0.7845824395672448
-0.9409332329226804
-0.2562024973530942
-0.631360377279662
-0.4266832654934144
0.0365912603983235
0.0466233715410092
-0.1919861612343001
-0.3789278178346977
-0.3482106472400096
-0.2948098028680737
-0.5235287285886039
-0.5867408158362766
-0.660350387682668
-0.2371147031612024
-0.3906977344519617
-0.3026881262883364
0.0047863508962764
-0.049793062429629
-0.34759015489365
-0.4257923732533396
-0.4359032957282831
-0.7324297588358593
-0.8764871029019276
-0.7791259655221695
-0.106030097333818
-0.4694381971677419
-0.5087255477177531
-0.1975919442446338
-0.2062533590618441
-0.5238743008722669
-0.6181371722152835
-0.7933001576499193
-0.9992764402055664
-1.0332571284750354
-0.0053465590578924
-1.2042215628379

-0.5454517701961258
0.6069261333070122
-0.290499115701537
0.1016472177387705
-0.0450044538245375
0.0407033386886894
-0.0361175996360965
0.0056324976576751
0.0088754268749681
0.002244158085071
-0.0024094419953672
-0.0029719266889039
0.00016442700113
0.002182234883882
-0.0016018439939861
0.0011469720927502
-0.0021161631659112
0.0071102633153993
-0.0119552963886317
-0.0077297647575781
0.0125056999855857
0.0236882101857317
-0.0142435449046491
-0.0555348372168869
0.11003993928544
-0.1525138733894216
0.3264627814974691
-1.5018383505611048
9.02988667123838
-25.87078536123337
26.144892199997045
-4.282851326605001
-6.907390099158877
3.9177710727077
0.1381666943617067
0.1614800033069904
0.6344702122689747
0.6774412905797915
-0.4403170001484977
1.23832188804511

