-0.382782893912713
-0.0832112629369875
0.0028546245622187
-0.2075670767613537
-0.1939682089105241
-0.2002678835951956
-0.0975765056890253
-0.1058298706469575
-0.0650889589765438
-0.0155632287364009
-0.008237562129121
-0.0226485667634116
-0.053121876336282
-0.0539971384127817
-0.0418591237846984
-0.046600486631388
-0.054594838495163
-0.0415411562375623
-0.0246555535605403
-0.023565234523639
-0.0134561976361149
0.0042469623541098
0.0264320555153701
0.0231006801293781
0.0149742562044259
0.0363706301245079
0.0534689370005102
0.0830615405731845
0.0560470662467173
-0.0373167329990845
0.1985662352006433
0.0776916788538994
-0.0581595796500876
-0.051781504487229
-0.0050078946763043
-0.0476611051611313
-0.111249073694726
-0.2155161799012259
-0.1273879523349689
-0.3566301454082092

0.2928662134375476
0.1261474230414195
0.0916429082725453
0.2425024529438458
0.3591261262964899
0.4007394722994158
0.2042949129153949
0.1778086795408373
0.1428488978655427
0.0966089071822986
0.0924383823583053
0.1229566908731108
0.1751180733108262
0.2119411507161742
0.2408984591684003
0.2948134644962294
0.3595231275312538
0.3421475352413174
0.1937653464666255
0.1754817919775454
0.0804801427207139
0.0045199755535944
0.0253307573285209
0.0971472374794088
0.1367782606671952
0.1437210956725874
0.2012736206163257
0.2539560371989511
0.182567425774031
0.0870318444717719
0.1216626703876485
0.0899555011200465
0.0695726441700676
0.097189777490379
0.1453486113335877
0.1889318882285195
0.2491555591847305
0.3492727093243903
0.2300960922852294
0.3794401636357002

-1.2643390399932388
-0.0049364180749946
-0.3732078302590755
-0.8229576366838901
-0.8263765612782756
-1.058250937152935
-0.2267196365495753
-0.7320490976108756
-0.4828801556134797
0.0907882210956187
0.1073990337774809
-0.213080636921878
-0.4609553503010257
-0.3167871167403463
-0.2369885486988573
-0.4939501582571725
-0.5072865141033673
-0.6214402692349638
-0.1575406572990889
-0.4949391897910082
-0.2270458530945338
0.1558643560481216
-0.0686429840793166
-0.4266029975899819
-0.3197292337574325
-0.3888105043932793
-0.6839401943127101
-0.7870793088168476
-0.770453433647463
0.1063746221060995
-0.8624533407664541
-0.3343632366276599
0.0676545167049536
-0.3188059519948942
-0.5981754092473957
-0.5749196846382848
-0.7693046054579047
-1.149280897501826
-0.7145374294101138
-1.196698968485072

-0.7855188794894575
1.013554594854914
-0.5001613723853975
0.1369062325597471
-0.032420963332854
0.0108733660610629
-0.0058478496133772
-0.0007889201554496
0.0058667724577014
-0.0006371976127726
-0.0029231864970187
-0.0006004530821891
0.0015425671334251
0.0007348335887911
-0.0018118225948786
0.0017696835357371
-0.0019537871561499
0.0034585702271347
-0.0020737725863206
-0.0426834347750026
0.0794197404158216
0.068130428112167
-0.1404278038766755
-0.1744632591588234
0.5290052480796529
-0.6152999439418309
0.6510231028859467
-1.170653918309394
4.06112023906528
-13.877956809966468
19.161751432354222
-5.927579924513399
-4.866951630388366
2.468672620802276
2.101994595535433
-1.3070913793295476
0.9907022446972952
0.4728502147107322
0.3375475060420352
0.8555108581259411

