0.1790308713437454
0.0167226257528621
0.1502619143470916
0.011735599495124
0.0700616654495568
0.061673256122295
0.0165148734763801
-0.0241642153847681
0.0097309902829056
0.0847703702884021
0.0746336114315742
0.059602426387721
0.1363219535802745
0.1684220909293914
0.2106838903391612
0.1022370485737688
0.0637610082215863
0.087677342646374
0.1119089905876905
0.0736430746784491
0.1143273293182338
0.173839001862616
0.2342769752939359
0.3314809556233838
0.4235840291637658
0.3327113058262219
0.1065656921384264
0.3052040618156536
0.1322494011408363
-0.0474479372569595
0.1061601463009689
0.4978053530784688
0.1215428629217206
0.3609538320492421
0.3748804801404147
0.3044779828674893
0.0983058865122134
0.3119023986486385
0.0572013601402884
-0.1925287780752451

0.348277583169494
0.1573647566247853
0.251856061687623
0.1173391532628702
0.1083313796529249
0.0835137903719208
0.0398021672456075
0.0034502579010987
0.0155325866902747
0.0741006754192467
0.099122897958432
0.1032608071582488
0.1515495926453075
0.2173633096306141
0.2389510229006786
0.1158034571864134
0.1309729119720813
0.1320187756949009
0.0976715224738843
0.0908929345711939
0.1072588095488267
0.1864321505735018
0.2538571661016892
0.3396651811992701
0.4138686693722955
0.2991525700021211
0.1845222114547561
0.1592332222529495
0.0829558705763475
0.0416513777568632
0.0652497031416776
0.1069045139663354
0.1633334748933725
0.2024004766830786
0.2671947909600735
0.2663748210566586
0.0715503290927281
0.0458713544804961
0.0906791552933683
0.2347327768225218

-1.5382576530583425
-0.545096780012948
-1.2629187771817052
-0.0021804834619892
-0.851584782141528
-0.7474225380251158
0.0391262025719163
0.6140073909803869
0.1588775843393357
-1.0021793204924443
-0.2183275531850614
0.1045077118976914
-0.5998984963621797
-0.3465207801424499
-0.5671795597417465
0.0107322158439321
-0.6557055276193691
-0.2455084347706852
0.6009330947013786
-0.661026672502247
-0.1872381345198881
-0.3393022963736692
-0.4865485978516465
-0.7349070632482408
-0.8716350187841791
-0.8476793408579408
0.1853855829291829
-1.2619637897099467
-0.0316012161593713
0.31210344865506
-0.5464417496372198
-0.7100930075880345
-0.3967336662883486
-0.9313403593372772
-1.064413441032582
-1.0867148165498572
-0.3605368209503527
-0.8628499773866459
1.3113229250466132
-2.1005848915447998

-0.0261489942012822
0.0162209109330654
-0.0080420302461173
0.0074836021546465
-0.0084016083099993
0.0046653385163509
0.0018650629725105
-0.0018306594810665
-0.0026632661553396
7.92074715870282e-05
0.0052551492009555
-0.0042608146137745
-0.0002854062226689
0.0055902831401873
-0.0228302586559141
0.142828969210256
-0.5629037260092703
0.3738919979424848
0.8997266443010351
-0.5760401550100034
-2.006209383564358
3.605021318301743
-3.17146581223243
2.282321077648699
-0.1235666311890305
0.9458751616482312
-0.5804821494658826
1.100819127103467
-0.0248352480824541
-0.271747401806235
0.3080134363376334
0.4087542287735293
0.1898983009629282
0.4802488254173499
0.5487354648337422
0.5354925421960288
0.2311403802544238
0.4693988590750871
-0.9942950750978532
1.3724027795211713

