-0.8423192730939365
0.30786569364449
-1.0741267264265804
0.3093487437737399
0.253450365628157
-0.3119327486603683
-0.3305739333344632
-0.0127547087190321
-0.3179101129439604
-0.2947742206789364
-0.3677808778388101
-0.1160273424370811
-0.1363397700559941
-0.3448126335754178
-0.0350220003720901
0.2259622119099213
0.1082404435587567
-0.2901711588830838
-0.1203751385310512
0.0431703534641672
-0.1657754233405984
-0.1023883714058323
-0.1375397305521091
-0.0063865413300964
-0.1859435552857486
0.0237507588863877
0.1871100505591409
-0.0361923301378257
-0.3321738324669285
-0.0269647801223425
0.3973939407762346
-0.3987525013756354
-0.0342913045591975
-0.224812088399727
-0.3268671134448659
0.0489257193084005
-0.6498263932245358
-0.0288081259332721
1.1262148992702117
-1.538684950578148

0.409355423645404
-0.014173063594209
0.2917055190011619
-0.0850874907199953
0.041308201175904
0.1999820133628271
0.2115656092245044
0.1715753271293364
0.3427052981699722
0.4343344410788178
0.5382916045841385
0.2114447227713324
0.2025186748325689
0.316171700199502
0.1610734879795808
0.0025585829809749
-0.0561376496598163
0.1343539542144932
0.2375902511922709
0.1440618716760126
0.2281157039455819
0.2887316961763062
0.3286509533019546
0.0722575089047698
0.20828345270884
0.2076105199053964
0.0513256626979409
-0.1283059783911519
-0.0624068281151825
0.2182355910731463
0.2515200465871597
0.0686375596910244
0.2499588250303626
0.3011344405688309
0.3213713628461733
0.1431936937834453
0.2822955168585563
-0.0106820683290406
-0.1935277797649645
0.4912225096408548

-1.535410212315827
0.7936755055865117
-2.2545822282660457
0.5931612292197382
0.4931990901708807
-0.6964292460084692
-0.728166028031846
-0.0800312469816893
-0.7740256142248658
-0.7555512450601618
-0.9351832900909351
-0.3624417113899454
-0.1835358243174209
-0.997417087699358
-0.2523258384330282
0.7443356364355195
0.2637533887062664
-0.8894948313809219
-0.3727229007386523
0.0085704398470392
-0.6481490712909315
-0.5406122705448817
-0.792893908878587
-0.170736422053789
-0.2713204988054635
-0.71008896316395
-0.1802516670357962
0.3257412342735079
0.0533647779251774
-0.5948596384197836
-0.8772083664133856
-0.0390849607417761
-0.9690348013667962
-0.8294692104659183
-1.2054848337226751
0.0500369495271636
-1.7546739872715464
-0.2067087236353382
2.3256851799077256
-2.6876196496231817

0.0004555083370223
-0.0020714408712625
0.0047056487554267
-0.0028655887316329
-0.0021916643005339
0.0023793361874509
0.0006782086355526
-0.0015223784866073
0.0007245665879818
-6.695080838081731e-05
-0.0005650662453846
0.0026834575933922
-0.0056990443535999
-0.0022716559066089
0.00233051983367
0.0101861418184916
0.0069706652769753
-0.0172132618058332
-0.0261100646251042
0.0717261397311689
-0.0882418705839353
0.1185597243244478
-0.2902717335781637
1.0458695856700757
-1.6101309814119578
-2.801850246294181
2.177091805808113
7.243729600321173
2.132298169571769
-24.70937245620037
25.681660621410035
-10.818999707852722
3.1369671099230425
-0.1183752195386413
0.8240270680471322
-0.1621367450262145
1.0664763570807534
0.1317332382633519
-1.5278256181688084
1.7627231124284786

