-0.4627462437302497
0.0144034352974981
-0.2015272063061658
-0.0257446789208534
0.0239302649289788
-0.0994555413056962
-0.151336982026922
-0.1483567302177648
-0.1887700913268977
-0.1031326015972859
-0.0706445500883597
-0.0774789476166614
-0.0507711308851809
-0.016762444682661
0.0041394792668242
0.0101612776373008
-0.014885931190114
-0.046997242162415
-0.0071678817666079
-0.0205595946894274
-0.0073408249115108
0.005340141879562
-0.0251799834397874
0.0273342334490509
0.0305061733803094
0.0139331738051442
0.0153194374771591
0.0285906746757197
0.0523065465309449
0.0787386738402214
0.1283602011206604
0.0739374294067047
0.0378441774214626
0.093224632459556
-0.001515819088583
-0.077209977061417
-0.1202960148029985
-0.1054100170917573
0.0920428590649495
-0.5022385256311291

0.4911090886671894
-0.1243006327667048
0.2309738059399826
0.0640896375166978
0.0898841087118105
0.1929619789726998
0.3091868055403748
0.3842565109857427
0.498958868933838
0.3238671259863827
0.1338769463557919
0.2366306334411442
0.1595880328036017
0.112940299675805
0.1124260119525566
0.0859411856474817
0.0786825747464403
0.1950826653510542
0.2002904630580337
0.2463250520969433
0.276307672012079
0.1716439766418667
0.0957257638999121
0.1273109953945321
0.0376248031719269
0.0167552370634203
0.0952850299256264
0.106748484535727
0.1286998905809718
0.2135239902376889
0.2862879444187837
0.2955017313253603
0.1003380228274939
0.1948459997630149
0.069335196223045
0.0155348808468288
0.1387917333291934
0.2213101210477989
-0.0612176290421121
0.5149776477261183

-1.9727764365327964
1.742538610206886
-2.8874108298750527
0.3200766004348113
0.861575346257487
-1.1962970806340063
-0.4541495063958521
-0.8292347642584593
-0.9384378752858624
-0.6447640037211659
-0.0523729983444683
-0.9487006610509192
-0.0005351533245593
0.1453640791113591
-0.3079455425017949
-0.0512014172654382
-0.1248137247175253
-0.4290793894309501
-0.265487738462832
-0.5206507629120045
-0.5429754214825111
-0.4811896551909249
0.0820259125433689
-0.6752393234230073
-0.0336455640758575
0.1063204385597734
-0.4465232595798267
-0.3813004561969277
-0.3942293722304301
-0.7559526509052608
-0.893783029789507
-1.1072393143687216
0.174570944591505
-1.5275252227453355
-0.2030994789947507
0.8394306402265045
-0.3302775176190609
-1.96959420364435
1.2177046589343126
-2.0027713851134683

-0.0050445665746232
0.0052413430935254
-0.0001864230973209
-0.0022753798056532
-0.0023699932886799
0.0044908175266966
-0.0026940041926716
0.0011175037015854
-0.0006787804175852
0.0013079357309387
-0.0034518340890507
0.0038248656477907
-0.0002986068241484
-0.001440550983838
0.0005626340706103
0.0002226272148821
-0.0020321556940802
0.0034654150305642
-0.0028049798213198
0.0014322192562419
0.0004765834437536
-0.0165775327050077
0.1309894203636089
-0.2529974140534868
-0.1366549014280748
0.4493091660698189
0.3323920456782254
-1.3487049114495788
1.537892993445531
-1.3178630592155312
1.396795705859464
0.1639603525256378
0.4172880932136121
0.4066999658995886
0.1324343270901699
-0.3277408133514789
0.1837470797353801
0.983453013262336
-0.6309474305087139
1.0924211563694437

