-0.3190332714573826
0.1270865966807566
-0.2408525307837742
-0.1415234865559172
0.1055567583176888
-0.0241253684725313
-0.1202080292028602
-0.0614559029946011
-0.0828563982669696
-0.0280514233065493
-0.0634423953440914
-0.0073137849052106
0.0329165787492535
0.0028114512199072
-0.0149903674961138
0.0350541158543035
0.0417531137796286
0.0382268619182722
0.1036434980288543
0.1325863905631206
0.1853295333224705
0.1355689016562997
0.0433030664308908
0.1317232886180093
0.0728002503862642
0.0301477370369701
0.0778025482058586
0.148340099965241
0.1730808700871335
0.2423162364774841
0.3285586001797612
0.280418549483298
0.0957316700714862
0.236009164135001
0.0619685559113349
-0.0632631835978369
-0.0618358130206546
-0.0111817633463145
0.1073824441535755
-0.3246814988347501

0.3800068406904004
-0.5328971768260988
-0.3247963594994799
1.6942673681616098
-0.841871759013933
0.1819512204023101
0.3788630555149109
0.2859958090167282
0.4182836800728584
0.3439496584295753
-0.1980046348446181
0.5564579997419598
0.4411734976816487
-0.4501642143436272
-0.3380753035366677
0.3664569494795526
0.4835142782841518
-0.5345999692990897
0.4567730125520059
0.1352906328671499
0.314993770784793
0.2612443809144135
-0.1223209872862215
0.4969311966554622
0.1732470742012479
-0.2392869299268687
0.0435885692344154
0.3456748331124843
-0.0130451664369377
0.1728117600054725
0.0751796607161277
0.1168258479147151
-0.0326255701885256
0.1579368278123437
0.0579396305362027
-0.0904134362869311
0.0185386263867711
0.2419190888447225
-0.1451503900883927
0.2430492595956244

-2.071862391590621
2.176867193736196
-2.9734342304508434
-0.2362085331817567
0.9571435800979192
-0.9502090813970764
-0.6313865812681672
-0.7912162241933983
-0.9406399147863302
-0.662671680402518
0.1822918445524242
-1.2081651192459024
-0.5675390881914016
0.8225796967113043
0.7145108559603638
-0.7891647187259914
-0.9436059953283522
1.1743840995851482
-0.8263474550631476
-0.1684526811559128
-0.5358102902387833
-0.4790296433698157
0.239938342843168
-0.8257207854896309
-0.3144773331069296
0.2441887905192485
-0.2137830949339226
-0.6820787050577224
-0.2698872601059391
-0.7064246858448154
-0.6970935623877969
-0.9171187421672374
0.1720607798101228
-1.2492470622513354
-0.2595176401680123
0.7059866870704312
-0.2645547074469784
-1.851458821907556
1.1468697289512697
-1.9360925976808248

-0.0053259249185653
0.0059565198149974
-0.0012272270200044
-0.0018857459431831
-0.0018725660777162
0.0038815036909593
-0.0023372405009223
0.0008883964606829
-0.0003576030713614
0.0005329187721206
-0.0029120823744065
0.0063794175499364
-0.0004620495021039
-0.0051753347350372
-0.002728075126808
0.0037193856588872
0.0063654502908199
-0.0074338608835913
-0.0001850083391321
0.0083819648520338
-0.0262699264845906
0.1292346241399701
-0.5947312959816313
0.7844321968880801
0.8039695328482653
-1.3650235904247203
-1.861510792606435
4.954665783956366
-4.78620334807558
3.1540791100642176
-0.4671831359952785
1.1039604935648402
-0.6090547046041428
1.3268378395101352
0.0226017566761099
-0.6385684557224046
0.1957046869791494
1.1813009402448733
-0.7495954413581338
1.1220270798334515

