-0.0260621928510225
-0.1064703305976303
0.0240547434579568
0.0231191912322039
-0.0009337820221988
-0.0036027200977712
0.0093084032763498
0.0175428122169813
0.0307345572870597
0.0531857141354687
0.0773920243936944
0.0296648338799757
0.0364806096940378
0.0413735558045762
0.0173073595440828
0.0137393404857369
0.025664933078406
0.0703962749991475
0.1178073267220403
0.116345759470746
0.1781104273535328
0.2518742348811378
0.2849003448270782
0.1232903884612662
0.1254397771880799
0.1080990643967832
0.0651902197137309
0.0614468856720593
0.0880197064158035
0.093929076112287
0.1383274417758236
0.2974549494514078
0.2057213431537392
0.2806832283977305
0.2157209751597994
0.1225150550445988
0.1541919446372419
0.0415118139296181
-0.0723045877017607
-0.1314950745549588

0.4012420625683182
-0.0842416261335791
0.2720194411278701
0.1022986733240704
-0.048317875653797
0.0315921389161939
0.1615547430528766
0.1010707329507257
0.1466907651487702
0.2242511986994044
0.265021450510326
0.0664536226242096
0.2485282518597652
0.1366034017817978
-0.2288461727087397
-0.0170900923647053
0.2722093034644203
0.2448984030782727
0.0975279878761615
0.1996773486927936
0.3277178460253414
0.3984840045458248
0.4755419983244696
0.1402453928123301
0.2855590548922543
0.2254907678515217
0.0276896736162692
-0.0076057790766292
0.0723036789322205
0.1209162982939502
0.1608105584672949
0.0675803934301821
0.2071981363071175
0.2355734959251929
0.254793981168377
0.1217966584197998
0.2222748899617074
-0.0303747552085914
-0.1697122390100353
0.4628335680257844

-1.9240377326145688
1.039617767662904
-2.5447799684994497
0.1837033208045705
0.9357727541329594
-0.5059566914684257
-1.0184979191812586
0.1430985899038383
-0.7004778593188615
-0.5723576897310375
-0.8055751834094601
0.0373881904266179
-0.9796715681015304
-0.9179897769148576
1.828254734749411
0.130817745619912
-1.508169812723977
-0.3542486975575797
0.574691100597107
-0.830955446807388
-0.4688815800993878
-0.7743868565143952
-0.968781000120083
-0.2117681913845315
-0.5300557016629338
-0.7509020915980621
0.1782163851799438
0.1385682896885812
-0.4513582145303521
-0.5316998148446345
-0.3465358568482503
-0.5295867599280764
-0.8784617033350844
-0.9635354833963972
-1.3275657033907036
0.0657291510945176
-2.0066177060883508
-0.2477207094885037
2.7908754740200283
-3.2420277444558194

0.0004679672235103
-0.002068135192224
0.004517749053781
-0.0027242869730828
-0.0018560859485263
0.0022160986890498
-9.537771863011428e-05
-0.0002611388980643
-0.0003923899689432
0.0009924639938592
-0.0023491066641395
0.0031534918372786
0.026628543721933
-0.062360592060692
-0.0493771042730025
0.0718608947573537
0.1432036362305241
-0.0565313473392965
-0.3654352721374043
0.579729062559776
-0.549882820310755
0.6156226706952286
-1.2350936431335262
2.530760062672085
-2.4719773965201566
1.3544735629916067
0.6862823758140766
-0.2167563424661842
-0.2504332329345481
0.2259035614883799
0.4386287294842899
0.1512551228555302
0.4254690581917921
0.4638013097335855
0.6370894801523546
-0.0518921769314287
1.0269638480639784
0.1011821492394763
-1.514774901356588
1.7730759984421025

