-0.3049486375964875
0.0278163441057028
-0.1832663093572209
-0.1273948043561688
0.037320546870879
0.0301497846905393
-0.0633007856262167
-0.0793035945997977
-0.0328964502319651
-0.0579991298443467
-0.0341461945493601
-0.0167118955096827
-0.0117340627880501
-0.0083531792762506
-0.0122969953458412
0.0267534356902045
0.0350158848332166
0.0317484988630327
0.0705837541759959
0.0836886087651537
0.1286033253640904
0.182115375760584
0.2233603286033926
0.0729188498511379
0.1357152196296832
0.1093466314647413
0.0141174905969078
-0.0010123648339695
0.0546255072225432
0.1421709111895172
0.2015774064110493
0.0961640053169234
0.1722736972961466
0.195051522582266
0.1636279755368938
0.0169439575490139
0.1471512024805726
0.1448244215257009
-0.001973343643713
-0.4495561220248864

0.2606172087457603
-0.1623942509809634
-0.5651935455890075
1.6846529199384106
-0.5797287892703001
-0.4230727104499454
0.6019426672972019
0.1687011656052211
0.2566228657727613
0.3901247336656179
0.4019565100249155
0.1151689459651389
0.3690759408490696
0.0080045270514677
-0.1392382141475247
0.3787864742064918
0.2230416849346549
-1.0377858906334725
0.9525079529335352
-0.0687453029905656
0.2133986789579191
0.2918671820443143
0.3786450926670174
-0.0435234926391183
0.6039357068679151
0.1483132237762858
-0.5751783071475217
-0.0366005786603529
0.6454105406485828
0.2811765227731643
-0.8123976972316412
0.5283486212976508
-0.0501378102219604
0.1275430612248994
0.1327544932272043
-0.008634306780895
0.2306750676381819
0.0300238947746991
-0.3458341535439646
0.3973551518146337

-1.7538571016084317
1.0195043078641686
-2.2570939820475657
0.1152193262138025
0.2027468673003259
-0.0819675702644747
-0.9105475153702892
-0.2817197031897071
-0.7054826085702098
-0.797835023720089
-0.8803688553777497
-0.2120480476402994
-0.8479089066040645
-0.06365419677116
0.5789923751328458
-0.7668666399991885
-0.7028537695331775
2.098614036463338
-1.4856052892576703
-0.0423861030807319
-0.2860503594070385
-0.552491368508358
-0.6990761434344953
-0.0505977897568486
-0.7551408401264037
-0.4351727099454762
0.7023202283470562
0.0252141840964457
-1.0591212046109195
-0.5220546747819987
0.7693274281969555
-0.9966981983895776
-0.4662029441499518
-0.780821558602163
-1.054363411209854
0.0693353479132606
-1.6772352765198462
-0.2301341725022083
2.5064204374218986
-3.018890098119921

0.0004500541994737
-0.0020541162167078
0.004705597190158
-0.0029054356793705
-0.0022131416922575
0.0024494627628866
0.000758935094095
-0.0017934563676002
0.0010757406641016
-0.0005319431766503
0.0005033916151093
-0.0001785920726918
-0.006223599943958
0.0108734681090256
0.0068603290863581
-0.0076450176158353
-0.0173897678259123
0.0004551382003607
0.0395623008904987
-0.0420654323851686
0.0203998001973752
0.0012177633755043
-0.0703642404302528
0.8480862998821084
-4.389232517211435
3.0250022952758138
8.571467305188452
-0.1096031269904216
-28.280050913383857
28.81387329039881
-6.458280436455203
-2.9115615319535277
2.775764228506702
-0.4233809911887924
1.0203954034740572
-0.3745086394311872
1.3114817592115178
0.0366264095900262
-1.599457560522424
1.818711994290602

