-0.4611888245982594
-0.2390662856928486
-0.1792069592687052
-0.0866038767092734
-0.0998558969732055
-0.014609619150832
-0.0001701072143122
-0.0335350679618479
-0.0760062267991224
-0.0745871609496903
-0.0716790707170579
-0.1039205378461049
-0.1270103535936464
-0.1133104534723432
-0.0436196458927733
-0.1181245837702238
0.0217244610719275
0.0346605718036857
0.0047707794490416
-0.0105414585929001
-0.0266658195400982
0.0053274647391623
0.0327396900633726
0.0152219269630739
0.0497391076874009
0.0427442116299067
0.0604784832993896
0.036857890298758
-0.1359600096372394
0.0022867381911797
0.3547979997947798
-0.0609715928779401
-0.1027649250745983
0.0854785159401264
-0.0812085144053366
-0.0585958834529691
-0.2064485937075574
0.1236110455784476
0.2616524608361185
-0.7683473962979109

0.4588609413376399
0.2750617567902463
0.2455348146705951
-0.0293252518588588
0.1046885760604687
0.1523223037251291
0.1549793956167586
0.0918734142918169
0.1063612513082421
0.2079303293697571
0.2890190426399216
0.3576588113022594
0.4899149438893866
0.5029972359833956
0.1942568024681736
0.398903652465406
0.1407833318973705
-0.071342394108734
-0.0508264915089562
0.0720927097944821
0.121963593252895
0.1144057716787026
0.0973707808920282
0.1697206756633491
0.2213611260300848
0.2288836573698202
0.132085081681103
0.1199386395533884
0.0193474299138073
0.0253012442736473
0.1209312781599437
0.1391223834124093
0.1274648805397085
0.1950755916809343
0.2843236157776676
0.3229384724864713
0.310798469590442
0.012461099133862
0.0237588245309201
0.4510650459219899

-1.477798686966418
-0.8512511363495716
-0.7556840651090737
-0.0149439872031112
-0.7860618555316182
-0.1391829150539447
0.0015636919592989
-0.0671096244488959
-0.3970371995508124
-0.493043565293821
-0.3138664084014581
-0.6639487346874031
-0.7169101333788309
-0.8236558254519363
-0.0926235827774297
-1.05386857724877
0.1083594647788307
0.4654706184455798
-0.0560877724128158
-0.512068749440358
-0.2255951720090447
-0.0409246784503618
-0.3297698916122148
-0.4755760161310522
-0.5738387697587054
-0.751737206228472
-0.2290502621227682
-0.5363247286784992
-0.3005093937285091
0.2590065217432224
-0.5172341363549213
-0.5424977592540631
-0.2937536354516394
-0.6949145087694977
-0.8907133627556401
-1.0652862072922644
-0.8867954363581095
-0.5319576614048444
0.8195341979133545
-1.9659200662489345

-0.0009580129626264
0.0004149189430605
3.1058330867781415e-05
-0.0015165504816103
0.0032369393494845
-0.0014691036758566
-0.0016150786088364
0.0009726829455538
0.0010915353538447
-0.0011180263789435
0.0002648547179062
0.0001819452768246
-0.000454463252514
0.0014118207569105
-0.0061547825764244
0.0119345511410332
0.0115485225429373
-0.0129730501039376
-0.0274317350567563
-0.0082761311145472
0.0456831949615337
0.0491926046509006
-0.164358284809647
0.2104572046072936
-0.2814385087468301
0.6813264910589608
-2.703637058417758
6.442146060037701
3.975768762436014
-27.06011502938633
27.25071348636441
-6.167081816438212
-3.8150149751239866
3.41250650274534
-0.5956833538993426
0.926036738188156
0.249426343226614
0.582906920541763
-0.7854098768192648
1.2335156865745582

