-0.7939362645687491
-0.105760301260785
-0.492483046529429
-0.1079779497094059
0.0961950737604421
-0.0544216172215757
-0.2546122357316946
-0.1443156548827118
-0.1593314423425966
-0.2907041588239494
-0.3081101747172579
-0.3367340639397232
0.0116917101439661
-0.4066437882334439
-0.0802778470229483
0.1929224907955019
-0.0019661073346701
-0.2712868779096123
0.0041406894951808
-0.1344288940899658
-0.1369243188576459
-0.1523983474513346
-0.0368594718437611
-0.120880611441823
-0.0743594014635317
0.0730828670402421
0.0734339108192578
-0.0616763122605896
-0.1632559460213741
-0.0001185263233522
0.0695602255180577
-0.1975428475884039
-0.118506059647276
-0.3138163513123351
0.1043219053129954
-0.4395183907447064
-0.4323015560287128
0.5528373704619679
0.791183001272917
-1.595559701308268

0.4035895404661837
0.1220486530828001
0.1832906584328051
-2.704767788040141e-05
0.0595687774866132
0.1447839027218859
0.1848207565191181
0.1599688669790371
0.2504991526587126
0.3800744714883625
0.4834634652196769
0.5002223790163018
0.1251361828922126
0.3628120714585625
0.2153379857262315
0.0215176722098696
0.0167837982608612
0.1983696347051365
0.2311830287772335
0.2216945649891416
0.3181959740480953
0.3429858377472288
0.1352833589879005
0.1637748152656949
0.160864390530257
0.0461855132839614
0.0171765716941472
-0.005826429672976
0.0682753997213242
0.1920390557905228
0.177879696755146
0.2138668112846569
0.3169010872389023
0.3239730965156843
0.1258865404749763
0.2614658829207865
0.0972119731632776
-0.1352394155016517
-0.0729613862420646
0.4573194772476386

-1.3929919746403776
-0.1954943270853971
-0.8654656081215423
-0.280840058572646
0.1288727756364938
-0.1672699523319138
-0.5885420923646412
-0.2885147962686174
-0.4517398949273401
-0.7218924386136303
-0.791437496561342
-0.9130782223445248
0.1093214105674917
-1.132084121099494
-0.3315464742420281
0.6915413562135978
-0.1020768144635489
-0.8919151708201035
0.0305556489494119
-0.5770186069278553
-0.5911225963629458
-0.7523915333651099
-0.3226596965976439
-0.1827316453544745
-0.6573931867844824
0.0548666614550321
0.0063257221340221
-0.1644209326829016
-0.4291709753628612
-0.4178800285341598
-0.5064151990679987
-0.8044940531977264
-0.8992104750165463
-1.2238326203127554
0.1021184880682932
-1.3119626228125982
-1.2617910870633249
1.2556353843942047
1.7364387698911372
-2.893949811974654

-0.0002835751763874
0.0004302117464865
-0.001142159069289
0.001961779210227
-0.0011896940726654
-0.0006261096562443
0.0011891795508442
-0.0005503196653726
6.876060157282889e-05
1.132646119742492e-05
4.378363660117116e-05
-0.0002673105554708
0.0011434560462264
-0.0006124442421437
-0.0039740538169771
0.0015536850119421
0.0076648118160561
-0.0040866750719877
-0.0108493286552281
0.0230279649692814
-0.0392345501158105
0.114818424955136
-0.595600139513203
2.048752637222489
-0.4008033732217433
-3.3492262389073253
-1.6700320827322614
4.936674613835735
7.55874063642399
-18.167432434714424
14.019761537940775
-5.126675895765838
2.255881268330549
-0.1065884299673273
0.570655923985986
0.1874240932215173
0.8248922950183796
-0.6402583102317044
-1.1385644100389123
1.857357083551408

