-0.4088152999793075
-0.1833624874120701
-0.3393793148246425
-0.1015379691209007
-0.2470676504731071
-0.0619809179476604
0.0861674178835725
-0.0079973900346133
-0.064332669062627
-0.0590015587900119
-0.0263976476878461
-0.0243947865627949
-0.0450540646729003
-0.0315681207164905
-0.0210996295725646
0.0284598816105014
-0.0902439386592896
-0.0460694293920425
0.1242476034121125
0.1139970460330482
-0.0118326356660241
-0.0049810629081167
0.0783356771879097
0.1102622946968764
0.1231160760243832
0.1814704359641764
0.2102569652605419
0.1275126192014433
-0.0177006715422935
0.0836955310663169
0.3084194047543879
0.0085805301709778
-0.0785460502346371
0.1169147122833965
0.0425698260198756
-0.0175453095901224
-0.0204831543159265
-0.2469073614612229
0.5824679902104175
-0.8475621714480792

0.1470790631951289
0.1105714098618342
0.272323260376615
0.1016757485411735
0.451730301573506
-0.1203316018406999
-0.4776827505696456
0.4018465573244885
0.5729906590611634
0.0204125309244537
-0.3014456470039663
0.4972968112578066
0.1228909949309545
0.292719521344793
0.2521382949416808
0.0016789425522556
0.9488660995212688
-1.3970756365473225
0.148057714323946
0.9143688413661788
0.0670855911898353
-0.2494398077529223
0.1794462526022796
0.29035963760207
0.2185149917385939
0.2906197500153145
0.3814250953273825
-0.114885055637047
0.5389950549916905
0.7368874494419649
-1.296550827322839
-0.0217962672499723
0.8946233909896214
-0.397970236259055
0.1653511242982471
0.1098586044754457
0.1159357595217622
0.1491798312453296
-0.1154308415263865
0.2582691225212164

-1.3173809813833788
-0.6029028479688363
-1.2663537543851389
-0.2684858671803374
-1.0793687323291858
-0.4855299822211251
0.7571020706684224
-0.0945000706884337
-0.7651903590245605
-0.4591844104626832
0.1932716006026902
-0.5588157636818193
-0.4254177189116226
-0.4855673238659446
-0.5333461344107865
0.2962120685417777
-2.493715862128493
2.5818026343998737
0.8180559295351852
-1.5655071789230404
-0.8978431035663919
0.3488197371903465
0.1424996444434564
-0.7730446359601797
-0.4687695907318551
-0.7234790418353652
-0.9594705471741422
-0.0427224160362615
-0.8882513659526324
-1.1819941863140162
1.4926118586864336
-0.2110746021380287
-1.3243415048510008
0.0455649401502571
-0.6369947139089132
-0.8859050482171165
-0.9051254667980396
-1.1401661822400104
0.8604841508922847
-1.987502015716568

-0.0176272128437278
0.0103633645425414
-0.0045377627324009
0.0042140116027902
-0.005581015266357
0.0039468555298038
-0.0001071777053463
-0.0012642942403906
0.0003257172604833
0.0004281770270814
-0.000731926209021
0.0009362411996126
-0.0011077227187898
0.0016633175776207
-0.0044335581159708
0.0161296161108023
-0.0229082936029478
-0.0352708410433406
0.0130297558451299
0.0741669950017232
0.0540709496575106
-0.1095781646688396
-0.1892884621501387
0.4751025269601695
-0.5571341302517633
0.7114822410220043
-1.7002438321551896
7.021987080432836
-21.948510848548928
24.7773353261584
-4.200872409941653
-6.935795489919748
1.9305738674919184
2.7115997190168737
-1.3578591805558256
1.0941479217059842
0.3206299929549142
0.7934282274461988
-0.7146853169600761
1.307791754933214

