-0.0315364166468653
-0.06098098488604
-0.0094136513000976
-0.0160730512391544
0.0029614145626631
-0.0580061008599043
0.0799815217355946
-0.0025549940588426
-0.0305889027290526
0.066218725678006
0.0223510423565032
0.0631568823454758
0.0905347804326445
0.1262975327160508
0.0365070978660354
0.1570331882041199
-0.0820413294245329
-0.1384621076961924
0.3172417997857161
0.074852408197556
0.0086407368019788
0.0800434693882675
0.179543983737461
0.2174442495289546
0.2672832930925151
0.392205986777183
-0.0823789069741636
0.5908530877893066
0.487223480045423
-0.9869054947757484
-0.7441919184606273
2.238554395176143
-0.3232468754940534
-0.7481465508314243
0.6860991301131074
-0.0666059664494046
0.1684649123474054
-0.0040448315765389
0.176762206777009
-0.1975871701925614

0.3480993543162499
0.0859435988188202
0.2755231609649202
0.2214077726669638
0.0976772203094539
0.1329279754993584
0.082464446385812
0.0073590581298362
0.0240020201170589
0.1222460760188603
0.1422009202228987
0.1591796039639234
0.2517389949156868
0.3101763853325596
0.1173139174084194
0.0676822855314323
0.139431584816725
0.1380260907486727
0.1216388887893564
0.1027773924984626
0.0795566681361238
0.1750951891645566
0.2595756787282371
0.3191254305033629
0.4225582771073091
0.4295180399970868
0.1882333713065728
0.2477252845259301
0.1959830521162467
0.0513968066888545
-0.0322801364228991
-0.051580794167926
0.0829432468556605
0.1680024938939888
0.1390425026231804
0.1536726976425618
0.2423954655842603
0.2579525768388812
0.0452297218258287
0.3403695723574341

-1.599184495974318
-0.2704145872238029
-1.2068689082907489
-0.8719367574866
-0.3205080262131263
-0.7094422872006164
-0.2673699480706847
0.1422141459372084
-0.0601387994812956
-0.5071557957905186
-0.3183967226646813
-0.3945236617217564
-0.5895571816127528
-0.6509345856210448
-0.2226525256418877
-0.2170741447655713
-0.4395624709861898
-0.0481476095084816
0.111783359339249
-0.2599668178300547
-0.2880938874977753
-0.3911375192877003
-0.4242298747641951
-0.69427050585813
-0.8874303370063392
-1.0652165821670827
-0.3047255518111139
-0.6338717399247312
-0.5375444597033493
0.0026089093815189
0.0498680441571895
-0.3394901708736291
-0.5014317209696629
-0.464930721634817
-0.4972142426053595
-0.8544649254516434
-0.9620800869480812
-1.2817066345235442
0.0473841851565032
-1.6633645897036085

0.0307141157665192
-0.0357040730108556
0.0156677139992414
0.0032470256754704
-0.0091244093824269
0.0101344479300432
0.00079023790105
-0.0069429338943122
-0.0018500185313841
0.0049075418342264
0.0016780544772786
-0.0040297331001531
0.0013067297606447
0.0067494821652542
-0.0075851014209715
0.0063081814491539
0.0063770562624743
-0.0050387991576541
-0.0072550712270749
-0.0010778886451439
0.0051829278422533
0.0039422933585403
-0.0026816111981003
-0.002768352360809
0.0017311341326282
0.0065380328553915
-0.0097492522598852
0.0077722522342762
0.0066358471541771
-0.0048136656780766
-0.0074004995579395
-0.0015916476672343
0.0049142162111298
0.0045711156969452
-0.0019711684644371
-0.0051628239884293
0.0035482076174497
0.0150598992582563
-0.0474108922167593
0.0412203186254627

