-0.8227566901147088
0.0773907035500323
-0.807893051738271
0.0530784325513607
0.2634612176189948
-0.0199579266719233
-0.2903939947933399
-0.189273716776208
-0.0249434908821665
-0.1750272221072562
-0.2566378878282116
-0.2583739725801207
-0.3371290524416908
0.0285341689040058
-0.451238995942002
-0.1535127091127554
0.3659681691519778
0.0673265157972034
-0.2319336705800293
-0.1447628489868732
0.0346640638121023
-0.056428738185944
-0.1037311362023044
-0.0934995968946173
-0.1038364985350128
-0.0844504582524907
0.0604904485537151
-0.0249181170140558
-0.273322719170458
-0.0144182013477556
0.4243127025117991
-0.4574304593117029
0.01009610632452
-0.2318425826306305
-0.3090359447827259
-0.1956473170466553
-0.2898456088272773
-0.304255192298538
1.0930886216129978
-1.465788932784594

0.4064340160156212
0.0848576936223537
0.1998504070956491
-0.0462727369862621
0.0126465602916878
0.1345995044273646
0.1875292901218127
0.1232113422211458
0.1310040495523155
0.2589307382246604
0.3532281476274286
0.4516966762138381
0.5224855589107867
0.1425955108818021
0.3839403696022169
0.2861499618960446
-0.0482882248775987
-0.1037529950142287
0.0518115804690548
0.1951020933796166
0.1642733093583896
0.1082597789061501
0.2233276891618547
0.2833699690269807
0.3039908529706469
0.1254894102332313
0.2376257526103725
0.0704330525630116
-0.0738450749290456
0.0770457953237348
0.2209783416160498
0.150123130842488
0.1806541538892948
0.3008468127596321
0.3363275648868171
0.2596437813130579
0.1724133655393814
0.0574388945517226
-0.0718639557499086
0.392196117764482

-1.458332082659876
0.1868176800627072
-1.486232934900022
0.0720993463652137
0.4607158746246051
-0.1601581518932746
-0.6784606662397493
-0.3072667280344427
-0.1007073635894436
-0.5088046539935401
-0.6201899504217027
-0.6954818788732046
-0.9079170529200008
0.0976812626845463
-1.2588663111480267
-0.407904661904187
1.006329849057708
0.2103407425570621
-0.730424819650771
-0.5852486173817879
0.1414569659217747
-0.34675412703762
-0.5820919304837966
-0.6096599042446827
-0.8719265870654275
-0.1560099415904547
-0.6945967815800491
-0.5458641143640298
0.490972130354312
-0.1045256105551139
-1.2144291055264151
-0.0295675706648323
-0.7847466039925846
-0.8788421910703501
-1.123796450681988
-0.7171726292300036
-0.5769284971412028
-1.1540839616452483
2.1449029953459924
-2.351012617048068

5.523125548818439e-05
-0.000274443086593
0.0004279138135283
0.0008959372637914
-0.0017247250181747
-0.000521682246335
0.0015360853300946
0.0005203577117434
-0.0014902932379738
0.0006298541300819
0.0001489172237695
-0.0005630467584128
0.0014511248652768
-0.0037774706314568
0.0001413740605033
0.0138390350397426
0.0022740579817815
-0.0169953198479755
-0.0202649900261409
0.0158886747620962
0.0549034265120895
-0.0927204014814739
0.0830897257789932
-0.0805044992394342
0.1287285226318904
0.037131534425237
-2.9080194215188837
6.604015163436712
4.459518780687685
-24.259392658416445
25.203512808045858
-10.728356473214998
2.7198107951003143
0.171677457006508
0.6378512248264273
0.3723575680255521
0.3237259687586787
0.687310064466669
-1.437352504532154
1.585046050101058

