0.2000165737248398
-0.5948386610684755
0.3236463503272599
0.1262685846313383
-0.1469821069175221
0.0211415311980599
0.0339672047966303
0.0187243761851605
0.0491671941157244
0.0265274989255125
0.0053585710734463
0.0213462270616096
0.0339510211808373
0.0183484542605367
0.0164179858861302
0.0718895096717112
0.0526863073635312
0.0941821466511876
0.1762457184607539
0.2034083410477794
0.2799284920716233
0.0597728528235184
0.1398380279405273
0.1994758771209452
-0.0076538023513371
-0.0372654880218109
0.0928826941563878
0.1720638313405142
0.1688202291909654
0.1565792141832576
0.2697719814932309
0.3969012141902326
0.3610159731335534
0.0827960222796275
0.3970139054074866
0.0514190443290942
-0.2517889287706666
-0.0382653542255145
0.2676908967412966
-0.2241687821324469

0.3815758535358755
0.0132173886690902
-0.0411390334258017
0.0523593193746143
0.1293528094928735
0.1365772524588567
0.1477606633975807
0.2147242204736808
0.2332306488263001
0.1157812320337157
0.1155384401837202
0.0784603725735418
0.0653253211637333
0.0167560304520965
-0.0199728162598362
0.1320308236938473
0.2235943620491288
0.2024686262930708
0.2908866237614406
0.4097106750571051
0.4338506255530627
0.1653193703816702
0.217548271962912
0.2058299177612455
0.0851637964590126
0.0337735739516947
0.0687896281930877
0.1351460354598334
0.1680787431666596
0.1537880778269887
0.2076230292619312
0.2438659873473961
0.2679841356760978
0.1066230433441024
0.151096855249717
0.1349995141916216
0.0469181152954335
-0.0255067523713663
-0.0170989016994943
0.4033061236012173

-3.038233407294856
1.772685581133696
0.1679053648462156
-1.0285131123435702
-0.5288115331956722
-0.0527974705948885
-0.7725464151141975
-0.6497286983556043
-0.7990165207710888
-0.3039996368496689
-0.38449165030202
-0.1510825406957429
-0.5588940264710677
-0.0576225084212706
1.0653458828708706
-0.7894628260463955
-0.8129520298903663
0.2158832931455423
-0.734252092236908
-0.6073983381127267
-0.8828514630742206
-0.1897958799160259
-0.3505400630542669
-0.7964920884474799
0.0529278205298605
0.1936269372203779
-0.2919902399584572
-0.6145178030008391
-0.4204931778666484
-0.4067587670515524
-0.8791213756390911
-0.995092830673648
-1.1916800984613862
-0.5108820773154225
-0.4388717968004787
-0.5354952383723646
-0.4679879801114069
-0.6258201596920325
1.4410893811275347
-2.4368982871558766

0.0441645721119594
-0.0207863535383582
-0.0271632581457319
-0.0035582418084972
0.0165286732472428
0.0068528689953715
-0.0090622057930627
0.000956496442365
0.0044558831716614
-0.0074684116704957
0.00618943305751
0.0064562161752143
-0.0046096853725309
-0.0067561980992323
-0.0009273259333746
0.0046846523383866
0.0030906187555076
-0.0025817648538356
-0.0014155859679572
0.0004106546712939
0.0044405733246754
-0.0092724692882631
0.0076910618052754
0.0066418273222347
-0.004449759763247
-0.0068927937995663
-0.0013684756862947
0.0044232059814219
0.0034139213866704
-0.0022982324798056
-0.0019371391416398
0.0013301283331595
0.0031142002944642
-0.0139564591752616
0.0129469586041502
0.0186891302021274
0.0009977016500413
-0.0219896490947488
-0.03279939079006
0.0458899276590968

