-0.501683349555435
0.1246220216542255
-0.1867565686026296
-0.2362572128600461
-0.2156005676388002
-0.2109082845180825
-0.0492093484220282
-0.1702255388772596
-0.0448732894935408
0.0423331580725044
0.000197967677409
-0.0616740377264357
-0.0310291343918995
-0.0140701264870776
-0.0221721733132722
0.0151242968582077
0.0211133709903109
-0.0829010481322489
0.0702129964622297
0.0920781714143657
0.015693232180131
0.0117143212483904
0.0518025790300187
0.0828877806585285
0.0945716706374256
0.1489496814552082
0.1785422795449443
0.2589551782638901
0.0285053586049485
0.0021817510249706
0.3669184302080306
0.1543928457554375
-0.0965170272943906
-0.10377549293906
0.0138193578330388
0.0660944963360511
-0.0192498097904286
-0.1539423575111477
-0.0867214218572034
-0.386805020477573

0.2929815279715129
-0.3377500365852801
0.3979279495947366
0.19338876250428
0.3046567902816988
0.3795773357247117
-0.0580564128344187
0.2545508935045076
0.3987964774919598
0.0457842899632677
-0.2893436562161111
0.4148298756755846
0.1525494544055068
0.1532223130711369
0.2868240467231398
0.1779177774851659
0.4002844167328571
-0.6500168316204752
0.3498922125712441
0.5909740144665943
-0.1482294397999501
-0.1756548482982615
0.2354653532731346
0.2712244901425396
0.0876004347481312
0.2797542105843093
0.2528702012095711
0.3605686443272553
-0.2835408733605773
1.5303088466421106
-0.9309865214484204
-0.9415093988951404
0.5524306751906141
0.6266223946172316
-0.0915856929362963
-0.2969751224082982
0.2506397654786056
0.0632172456111758
0.0888719390589135
0.1752120967593317

-2.264711246226484
1.6440730414674518
-1.5753142517997616
-0.5848092703402986
-1.0435284826158209
-1.0506779860622946
0.033251014128841
-1.1490234627679838
-0.2997242699649813
0.2897759916496674
-0.0214023510736194
-0.7154095197470699
-0.1828622189537247
-0.3662899461912887
-0.4886402091493976
-0.3144113693828537
-0.5860010567542973
0.5664870764001592
0.1461505320887888
-0.6678840857065577
-0.266392808111719
0.021753812234018
-0.1453291229869051
-0.3941789842660711
-0.4126924727351884
-0.5932726183264602
-0.7463912368930564
-0.9715532355239136
0.0671975635459104
-1.7058861656427764
0.4359106298200371
0.7667159307746606
-0.3825968975775108
-0.7327917127827999
-0.3906832844847661
-0.1719169759194126
-0.3596178975033884
-0.9068655123749813
-0.6169752311595006
-1.3793912026328217

-0.0945434964781528
0.118965938702374
-0.0609277591138713
0.0190182112959918
-0.0055316766304774
0.0025818592399178
-0.0030461292297308
0.0035797220358
-0.0009287639131738
-0.0023069796903595
0.001481767069204
0.001463352729172
-0.0026157193108626
0.0022604749861455
-0.0022664520581695
0.0045557783575415
-0.0100801441274911
-0.0195049567392372
0.085640549923932
0.0402202976550307
-0.1089651527786688
-0.1655440506583569
0.107391423400636
0.4466827026696209
-0.7861303657169918
0.7934636395153417
-0.9403431014947448
2.111419754805564
-6.665491564553889
11.939583984543772
-5.617157114950753
-3.0698298644649387
1.097090416520066
2.2376209791308224
0.4140007172441646
-1.0285880203513906
0.5728282042473308
0.5459656263832994
0.296906237237966
0.8501917975416569

