0.1743766421936022
-0.4328351802416549
0.2898360901977419
-0.126117209568502
0.0358290938932985
-0.010452060549912
0.0286027472400912
-0.0201301221772301
-0.022966743353806
0.0734714753915976
0.0298236231229381
-0.0089437045080292
0.0809840874262143
0.0723131707459355
0.1246386304998384
0.1496718362695134
0.1341671304033296
-0.1991442600966404
0.3703263968087817
0.0599241304177132
-0.0375792901866963
-0.015629143128822
0.1400789256408723
0.1805008564553171
0.114391339184849
0.2413265907785101
0.3351874930690164
0.2959123149035024
0.4304677300867107
-0.3691750317064606
-0.6991085525179516
2.1700533061376275
-0.0864429472780507
-1.0319157972930206
-0.0050074922832874
0.6621751522997079
-0.1943389530387538
0.0562516148233862
0.0323970551792223
-0.0744930439767919

0.484373241732951
-0.1993144903173793
0.2083762809868256
0.1941133108084181
0.2287744899156933
0.2247095679458401
0.0952719609912892
0.1645895843423577
-0.0418170928572979
0.068025027001312
0.1041111971531187
0.0609884998034002
0.1617121946109513
0.1994725658110489
0.2665186230408799
0.380866736622802
0.1335917304343868
0.1425163366593178
0.3413219530053205
0.1306453282370284
-0.1865872877706866
0.0547048404081282
0.2875118005340759
0.2386419704427214
0.1487977050537509
0.342729137657164
0.379978349299747
0.4208320767901544
0.073220087026149
0.4369599116648053
0.2332080599950715
-0.3195206172264754
-0.1492377705609416
0.179900706209642
0.2453365725652751
0.0856887571796188
0.0184542225048285
0.2640939772427
0.1555871379645917
0.3594545096769496

-2.9585024553475083
2.29005409507476
-1.858078354709988
-0.3775072758868331
-1.0010239264051006
-0.856170775422489
-0.0901286215656359
-1.2076536506690516
0.4464809417868245
0.0690279578801246
-0.4830599690498091
-0.2046648733485227
-0.2864756980907316
-0.4412436881343695
-0.5194767508789817
-0.6735268212989792
-0.2830585226886951
-0.3122244571536103
-0.318347712349746
-0.3014683139083653
0.4680751290949493
-0.3285231768121159
-0.653484122264518
-0.2717519573520312
-0.4021788588301366
-0.8209523551787812
-0.8997058163379378
-1.1640524395786644
-0.2629870920871729
-0.6339650805697192
-0.6993431847362658
-0.0757472623409929
0.2623259748931446
-0.2267402790414869
-0.7073600055853947
-0.5871137374541069
-0.162720739090572
-1.1097363245489755
-0.6976047960543057
-1.544188285284935

0.0428434176069015
-0.0359759485741813
-0.009921648960865
0.0157548415714709
-0.0035981690380709
0.004935278592386
-0.0085023094529327
0.0099279847247675
0.0006612328613142
-0.0068966262899576
-0.0017905063445921
0.0047888002488647
0.0015374241124731
-0.003734717696433
0.0008325339038385
0.0055122564782483
-0.0075623075007264
0.0062912020155199
0.0064422835393861
-0.0048510081625701
-0.0070559632909353
-0.0010251693043815
0.0049810189989242
0.0036091799001542
-0.0026378576275642
-0.0022585747331655
0.0011104275984001
0.0055732534591207
-0.0097816837106213
0.0075456660181638
0.0066400405749182
-0.0043572551507237
-0.0065937871883252
-0.0008896831391444
0.0045573662926406
0.0019428795231228
-0.004650522737882
0.0078134697338683
-0.0136217139590156
0.0144633254789482

