0.0780128207569831
-0.3505003631051024
0.1690383688147055
0.1076205852697368
-0.0564367069740924
-0.0428257054275467
0.0499455326627352
0.0152622379819744
0.0414756294637277
0.0616709473014853
0.0045694275170577
0.0310051816515236
0.043745385979416
0.0224415933369189
0.0276238357664594
0.0738648513287321
0.0819111560912981
0.1405078421563882
0.2085892777005875
0.2590517211615732
0.1155245549335073
0.1050583957670111
0.134947999283713
0.0460580936663221
0.0060344457533671
0.0685452403293472
0.1480025742452529
0.1525998645805734
0.1764957355015554
0.2809960294485832
0.3457869838145347
0.4415099984495553
0.0962759363760299
0.3801750040132883
0.1580389085563662
-0.1369543008033582
-0.151690002956213
0.0409280500536736
0.1634103263919028
-0.1877529185223234

0.3418111747414609
0.0439745439190516
-0.007091917524135
0.0296275905910986
0.0847263408240867
0.1260668165298718
0.1313276391499998
0.1632607943310604
0.225601207585751
0.2241016062828876
0.0928984212710904
0.1045066941415073
0.0950787616508996
0.0475453581622564
0.032473708693735
0.1559182424667466
0.2360591063517615
0.2804023636609184
0.4074404965107135
0.4677307020546186
0.2108675880650714
0.1831198078146225
0.1776590433824692
0.1084400102380926
0.0663866068121703
0.0816465570469899
0.1301749344939538
0.1716607384588116
0.1932395351998709
0.2264243710932453
0.2890613842404375
0.265287050336503
0.1049565400970312
0.1500381193105776
0.1281596156488936
0.0465515043486273
-0.0166488843960144
-0.0372575703305476
0.0356079190147554
0.3735344520131484

-2.331058611856572
1.08315517400084
-0.2840970262218695
-0.4276211269190353
-0.3908330709899491
-0.2438980992210041
-0.4988513619066183
-0.5953730072946919
-0.6984251259376234
-0.7245570988715153
-0.1197386819668656
-0.4280891031792226
-0.4810175587757219
0.017950065619576
0.5774064634900902
-0.9721339034038036
-0.1304859991862103
-0.5052325337295455
-0.6631500151242106
-0.830294193140529
-0.3785252059040819
-0.1191319820182022
-0.7824460463000396
-0.0565833587585425
0.1413211999875974
-0.2599008882254144
-0.5543614517114
-0.4213788418297017
-0.4545090178668275
-0.861938918973705
-0.9888065070224622
-1.2094952228931164
-0.402971455205674
-0.4242466658430758
-0.6334667971025059
-0.2255995153802392
-0.5305165507660875
-0.1249230276451646
1.465828828059919
-2.612502585344118

0.0402297228377689
-0.0198605841479655
-0.0220707783306226
-0.0054279523699373
0.0120933998731346
0.0106360216407926
-0.0056409646259433
-0.0035892190425989
0.002223563409392
0.0033211719732143
-0.0086004584516533
0.010105384374663
0.0009138149644411
-0.0066404356627186
-0.0017533107498861
0.0044490021448115
0.0012496621277835
-0.0031574236323187
0.000431361016025
0.0041379172445915
-0.0073109769892095
0.006190979439041
0.0064293764334237
-0.0046408941274584
-0.0067777952110597
-0.0009246976357639
0.0047220603972707
0.0031461306804067
-0.0026204397806775
-0.0017235902791894
0.001388569161973
0.0036135043131736
-0.0165993807164759
0.0129834306654026
0.0208156461593793
0.0064145034989066
-0.011619444575165
-0.0271285056069105
-0.024541078446313
0.0497805441735426

