-0.2957121681084577
0.0732634181900856
-0.1719023196344563
-0.1239509917844635
0.0454557704760065
0.0158247411972185
-0.0802907446880983
-0.0653168379635784
-0.0452569237503465
-0.0611912576635056
-0.0283530467394266
-0.0284158711124756
-0.0015080197800162
0.0012768641545555
-0.0031782597397595
0.0405608920435329
0.0421922265036967
0.0457062442734209
0.1137961916393941
0.1490739331732474
0.2004214178801653
0.0828857213018669
0.0742289840140791
0.1145605433750875
0.0551035589367348
0.0128078642673435
0.0408063556927429
0.1107236187814124
0.1396912412029997
0.1481041627675572
0.2430172428945459
0.2628187793104663
0.2570973461945314
0.0908990754415807
0.1392246367507513
0.0619160542337816
0.0200280711783485
0.0670497629580053
0.035832984449566
-0.4324947962996941

0.4418561837441822
-0.8320160087311563
-0.0035551825337839
1.7717402145339902
-0.84384573919153
-0.4300802101437996
0.8016115542803596
0.0267480647282359
0.3635603821853512
0.37578376221751
0.4207370162205602
-0.1230392896168463
0.7894173630140011
-0.1172487748855126
-0.3886981831068822
0.1977997838591398
0.4316719655655676
-0.3210423433074955
0.3575868363642202
0.1943112435748776
0.3379253662411641
0.1681349306708078
-0.100742246816204
0.4874019212183671
0.2759592880666496
-0.2703280328214771
-0.1989222548573665
0.3361733319657392
0.1925761271910864
-0.0613743381641387
0.095572773762998
0.0768916784011069
0.1227318465461259
0.0292716390414074
-0.0061715172294165
0.20051946516667
0.0833581268117183
-0.1297552252359335
-0.2161701817654429
0.387740823741083

-1.932791681310108
1.999015043933947
-2.7845436885730024
-0.005398146371006
0.369047340640123
-0.0581911151395715
-1.0298580609551649
-0.2642100903821138
-0.8144174308283871
-0.8128083536887855
-0.8910187676898362
0.2026891811398835
-1.55286755970184
0.1555124424703645
0.930451218777854
-0.4110108392438716
-0.8771118477508293
0.7440093153176566
-0.6108281781542464
-0.2745404526802297
-0.5739653533321935
-0.3046462361895356
0.1786488386714574
-0.778732743049775
-0.4056419914487122
0.2888085872098111
0.1421204555707476
-0.5992445037697526
-0.516955691558535
-0.1489165909837879
-0.6342995333232163
-0.6772256277257428
-0.9401328040136414
-0.2276617009869574
-0.0368303692281055
-1.3536780722442143
-0.5729338794264595
0.8775322722070613
1.5414448000590364
-2.9273682717845686

0.0011800757824741
-0.0048860037831784
0.0079579529321025
-0.0030947813748698
-0.0033202280938956
0.0024429944513408
0.0008477898396216
-0.0013695834991658
0.0006421588847523
-0.0001735240241912
-0.0001653023257126
0.0010496837756825
-0.0005574096282789
-0.003953546638504
0.0015282486755532
0.0076489478469577
-0.0040578617300471
-0.0108664864830646
0.0230312841762534
-0.039222044780041
0.1147503366804276
-0.5951395888159635
2.047096275904118
-0.4004475721798952
-3.3472480855636104
-1.668941452691417
4.934911985295559
7.5555726416794275
-18.165569468901747
14.025080785272245
-5.137399878005834
2.2734279726879194
-0.1549664241050428
0.788816422080158
-0.4189272387452089
0.8285344275840345
0.3989752346595192
-0.5034128371278036
-0.9215912719449708
1.6762069403243054

