-0.450747854172877
-0.0431009519207069
-0.1686140070883226
0.079953064938698
-0.0203996692722946
-0.1296714558513338
-0.0986407011365508
-0.0781230056423047
-0.1534007262624542
-0.1637115704302879
-0.1654588971305489
-0.0256381324568048
-0.1455258608927412
-0.0490267499521247
0.0269840595926923
0.0158288846161513
-0.0329733938174022
-0.0446640673058608
-0.0073819991069427
-0.0264629007227844
-0.0050931992157636
0.0016345233452731
-0.0423341348917333
0.0316557921691643
0.04093257162097
0.0172353537444256
0.0084270794869547
0.0084203987077802
0.027232278101772
0.0624520445493709
0.1017203476599802
0.0761002037099305
0.0303132527882885
0.049150723859429
0.0392995772366586
-0.139405423584513
-0.0642480914826528
0.1793912718206362
0.212558011643029
-0.7496559869553467

0.4499053217955828
0.0205405399168603
0.1605934124077584
-0.0785973664675397
0.1087039676216356
0.2325672755527593
0.2085054584148074
0.2243615700583361
0.4000405650062133
0.4932504247669192
0.5226186513801753
0.1241582339094635
0.3541395237830991
0.2139203698509709
0.067697072483951
0.0644803659586142
0.1335801819269884
0.2299594761557684
0.2092406023074864
0.2880567425866675
0.2903044586471692
0.1258506112712766
0.1235893378766525
0.1040321655582453
0.0203978853131005
0.0070063089164068
0.0686248769462794
0.0628962036628722
0.0859854792838432
0.1512255662460626
0.2040681697818051
0.2722299056944514
0.3231753817062801
0.0667336537277552
0.2509258989272583
0.2203711262591942
-0.0232669407570892
-0.1859241785714384
-0.0713009014534059
0.619214548363519

-1.763608483251026
1.2745012439014776
-2.496981524473187
0.7057643840722654
0.3673455590552087
-0.7800480344148177
-0.6258074257177038
-0.2769709928190297
-0.8503334016593049
-0.846784118996893
-0.9737068176325668
0.0209663948722555
-1.0673397233937405
-0.1291216193972612
0.1667211433420498
-0.0478161820725879
-0.4518977097771684
-0.2491397324568081
-0.4056003863651086
-0.5440681006747177
-0.6153429555860198
-0.282716647985052
-0.1537073515150755
-0.4919726857392731
0.052759957149
0.1110925776145853
-0.3430281872432503
-0.3195993550027822
-0.3169495825420924
-0.3799345362612237
-0.7621117969041323
-0.8352722274596431
-1.109402778874809
-0.2320904073457347
-0.2202961937217453
-1.4202365579492238
-0.4729514851853822
0.9437482227500276
1.5007363389891577
-2.98146892327019

0.001182130336307
-0.0048813495329771
0.0079366059892631
-0.003100616630183
-0.0032880854861076
0.0024676846106044
0.0007773007462513
-0.0013389942913582
0.000684983908437
-0.000335325918645
0.0005115405445936
-0.0021613237649562
0.0053065076944681
-0.0013674862761998
-0.0060316955775951
0.0009528293378629
0.0095285108434047
-0.0104630030569655
0.0052206951678483
-0.0003332936910494
-0.0108902444128636
0.132163437826134
-0.7662938731676345
0.7047979965393585
1.2063088487819011
-0.3449856520694914
-2.396913065270328
-0.7964370211384123
6.535479315958908
-7.352250546625918
4.719777493473504
-1.172591620009504
1.361503973728598
-0.5731850324293386
0.7857759986490739
0.654677854990179
0.0579181254069492
-0.5549640479279854
-0.7678262714161442
1.6755764440823149

