-0.0077491148874023
-0.1170801227987667
0.0166443791653529
0.0286202753103045
0.0096970113306021
0.0013889299999094
0.0059425846878497
0.0154584760190113
0.0340918712044508
0.0581000927988675
0.069755687795275
0.0153206550485888
0.0430465488559401
0.034828455550189
0.0253553634047241
0.0433889237996706
0.0681565573779916
0.1056478885557085
0.1609811033261473
0.2262745986864747
0.2725829917028142
0.1352419660723958
0.1154537990093456
0.1023729594580851
0.0527541263399575
0.0432639882227468
0.0769704753364426
0.1245120657080349
0.1652217909417275
0.1910084468322003
0.26259481943122
0.4118072355574996
0.3283505199109142
0.1773637585634381
0.2070540018110452
0.1085912578482534
-0.013944843071497
-0.0722949465860954
-0.0690802604525426
-0.0458413238367073

0.3692590382273517
-0.0490914941569861
0.1393109225686528
0.0850529340906438
0.0239204214043787
0.0606645122697462
0.1246669966559946
0.1175460756162452
0.1695537567077196
0.2360759082883897
0.2362358886300932
0.0576537377473242
0.1910638224035409
0.0848908828386241
-0.0618062645980346
0.1023417391633427
0.2387639931685044
0.2122273700392142
0.2906141928208891
0.4205367895802304
0.4658436849762214
0.2020687505443032
0.2162241977972152
0.2223104083429022
0.0787161928588976
0.0232751290713783
0.0721689070786748
0.1486844820963748
0.1737798239676121
0.1470805559213265
0.2169553095452394
0.2481478021228146
0.2662841776340752
0.0880526361867426
0.1999938260001777
0.1398337907119512
-0.0301137322137714
-0.1186871194929611
-0.0170814936576424
0.4364013924498383

-2.0559905624227044
1.7606496736944257
-2.714102764571593
0.0519242257376205
0.9009806640473282
-0.4737976064052576
-0.9309788759402216
-0.0071163240449093
-0.7183712146477585
-0.6083342154736966
-0.7920843240010712
0.2848856057649268
-1.253663397002331
-0.3499885713110667
1.364557402094615
-0.6474505362135435
-0.973676511823468
0.2344977969284895
-0.7181407615668886
-0.655652117147531
-0.8877842666245952
-0.3833460107899412
-0.1702108084501388
-0.8914465338344525
0.0209301970369096
0.2048532719101921
-0.2865370906317522
-0.6203825575836384
-0.435080959802152
-0.4012226990466677
-0.9219770022315064
-0.9741828702881196
-1.279708638103443
-0.2486670705641956
-0.3568745031642972
-1.5179520772032036
-0.4311735683869467
1.0009948165852829
1.5126055656302042
-3.0779942804652247

0.0011546389781351
-0.0048412855715165
0.0080435008576239
-0.003177238288277
-0.0035331107341827
0.0025135678835648
0.0014259211842378
-0.0023443701605169
0.0016976070335466
-0.0016523289015995
0.0033049246212663
-0.000408195974731
-0.041778300346155
0.0382163202161846
0.083436251767963
-0.0576426122093996
-0.2125795876419487
0.4206980716967168
-0.4647411818603424
0.5893904280682837
-1.482075018048937
6.6565417859799405
-22.901722231178024
25.7136280224897
-1.3744721811086449
-7.572624310316939
-2.485372632921547
3.465205300113815
2.09812939372323
-1.9562703655914369
1.269412653682159
0.2330469891553895
0.7003374626067791
0.0647197865989889
0.1613944152199027
0.7883006203895727
0.2431763133294171
-0.5502453455771257
-0.8668702104754825
1.6935543749828932

