0.191343625313534
-0.0539017982339351
0.1237450856156354
0.0667971320125799
-0.0093787131055635
-0.0111930800754006
0.0274510962198613
0.048176226562351
0.0593011446907456
0.075826778474641
0.1074574559208801
0.1517043719441644
0.1805035822294756
0.0771933275909911
0.084749871541716
0.0619358651607301
0.0026955272141155
0.0332793823036849
0.1182171758918303
0.12049195344761
0.1206768174456939
0.166869556764959
0.263153665817151
0.3474290317945384
0.4047612413936154
0.1766280207799922
0.2101447495464828
0.1868704205738482
0.0877198165333104
0.044340508213033
0.1670815839515483
0.3888142134243564
0.2212565902441425
0.3752170665475685
0.3906608647594145
0.2393325174190141
0.2047475490716826
0.1312154720433031
-0.0378647926497878
-0.0032926922615617

0.3898840664624429
0.0213533482315349
0.1887373507841767
0.126036408684373
-0.0097407490324963
-0.0042998708447839
0.0729028612604669
0.0623945850189756
0.0629735025877817
0.1282853054700937
0.1436233450796338
0.1920370099266738
0.2237781165305419
0.14579747602607
-0.0527633903109334
0.0366679111282861
0.1582239588360359
0.1444497870976916
0.0960765374886204
0.0888777305026447
0.0682983301589666
0.2374843824144897
0.2691016617186595
0.3520591324827436
0.3966579332324838
0.1589830489843028
0.2327449326487464
0.1644107426317961
0.0277897146587165
0.0114325681185606
0.1187003804628787
0.1249777108352331
0.1629132719380383
0.2254281225727757
0.2683486624734685
0.2103038708915243
0.1384753624182595
0.0197080768429913
-0.0679591618972885
0.3789659223535966

-1.7660687156791677
0.2270436135669778
-1.4761269821763563
-0.6052454030368524
0.7449114826874741
0.3120026489265471
-0.7642691971575608
-0.4914685768551468
0.1512322528227573
-0.4689693527367664
-0.3945113589294248
-0.5207569204464929
-0.4766683716087173
-0.4882081846787648
0.4688834326423862
-0.3479520950340861
-0.9328198460496234
0.3231036754605482
0.6539692202415176
-0.9054829283893884
-0.2085809926021797
-0.2482303986901087
-0.6248708900754
-0.7018945408572242
-0.9253374829145048
-0.2865777876842515
-0.4863338294957482
-0.6621384786036459
0.1326505881196555
-0.0386883446447242
-0.666559975551332
-0.4584044039378164
-0.6347010147884536
-0.9313715545002926
-1.1649653335109815
-0.7510210767624997
-0.6520744494158556
-1.211441949063765
2.4861508918335007
-2.843375113266069

-4.456258100596486e-05
0.0001166655050962
-3.074767886698002e-05
-8.169401690903271e-05
-0.0015424123441345
0.0012008472243763
0.0030192513151214
-0.0016324147454774
-0.0061414291291492
0.0103750912472052
-0.0098946458484091
0.0106970040141103
-0.0203535259094001
0.0305077224596591
0.1313913023394913
-0.3145096042081689
-0.2575338469856665
0.3341366547639571
0.7253110571597349
-0.197722125650822
-1.8644924659638784
2.726000516777978
-2.3047315632895025
1.8967875685860425
-0.1008650725188914
0.8055663270105556
-0.2669630719574721
0.5553870407634969
-0.0019789850765171
0.0082826201811475
0.3168630944696656
0.2516929631851511
0.3388370843782438
0.4729608970377199
0.6005761524918286
0.3687049878046126
0.3637314301980237
0.6349615519455747
-1.425024005960032
1.5944361469367057

