-0.4806047775481669
0.0540820673237126
-0.3234615097629536
-0.3245410577374576
0.1212656548696578
0.195450541174764
-0.019053576566629
-0.2111654454342517
-0.0849136953247679
0.0249485338424398
-0.1008533813170104
-0.0613632744479113
-0.0603777543893624
-0.0024692218858421
-0.0733354929498893
-0.008466242315115
-0.0004615526620999
0.0096785046417887
0.1043996462705376
0.0542826800137927
-0.0114771132114658
0.0933834067903761
0.1203969191853317
0.1531955905290005
0.1983475790866724
0.069604861451967
0.1334702836655658
0.0794072152203135
-0.0429088598655531
0.0590011472078665
0.2656747329592925
0.0126233442554097
0.1083631691038938
0.1085219486091347
0.0694922147467139
0.0082038058047293
-0.0557546167754539
0.1947380142381865
0.2120506728529488
-0.7503184723775262

0.1805052817279151
0.1414351491610204
-1.0082404324826286
1.9399573670179495
-0.1145202580149928
-0.9643469830442508
-0.0852893350719403
0.8777836729806877
0.1201910832377524
-0.0651422073837566
0.3999059863318827
0.2401842077361443
0.4182881134610217
-0.113987318228763
0.3547416202907671
0.9289002659783884
-0.3745001123334663
-1.7375640745710137
0.962560725199046
1.117751287959416
-0.6044359388943681
0.2019357697446045
0.3709920116609922
0.2876729608966346
0.3892750519982906
0.1591453060315117
0.1374619050492205
0.0701530567550215
0.2328554925023372
0.2074947911998194
-0.6040236554780499
0.4829209839205305
-0.051672828926941
0.1293180352482776
0.1290254789941928
0.0885807502290171
0.0731021427238861
0.1477048320186577
-0.3009878872105752
0.3358273868101045

-1.5442262203458763
0.0400960387236323
-0.1133622752828119
-2.457656044073876
0.5630942511161076
1.2383842863605672
-0.2666278304183166
-1.3556642806622972
-0.1658910833116476
-0.0855132536975347
-0.7675678349117545
-0.5262629151614303
-0.7914843598348211
0.1004001154375891
-0.3151546473595438
-1.954055367810212
0.0754181626830599
3.5607700688535195
-0.902616188186544
-2.391059438638215
0.6574014081172911
0.0434449140470136
-0.8484783939963173
-0.5434931283529216
-0.879696428990051
-0.3394377564030344
-0.2576451791228114
-0.4281229948476803
-0.3933184409639059
-0.2714780532781869
0.3516217848277189
-0.9391650406889124
-0.3843457338524569
-0.826761235805896
-1.009575343388765
-0.6658107659188253
-0.5580461588031581
-1.1029402875360728
2.2290753073269847
-2.5569030390328

5.00404528640613e-05
-0.0002544143074239
0.0003985396742366
0.0008589309313697
-0.0017089905103424
-0.0004506263665453
0.0015889550730198
0.0004342488304237
-0.0016627393103339
0.0009692987014915
-0.0001449896882246
-0.0003430443156094
0.0013653779184769
-0.0061199007453548
0.0119211849291787
0.0115226420401035
-0.0129703367396933
-0.0274034455021156
-0.0082548897827319
0.0456550706117661
0.0491377904557793
-0.1642537538568814
0.2103640962842475
-0.2813585811870226
0.6812379436543927
-2.7039494762718865
6.445269015116307
3.972081354439246
-27.06487552225073
27.256615746798182
-6.156596383265456
-3.8389451502479184
3.436233954291966
-0.6172106877255759
0.9595916406704736
0.1620027905523378
0.5735062017762836
0.5260717195505061
-1.4608782147078103
1.635712157779782

