0.2834833100129587
-0.1990616319478465
0.2156164925921494
0.0617756134924125
0.1498167494266743
-0.0520081628917801
0.2273720117843891
-0.0256769320415965
-0.1062522494543886
0.1383626746649542
0.097215615819621
0.0351625456611402
0.151851673813145
0.176057385764437
0.2155290195678037
0.149394628883941
-0.0327738318926153
0.0864102296165501
0.2409920778496701
-0.0085560659365276
0.0106898627218581
0.1219959191169356
0.199245181928779
0.16553039533299
0.3000433025990733
0.3726709603863779
0.4592405061461729
0.073593635614845
0.7183246535260919
-0.5369864410907742
-0.6480415815756174
1.82933226836634
-0.1565350656767655
-0.6066450502858156
0.3542904139982683
0.3033417794245718
0.0669548646763031
0.2371243203831982
0.1317526077407155
0.1112987348997046

0.3653946240032023
-0.0176110267910481
0.2286463737445147
0.2329536389199238
0.2171631109553201
0.0875356493468234
0.1773576022574217
0.0273183818613397
-0.0423025419653326
0.0873050219170311
0.1229650417576616
0.0863882209136254
0.1680288767568757
0.2149638665539141
0.2704991695816412
0.0946083750386386
0.110439926024733
0.1815287482428479
0.1152121388277153
0.0533188435759863
-0.0182962031139075
0.1268530428182699
0.2117224114301615
0.1999698730376725
0.2615143227116782
0.3607951274028297
0.3659293213145017
0.1291314197487057
0.2745262214224948
0.1729333827261031
-0.0260804977616601
-0.1357441591779675
0.0352850820628765
0.1692219986171035
0.1469955478424695
0.0952909049693346
0.1583133285405038
0.2677328677545533
0.1616749061851141
0.3275340709754217

-1.857413517299722
0.4753959260788045
-1.2145508673983765
-0.7847690747302359
-1.0146239211777388
0.0772904622581837
-1.3294291857250982
0.0482666030255323
0.6539637683071357
-0.5161304870403941
-0.5771476716197027
0.048765001719646
-0.5152806939016165
-0.4199452325348878
-0.5597592036466824
-0.0861632765094726
-0.5143921790182593
-0.3453708002641824
0.4377738422375968
-0.2351548382019835
-0.0697628604541295
-0.477062614943037
-0.3038495088213013
-0.3113079794380102
-0.7032759350494749
-0.7683063199248302
-1.0143479841502054
-0.1806980328942931
-0.7093297151285995
-0.5422050118849234
0.2031202439739566
0.0406118311888244
-0.3919899500491294
-0.5372004622634722
-0.2986750037211638
-0.5975724854957637
-0.6651256121576212
-1.133736894294436
-0.713409256038877
-1.3895707094085574

-0.1613921250597552
0.1648299642101547
-0.074604335287826
0.0257350694239321
-0.0126999755691333
0.0143850110377744
-0.0120284332678351
-0.0028195311346091
0.0051899949451411
0.0075603484287854
-0.006020410169485
-0.0098798905134912
0.0228275643261365
-0.0391673555239174
0.1146506669997255
-0.5949238187619047
2.0474629364094645
-0.401815004618348
-3.348074555742536
-1.667464992088866
4.937566740453335
7.554631111413721
-18.17196311042132
14.033972346194735
-5.144231003970354
2.279002562630968
-0.161872564290713
0.7679090385986977
-0.1631892295183319
0.4703508546350682
-0.0097050130722699
-0.0886625253861321
0.1934676732248173
0.2972238024067282
0.0996426633134924
0.3602412068860577
0.2985557246195012
0.6107959667274446
0.3138627313969124
0.8189536250671826

