-0.8537045111075546
0.005170535452443
0.2089129855730192
-0.3825591373659395
-0.2875969308718663
-0.3394628579994133
-0.4016077861408352
-0.1114617484703205
-0.246826483676665
-0.16042559761852
0.002618944113976
0.0341783591577438
-0.0711943701753144
-0.1335519167324035
-0.1074026283412833
-0.073971387720531
-0.1442464644177769
-0.1674012573500469
-0.178222371113456
-0.0572803679760916
-0.1359623032611105
-0.0697806877804479
0.0426222656728784
0.0152301307536704
-0.0696984989517788
-0.0712498342413979
-0.0403011124377652
-0.1035839782177521
-0.0865360992718986
-0.1351207973510869
0.0958028003556917
-0.0073543298621493
-0.1141774340096788
-0.1021538779543321
-0.0908043837501191
-0.1452441468772554
-0.1926278940208103
-0.3756663585972921
-0.3661879590315944
-0.6715290664165683

0.2754998934082777
0.102675625059309
0.0292004013892635
0.1218369735846343
0.2749621688740786
0.3505111051907139
0.3989918297877557
0.1952096552236646
0.1617781665189977
0.1417853523186049
0.1007674456679064
0.0923464492694984
0.123399521429273
0.1650320784308075
0.1976960879405601
0.2261349478359869
0.2815951802695998
0.3660418554720629
0.3611814971738291
0.2060948692325073
0.1579808852906442
0.0882632937538828
0.0447169107420618
0.0652659545864974
0.1145149970269271
0.1531780747103868
0.1852388045516839
0.2459394666382247
0.3148896323763332
0.2355456745333439
0.1475873054545323
0.1394559654623007
0.0820456342648311
0.0649419191777246
0.0984864794330774
0.1468494071750291
0.184004243850933
0.2514846236515122
0.2590245170290057
0.3956442463811991

-1.6619475419893674
0.5196618080723158
-0.0315360604568109
-0.8208089950438804
-0.5199363654030046
-0.8401577469374409
-0.957185954315195
-0.1954185872169662
-0.6127894922268251
-0.628718444121666
0.1599137875358929
0.2225498713796882
-0.2377861931053175
-0.5057481204106975
-0.2929625879799393
-0.1316824430693938
-0.5517046421388769
-0.5259656920160986
-0.6930316497899989
-0.1870892186525691
-0.5232324106161705
-0.2237026716494807
0.1652519963532159
-0.2390953466106084
-0.4982984432556643
-0.2780745269342439
-0.5583446289641415
-0.7742123678347762
-0.964040892864268
-0.8672852851209852
0.08293167052591
-1.4122318483772238
0.0600590946998031
0.2874380625628346
-0.5425364953380115
-0.7636909337726648
-0.2613489712477087
-0.9545236524350464
-0.7824968478126104
-1.253545022427348

-0.2642202544566766
0.2708540740649361
-0.01708820133571
-0.0765289393271974
0.0435353325097687
-0.0157480068236445
0.0069733962104992
-0.0060489713146367
0.0042952486597674
0.0016436564684844
-0.0028672431589227
-0.0014213984731776
0.0017918258571841
0.0011024563372818
-0.00210299472137
0.0015727939518262
-0.0010034567590012
0.0007321544561915
-0.0004418738246505
-0.0076727877812985
0.0564895881266259
-0.0642253400238899
-0.0889286544752766
0.1115236222672918
0.1964647589501225
-0.4711066478521986
0.4973511109328141
-0.4902093224749342
0.8279594784784655
-2.4210034935443057
5.039371773964969
-3.7650413552754687
0.1291327813186077
1.392670487232226
0.2957849490074937
-0.3887701864247415
0.5749254377767408
0.4378459934081817
0.4513899797237279
0.8300367164903281

