-0.4892986577400489
0.0517275106209493
0.0218574091891615
-0.1648638589588962
-0.1454457049498008
-0.1405797402030549
-0.193998702064907
-0.1540719972168925
-0.0719791790350053
-0.1217904142050174
-0.0100971722081798
0.039085994858329
0.0004457258156025
-0.0441470285345175
-0.0110057073021987
0.0212363778565094
0.0266139074139566
0.0701933652635092
0.0322976069979092
0.0361970468848193
0.0395654658650038
0.0201599843174732
0.0340133456112071
0.0605394087100048
0.0699471625372986
0.066751286851355
0.1078648868315025
0.1625927504101084
0.2154742615708333
0.2513097725047899
0.0761205831447859
0.2286399705987227
0.1328476070395047
-0.005616627130218
-0.0490583641424894
-0.0445436832619722
-0.0621765057647106
-0.0765615120696205
0.1171521970164907
-0.4793352955084059

0.5670667843409638
-0.9348390849223116
0.3721294623301285
0.671098360146489
-0.2802937766648607
0.4377877700395737
0.2882907210979175
0.4338855300526316
-0.0534002711262952
0.7260169288871574
-0.2386977929841309
-0.1456228603080636
0.3644629059241751
0.0876450662500794
0.0658964797210372
0.2030408899255128
0.1914107404711464
0.2401543955863034
0.0924322595022556
0.1432803477366885
0.1455557994229679
-0.0350132253240739
0.1036027839761341
0.202241980097404
0.1399234880054339
0.0184123664706719
0.2008661460949381
0.1985812376723353
0.2190076420842271
0.1951222257011799
0.0872341036360097
-0.1222203127100268
0.1717008679104247
0.0871340261140628
-0.0402342760663842
-0.0560962691285516
0.066300881159866
0.1906780944596912
-0.1302182371348319
0.2361763247955029

-2.986137764507579
2.584062571018148
-0.5568932461873161
-1.7623000762851029
0.320993756984978
-1.092587950711306
-0.8307609856311974
-1.0549980678055697
0.1282415172811697
-1.622322689977157
0.3878338848347445
0.4950695054911789
-0.6896808649418845
-0.3308556932753385
0.0039907453822451
-0.387091162240251
-0.2861432923095998
-0.3312585307040123
-0.1825807433296905
0.0612067486998534
-0.3952958446837338
-0.0707358391605442
-0.1080473486008536
-0.2821087946489513
-0.3378612687528439
-0.2111659084251762
-0.4525798726812511
-0.6522677126861599
-0.7662085424226487
-0.936147845661732
-0.2350626934729539
-0.1312356974797138
-0.94799022515605
-0.1631846006219908
0.3225237755378153
0.1712059274133966
-0.5827851948714722
-1.4542188880856195
1.10197505082894
-1.8947245487831648

0.0084573284498421
-0.0125884232734002
0.0011987700491456
0.008007182358049
-0.0064562024009719
0.0027263670857633
-0.0010962697802064
0.001077759973887
-0.0027093885031705
0.0044317730527921
-0.0011974841278092
-0.003123264991012
0.0015619134677627
0.0018602527834355
-0.002447988071589
0.0018461178357238
-0.0021176362510277
0.0055458563119968
-0.0214454858378645
0.0347256529740837
0.0472523882660268
-0.0273272047986031
-0.0983242164307801
-0.0609709984068778
0.1425583921541618
0.2371353993700684
-0.5974361786718463
0.6856898267183048
-0.8250964583662374
1.3929638446446042
-0.6210314311849804
0.9708707311677016
0.3964424874745044
-0.2061190107464837
-0.2782426256895864
0.0584431509331381
0.4988924880775162
0.5779634041757993
-0.5014505633493077
1.0652083591142876

