-0.9720179347330414
0.0378761094202306
0.2829995271000393
-0.2699478540083633
-0.3604396052640355
-0.2238842415916162
-0.4099912080761979
-0.3506556856804916
-0.1103969216086651
-0.2684922723695428
-0.0855229724130993
0.0294858848295857
-0.0811108923296654
-0.1578551153846053
-0.1176771819471685
-0.1470797556359799
-0.190171827264667
-0.2029622460901589
-0.0717496729190478
-0.1143289220705758
-0.1125891828943563
-0.0046669323501924
0.0632282236425632
0.0115697338706249
-0.0745291483361039
-0.073577378430692
-0.0204230470482139
-0.0851344083313594
-0.0845161390749809
-0.1124581040186
-0.0085893387559136
0.0287904694759011
-0.0715989346841965
-0.054340477387591
-0.026360115359719
-0.0758721061704086
-0.2288773356611825
-0.2991433226136534
0.2261594455193221
-0.8656556708337859

0.3915422381548058
0.0482597941799158
-0.0513921660929993
0.0935126283072477
0.2854079164102704
0.2658454461978592
0.4169976238958225
0.4206555867392983
0.1361375112746567
0.249126352674363
0.1609234859960359
0.080403437809331
0.1400984677901223
0.2289699532187493
0.2652442832130822
0.3141006043925745
0.4061114638966592
0.4176270032028959
0.1897927314124304
0.2535689378553521
0.1261431992818276
-0.0405968902333979
-0.0223633938322782
0.0874694375305845
0.1485156673246423
0.1272216278828621
0.1316756723829752
0.20330419829974
0.271403259565773
0.3101831550148766
0.1295970592642677
0.1866281527030723
0.1319292332556469
0.0228472704864358
0.0027425429347749
0.0716624189827779
0.1620356746888493
0.1542029104440146
-0.0309086326426406
0.4341607658854912

-2.0866935101531405
0.9799948376113634
0.0232051770681103
-0.9268830354531646
-0.3152011343087064
-0.7632149730445866
-0.8670073341629043
-0.9610768713020724
0.0182631742488078
-1.1064449449575788
-0.1079373071061582
0.3391814999410294
-0.3434894920238076
-0.599361935529617
-0.1621327230405415
-0.5367516349423754
-0.5748386109501179
-0.7260245498124772
-0.1940941868775429
-0.4895677753743372
-0.5448596131998074
0.4081755562999915
0.2033031646892451
-0.4969296580664296
-0.5318597953148761
-0.103791889418075
-0.4246731749428514
-0.7009767746248843
-0.7937577688636271
-1.1029419058229375
-0.1415600804983688
-0.7494567685064353
-0.9309644132562608
0.1195376069285408
0.4222887481422572
-0.0005490222971275
-0.7288831536218832
-1.243082845318652
0.9830415689851943
-1.7844256493845667

0.0044972756906285
-0.007614568157372
0.0025718296342093
0.002680476865031
-0.0027940816738469
0.0012999914993704
-0.0005551203662538
0.0005648335687871
-0.0014494189575546
0.0024529795685137
-0.0008608021045078
-0.0015042713288827
0.0011854505990513
-0.0001104011979102
0.0002454133652149
-0.0006972355793318
0.0010934273120099
-0.002352406230113
0.0030576060387975
0.0266813082412942
-0.0619554128928616
-0.0493225183413744
0.0712658439591555
0.1425299977265943
-0.0559054679140714
-0.3635703196919979
0.5764095860743121
-0.5468177317215728
0.6125552778044016
-1.229916703706918
2.5284014863104343
-2.537640192086718
1.4617557069045377
0.7977699141930203
-0.313140754687948
-0.5179688593568063
0.2501976371498542
1.1102606952894634
-0.7416215843513709
1.116790461733428

