-0.5263196888587239
0.0411442203433009
0.092512391759811
-0.2911561635650456
-0.1224661018394823
-0.2326577003400764
-0.1204567444479211
-0.0802790706177482
-0.1574441456245699
0.0260140100859671
0.0105727477351608
-0.0656447943301045
-0.1009719361325207
-0.0322914823399268
-0.0868479772003384
-0.0727679786898199
-0.0574882641926456
-0.0131233971862814
-0.0688054999851354
0.027996924600291
0.008925422168944
-0.0107068311420683
0.020889513850685
0.0240279347603382
0.0259034481968333
0.0659487664447375
0.0314172407696223
0.195961378098076
-0.3739460140371413
-0.1653187555314759
0.840625941855759
0.113719861556835
-0.4589423720719841
-0.1438651888654696
0.2395644823160358
-0.1253891841220109
-0.0915425086695618
-0.2003487184020889
-0.1438860377721637
-0.3393664030840492

0.2869598201655733
0.125702309304206
0.067908992787846
0.2014135811809918
0.337340285799151
0.4126247998224524
0.3003252737348529
0.182059709659726
0.1719321990841047
0.1261915257668557
0.1228617868942898
0.1702835020006717
0.2418201185115036
0.2980541100637055
0.3734373408319031
0.4490965341736566
0.3672235229043167
0.194099599185645
0.1789344983595863
0.0819478281724918
0.0094352476901134
0.0326592836101706
0.106094093057233
0.1486054849207594
0.1632961334218728
0.2254538161771568
0.2569825193674036
0.1231995178015554
0.0689663676141377
0.0722447192227959
0.0726749468237017
0.0695001854592189
0.074298744497896
0.097063739227737
0.1277722444435345
0.1650837092909305
0.2229060666383497
0.3231327500566169
0.2356342284117173
0.3850054039029857

-1.1320594153200936
-0.2218798896839174
-0.1251991838057286
-0.7738442750513014
-0.782109076757561
-1.0027726775101515
-0.6441768863059683
-0.4164796359152785
-0.5010655218715225
-0.1300522267924702
-0.0671091453919551
-0.2948612258769227
-0.4485753069730969
-0.3934967900704809
-0.5609435107066745
-0.6448659202601829
-0.5906417186627756
-0.1725094593997892
-0.4080669236522959
-0.1891217849842434
0.0281988301096264
-0.1030705070808794
-0.3212527618983447
-0.3557647004956665
-0.4553704264800908
-0.6760133827475698
-0.8003840020487678
-0.4048493229571391
-0.2269701351015542
-0.2654118176908638
-0.3051703871270723
-0.2358705736151957
-0.1639355753062935
-0.2781177258431937
-0.4413532856428384
-0.5829179066728734
-0.6464980622132495
-1.0839455087804213
-0.7228524524996978
-1.2227934525165902

-0.7901708646917515
0.960866635258011
-0.3817621664916349
0.0417305925570568
0.0125978907969109
-0.0094409533518457
0.0098602792022982
-0.01571278371014
0.0130721906411222
0.0003640011166388
-0.0052080773540427
5.760259755905555e-05
0.0025250445860162
-0.0014030228759292
0.000382114886283
3.375245654296053e-05
-0.0009270860158452
0.0082453555350992
-0.0273947087929663
0.0040668565533693
0.0472695308510783
-0.0004657995877214
-0.1114093279992593
0.1521688132335848
-0.1288542915855986
0.1273944397283578
-0.2317476016513208
-0.0570735231794898
8.00376778548113
-29.37574044315619
28.670987279746104
0.3783115412804063
-8.428535195086543
-2.1405504556511654
4.635180597909874
-0.7406116878261699
0.1650564131644829
0.7697585647874956
0.2120165915318839
0.9167254211024224

