-0.2378162759636925
-0.0698032868491576
-0.2023275242485725
-0.1705937033911154
-0.061500602072463
-0.1125365799680973
-0.0201339483329111
-0.0292564634453288
0.0146832632072035
0.0238233659600527
-0.0236941577940473
-0.0256938244211197
0.0219186431982744
0.0071555906986352
0.0335587809255394
0.0588962798974006
0.0663801202348595
-0.1152055872222407
0.1573755160370391
0.122085348407058
-0.0321756147532255
0.0522920518929194
0.1541860282595548
0.1259068197070562
0.2224950704198267
0.2646084125664601
0.2344343790599769
0.0614532820655847
0.1296141444958148
-0.0179422323109669
0.3295905798875483
0.022766636472829
0.0135439554803107
0.1948578755009354
0.0907383092085663
0.1229648735851376
0.0331092261456083
-0.1006067338135145
0.8670415281442224
-0.9969122695431016

0.1353466285500492
0.0533500374127568
0.2566207864976233
0.3114716975809187
0.2010883850552108
0.0248612894479907
-0.1563967342534701
0.2944253342827375
0.4442158173200402
0.0833262713303764
-0.3286323834278412
0.278357818450451
0.2901179756186477
0.0847243390687375
0.3010091381810523
0.1294204417847967
0.4040420924402148
-0.5457918078261803
0.1959661108159725
0.5275306352183178
-0.1350960616211628
-0.009584303983634
0.3022016673660412
0.1693127995211305
0.2970755074805994
0.3050725438468704
0.2850661191347677
-0.2075098980686854
0.7056753598988715
0.2823961707978288
-0.9553801004209304
0.1696344446393183
0.5268184920108816
-0.2496989298470402
0.2038165826479055
0.0925664389891142
0.1451689146377784
0.0241573648344305
-0.0112158871913731
0.182715971427939

-1.3485030511274374
-0.2166661235960981
-1.170476383139754
-1.0042135473650675
-0.4284321799597468
-0.6517808126394438
-0.3271947966937324
-0.0138342264048639
-0.1663063348963646
-0.298934646449255
-0.0365455946781879
-0.3837363975542167
-0.3559222046764981
-0.2961309336522482
-0.5048172557847634
-0.2013210862909319
-0.7354653244780142
0.8022006633514162
0.1695750410590972
-1.053120736301535
0.0519105507006693
0.1043887703573399
-0.5509153331036298
-0.3707459654443224
-0.6737038483556853
-0.7441662993988121
-0.8335772303119433
0.5824503464148034
-1.722178039391073
-0.4875257455405685
1.604960828655437
-0.8052170083577185
-1.0465898203042057
0.0341021819550567
-0.9488068427820772
-0.8672315545584564
-1.0538740695973687
-0.2197269474807018
0.0799955985266297
-1.422044031417209

-0.1530703776831308
0.1272814392783326
-0.0544431295519765
0.0257095288935075
-0.0245995196142844
0.0231155136725346
-0.0023846206078996
-0.0085270509139111
-0.0022526004421587
0.0041253452769915
0.002794158770972
-0.0026234509648662
9.574605428111267e-05
0.0001548239444307
0.0004498009975342
-0.0018237837108918
0.0068961394062504
-0.0118287216898767
-0.0076943142578387
0.0124746843691849
0.0236342290914403
-0.0142500168789629
-0.0554249739637729
0.1099082943443256
-0.1523885770219143
0.3262758071990812
-1.5014620724223078
9.030765622983456
-25.87663783439951
26.14564293894699
-4.27164007925709
-6.9061133535485055
3.887402908572832
0.1822531485330129
0.1155529172839519
0.7020770323867908
0.4716961295941794
0.4201419714194053
-0.7114842369008884
1.301912145243863

