-0.3960185963017564
-0.042789746202282
-0.1017484315174832
-0.2261274855885726
-0.2088017421180977
-0.1309158607156172
-0.102660279009729
-0.097417087947266
-0.0244903694616351
0.0064816389026011
-0.0184260712068706
-0.0472332839255476
-0.0697358779580298
-0.0494825609186978
-0.0504911697153582
-0.0671948325813262
-0.0562283619310228
-0.0298505817594053
-0.0346743055734608
-0.011696594392915
-0.0038769649048684
0.0085856003713646
0.0245680909449071
0.0159980158942894
0.0210568358301161
0.0510149324847535
0.0535144078763135
0.1032375503251777
-0.0591092771795985
0.0034921017353132
0.2425688492092225
0.0505680550498901
-0.0942150255932769
-0.0311621197290069
0.0153108922224539
-0.0847101264557605
-0.1204872786878184
-0.2394164465723257
0.0612038480318331
-0.4465696068319633

0.3165949352800121
0.1172999218283855
0.1542350682936346
0.30306959689205
0.3825729460080296
0.252485002847947
0.1654047345375351
0.1707593350980235
0.0951029988723321
0.0750689317510747
0.1094437780478342
0.1588551781302326
0.2096884418510736
0.2385314593097646
0.2918482807595883
0.3749563511169152
0.3910561460997797
0.2429256633091677
0.1904953971595462
0.1472733046603616
0.0183999720873849
-0.0089695609652641
0.0682188899608297
0.1404496642557847
0.1414178360575258
0.1751671258485606
0.2430715668475713
0.2328137251887519
0.0702990561672063
0.1055720346197714
0.107109445136939
0.0787935199514207
0.0812547307180761
0.1256046100668748
0.1761569698562654
0.224367654651416
0.311608410588179
0.3468723183021441
0.1046150408348003
0.3812722039673689

-1.2535328921853797
0.0081284646974952
-0.7183207991067361
-0.8163577261342176
-1.0148883918011264
-0.5939293048307437
-0.3532578305073566
-0.7163924818119739
-0.069645098247857
0.1315829725885123
-0.1170523779800382
-0.3834599942682611
-0.4003354610831838
-0.2419077024446094
-0.4649156546529835
-0.5323787552071444
-0.607216113146992
-0.3858942491660767
-0.1953262260862715
-0.4620570014901666
0.0077677797825029
0.0738910149594181
-0.2588391008028346
-0.4118878196341247
-0.2945445589354561
-0.5933494774006364
-0.7220899061333532
-0.8290706833365717
-0.1309421560136536
-0.4586042413979267
-0.4608451045485781
-0.1572165657460661
-0.1646423217729751
-0.4953254391101582
-0.5551600697370236
-0.7372147090034491
-0.953105420399957
-1.2097559499285635
-0.1358852012619269
-1.362760031108926

-0.6976817475940028
0.8439575234076615
-0.4196327550847593
0.1405591216840692
-0.0517039899928299
0.0365261290532848
-0.0376140427517879
0.0151083841859866
0.0089971825220441
-0.0023506210092845
-0.0045884695269237
-0.0011016020773599
0.0017409812332975
0.0011292814813093
-0.0016963728746474
0.0015599449563523
-0.0025652445282377
0.0071090472925918
-0.009384117676827
-0.0215111613621044
0.0153059143994289
0.0561440871998658
-0.0122032808027288
-0.1577110575951701
0.2666632371065638
-0.3047151455380597
0.4758060293548714
-1.543343627953371
7.78239328752587
-23.99852860247883
25.777759745870807
-4.30686430974193
-6.977151668054591
3.0160106464188856
1.2700563429737548
-0.4863390352362998
0.8165577404050015
0.5882625798763614
-0.0698383742050736
1.0254595625449576

