-0.6414318738827424
-0.0753829477640196
0.3325083940785607
-0.009486372445209
-0.3198435907421874
-0.0395516182022123
-0.1289081012553038
-0.1895033795954207
-0.1888996042790673
-0.0798340803841469
-0.1010277662275236
-0.0651799133083288
-0.0252602449732236
-0.0079228111950452
-0.010363433442909
-0.0082153270141729
-0.0167912602307312
-0.0381888021019852
-0.012947757632754
-0.025002602514497
-0.0021573177026709
-0.0054265041628454
-0.0388922819780055
0.031690994205632
0.0414677756500936
0.0182441630753533
0.0084344513674733
0.0064934315821931
0.0245461029643863
0.063971420173918
0.1006917156001047
0.0723311097196724
0.0402511852415124
-0.0058041612009498
0.1671945029789553
-0.0982147223870799
-0.2404839661969189
-0.0220048609264494
0.3323923466326464
-0.6725900281723368

0.5019482738007397
0.0747695379925626
-0.1245642624469111
-0.024320805888107
0.2927588229672735
0.2544160761382511
0.2759754083761249
0.453927328915382
0.5156500841661762
0.2407627860916698
0.2156073608687457
0.1988575437190069
0.1150963616661878
0.1053281823552107
0.1297243441538596
0.1176607554136463
0.1072250702482062
0.1991474474027942
0.2274318028854492
0.2730905644103939
0.2749539569927138
0.1023939276517199
0.1237015766543189
0.0966244749388391
0.0272270631147484
0.0119458717746996
0.0571542916873457
0.0592510823611055
0.0884532537986138
0.1489440672141744
0.1993204332122933
0.2682091876377065
0.3197119976367975
0.1090316440308941
0.172072072807599
0.188142541175663
0.0833120598907769
-0.0318137699677155
-0.06523584080906
0.55055135367

-2.078653100854884
0.3905899968179857
0.4265194259647631
-0.2340015584244437
-1.1310057349391982
-0.0417843830090985
-0.8527168556105797
-0.8445989959329757
-1.038522955333097
-0.3508605018182361
-0.5740503719188133
-0.5841873981563068
0.215678757183075
0.0497727366484741
-0.4443723159556745
-0.1364985813616461
-0.0897706384975849
-0.3936192240323229
-0.3837160260743779
-0.5192843771734439
-0.6009324993603176
-0.1691556884261288
-0.2681245463756537
-0.3940206043103586
0.0517781554652839
0.0769155239381727
-0.3250786512263866
-0.3108025784641023
-0.3064451285370175
-0.3915965366114661
-0.7220344726491899
-0.8562377876447437
-1.0282954139602702
-0.4732671458126482
-0.2899314810725805
-0.515552066956811
-0.5406468906215312
-0.498226425282348
1.3529787270210256
-2.333995313141466

0.0026361339225355
-0.0047825982933881
0.0013783391257965
0.0026292436269564
-0.0022210847039787
0.0004362767113933
0.0001782547781755
-0.0002037860511029
0.0003146428163654
-0.0007006906854001
-0.0008148215144628
0.0055191620581706
-0.0008563189972799
-0.0053883494494321
-0.0039642357817255
0.0049142445434354
0.0124827697107598
-0.0227201933152245
0.0206342292380058
-0.0198776489543126
0.0302470777770238
0.0296823830542265
-0.659325972773077
0.8314079767749096
1.1398479479721142
-0.5613596952690655
-2.495832717867255
-0.5243066628057841
6.786797950796316
-7.918012438593513
5.091745992089794
-1.3213228218583135
1.368780605156369
-0.4545165715981655
0.871440275426106
0.0347610029696735
0.0894578485300865
0.4089633204822383
-0.7427389260554745
1.269950349760048

