-0.0381258175729318
-0.0611469214308468
-0.0114296649073384
-0.0090352273076799
-0.0365787398663315
0.0063811894098271
0.0384996655935104
-0.0049707489359935
-0.0122069583442917
0.0394066908535396
0.0336587708254238
0.029832200478546
0.0769526822471884
0.098760298825349
0.1278402440723737
0.0826259882687096
9.444110327543735e-05
0.0430438482843929
0.1430524975341213
0.0488183417963385
0.0744508918337279
0.1346933904147767
0.1847828597090134
0.2594009581237126
0.3281101230809795
0.2826211807719345
0.0101013418104245
0.3175555189670153
0.1712360750472908
-0.1128738549647924
-0.0480300465015161
0.633175410398342
-0.0470691016136291
0.2994083991109867
0.2218218876895502
0.184461652317172
-0.014721985528417
0.337891996503004
0.0831937458100189
-0.4222129568485883

0.3494323157030424
0.1569104645941064
0.2543704782618241
0.1181880445143277
0.1087017929348713
0.0842544344620793
0.0413472685316925
0.0056850099749282
0.0189638567593855
0.0815021510009181
0.1112949315510334
0.1206106117626486
0.1785893562645058
0.2599923340408098
0.2910503858175484
0.142303313517001
0.1464562933002203
0.1547169338213858
0.1249970477556566
0.1142783370293081
0.1302269591196651
0.2158118495060038
0.2970166343344261
0.3964163490000545
0.47842608214796
0.3448685643067093
0.2143274204315237
0.183079287992338
0.0958241338176295
0.0468973509361168
0.0684593756256606
0.1061995676904681
0.1657090697621818
0.2052505577303551
0.2678605684151096
0.2672687990982488
0.0716065055168738
0.0468982188941789
0.0922366906345536
0.2349728876021616

-1.577875487225567
-0.528094633474851
-1.2883423780045262
0.0016112809142614
-0.8594606106631217
-0.7524057298427764
0.0249785205532648
0.6123712643270112
0.168280673790755
-1.027749382955976
-0.2530093159729593
0.0804071101224301
-0.6566658376894483
-0.4268711209149007
-0.6631911926871081
-0.0624384274617066
-0.6093530165856246
-0.3514261779885069
0.5074538256289687
-0.5934526640587671
-0.2705983186077946
-0.3986152972801668
-0.5545750336127359
-0.843686717623415
-0.9921034246695236
-0.962902024378835
0.209840913758557
-1.414375173478382
-0.074792475317621
0.3652199581715394
-0.5419926449791169
-0.8763628940928574
-0.377794800665355
-1.0240751184437862
-1.1284323921373969
-1.1589037221847664
-0.3400797699098466
-0.9875593754504296
1.3145906244344625
-2.0291003602482465

0.0211909722282611
-0.0242556073739542
0.0176939334150784
-0.0129686128738975
0.0071023715646508
0.0068961152993219
-0.004321607766614
-0.0069485593788188
-0.001375069384058
0.0047224304710957
0.0039342884440701
-0.0023543017132638
-0.0027916202705602
0.0013950773955195
0.0055202031488575
-0.00780493576399
0.0068913617527243
0.0041242557796213
-0.0061795099675807
-0.004472856268037
0.0035331261022595
0.0039983809304936
-0.0033023622933422
-0.0008473251318299
0.004175364210021
0.0006625659945076
-0.0033625495792232
0.0076784793556771
-0.0030658457764198
-0.0058320450929147
0.0012581235193996
0.0048118639897272
-0.0010366041587561
-0.0022247527017871
-0.0009468453280147
0.0169718758366898
-0.0118282100935227
-0.0230542134613462
-0.0131195895105829
0.0435831667076385

