-0.7217735529520768
-0.2656379730046045
-0.5573371199714972
-0.0181277871366918
-0.3544037027451648
-0.2607285809962026
0.0401505031812665
0.1155325305551743
-0.0588067431405831
-0.222031510147249
-0.166977455273185
-0.0677977181267071
-0.2426567899102923
-0.2317176919894621
-0.2557240676157524
-0.0921191046252348
-0.1491952974110539
-0.0813120188042935
0.0332527367070673
-0.0041078770118734
-0.1071289122446111
-0.0639428170661391
-0.0557705744568323
-0.1081634966193933
-0.1011144136631202
-0.1155624506313892
0.0594255895403232
-0.085574857685891
-0.2128705911349571
0.0313496757802174
0.3103944684075978
-0.338764816921771
-0.0522074474886563
-0.1881953638323339
-0.2963572257905597
-0.2936265573681895
-0.2743900737980089
0.1566180532439678
0.3968094898428096
-1.1664551525782956

0.3687232446834684
0.1843759089771439
0.3139089289779348
0.0905555404819562
0.1005180117594536
0.1311253911703816
0.1105000087094695
0.0798358356734024
0.0913344077628187
0.1448852545210704
0.201400155260751
0.2562989626584261
0.3466968647256644
0.4641116342289786
0.4677023080472083
0.2698833114022848
0.2218739355144132
0.1281206944623546
0.048009196149275
0.054207928914472
0.1094812158018926
0.1635610116787614
0.1969056038324538
0.2637147261248683
0.3226799260188473
0.238343771654469
0.147197407692083
0.0979375530512659
0.0299239830572496
0.0634668635183823
0.1361731282483857
0.1618647390275939
0.1844616533459086
0.2569288481422195
0.332893115170971
0.3243448563392815
0.1081258823763391
0.0796298925618448
0.102780107686927
0.2359015476142555

-1.2591870241326295
-0.5040515178590199
-1.1281203297111648
-0.0553190327286198
-0.552921851413965
-0.7879582993340718
-0.0386309390910329
0.3954980230443616
-0.0981043658633318
-0.6933413881848087
-0.3432517269588477
-0.2022771879051226
-0.6610565248781101
-0.6299244788693135
-0.7557170736047574
-0.241437820039945
-0.4460304192852955
-0.2827623366411412
0.1636319177137226
-0.1799153556232339
-0.39945903156171
-0.2466249826508434
-0.4540455102293159
-0.6564112360261171
-0.8044501791893736
-0.7220607375714635
0.0417635254811991
-1.1880461421523505
0.3485115985070882
0.2635427488481914
-1.1636391610873291
-0.2393511833320861
-0.5380250090153843
-0.8940545115549201
-1.0186870774752927
-1.0397434965673649
-0.2646723459888931
-0.936751514364968
1.063413531437435
-1.6037773271542433

-0.0256451626760393
0.0159702520231422
-0.0080862922402898
0.0077866249358691
-0.0079384213678042
0.0031490871268155
0.0007142086543508
-0.000558220841566
0.0003047509492268
9.35931952886516e-05
-0.0009259796944055
0.0008152700493076
-0.0002443084096173
-0.0001617641764426
0.0008275458818233
-0.0037762122936914
0.0090750269133277
0.001216488717921
-0.0139965315302051
-0.0042136435971563
0.0205731751587672
-0.0019949958238756
-0.0257565937569351
0.0494204913808433
-0.1182981685057701
0.5667695038072602
-3.279869482292674
6.820529517142455
4.390987677299708
-25.068714349835844
25.77197761990928
-9.813548466650628
1.3850278094362296
0.8255243233110175
0.3456003790243347
0.6481405765782169
0.0959925358555555
0.5911680138122842
-1.0065047807789298
1.3436796958530377

