-0.2962086520042702
-0.0881702768824286
-0.0921416576245495
-0.2099095679706395
-0.2119111500648854
-0.1972514261546066
-0.0875639765826761
-0.1203771035977262
-0.0752021007452052
-0.0057663342508535
0.0254876770035032
0.0128311865457327
-0.0182463713208727
-0.0351839323684302
-0.009535616389875
0.0193855951440604
0.0263177319878268
0.0658140133234864
0.0256754583846531
0.0442370497520005
0.0442310758265166
0.0329398768677327
0.0459455814388784
0.071857096341626
0.0938277827138592
0.1238728132788766
0.1796623282339914
0.2420485060205982
0.1707204596313009
0.0584933516074684
0.225760615429209
0.0986724261071143
-0.0225602266932809
-0.0068009778187157
0.0431612480003697
0.0072104610650127
-0.0481616786405109
-0.1473797630153762
-0.0791156148526638
-0.3379077845754737

0.0788678678514064
-0.0602227544743601
0.2192602874578401
0.2437092198854011
0.2542493267878754
0.3754234264056922
0.0329367380175432
0.1867059211922866
0.3314684743050857
0.1156633255622164
-0.1463691899859993
0.0160479782649676
0.2151270039074061
0.124052207971662
0.0826336905239925
0.1733153931807139
0.1941874758725291
0.2180293441605
0.0841114999718865
0.1490985163687536
0.1304965292089045
0.0669371791109831
0.1076589489191663
0.1585647485151393
0.1800145160773827
0.1965793047003414
0.2712329184683461
0.3029538995320461
0.148165106384374
0.34938789704574
-0.1143377732473472
-0.1870819909668185
0.0956632202808174
0.1453183946662317
0.0348300471248907
0.0423222986216821
0.1104590957505451
0.1344558494054005
0.0802375541568971
0.1588553806282274

-1.4011441250763434
0.5597447573450353
-0.8488992627395737
-0.7713842074067533
-0.8612649292542085
-1.0977926177805613
-0.1094441318001256
-0.6961952901007172
-0.9148509953030708
0.0795546382237087
0.6776209594171978
-0.1775909004587811
-0.8019652697604227
-0.0893076751671529
-0.0026756232156301
-0.4143853474657047
-0.2492170452650337
-0.3297273706709486
-0.1122355009245863
-0.0551323718360245
-0.3393650325483165
-0.1488951381681653
-0.1753658738165638
-0.3055451890074495
-0.4059505895112599
-0.5061595952923489
-0.73154415141733
-0.928942387231071
-0.6308057334488952
-0.5783696536816526
-0.2897541952384377
0.1834163559089734
-0.3290466154929256
-0.5060044362876771
-0.2974081247970073
-0.5978930698387533
-0.7178479053928492
-1.0684921511223424
-0.6761066271944562
-1.1080703175213171

-0.7937339749635244
1.0194588942264908
-0.4997192128919784
0.1354646610966533
-0.0317402513656817
0.010537983456436
-0.0054805236231746
-0.0010765525184041
0.005490299326087
-0.0005511344956691
-0.0023054257360596
-8.710578686886458e-05
0.0008192635166163
-0.0008220739891951
0.0012835737249385
-0.0011578156908151
0.0008455902682442
-0.0005044524494562
-0.0075960798421865
0.056355437863064
-0.0641792497026456
-0.0887907097641864
0.1114977397231568
0.1962361134944753
-0.4709129556505061
0.4973874986719176
-0.4904743178131919
0.8287311873436198
-2.4247280394081585
5.058614205758576
-3.797887330460156
0.1096300792384832
1.4505687717969027
0.3391842026646008
-0.561630923607234
0.7738309342959552
0.2592132128721607
0.686202722108839
0.2587367985169973
0.890885300433489

