-0.5986278032782546
-0.1471421330342133
0.0236617562501024
-0.3453538045577481
-0.3407217996341619
-0.3981431224273437
-0.2399183957927588
-0.1741320882014985
-0.1712069751815134
-0.0538450198882302
-0.0049483192299167
-0.0311484324724408
-0.1018040000985103
-0.1238872080421696
-0.1052717457303401
-0.1227058754519431
-0.1708540028724434
-0.1887249373494621
-0.1127144839914368
-0.0902669480123516
-0.0868105893311421
-0.0192192672860546
0.0143976726573197
-0.0251041150691233
-0.0675371363695217
-0.0582105245670418
-0.0773617302963258
-0.1047623514186152
-0.0915401203964035
-0.1061597639711021
0.1156513478386633
-0.0023348405923031
-0.1153351667876178
-0.1185307191282893
-0.1034912696652642
-0.1733736910856077
-0.2519359111950003
-0.4352600643923481
-0.342339534501038
-0.6023618653691502

0.2289132088480843
0.117968975544102
0.069849851192994
0.1805738682335361
0.3126671390527846
0.383331375922935
0.2611420930018436
0.1520029563693975
0.1408183772155821
0.1038968557631038
0.0890928914595036
0.107950741071153
0.1515840776236776
0.1939569564819359
0.2285505792876611
0.2779932820578817
0.3576378591640349
0.3981381283005764
0.2672464397102005
0.1793361103750078
0.1208858313088418
0.0461017114418562
0.0441954794974815
0.0975283467236215
0.1487804094907657
0.1760252133600606
0.2267107159723597
0.3003055697944631
0.2761353990382713
0.1310263544489359
0.1531337383242699
0.1070199099567377
0.0676073622050928
0.0834828189466361
0.1321284525292673
0.177182482573302
0.2194770621411991
0.3092029239937997
0.2493161996423774
0.3524655609267909

-1.0066852662815666
-0.1750451639043778
-0.1215605547386369
-0.7445576848210032
-0.7080575206437391
-0.9499572485927352
-0.5658856200790054
-0.2714609848484579
-0.6314182659365348
-0.1401588404961188
0.103877538278452
-0.0714096451425646
-0.3402691245843202
-0.3700304531691282
-0.2483461295658415
-0.4063943209050625
-0.5406350579152535
-0.649201762318732
-0.4229249760435768
-0.2469695642940602
-0.4412184827383094
0.0297298966779287
-0.0209176242413953
-0.3770325683846176
-0.4240022865639836
-0.3751360780228516
-0.7282347367827149
-0.845537691629037
-1.0285560712564117
0.0401511890505308
-1.008203449153924
-0.4576983157266889
0.1568370497194544
-0.2005238404824051
-0.6257848875492106
-0.5584846523408049
-0.6085192989191557
-1.040667399858583
-0.7693221218488109
-1.1116694727671053

-0.7647619073321632
0.9608002118593504
-0.3983019607227189
0.0597189437875526
0.0033880067468199
-0.0055951938116256
0.0076242176545245
-0.0141382620479285
0.0117903671917363
0.0020769215184835
-0.0048134106066941
-0.0024790326973053
0.0022849632207649
0.0019564952034929
-0.0028024799566852
0.0019765828121218
-0.0015467248452437
0.0019767221040851
-0.0012947373601166
-0.0295018882119873
0.0936320435601904
0.0151646388140496
-0.1698962330706084
-0.0639839264967625
0.476783344139533
-0.6257382614216171
0.6131263226868634
-0.8590199374990362
2.428164371882205
-8.289460322050324
13.68862019884879
-6.334417576108649
-2.806207628360226
2.576030890041637
1.4287815707745897
-1.1708713208969288
0.9289698321739396
0.4470147259195155
0.4182111657074621
0.8486814487540547

