0.394963647125568
-0.8679075714482587
0.6158328107623345
-0.2404860688375608
0.0645165470524229
-0.0170134721867297
0.0425151246294269
-0.0422790634757554
-0.015953006010268
0.0863128350134881
0.0186503702860564
-0.0492080537300888
0.0608875253030582
0.0654378039898587
0.0325182031032191
0.1047687035196627
0.1385210299608055
0.1846903980800313
0.1888523572599901
-0.070853567024305
0.3411410349429467
-0.0146096834308194
-0.0589571007585837
0.1864686415014836
0.171261006282695
0.141603470651756
0.2996316474789384
0.3411991218603745
0.3943636333396366
0.2029289305900382
-0.6770678456522434
1.6678714897846458
-0.3954030600770805
-0.5323184900106271
0.5238863941268491
0.0300658722158005
0.0522411555754495
0.062202591340506
0.0396829475963078
-0.0912877912363796

0.2929170928681703
0.0339498966521528
0.0328399703864807
0.1974041365001338
0.1905344208804877
0.2345119336464721
0.1573844987046147
0.0864244308090453
0.0687232391664671
0.0665903107874838
0.0144254266371766
-0.002629557985089
0.1133009356303711
0.1344405846423512
0.0899096185034297
0.2276565483735946
0.3213421096116755
0.4122669782309973
0.2821407734691908
0.2135453162832972
0.1470694375351565
0.0740940627502581
0.099620494676778
0.1761944568728362
0.2104866914599284
0.2416011180642621
0.331846675507681
0.4111994246087894
0.344602644750186
0.1865540463264043
0.2460713942886586
-0.0294144221548982
-0.0339446875146579
0.0967392317817388
0.1550562210674824
0.1326877995760518
0.157752351765437
0.2712245412107996
0.2021367553338826
0.3024696399802273

-2.183480221889737
1.204254769320201
-0.7989354887883063
-0.6801808046547609
-0.7151651727049377
-0.9003512712785758
-0.5511592205915803
-0.125993900080421
-0.7049955451349854
-0.4189651178873611
0.4074800791889043
0.620073940800646
-0.8551207150268014
-0.633860178297043
0.4378646313976082
-0.7251491030627142
-0.4441893094514474
-0.7215617812360439
-0.4690453528484316
-0.1817027385260201
-0.5228424135981261
-0.06713429499856
-0.0812609496689812
-0.4585628914167489
-0.4813655162576377
-0.4999228525342538
-0.8837286734807596
-1.023102272207805
-1.1986500225017078
0.0042373656713617
-1.1709024653681848
-0.3965298416689259
0.3698615565295852
-0.4170265246217305
-0.7817503791217107
-0.46353166477073
-0.782020869439303
-1.1557504508040937
-0.9270462605324152
-1.231586064198673

0.0269531883117796
-0.0145529065429237
-0.0188290088761977
0.0108215784638174
0.0016018410016741
0.0034731926712133
-0.0024806038739682
-0.0003906310917983
0.0087045581312195
-0.0017680976836227
-0.0074215109209018
-0.003587034823664
0.0034468507112446
0.0054411233938061
-0.0004046433291815
-0.0040736360694867
0.0003863574266064
0.0054975622909044
-0.0019892154194748
-0.0005992803042986
0.0069604847859631
-0.0036683547629179
-0.0059796445179918
0.0013019765856755
0.0050540222026609
-0.0010925206931317
-0.0029381814142936
0.0033889054075009
0.0058024405633237
-0.0089079621760993
0.0097553417156129
0.0004480856137521
-0.0070789737554007
-0.0016336933421008
0.0054649114399513
0.0016070095973965
-0.0071919725737435
0.0112863147789299
-0.0138536598300766
0.0133027401173924

