0.2430365523762583
-0.2635346276788011
0.1956510516939385
0.0979593712631968
-0.0260313826570433
-0.0178693520269544
0.0479839886679376
0.0621850389051977
0.0653642796205456
0.1052451108717147
0.1389567595079669
0.1721113475926453
0.0508468867141094
0.1124214190564922
0.0795568739133452
0.0001008802164543
-0.0300567807963149
0.0715253597352107
0.1899289231389369
0.1131182526921195
0.1345529920626397
0.2657208728461998
0.3224576091398327
0.3988140838634745
0.1591801998764631
0.2021462096108625
0.1699709318096053
0.0635779946026954
0.1239595156033665
0.1706646687924393
0.2119171068288
0.3966951140717222
0.3650642255314062
0.4635410796582411
0.265019867398719
0.2192578455370314
0.2326397076983723
-0.0603795876278382
-0.1132326595665063
0.1468853153628262

0.3615151209485868
-0.0490168640006829
0.112421744329645
0.0663868115157612
-0.0009568694872672
0.0420865897805649
0.1098531737925306
0.0680321068249006
0.0806481872663699
0.1666286919674239
0.1930544169608332
0.1965835201869318
0.1316661398174916
0.1503567577847674
-0.1177640174298846
-0.0199820461673617
0.1823406550959794
0.1793627580736519
0.0990889736400245
0.1075694212267512
0.1505158823380203
0.2960759271425209
0.3376759343512322
0.4046085265406396
0.1576980733153692
0.2375440838009288
0.1648311974212137
0.0287678350102727
0.0381950994112526
0.1107340368368388
0.1715638320698214
0.1280922563210808
0.2344427815132739
0.2769452642728283
0.1811231549357937
0.1599047921517473
0.1764179861225091
-0.0843944197986423
-0.1282981184791796
0.4644828091422233

-1.8791413412596276
1.4437295818899627
-2.106496988225621
-0.2121795609255717
0.7931383657614612
0.0448036761617543
-0.8442497296674079
-0.2867499275048698
-0.0953839618594472
-0.590442417058194
-0.4891060363310725
-0.6111051972766913
0.0335811135232169
-1.3994292117178615
1.2407682768932156
0.2754291558536136
-1.1972698975003275
-0.1599511358777427
0.5403057132549974
-0.7018470941273781
-0.1927236895095324
-0.5631868893716275
-0.6720494993947785
-0.8811745160446626
-0.2735692968914668
-0.4916206197126572
-0.5835308989184603
0.134700936402357
-0.156804187469323
-0.5721189407535169
-0.4508720948392019
-0.6235481892647952
-0.944243221487284
-1.0822011062895351
-1.0357824315199984
0.483247217441734
-2.518369487587272
0.2940446173509171
2.5303516599607945
-3.2208116702930942

0.0014312364329022
-0.0060436640032135
0.0084502562009424
-0.0009645958030061
-0.004439393427436
-0.0005954892114021
0.0031632090412798
0.0010599687506385
-0.0041226734662334
0.0043672238280027
-0.0050753425876783
0.0107767245595166
-0.0266914389938258
-0.0041832770158975
0.107034833965274
0.0377646409650774
-0.1426576715885287
-0.1968095265100483
0.1416171999381136
0.532235697524364
-0.9287546651580284
0.8907840831035463
-0.9339814041172724
1.456321190661459
-0.6868797039145909
1.273268098469475
0.028699884304018
-0.3795173331990157
0.1674939803697166
0.5074410858159486
0.1255557583869058
0.3493847742557826
0.492909411054608
0.5620736648645959
0.5093807908435222
-0.1832872704042456
1.2246693269890323
-0.171714816324688
-1.2858340512264643
1.690942419260019

