-0.7030716142366966
-0.1605754333848833
0.4106796679431496
0.2051970892010539
-0.2772272290532429
-0.2562540557882293
0.0420818432063901
-0.1638959406134366
-0.1615969033554562
-0.1740282380471121
-0.0538682245683365
-0.0826826321447528
-0.1047670154305686
-0.038008839250795
0.0189352668716771
0.0466366765789031
0.0042604067487335
-0.0756050903251312
-0.004459754217625
-0.0038830464790598
-0.0154718655353238
0.0136400272364729
-0.0018174517693913
-0.000741584124683
0.0350562464959456
0.0192838807308338
0.0127787365526005
0.0193442809114873
0.0417447946961296
0.0675098893556676
0.1101015182864586
0.0954430036087034
0.0072959596963911
0.0911503730594249
0.0838898022890797
-0.0913625171893115
-0.2007031098428238
-0.0899406005454808
0.2656279690081692
-0.6058826799447092

0.6200410289100905
0.1082699375273154
-0.2881635625568047
-0.2277234668679482
0.3574345601800892
0.3566841146385868
0.0833777551601914
0.3641063806487304
0.4326787319804136
0.5234242873619518
0.172034340549343
0.204390208725526
0.2698646082541713
0.160133347962755
0.0989979988014618
0.0260986218352464
0.0054782412147132
0.199963759427151
0.1847423496208007
0.1801453721215186
0.2509223805816913
0.257085852400377
0.0929644747744001
0.1515435445204834
0.10218142450867
-0.003124675473332
0.0554120263472278
0.0837818660877056
0.1204307607379586
0.1665055928781791
0.2511274362635474
0.3102502505821696
0.2613232280204627
0.0700906274771593
0.1666066524460458
0.0762006552367821
0.1252577461459978
0.1425019600830152
-0.1487466869019262
0.5677244647697638

-2.203783908304375
0.0050607278432048
0.8753606101364813
0.5551827802892231
-1.388387399631568
-0.6119989188602618
0.0558185359706227
-0.9502549813512994
-0.7373640646453558
-1.0044629791213864
-0.2171289584547374
-0.4867127504429865
-0.5900997343968684
-0.1044909718717527
-0.0917116338710212
0.3058603478681389
-0.0758697740795249
-0.7552101070917968
0.0368075967944167
-0.5055772328867385
-0.4708849295309611
-0.6205920648733556
-0.19615194047614
-0.2969067076449228
-0.4217471315845389
0.1079381079405147
-0.2012431197328775
-0.3736583167093149
-0.3963106787789131
-0.532048683800793
-0.8431625032975226
-1.011873902842641
-0.8516569032949528
-0.1412503536667378
-1.097248283103262
0.5263130879922518
-0.2298804990204976
-1.6090471824898311
1.4680639460077345
-2.161501643967499

0.0044380379018592
-0.006546873838608
-0.0008616075084232
0.004302603950373
0.0011506582672871
-0.0039079433203993
0.0021145569632785
-0.0005239188827403
8.499483693839e-06
0.0002449861550506
-0.0005669229808241
-0.0006691751605665
0.0033323460396473
-0.0004686797164719
-0.0022968254932332
-0.0016920801186638
0.0008093318409752
0.0047963538021837
-0.0044899490269909
-6.305969666195587e-05
0.0055186920140868
-0.022867656831459
0.1430939313755687
-0.5634028358201826
0.3735795931406208
0.9003320248034239
-0.5751725657501814
-2.006883295796751
3.603073664779469
-3.167445323809945
2.2768105747992604
-0.1123640066601699
0.904051485411676
-0.428348369308594
0.9602780403038088
-0.2827476049022983
-0.0087060346837637
0.8789246343022439
-0.767773965555123
1.1719381229395085

