0.2682331431189545
-0.7296337673242879
0.4108571209974677
0.1269843396195018
-0.1934516031239799
0.0668992494757682
0.0117020938041943
0.0277345583287443
0.0470181748453189
-0.0003153379525206
0.0426761167070272
0.0032501663741204
0.0345373468863819
0.0454558413038326
0.039192583063802
0.085424126172923
0.118907783410218
0.1777054450157901
0.2455388635025635
0.0943335699832658
0.1103681113837673
0.1545190623672589
-0.0078136930429665
0.0195814797547204
0.0789660911061864
0.1425119899899188
0.1447917790044404
0.1600038265187192
0.2827687138092243
0.34245891717604
0.400079148243986
0.0997151006728722
0.462047915004722
0.2593971883581978
-0.16091310274593
-0.2089837475087388
-0.0195918603178483
0.1409944302622825
0.1407891595329532
-0.214631871225245

0.3954890920601057
0.0043649313434365
-0.0530927673469207
0.0603819794639733
0.1499222943711856
0.1346982533152056
0.1681617785079896
0.2289173562835902
0.2084723023977703
0.0928962468432188
0.1262599608109284
0.0374233351792416
0.0643753562921151
0.0872295223300777
0.0840302626286858
0.2046489050211373
0.2734518992405969
0.3872046266649935
0.451791684790307
0.2406684079801393
0.1581664428465382
0.1527191824809083
0.0957165297806222
0.0856846342122442
0.0997113574024891
0.1374152420337903
0.1735524195156923
0.2027432807839023
0.2638654306385062
0.3078627410669534
0.3162623505677838
0.1044515903739828
0.1172023986198395
0.1008532012990392
0.0473721831577135
0.0472246920846954
0.0670887576597076
0.0357376264983946
-0.0211602198072225
0.3885668936304519

-3.2716176354288744
2.022104330093441
0.2262810205725559
-1.20731888200487
-0.424817750390171
-0.184750792912961
-0.7987412317486421
-0.6929379436213302
-0.7736205172757302
-0.0057572645609991
-1.1241254098774969
0.5480259439924993
-0.0553437925561683
-0.6014582083261701
0.1634218993654865
-0.513748862973268
-0.4203654593000498
-0.6525943606055999
-0.7468515497142549
-0.4338836858942821
-0.0484859171060274
-0.6737848139680691
-0.0600867033163952
0.0349237827423103
-0.2572480487941043
-0.4821814773580619
-0.4109853295536739
-0.4635888612659701
-0.8530322503257148
-0.957349877883757
-1.2384655608346995
-0.1514683246245338
-1.0934712503988
-0.7189186666772809
0.7717934081961308
0.3320615417531468
-1.2867570179224568
-1.3258782436481316
2.0651831383573023
-2.5286033093896982

0.003463625063278
-0.0062590581322777
0.0018561492703668
0.0035849384775649
-0.0037361245469469
0.0017506801391147
-0.0007670726200452
0.0007703137704593
-0.001933832526804
0.0037556564295548
0.0083573194310717
-0.0183264312800882
-0.0176512571302388
0.0302979982509109
0.0460358940732096
-0.1280454369476088
0.1610578242586061
-0.2205302700544198
0.5812196276355819
-2.770104741479697
8.965225682759957
0.4872971504961263
-31.27208564614242
30.888873108899837
0.976050394517051
-9.010701247957323
-0.3126914248221509
3.652404482273388
-1.2115354216144272
1.01525849812938
0.3878711898284493
0.2349632785298268
0.4522845985294603
0.3244002925187202
-0.4076652323694086
-0.1594607911989206
0.6811192643924757
0.6879238126999232
-1.1376691120753584
1.36018048248089

