-0.6391011693416472
-0.0611573406371331
0.304469381467216
-0.0172012596078323
-0.300155445781409
-0.0535245356359557
-0.1518753888783945
-0.1961724674794077
-0.17227475538363
-0.0582064037784381
-0.1298609761021632
-0.0308266824324474
-0.0023936831479892
-0.0263731566926822
-0.0517350643382578
-0.0354974987197611
-0.0339274835496064
-0.0457174487114031
-0.0380826375312839
0.0026340756971235
-0.0560376041819534
-0.031669134044606
0.0393393745506095
0.0564187300402126
0.0197165963092927
-0.010032989911839
0.0152408840905785
0.0523892171801972
0.0556659470462324
0.0937275854938903
0.1277868242350112
0.0027057568561731
0.1683858005274818
0.0925780577726728
-0.0618369373099352
-0.162721914252038
-0.1514028067072797
0.0245458402443876
0.2418873266242334
-0.6246577078414344

0.5406355643934915
0.0475517913445945
-0.1609612171484418
0.0028996889824375
0.3561402007241959
0.2071543375630498
0.3389967508252365
0.4710351823506878
0.4792831463842629
0.1309976148540884
0.3312203898342594
0.1612584153341253
0.066577744681488
0.1426958707972893
0.232926822597265
0.2261947142482263
0.257790532591002
0.3469027088535714
0.3423120841378256
0.1545852511856555
0.2237720707705508
0.0738064046521851
-0.0624348821274754
-0.0093513169749934
0.0853294786808633
0.1175876685852247
0.1062623602195084
0.079059468825517
0.1888864794827246
0.2360493295297571
0.296003991708998
0.1111092962629533
0.1320813399937032
0.1109179956886254
0.0460164086172645
0.0776605533322496
0.1334379516527003
0.0618888681995462
-0.1211119370933955
0.5562379781729784

-2.252971318027121
0.5933810704867577
0.4721472569909938
-0.4167582500140671
-1.0682537723270449
-0.0909557834925454
-0.951940283284124
-0.8642847305631959
-1.0366207634144853
0.0701772433357731
-1.2793546989006832
-0.0340508943849327
0.4059291735503092
-0.3764307072438014
-0.6600992773978823
-0.0117532395585049
-0.531959596217101
-0.5127407930655655
-0.6507927118634406
-0.1888294486466802
-0.4706089398577591
-0.3535266708500408
0.3779058463711755
0.0335360912872624
-0.4371647759027908
-0.3491253113248485
-0.1965078087115391
-0.3515835146945142
-0.6622793608468502
-0.7552485453120562
-1.044252044438423
-0.1308320019602927
-0.914257479794262
-0.6149011140086591
0.6784925015696013
0.2610133955395414
-1.1948323358500617
-1.2141423825348043
1.9670342657343944
-2.431245591773308

0.0037119937293271
-0.0065514257156356
0.0017054234278124
0.0038310279474665
-0.0035466414049717
0.0012544300650095
-0.0001964946771942
-6.912390355817676e-05
0.0003308024463076
-0.0013392390543453
0.0030023024305444
-0.0013815002733561
-0.0024374632389952
0.0017750091173176
0.0019648121858803
-0.0033473019422292
0.0026378098090587
-0.0022931033550328
0.0039472033986535
-0.0044262886030028
-0.0465764070931607
0.1054900014119753
0.0765924067491184
-0.1146387669071098
-0.2256848341826759
0.0844277789172102
0.5790909629801253
-0.9037632916533352
0.8402123300412663
-0.8990659765967143
1.468540994047948
-0.8306969215160297
1.4976528156849716
0.0876022766568544
-0.6956582473098916
-0.1719774049053844
0.8080674470315093
0.7297876960950384
-1.184954601538588
1.360474926473366

