-0.730845191021383
-0.1722811585019351
-0.0075626400619996
0.206051197719777
-0.2978961421087361
-0.281787119085941
-0.0637720530254694
-0.3118744233324673
-0.313341177967905
-0.3741901374615161
-0.1424925298144264
-0.1435346346257258
-0.2457254782362657
-0.0342032044902142
0.043973400735315
0.0431076004534495
-0.0670888316116626
-0.1855277653028921
-0.0131623142630637
-0.1370730996932351
-0.1289527415520482
-0.1478640747438598
-0.0155989459772277
-0.1423169307090284
-0.06096307032422
0.0776966167551224
0.0731479256047241
-0.0607930177745789
-0.1651714066227412
-0.0088172981551673
0.087378817243115
-0.2054171338715937
-0.1148363822091499
-0.3007548193192032
0.000744148588555
-0.1286740346205903
-0.5740725299249506
0.104760108958976
0.8219729255722775
-1.3561114453819796

0.3683037117937128
0.0797353913578878
-0.0027516541649677
-0.0663589411336732
0.1759298024621715
0.2370019777775619
0.1799075036442349
0.3045199203774327
0.4264872812839997
0.5077388259024831
0.2292222776938551
0.192552624055287
0.2274941984958177
0.1353089845969902
0.0933545316113258
0.0723455167430116
0.0732686710217287
0.1733250815074221
0.2073792149463477
0.2345618074539979
0.3039020786360323
0.3261303813530135
0.0991141690479693
0.173953015536123
0.1572264396091085
0.0473846236279846
0.0138720443402698
-0.0097044791043697
0.0637994020813962
0.1894767066349117
0.181901045320677
0.2046090765948152
0.3120336728704566
0.328949357053616
0.1235891437662939
0.2652165187293779
0.1497960334368554
-0.1020996788937267
-0.1055559310358776
0.4961466787827644

-1.3746798597540573
0.38596816142031
-0.8262708113524463
0.3903903661898759
-0.396954420865916
-0.6081971764008446
-0.2972457701806344
-0.6910647836796954
-0.7979535323971845
-0.9412992521871426
-0.3755646757590654
-0.3446459908617011
-0.6260056111928107
-0.0767556202825009
-0.0126802185091401
0.200590092443193
-0.2322298736790507
-0.6098940722419313
-0.0652728555330477
-0.5681728099227157
-0.5563675846378269
-0.7436544606948473
-0.1672919170753801
-0.3334599114391447
-0.5550716144372125
0.0566164557501029
-0.0085532813995593
-0.1587798797572245
-0.4088864896423581
-0.4234790730268457
-0.503914324446094
-0.7724940801281891
-0.9075422212938462
-1.1563187187220252
-0.2220247642989719
-0.6493760660119973
-1.2999774408556837
0.3794948886041909
1.5611859611793144
-2.461581085494761

0.0008767613014566
-0.0032109033145037
0.0039803914370311
-0.001103723099952
-0.0012281209266745
0.0008047316938435
6.780206553344113e-05
-0.0002449604014007
0.0002106089917733
-0.0003274029443192
0.0005621166262738
0.001046516389556
-0.001247987503996
-0.0055310173629295
0.0013973114394518
0.0097860574944553
0.0021054816875291
-0.0194431259542168
0.015413187501792
-0.0012114003082822
-0.0147328557286415
0.0718970878380836
-0.5342783180334602
2.123700267320193
-0.7046230146437272
-3.4362500810613104
-1.3492199327730294
5.298458123365325
7.288218415945205
-18.83466159145159
14.855562760512855
-5.546458155815276
2.386629533307578
-0.1830612602569743
0.7856425258436509
-0.3152366416237075
0.9596124563862783
-0.0160623371975627
-1.1606760473626363
1.5909671604118198

