-0.411578040037289
-0.2122604835119764
-0.3136790458318025
-0.0536573386308478
-0.334192179640782
0.0532012349969342
0.1259845529790128
-0.1314989530738903
-0.1217757281309317
9.28095643872366e-05
-0.0871678462022534
-0.066402419853921
-0.0648679967807332
-0.0019474603569701
-0.0822729162257216
0.0108359262918867
-0.004958223483248
-0.0168711770413417
0.1305135809705795
0.0576080829527104
-0.03451273424028
0.1166803123205128
0.1118941909279131
0.1596307834161171
0.1983124354101799
0.045178530745236
0.2169352622127441
0.0174247022135895
-0.2271833544919864
0.0456614434516881
0.5349325865178748
-0.0157409804790623
-0.1978587596828677
0.2040671073992571
0.0095789841076971
0.005325748663925
-0.03331239310198
-0.2337894795654576
0.8086691723164469
-1.036858954948475

0.1494931880473297
0.1279110165112106
0.2375768080176954
0.0587302240583602
0.468857674155007
-0.1835977230424295
-0.1931661827600456
0.4827397494506873
0.1753449919353271
0.0732985322836909
0.3170315048837687
0.2911008079710412
0.3942107911222393
0.0169880146267587
0.1864515553332385
0.962956971785132
-0.3031958128214356
-1.7009209420692009
0.947210588881322
1.0663005836117017
-0.6117083015406154
0.2583799259014411
0.341678771156108
0.3089349753904491
0.3717247268217621
0.2454225185187349
-0.2772138539287997
0.2494931087166877
0.8700969245949937
0.2415391073580672
-1.5063090261504353
0.2054491004937471
0.9771660482481664
-0.5298306049355058
0.2588402127616321
0.0748773651893268
0.1292863284748732
0.0999000720495204
-0.1166760219490944
0.2551424516287535

-1.331981956047454
-0.6879532659243424
-1.2143246851295986
0.1051432786834575
-1.703248346051672
0.2261930960523546
0.6488820165904952
-0.7828456935301445
-0.6928601998711438
-0.0646549001066592
-0.6930367603221729
-0.6057224338299093
-0.753777443644204
-0.1367467153911374
-0.0271314563981071
-1.986478808067488
-0.0417932609561405
3.47410555524636
-0.902689311958731
-2.2929394947849064
0.7079539552137416
-0.0831994518192807
-0.7927313512705941
-0.5774528738779816
-0.8679052387016823
-0.3934084995155307
0.2259236151592142
-0.6677025048743266
-1.108150211197258
-0.147457919359131
1.5225419575831327
-0.7063274142692864
-1.2885071474383394
0.2180829488213116
-0.8701265470608137
-0.8294688963560672
-0.918498907388978
-0.8078495579307752
0.8929903306777585
-1.965817794128346

-0.0089481523161275
0.0047625662319201
-0.0021820107259265
0.0014062905752462
0.0003387524565344
-0.0010015978518563
-0.0010024098015415
0.0015046228788592
8.38099484676189e-05
-0.0008287103056838
0.0005791616853715
-0.0003964452836855
0.0008166362913672
-0.0039899468096513
0.0111890941245965
0.0036265558789562
-0.0156919757557475
-0.0151043604352334
0.0082349116302876
0.0320477212773499
0.0027173578516826
-0.0794769782891249
0.1287342491613674
-0.2015566330951158
0.5783142136010249
-2.998185205942718
9.787829907714183
-0.1461560169794722
-31.69898200086595
31.14603023280631
1.4703570021129844
-9.04386403041167
-0.8530569814704375
4.038881024624994
-1.360666076730814
1.070225124033622
0.2785757541798194
0.6991765368504541
-0.8314600165636791
1.3252059584208078

