-0.7265346728737385
-0.3389975287369246
-0.5366625577474365
0.0201981649286155
-0.4701918335715382
-0.0861714100917793
0.0945360688119389
-0.0926820073825882
-0.2509740836309377
-0.1288808969374055
-0.238428993448538
-0.286978679432723
-0.3303379871523625
-0.0643770700270092
-0.3327960870175813
-0.1399359757397204
0.2258608951956273
0.0632073306045882
-0.1459540389113971
-0.1343980815688535
-0.0217462620800833
-0.0308942026210151
-0.1145188487859215
-0.0872444959493056
-0.1216246596747619
-0.0450871394000626
0.1159389296321055
-0.1966780889276777
-0.3626745143204549
0.1179972102250274
0.6241506299438669
-0.3075298350012989
-0.3938344838857248
0.1179221409708839
-0.2741827382875472
-0.2834314950295762
-0.3542662022818108
-0.370849645795395
0.6964493142945991
-1.2411461806181388

0.3777170358777356
0.2091291130152861
0.3262811101928488
0.0304436042098889
0.1392107824405896
0.1549888152153315
0.1242616201576669
0.1056631037180568
0.167496712962343
0.2674985637252947
0.3448229808620378
0.4748371398791733
0.5389040729521406
0.2336143395220355
0.3273466033897261
0.2445239079927445
0.0019472194329884
-0.0516514500790965
0.0473182349828514
0.1562827960489236
0.1619201687418664
0.1363643421260925
0.2155335313350135
0.2929237635512682
0.2951740359690689
0.1395794829507507
0.2018678880043781
0.0607357074629744
-0.0617712982491875
0.0251252954788908
0.1514943723010829
0.1471874130331185
0.110189993090814
0.145555979547749
0.2391322355858717
0.2834368998884349
0.3317644226143542
0.114986963602978
0.0830602515359111
0.3223269570822112

-1.2671113872730622
-0.631817703227949
-1.120160170748285
0.1799701068146065
-1.161910423237715
-0.1701638896073585
0.230610323198734
-0.2634960237053696
-0.6544939193424258
-0.2602536314638693
-0.6648621624285742
-0.7306148563997176
-0.9165659203393824
-0.1053435505296183
-1.0005199870438493
-0.5180550768995563
0.921268075152144
0.1990572416674238
-0.7004175445158466
-0.5525416733921042
0.1287281600582319
-0.3793555484526945
-0.5766562830450866
-0.6187372317081136
-0.9006981373462487
0.010353870631186
-0.9880683887324084
-0.5632661774115137
0.9369969060462032
0.3200533541279653
-1.534766278023414
-0.4789437978802755
0.3312806913371487
-0.8492256982717603
-0.6639268882692012
-0.9395189798138274
-0.955619753608926
-0.7295460677889316
0.5613121690906923
-1.6319640843275265

-0.008629315165068
0.0045997520210945
-0.0021151521515514
0.001362005702076
0.0003968856746267
-0.0010426803532946
-0.0010790979588643
0.0015702931260037
0.0002672897962868
-0.0011977201259171
0.0009530280852539
-0.0007919498454523
0.0015372494033169
-0.0046577800280083
0.0029241178030103
0.018535443344688
-0.0018026753654932
-0.0281001206401378
-0.0249609718886326
0.0351341385063659
0.079150098628441
-0.1715011214782497
0.1892503435784048
-0.2357443028629733
0.5424841160793207
-1.6938893921815008
1.0907471577520809
8.3772280665394
-1.5981633738828962
-29.977743257787143
31.602721525535472
-1.825985584358818
-9.487753646545544
4.882675055442929
-0.4889023759304713
0.6034346410103366
0.5018841632247317
0.495031083422393
-0.6271813484311259
1.2351102752752363

