-0.5198110632829859
0.1013906585606687
-0.0221315431935601
-0.2572978318741272
-0.1394774240071336
-0.217706816810975
-0.1724260832051626
-0.0700586051852439
-0.1485889814639738
-0.0213638041988263
0.044314158181541
-0.0044995035189902
-0.0500484400787463
-0.0213209948704834
-0.0003203262219847
0.0024399588079851
0.0473017669258554
0.0058740563908726
0.0038982331083383
0.0775548453864933
0.0200179489133503
0.0132024351940129
0.0463250094895786
0.0725486705162174
0.0761711723135306
0.092295141892692
0.1602143370451688
0.1915316021328997
0.2715903279554544
-0.020921579384219
0.2869752246753284
0.2265607485985458
-0.0371514619132012
-0.1113739265247296
-0.0325242293060269
0.0679692070269326
0.0251518063708725
-0.198621218123341
0.0182954137365361
-0.4197700809691949

0.148930667973316
-0.1459000582147704
0.1780690846842714
0.2813505576235935
0.176777204919295
0.3521953823786402
0.3388993942848732
0.0861730137956648
0.3215221972478276
0.1732361165745102
-0.068629698960935
0.0610562927004358
0.2164668099834286
0.1317631282571016
0.1734775917066177
0.2191007209600816
0.2594996174319923
0.0436663293013997
0.0479596892973737
0.1760258898540459
0.0752989342029788
0.053321882258017
0.110614006762705
0.1433655136875452
0.1438008865244675
0.1545203671151859
0.2191540866056782
0.2723448685612286
0.2045411493756039
0.219242124055703
0.0060499485365531
-0.1014586883377107
0.022570652065045
0.0734505339349046
0.062193077370389
0.0260906761967487
0.0234690155426514
0.0977294809227284
0.0354969319255397
0.1844878337904864

-2.648925767422419
2.269693497555224
-1.4332906685252584
-0.6288624120456723
-0.6868475657408695
-0.9953661662750096
-1.0321773341900466
0.1120592551163701
-1.4309784215572587
-0.2434009667767923
0.8675446587804676
-0.3977955667889862
-0.8765270469555017
0.1953011089225688
-0.4854704155532218
-0.3320922594272803
-0.3821016390137632
-0.2226683759962234
0.4535802379401507
-0.6102805575624927
-0.2083206419627486
0.0291444923618518
-0.1782529822817679
-0.3216394937901394
-0.341364905370494
-0.3746100721662526
-0.626051097229247
-0.7961875977826759
-0.8641405325625169
-0.4381116393914778
-0.3487466530029741
-0.1687556863085512
-0.0613509662756991
-0.1632679590975118
-0.4639295917295342
-0.3279376011843459
0.1478951090194545
-1.2075770780695527
-0.0178814618421776
-1.523831965853458

-0.0007488599245177
-0.0030350489679158
0.0055092737963173
-0.0036059701713008
0.001414371484457
-0.0005472460428429
0.0005201185120183
-0.0013145237636549
0.0022254863737863
-0.0007613717174268
-0.001417395039174
0.0011360339914672
-0.0001679057967381
0.0003120664118188
-0.0007364224198774
0.0011259947690287
-0.0024206617193325
0.0032656195849895
0.0265097271932892
-0.062525199228083
-0.0493289027118891
0.0721605692691794
0.1434445754318418
-0.0569079054169407
-0.3662071901776757
0.5813764111002122
-0.5515947317778219
0.6175628090209754
-1.2389354126062149
2.5377160635876743
-2.4541834786336474
1.299640187067076
0.6494338897265974
-0.1533761831991262
-0.1338850020073388
0.1751455641277516
0.1404405887507039
0.622529727401853
-0.0058863943517824
0.9012935040511636

