-0.5198194048613769
0.0805665527066275
-0.2095717358000892
-0.2141551249790113
-0.2286818835619524
-0.0983574558222104
-0.1324333603449057
-0.0880579815425157
0.000639079242371
0.0136829810440349
-0.0349570273407154
-0.0644955382489424
-0.0704222655335054
-0.0434861945199662
-0.0684542492150445
-0.0713373263445874
-0.0548922288325466
-0.022360302237035
-0.0337836374476866
-0.0153118629635883
-0.0149291921817084
0.0057058878460922
0.0389879809351563
0.0267307896548539
0.001507252442588
0.0232196209683811
0.0560978778850894
0.0530450569609176
0.1131965696041645
-0.0595837474708865
0.2160508036058364
0.1148573827843828
-0.0771367471654819
-0.0758105813556003
-0.0009847458934314
-0.0228131176177711
-0.0913325570673382
-0.1935855306993768
-0.1725251703263963
-0.4044334554593035

0.4515516148317041
-0.0056648349675856
0.2525586927144591
0.3130371210588188
0.405875450799921
0.1812523097191672
0.2124184112312857
0.1788320698639142
0.0508124610928182
0.0574326486530955
0.1353475109722845
0.1926919689800091
0.2263307226225694
0.2489757929862871
0.340614910781447
0.4105247512907317
0.387119611278174
0.1416781500414932
0.259843927928392
0.1674644008673815
-0.0433513268828252
-0.0939713611529639
0.0191217822259379
0.1473092217895381
0.1411312224924241
0.079647518139517
0.1684422460891831
0.2121141874854115
0.2504950803307202
0.0920246585023446
0.1426416493553255
0.1370611067849029
0.0479069437354295
0.0523116936928818
0.1265111054729739
0.1788801476052758
0.1735565601528655
0.3160606330311679
0.2657089454602243
0.4427769575141265

-1.7625988054956996
0.5011170906526606
-1.099407009885893
-0.7911245472958331
-1.121638458026876
-0.3403475511128275
-0.6938157934144905
-0.5533565015648064
0.1319619007764323
0.1103319245369092
-0.2671756908397227
-0.4611285707593092
-0.3387201764070789
-0.2681904675554151
-0.5718727969089836
-0.5512217106829952
-0.6484564796414639
-0.1067188233177184
-0.4439795481733103
-0.4306120023123523
0.12215254282184
0.2332905694906678
-0.1146914468840759
-0.4555230543731784
-0.3217862853138685
-0.1939138800449482
-0.6145803143988613
-0.6544865268949629
-0.9054818216961172
-0.2315593678947615
-0.5288268901347298
-0.6042011527354297
0.0023732398118557
-0.0709856399156926
-0.4977869808605712
-0.645424501522807
-0.4606385114076947
-1.0583155323945033
-0.8356716808031684
-1.408457814962052

-0.140876679797501
0.156674255596959
-0.0747615966369823
0.0250183358528366
-0.0096865511690289
0.0083442783912851
-0.0094559733106521
0.0049467307639186
0.0008150806226465
-0.0014915214392679
-0.000194424530541
0.0008510786973574
6.341482539048884e-05
-0.0015160204900622
0.0023797505398606
-0.0034403946187225
0.0080087815307612
-0.021542945587979
0.0028304795564799
0.0830176312532253
0.0200125096781477
-0.1189931755515263
-0.1459942704468628
0.132411825095171
0.4085922462382724
-0.7721266150043203
0.7876232642870284
-0.9052198889427572
1.926593594849144
-5.871726057720618
10.61454819117672
-6.042331369467133
-1.7066337396753948
2.3762256243970814
1.1510479052399003
-1.0985973945733327
0.8308715208291823
0.4268949729072812
0.4611923548716198
0.8110380902321286

