-0.4890131209600368
0.275354885365605
-0.3976487748427115
-0.2283299344949953
0.163200974304352
0.0220781306229657
-0.1877433070584508
-0.0811488395904492
-0.1007049289739702
-0.1277344572405387
-0.0908490637527391
-0.0420270955656134
-0.0577494987507248
-0.0051242988038962
-0.0015221588205001
0.0351515103620253
0.0084795459963016
0.0200601740285599
0.081930196429
0.0989395907646398
0.1440144326197908
0.0620744608112436
0.0298996507699445
0.1127594530922495
0.0543796606749551
-0.0061217332188731
0.0189987072410332
0.0995511001832504
0.1162248834409586
0.1053493188786923
0.2015892204754773
0.196359783133663
0.1654196588087112
0.0748492773803328
0.1476862035513852
-0.0683694027713297
-0.0832924786366502
0.1457135949329633
0.2262389314538106
-0.7299991460330387

0.4249054649663373
-0.8047501662656885
0.0278528624445007
1.6509040633957426
-0.7577582246669556
-0.4455173645033118
0.7760288018053926
0.0265846853595905
0.3485792043311206
0.3624080790468931
0.4084908043190773
-0.1240950963524014
0.7730563508511754
-0.1169540118271883
-0.3798110821452162
0.2204293146743435
0.3650474167249392
-0.2147739387945493
0.3544338944550559
0.2422741435097636
0.3809491640900157
0.1869103642896843
-0.089059788678034
0.5258385798441205
0.2739410459717017
-0.2843800867242473
-0.1898546509821169
0.3600374592144609
0.1965974042603693
-0.0517310294367129
0.1136614923193023
0.0878043534270549
0.1333150268241235
0.0260196280594226
0.0224205654341526
0.1834254524192176
0.0554020748012825
-0.121192156016258
-0.1794050185773605
0.3594687332673572

-1.9583968715898352
2.14612901821639
-2.178512505441041
-1.589237987485414
1.4545046826401813
0.0620447584741647
-1.4291770766666745
-0.0522428809588237
-0.8418990224118735
-0.7755299191438387
-0.8748201954178011
0.2081378155401633
-1.5257871550381696
0.1533536024986029
0.9139612106682022
-0.4479659222891115
-0.7624964844393332
0.5616364397255058
-0.602129291417807
-0.3545631604195272
-0.6439587964538139
-0.335138586785227
0.1538073908813446
-0.8347400504490002
-0.3936183540045777
0.3033683163350404
0.1179007975608548
-0.6393724685453654
-0.5339645321487269
-0.1778081157196193
-0.6896153973545667
-0.7215129344853116
-0.9877857758414638
-0.2215636647229407
-0.1294657141891641
-1.3246757527930808
-0.4907858731823027
0.8528889183544106
1.4072533897297814
-2.760215145824914

0.0011800757824741
-0.0048860037831784
0.0079579529321025
-0.0030947813748698
-0.0033202280938956
0.0024429944513408
0.0008477898396216
-0.0013695834991658
0.0006421588847523
-0.0001735240241912
-0.0001653023257126
0.0010496837756825
-0.0005574096282789
-0.003953546638504
0.0015282486755532
0.0076489478469577
-0.0040578617300471
-0.0108664864830646
0.0230312841762534
-0.039222044780041
0.1147503366804276
-0.5951395888159635
2.047096275904118
-0.4004475721798952
-3.3472480855636104
-1.668941452691417
4.934911985295559
7.5555726416794275
-18.165569468901747
14.025080785272245
-5.137399878005834
2.2734279726879194
-0.1549664241050428
0.788816422080158
-0.4189272387452089
0.8285344275840345
0.3989752346595192
-0.5034128371278036
-0.9215912719449708
1.6762069403243054

