0.2696564646297182
-0.3293957909039822
0.2280628507668635
0.1148980561458601
-0.0364773965827004
-0.0286529759682447
0.0500503846619229
0.0648892089756912
0.0627210132588912
0.1032833175353211
0.1364658296026411
0.1716705233347341
0.0641335494863429
0.0995443648991882
0.0765420276767308
0.0283951460827324
0.0273568977510014
0.1177221462071927
0.1858808524226073
0.1703731243519222
0.3001493438445231
0.3642400792389583
0.3013583027656884
0.0887637539064715
0.2571178401797062
0.0747577698554125
0.0383260602182459
0.1635519647230633
0.2578109199150871
0.2459885308261165
0.3926599176726519
0.5312908192464658
0.4696370930114871
0.0915476059181494
0.4255213367012585
0.1524267608593935
-0.1052619392591153
-0.1107207541779291
0.0181192717136038
0.1505935539759931

0.3463896801967064
-0.0030543494751609
0.0639896454703593
0.044795085273909
0.0167462808081331
0.0538488025438107
0.098975444350752
0.068350349093282
0.0790880707472742
0.1619959347407108
0.1899691797157237
0.2004966875040351
0.1327188370894114
0.1203401477606615
-0.0329371853727917
0.0380725222607883
0.1646116792352268
0.160328024675264
0.140456872764
0.2332958313815658
0.308814987616756
0.4013169702714275
0.2966683610089429
0.1632871903606886
0.2072542756918849
0.0844194663057238
0.0447428862271731
0.1107164869716069
0.1712818899163753
0.1639805952257579
0.2191999597399181
0.2660935797733328
0.2493427197809605
0.0784097621967203
0.2021668204206249
0.1169512225598041
-0.0274628274364806
-0.0978556126558231
-0.00628197156314
0.4216635667463881

-1.8889397590129025
1.3749595388386933
-1.8568199925299431
-0.2578634488399197
0.6978771311101158
0.053214695026039
-0.7871289220786515
-0.2966776992513953
-0.0929059551060184
-0.5802007681145553
-0.4760909718796307
-0.6206236394156291
0.0216862616277947
-1.3053396951774614
1.016230954107762
0.1738102739794624
-1.0054988886242129
-0.0813505623391125
0.0453196386086469
-0.6261386707629228
-0.5056765708529608
-0.766044755992669
-0.7176651280435286
0.1519053760831224
-1.087678075124609
-0.0166596505521909
0.1858302745388102
-0.5043728124007323
-0.6240776879559484
-0.3720568677028528
-0.9121113941911064
-0.9666492345503724
-1.2241723275745444
0.148366641424313
-0.8700085146069958
-0.9795112923817756
-0.3034998378092344
0.6148151926779127
1.339378501095357
-2.839261742562058

0.0015265784066363
-0.0059271814860911
0.007170784289438
-0.0003561203584993
-0.0032330520329278
-0.0002750073397003
0.0017575324083974
-0.0005514809161441
0.0002688896492431
-0.0004928174358683
0.0005736076366543
-0.0003853568857929
-0.007685025595854
0.0564247210367722
-0.0641792776667427
-0.0888567566602763
0.1115128980012199
0.1963482048811597
-0.4710555080447249
0.4974514615244753
-0.4904400888069238
0.8285129914141263
-2.4233161688638973
5.049532333421862
-3.779839066091349
0.117779139972306
1.4186226641092876
0.3193241867618747
-0.4689909887979628
0.6632079755951491
0.3608415697512546
0.549545261957517
0.6254115631271129
-0.0649435286109002
0.45355261054884
0.4952775432984378
0.1649176224323768
-0.3230411276725742
-0.7805059495279888
1.561940728914912

