-0.3905399133446871
-0.0377748680215274
0.0017317244507482
-0.1264880231272014
-0.1663135655675112
-0.1596505355298668
-0.1900424634928664
-0.1048881979874306
-0.1099204191003843
-0.0714360481785389
0.0101362111408077
0.0224354661860576
-0.0149013307571811
-0.0381020272279794
-0.0047839484306258
0.0143009418331118
0.0312641619809341
0.0649302216664702
0.0017775573964078
0.0644259590696266
0.0411268424281801
0.0283094152904796
0.0519225131089808
0.0799515473934687
0.0997194744992719
0.144749422783576
0.192550151881005
0.2582033517480806
0.071177407272605
0.0457037736576759
0.2801016685423345
0.130236539889621
-0.0468348350036776
-0.0681300033165571
0.0015889442891378
0.0434729381759612
-0.0195651702475204
-0.1395831564484026
-0.1037485309283495
-0.3742983328234043

0.4252358902786123
-0.7472630683808936
0.4096094658023684
0.4514909340432574
-0.0793290958619974
0.3795428935392013
0.3254790304392634
0.2664151450312312
0.060445418665183
0.6095760079704899
-0.3042046342767483
-0.0687057341878707
0.3921373557601811
0.0433601106860345
0.1097266876066413
0.2130936338153767
0.1996567801911933
0.2448160802634123
-0.0609918310144534
0.3426185910820617
0.069199810931732
-0.0363666540415906
0.178439593668357
0.2112112787481372
0.1427456132532541
0.259459913945943
0.2766099330571219
0.3467130315139568
-0.1166936424301553
1.1009409853440502
-0.6236256702188011
-0.6968636447171378
0.3451989410207605
0.4644075123721591
-0.000842906394494
-0.1953750541342107
0.1597333412409989
0.0977931332701438
0.0829723452482252
0.1762179014593084

-2.615659455404546
2.083404712702746
-0.5157899643934738
-1.3954452451686965
-0.0601042746781987
-1.0182533204685544
-0.8954926914194495
-0.6937432591005455
-0.0958659334336117
-1.377705993158807
0.5975937549978373
0.2723061243931559
-0.7959351858350783
-0.1414138995911084
-0.1393221272908975
-0.3859773957075518
-0.2975220323932766
-0.3617055391292219
0.1071104578788285
-0.3274766131012628
-0.258179407005507
-0.0281402038758388
-0.2600419415462054
-0.3930680839743578
-0.3650737737076256
-0.6271411905150884
-0.7664415797620974
-1.0129488982419503
-0.0784382202274032
-1.576792015556944
0.387096722701314
0.7682920733599217
-0.4600757660758716
-0.7536552366445415
-0.313536746838766
-0.1585803614802907
-0.4526553146661584
-0.8552838466978026
-0.6759856374234648
-1.33519073270747

-0.1920830146655074
0.1785873005222349
0.0296694763085697
-0.0897375590846833
0.0441072993603375
-0.0135887277297978
0.00438529454079
-0.0019931350128186
-0.0002175401676329
0.0032190704900451
-0.0023398690706459
-0.0011807072513506
0.002033269397984
-0.000885653109745
0.0002070341483911
-1.036906366521982e-05
-0.0002568961679389
0.0021988805595713
-0.0228699329946801
0.0887658870983617
-0.0307234992723433
-0.1521758443395551
0.0361908449267765
0.3593503305154468
-0.5709709410140804
0.5556584702206967
-0.6420734819292226
1.4701686563433751
-4.939341315635726
9.646185679614554
-5.268695607284246
-2.197416570162624
1.3304657253551238
1.8730985604020296
0.0863785792256064
-0.840770934765777
0.7004447255317555
0.4351805407783026
0.3555320659790024
0.8380406402988381

