0.4457692337496241
-1.055751113265594
0.7235139611277421
-0.143696788705045
-0.0465407942268775
0.0425789000242421
0.0007755422686281
0.0526077146216849
-0.0774160261061002
0.09469510402821
0.0366726408708522
-0.0454666505879093
0.0624926164069071
0.0676786358005522
0.0526335754400903
0.1295283513595055
0.1549332507540858
0.2114457546047888
-0.0082651598503644
0.2134741641645695
0.1230000725493807
-0.078724527154734
0.086099641815684
0.2186808351366391
0.1175813758214259
0.2383096648578341
0.3456258796902455
0.3262575061223625
0.4225476489410409
-0.286270300646028
-0.6942581294573578
2.100556212897645
-0.1162407829771081
-0.991978149317278
0.0420398649741201
0.6392474130456379
-0.2133760144824571
0.0775079357649874
0.0237017906544643
-0.0714700914638383

0.4599147430828537
-0.0958854994774053
-0.0637787590573151
0.1997501217590996
0.1491176553124695
0.1796974181493156
0.2396165012122087
0.1564653021312137
0.0302462525950962
0.1919001359225515
0.0437880638253349
-0.0645181974817507
0.1388960789903411
0.1775986195378632
0.1074982854413447
0.2912547069410355
0.3726762252862777
0.4063875651140212
0.101918855188665
0.3938805207088113
0.0200212323783157
-0.0075273939808099
0.1750724789256175
0.2582093766812658
0.2030364156006585
0.3156820278073831
0.4027450171025287
0.4382603450234849
0.1328762482870253
0.3844680445262567
0.2206889971427887
-0.2632101861470843
-0.125788830514257
0.158133514469353
0.2230068129168839
0.0931497285307717
0.0389556148365901
0.2516706062379019
0.1703501175726257
0.3485929769017317

-3.2704264073014766
2.1421826317050456
0.0475537149696794
-1.5459828039023222
-0.024809381418697
-0.8948199633051256
-0.7463336769903056
-0.6532114673927829
0.1594316555633384
-1.1992527182663053
0.0869744540158064
0.7150888144674687
-0.7009781950904475
-0.4791608333647964
0.0124380614454325
-0.6495713253830447
-0.569619465308343
-0.7953505190703665
0.1724844487871797
-1.1465879641972463
0.2077811428379694
0.1397040148258533
-0.5279963386770777
-0.5583201368617171
-0.3261584613643197
-0.8163983249617615
-0.95705178454427
-1.1814543986865254
-0.4952764207349655
-0.4112294597021581
-0.8148961396462647
-0.1156732456379871
0.2642667354521978
-0.2340510834067987
-0.6949961651517643
-0.5623839413680436
-0.2400548789657976
-1.0699705406608382
-0.7604384964759856
-1.4889001492274023

0.0428266765199991
-0.0190232833459949
-0.0284699752132979
0.0032815843086357
0.0155949387587583
-0.0068661604448438
0.0038711881481729
-0.0015501186247527
-0.0007903321168433
0.006937016457857
-0.0034752762531512
-0.0057483291929043
0.0013222298883671
0.0047833408360931
-0.0011778394198701
-0.0026161812922574
0.0022450127003831
0.0046054442468327
-0.0088265404238741
0.0099800689730338
0.0007384678160308
-0.0068628319509312
-0.0017874763088667
0.004797351132394
0.0015472651710748
-0.0037841033104667
0.0008920578311135
0.0057009526039438
-0.007668580897553
0.0060947205077662
0.006351339971041
-0.0046993143886389
-0.0066165991258443
-0.0004677328965712
0.0050380154044763
0.0019961320987523
-0.0050456042894701
0.0072116548065671
-0.0122700563103471
0.0133790701400476

