-1.0323786518231624
-0.1832999672747094
0.4802783736105438
0.2504763780834539
-0.4091829819311488
-0.3870847645739467
0.013560615311488
-0.3139494250982579
-0.3087608807060937
-0.3536198097301349
-0.0982127914435387
-0.1874402892754393
-0.1949541294457816
-0.0433774046694803
0.031406900631738
0.0361224594017124
-0.0551429185956558
-0.1579247432199264
-0.0513335267429069
-0.1097359278164795
-0.139318011283452
-0.134950430523801
-0.0535193436957461
-0.0892191490259872
-0.0291338410378473
0.0181516247673532
-0.0147356115961663
-0.0630309032058687
-0.0577684383734936
-0.0425075035341238
-0.0812584472835681
-0.1377061956264592
-0.1894905206522011
0.0333715355524991
-0.0567866627730803
-0.1297214898680057
-0.2808685777380502
-0.2199593977698676
0.3911965580808532
-0.9698534311901288

0.3977060498362879
0.1007577399908504
-0.0999118609170447
-0.099393534056763
0.1565197616070728
0.2614181524077591
0.2027409212926782
0.2760373920744751
0.4234373603245476
0.4747354053770306
0.1819188520988167
0.2036215100497532
0.2124040759399363
0.1384154814610204
0.0942036783672987
0.0695861035330675
0.074225511581777
0.1605400100216828
0.2082358648276652
0.2295476414275675
0.3007621810161819
0.3159896904227025
0.1394966992791824
0.1688284571523602
0.1222426387705499
0.0384347987965498
0.0535608943193745
0.0928805289932138
0.1471982838324837
0.202320845813413
0.2824556437785726
0.3519769846293887
0.2610807854739344
0.1191712174424855
0.1608167430945279
0.0996458847927799
0.0807309957305076
0.0634184860348776
-2.261986635318607e-05
0.4249217176120771

-1.8915815282864556
0.2088465947257129
0.480444061698029
0.3915957785180378
-1.0568051188755467
-0.5533551232314958
-0.0349247817742494
-0.8422508819774956
-0.7033972935859472
-0.945320575977946
-0.1884207314601484
-0.4988596193062582
-0.5736946084419183
-0.0450858810402298
-0.0182460195664253
0.2286931878506452
-0.2299922810680288
-0.6442711106251646
-0.030468452124019
-0.566188899289024
-0.5481150766382329
-0.7319990676307141
-0.2233389845547134
-0.3728307851071422
-0.5121343738213272
0.1430340484233765
-0.2024109708360098
-0.4567618261996333
-0.4293268709062941
-0.5984532952480353
-0.936981364037664
-1.093058964122952
-0.901844645733282
-0.145431568802266
-1.1984336531287445
0.5301238120431032
-0.1229840528185914
-1.480633896460321
1.2298351708349895
-1.8666131552968377

0.0044380379018592
-0.006546873838608
-0.0008616075084232
0.004302603950373
0.0011506582672871
-0.0039079433203993
0.0021145569632785
-0.0005239188827403
8.499483693839e-06
0.0002449861550506
-0.0005669229808241
-0.0006691751605665
0.0033323460396473
-0.0004686797164719
-0.0022968254932332
-0.0016920801186638
0.0008093318409752
0.0047963538021837
-0.0044899490269909
-6.305969666195587e-05
0.0055186920140868
-0.022867656831459
0.1430939313755687
-0.5634028358201826
0.3735795931406208
0.9003320248034239
-0.5751725657501814
-2.006883295796751
3.603073664779469
-3.167445323809945
2.2768105747992604
-0.1123640066601699
0.904051485411676
-0.428348369308594
0.9602780403038088
-0.2827476049022983
-0.0087060346837637
0.8789246343022439
-0.767773965555123
1.1719381229395085

