-0.5229881839659944
0.1020372245265894
-0.0020780331754299
-0.2446071840328085
-0.1297074241023751
-0.1979789299758551
-0.1996399128829883
-0.0664069496176586
-0.1523542957429298
-0.0816450272111193
0.0359387420676016
0.0585992507368354
0.0077568501075346
-0.0558836197907252
-0.0350159792484484
0.0441340329756322
0.0178695792685464
0.0540433291295595
0.0959353638502106
0.0388202558297637
0.0247535420768469
0.0486771939224116
0.0375046983456803
0.0445454108723113
0.0558700082935284
0.0530735696875847
0.0732932682501978
0.1218837786153535
0.1640003289398715
0.2233112750970286
0.2572543582823075
0.0907849341502571
0.2038174342900794
0.0649989193935772
-0.0623522244920647
-0.0279211128233747
-0.0025970289704906
-0.1466287638485479
0.0378456626399706
-0.4309772413038967

0.2211033172662364
-0.2846922855408269
0.2159582886050262
0.3208114141172067
0.1098199332380694
0.3440586642031847
0.3822948071798025
0.1236506906620276
0.2947724927907763
0.282795345288539
-0.1385300401353734
-0.0357438362293752
0.1886166927766763
0.1067688580958154
0.068456495803744
0.1028296028772149
0.1718136360681021
0.1730702200274249
0.2873622209853318
0.1141488289628578
0.0777834183333939
0.1250873016679224
0.1280401249970867
0.1323439675805025
0.1017150417319442
0.0273036405381892
0.0960735448247729
0.1908015997353532
0.147718441460455
0.1727468729246077
0.1263824801555155
0.0189268737228235
0.0729673543272555
0.0743574356116018
0.0086466989736516
-0.0054168008469427
0.0493318261828054
0.126038254128155
-0.0116280416687682
0.1978243710678953

-2.7241927584357524
2.2928187641292617
-1.130815824421611
-0.9193506473707366
-0.4236352607531313
-1.0187556137291884
-1.0331894538113344
-0.306104200651978
-0.7087394478118054
-1.0159125006783705
0.8352880926559669
0.3121381033573693
-0.820950805181842
-0.2844251951436173
0.1695910505904804
-0.2987412639202652
-0.2493929592462344
-0.2281028383011616
-0.4168898186593542
-0.1769008033841144
-0.002485216740193
-0.3343197572045926
-0.1620777458294768
-0.1902630032882857
-0.2939841102647171
-0.1258969288577546
-0.3208168596466788
-0.4930908827668897
-0.6023212433209849
-0.7617363418183247
-0.8689404609458206
-0.2984868728262458
-0.325980642587064
-0.7345059892725546
-0.0758279141068694
0.0614273628804675
-0.1496098149605011
-1.322123645901091
0.2962453133734513
-1.6130806797142223

0.0029208942162839
-0.0067471606736048
0.0059869899126769
-0.002661853486422
0.0006879358692566
-9.908003883721652e-05
-0.0001341747643554
0.0006972318273296
-0.0019167364824963
0.0018652887184392
-0.001221985062416
0.0003145860915951
0.0024735888061581
-0.0011666551303186
-0.0056803464633447
0.0098359036523034
-0.0096482249037395
0.01060264072432
-0.0202846076588875
0.030403539081795
0.1313549363551199
-0.3142312633875461
-0.2573641938412798
0.3338755488811997
0.724800087904447
-0.1976492592389595
-1.8633836380248685
2.7248921239004757
-2.304398680561281
1.8972855725917592
-0.1036990747930531
0.8258766640058126
-0.3538915866280893
0.6236707727989246
0.1307446220185451
-0.1023010198376569
0.0338914210888745
0.8142746572933124
-0.1987696941548827
0.948316781195976

