-0.5229538683518988
0.1019951179347283
-0.0020722972352344
-0.2445999057763082
-0.1297559080778737
-0.1979880098330625
-0.1996773307122433
-0.0663962689462004
-0.1524242196467345
-0.0816249328453779
0.0359896016230292
0.0585613260934561
0.0077549426032673
-0.0558842945575213
-0.0350412248193776
0.0441546230986673
0.0178564903040001
0.0540312851085135
0.095904894279178
0.0388275734078166
0.0247215604616389
0.0486859934646161
0.037488393478074
0.0445462189015865
0.0558462625260412
0.0530826460433275
0.0732722979594131
0.1218621211884995
0.1639578251647807
0.2232484771115979
0.2571794543341037
0.0907412210181072
0.2037585848237474
0.0650002104489318
-0.0623547448773949
-0.0279702067731759
-0.0025511055757293
-0.1465821964114547
0.0378365759866202
-0.4308468137765407

0.2210726156534097
-0.2846742531523052
0.2160016172994427
0.3207604441491373
0.1098509083229614
0.3440185843699729
0.3822502079086072
0.1236094621792813
0.2948403894831253
0.2826037951396172
-0.1384553333514427
-0.0357596512218443
0.1886616627665653
0.1066191474454913
0.0684035031299609
0.102719221272382
0.1715714352940972
0.1726852112649332
0.2870230533068523
0.1140314109152399
0.0775204975914193
0.1252242729764486
0.1277413382224967
0.1324091059649505
0.101680921414298
0.0274393781942191
0.0956743640307026
0.1908860424169361
0.1475810908068681
0.1726145184022481
0.1262607772063178
0.0188657579986058
0.072864774074326
0.0743449067941836
0.0086173341257221
-0.0053624285832136
0.0492585412172445
0.1259679136036909
-0.0116250846812848
0.1976968610525326

-2.724292934280506
2.2930472378048674
-1.1310645092626164
-0.919157987207062
-0.4236895596636411
-1.0186575012132622
-1.0331069100485606
-0.3059761770667399
-0.7091000640266824
-1.0150652100345732
0.8347543308819205
0.3123318521978218
-0.8213579965986274
-0.2838529026922827
0.1695948640213598
-0.2986498861598936
-0.248992647787697
-0.227545810926444
-0.4163754354548962
-0.1768672605443787
-0.0016055354796635
-0.335507854220206
-0.160830036836922
-0.1905883823667927
-0.2937640934680284
-0.1268260079281725
-0.3193443929441157
-0.4937298054746946
-0.6018972277689871
-0.7615646854545092
-0.8686614524492833
-0.2984053114237571
-0.3257488121308892
-0.7345333597145286
-0.0755710476813002
0.0611360192846446
-0.1493225983226605
-1.3219318618395028
0.2962135360944722
-1.6127213898860155

0.0029208942162839
-0.0067471606736048
0.0059869899126769
-0.002661853486422
0.0006879358692566
-9.908003883721652e-05
-0.0001341747643554
0.0006972318273296
-0.0019167364824963
0.0018652887184392
-0.001221985062416
0.0003145860915951
0.0024735888061581
-0.0011666551303186
-0.0056803464633447
0.0098359036523034
-0.0096482249037395
0.01060264072432
-0.0202846076588875
0.030403539081795
0.1313549363551199
-0.3142312633875461
-0.2573641938412798
0.3338755488811997
0.724800087904447
-0.1976492592389595
-1.8633836380248685
2.7248921239004757
-2.304398680561281
1.8972855725917592
-0.1036990747930531
0.8258766640058126
-0.3538915866280893
0.6236707727989246
0.1307446220185451
-0.1023010198376569
0.0338914210888745
0.8142746572933124
-0.1987696941548827
0.948316781195976

