-0.5049387401376702
0.1690839521630125
-0.0911140721994371
-0.1796922096576379
0.0155504677453342
-0.0875385932934745
-0.1175085555466042
-0.1249753595462325
-0.1469500507304156
-0.1152437743423767
-0.0436198559240824
-0.1115483057342328
0.0355960549297966
0.0329559780752037
-0.0398988965064543
0.0096420608138137
0.0276605244161424
0.0425003986919291
0.0865105571494267
0.1215756171889788
0.0646141649191643
0.0072640569052005
0.0839933890601863
0.0572710126961708
0.038242480666098
0.0247873298006587
0.0565469945844142
0.1073346729154901
0.1221440714475646
0.17338238925236
0.238270902840183
0.2270293635495107
0.0104047840366643
0.3330145524530922
0.086562345221124
-0.2356801552825816
-0.2297095137003702
0.1238052365816302
0.4236519706990282
-0.7635798549079358

0.7182847432824552
-1.5222840302539131
0.3696268553097183
1.6751340333822835
-0.9285544840696334
-0.0150505174633866
0.5328098932735907
0.1731956222518246
0.419985743749694
0.4124245345360706
-0.0260703368622726
0.3908453292116595
0.3192443756096871
-0.3330975983367741
0.0065262612753469
0.3394148038228953
0.0013068900519117
0.1468206813228613
0.2692525009390984
0.3210094389787341
0.2232989002578676
-0.1140326671563519
0.3251737003112971
0.2543913017485021
0.1079571386653731
-0.1855398286443607
0.0259571510800466
0.3610292864703568
-0.0084782431965956
0.1682780082798685
0.0891991046203772
0.1183216568471291
0.0445866551056559
0.0190146139626625
0.0822164175731204
0.0419076237663252
0.0598966635993446
0.0050450125242785
-0.1766053506966323
0.3086103206886997

-2.28693603399546
2.1303907169540683
-0.7069292912439983
-1.8405004074821536
0.6486257762350986
-0.2577519312907545
-0.845413649352407
-0.6225083863489788
-0.9033451131193718
-0.9060321268475456
0.0385221849217793
-0.9980870914549488
-0.3697679745357255
0.5834647487314608
0.0213173342148951
-0.6767887434324363
0.0679685256095355
-0.2022524920071311
-0.3845456329335533
-0.500386024560367
-0.3596392180051349
0.1892981143924007
-0.5646228895551364
-0.3310414467303793
-0.1626031609860747
0.0702411126220059
-0.2166950503229376
-0.6221232704237436
-0.2969200559022633
-0.6662645113949474
-0.7214185283066922
-0.8876111305851867
-0.366596513299919
-0.1541234338632572
-0.4829175944575337
-0.3388736755637136
-0.5808691822311104
-0.0604919310575621
1.437280948132377
-2.415941129483877

0.0011458767693433
-0.0027173206158346
0.001652544396366
0.000643989676657
-0.0005444188991684
-0.0005718403262396
0.0006573499048488
-0.000271781539415
9.48139978074963e-06
0.0003386368777921
-0.0019835806309604
0.0051836906365952
-0.001386179362479
-0.0059892011530438
0.0009659686323891
0.0095016125482294
-0.0104351769422894
0.0051786317841595
-0.0002626700720625
-0.0110714347026701
0.1327229450073493
-0.7667164220438561
0.7031571838694901
1.2062498481238333
-0.3424214496290115
-2.3942619415731348
-0.7993635735173619
6.527824933809691
-7.337510090589451
4.705075526894246
-1.1561965730170352
1.328144316091064
-0.496975093387357
0.8564215638528506
0.1563220333663158
-0.0814203774396991
0.2769086226197554
0.1531283724566345
-0.7993222281680425
1.3818359020186135

