0.2718204220051463
-0.8166004260361006
0.3898809740757341
0.2721985101901648
-0.0936654311068934
-0.1501865622014737
0.0518928399543426
0.05667610296825
0.0052033524518382
0.0581079863977545
0.0742072951382315
0.0193231465970973
0.0061395871491149
0.0905065306240617
0.0281277270684414
0.0148765672274932
-0.0507162027913432
0.0704475786051019
0.2267499917032083
0.0121333194419473
0.2240450931644829
0.2245651390879096
0.3062712799987364
0.0957608169859079
0.1781766792744169
0.1735653517938196
-0.0228347966290076
0.0423507637520819
0.2403657140494623
0.1709017250744222
0.2043477825096308
0.4025880089027062
0.3655368101538437
0.2226635145720256
0.1713547790335506
0.2935262371193538
-0.2415919014618111
-0.1382064885957717
0.3168549284578113
-0.2403073092886095

0.4637108947917778
-0.0549168650036419
-0.0760506787828291
0.017618605688912
0.0794004800922641
0.123183246403104
0.1108950204673118
0.0566042812516191
0.1811903465417962
0.2021435044886897
0.2620121372329501
0.0137182003589845
0.2961589751915379
0.1473842381944093
-0.2879156535225339
-0.0317419679107351
0.3068545528380451
0.2594626859508674
0.0747597054251706
0.1942290502694414
0.3257361270513134
0.390036707883117
0.4740264077086717
0.1649396264734591
0.308225570326998
0.2057146810797591
-0.0093563542172843
0.0465785870765926
0.1982464944605678
0.1591343525677568
0.175687759799461
0.2331497446064901
0.2788269373155822
0.2194405762263394
0.0320036247858457
0.2335779087393207
0.1190295644288436
-0.057125209799944
-0.1557831936787041
0.5024235904290526

-2.555016729118567
1.041994803484617
0.1359365817922904
-0.2203994481481276
-0.4630119501798507
-0.3929032058496185
-0.1755371288542743
-0.3385078837483523
-0.5753911495428283
-0.5604725621842229
-0.8045733544291933
0.2423849095754324
-1.2586401722716951
-0.8011176949296669
1.9327942084737864
0.1379493220301009
-1.5621797674688769
-0.3893436335984723
0.6176885872914559
-0.8187780519769028
-0.4672435672376823
-0.7611598939667065
-0.953723071080946
-0.2970618789805953
-0.544368977811743
-0.6673849170690862
0.195154159457225
-0.1485486040198079
-0.7263483805060847
-0.4354320732592158
-0.6718282913924419
-1.0444230478196557
-1.1391411402625262
-1.156863541584488
0.3171660978106012
-1.2988203898760058
-0.694776728469263
-0.0749410560476439
1.512544501970089
-2.6235808161509704

0.0015744896672512
-0.002956878981813
0.0001956572183577
0.001665937580132
0.0010938383467098
-0.0014778119082037
-0.0016884599548974
0.0032322079491261
-0.0028676394613661
0.0029531548861834
-0.0058744263546002
0.013264987439524
0.009999285398704
-0.0658041592598078
-0.0342704924921183
0.085814598201583
0.1341297632990553
-0.0821749418622285
-0.3508092718182295
0.5962136572419408
-0.5722922122736056
0.6219892252998431
-1.1894344471234242
2.394169750308813
-2.2808091125035395
1.5005873946474049
0.4491704028181652
-0.3525296768510208
0.077749834407232
0.5412121518121062
0.2133251868327234
0.5266699100510193
0.538167002254087
0.5600449377929875
-0.1622527317246062
0.5946016945151467
0.3804412056992227
0.0730697719683601
-0.8622513572415444
1.413057001577328

