0.5371344032759764
-1.3368944523886075
0.6077569892086591
0.420727814029006
-0.1944121245585028
-0.2159641083799262
0.1735658528836332
-0.0205986040455222
0.042058871624556
0.0511766596267786
0.0695873394744748
-0.0568221422447718
0.1221131493402472
0.0295164532193884
-0.0390639150944335
0.095712804830714
0.0731442839519716
0.0959549253657584
0.1927994779841648
0.2225962055862552
0.285994891232181
-0.016633880498414
0.2877631273056489
0.1096681957286259
-0.0942534824197924
0.1129280673550229
0.2526798619934747
0.1163114786154272
0.2941858648634317
0.3524267770226091
0.4236696766754305
0.1627470104658514
0.3732363554642625
0.3384873064990871
-0.185581858439167
-0.2137681809477064
0.0173782054558662
0.1307338118879955
0.1156049448626527
-0.1976532165803224

0.3903824015491631
0.0354506240459478
-0.058620959308249
-0.016106630923885
0.0641851152468411
0.1309264196746569
0.1260923186536846
0.1070463447418014
0.1916581162923914
0.2375172940678572
0.1588676374802287
0.0729573825015947
0.1556518729200726
0.0593987419443469
-0.0353234280743431
0.1258025109207811
0.2369297212854957
0.2221274232279577
0.3298613828006824
0.4444288383669545
0.420155282301153
0.1452415909045712
0.2581633733159097
0.1681088029098584
0.0641455399823494
0.0959668501499924
0.1882092852990934
0.2263280767058688
0.2550240068666821
0.3207534757128928
0.3320438672093779
0.1349209917110059
0.1162640387676989
0.100107020768976
0.0440032855178888
0.04811534033904
0.0745955864561289
0.043009222761142
-0.0260772571481734
0.3896410095747419

-3.297377432992389
1.5774039884111075
0.7597846759554265
-0.4116443611500215
-0.9495195857244724
-0.3515570557277765
0.0604828609437788
-0.6931202600367545
-0.5347127354364762
-0.6889112855688895
-0.5784944798311842
0.3209634371925911
-1.2514274134976162
-0.1985567819507599
1.2052994602042737
-0.7614302413208597
-0.7302087463835928
0.0373166226832772
-0.7322934430883569
-0.6802140151910657
-0.8987067331809108
0.0649651154612333
-0.9327247148850843
-0.2838389507596146
0.2202182075590538
-0.3704665626028241
-0.7053628541800205
-0.3729264850105889
-0.8582355786921444
-1.0108432649997174
-1.2657368826817823
-0.3852480662929907
-0.8512386020737245
-0.8848761280634659
0.7299009390436471
0.3904439243657583
-1.2571011895988762
-1.387642523519716
2.0481247973265155
-2.5115048100185136

0.0040628250100613
-0.0055491369036178
-0.0011269580665365
0.0032134894275698
0.0014669538895582
-0.0025555544799068
0.0008551077931603
-0.0004512449942844
0.0009629851618398
-0.0023237422253645
0.0069362592413342
-0.0092080651288864
-0.0215748904459239
0.0152719563552953
0.0561371362502575
-0.0122036451039091
-0.157644893292639
0.2665989528271328
-0.3046987435554428
0.4758515324535287
-1.5436499106402544
7.784795004158839
-24.00654902367407
25.77964891961383
-4.293461363882271
-6.9787911654345285
2.9848939063978146
1.3159355527328722
-0.5284938120855928
0.8630354842280963
0.4840172598249042
0.2832647880800457
0.3517902815758693
0.4352699282190254
-0.3867615539342016
-0.2040305009642259
0.6556947756728134
0.7249579072376411
-1.1192358180702593
1.3449729519652245

