-0.6603396150248001
-0.0086001037691854
-0.3504730774795895
-0.3811754363263401
-0.4112654820507099
-0.1317576277014644
-0.2718464258158095
-0.1722632879752367
0.0157161730910077
0.0342639049718866
-0.0694135706478769
-0.1430163212930282
-0.1441613035642782
-0.1002949994500584
-0.176336807325221
-0.1992765460122105
-0.199040022743423
-0.0803294215449364
-0.1248728598028309
-0.0635085365527325
-0.0036840911747244
-0.0089771057296004
-0.0429350612414347
-0.06829396707956
-0.0595688365304288
-0.0873208347996427
-0.1198059255347528
-0.035983629882162
-0.169176647962794
-0.075671821028723
0.2685705414542682
-0.0477844617964757
-0.2178942202056327
-0.1018018438476131
-0.1190641829645753
-0.2944590284449926
-0.3451844878181442
-0.4862541275057135
0.2049235575135334
-0.8103014210890693

0.2750462361322363
0.1085470115581287
0.1738712740511287
0.2908750798429058
0.3319530210714013
0.1556787919879647
0.1664768991899837
0.1348001862789253
0.0752844294260664
0.0761578153748398
0.1162952312101305
0.1649517047518246
0.2112190363753316
0.2547783138925916
0.3311842513748188
0.4239727863468503
0.4079096968708384
0.2207823387037742
0.2056479006689271
0.1246255926540939
0.0277995903292759
0.0305902806217743
0.1146337217643265
0.1760503195420615
0.1891306472864607
0.2528289873213132
0.3161403960025951
0.2291663341262182
0.0906405207602305
0.1197999897816695
0.1098850331919285
0.0829722343688741
0.0976541155755046
0.1460139591156012
0.1934376558744985
0.2474203889341046
0.3295174981925839
0.280971701125995
0.1031600270783728
0.2930570503989581

-1.0911970696854787
-0.0591716041122555
-0.7449629547185268
-0.7846842658454483
-0.9409473188606364
-0.2562693000323622
-0.6313001325705178
-0.4267490469453451
0.0364851662339722
0.046504809339983
-0.1917416342973928
-0.3790620746696654
-0.3482215801575811
-0.294971662138547
-0.5235424984725505
-0.5869452345424125
-0.6604991895719319
-0.2373129257554243
-0.3906316325569738
-0.3028125826545949
0.0046119868721312
-0.0498097004152439
-0.3476733809388458
-0.4258907098371766
-0.4360845414124317
-0.732614436109594
-0.8767437898467874
-0.7792501070265909
-0.106164640520118
-0.4696494752911107
-0.5084915061437798
-0.1977285387669519
-0.2063865493793021
-0.5239258132941891
-0.6182502957057407
-0.793435063796379
-0.9994676471828444
-1.0334204560586024
-0.005343935285679
-1.2044643275980011

-0.5454517701961258
0.6069261333070122
-0.290499115701537
0.1016472177387705
-0.0450044538245375
0.0407033386886894
-0.0361175996360965
0.0056324976576751
0.0088754268749681
0.002244158085071
-0.0024094419953672
-0.0029719266889039
0.00016442700113
0.002182234883882
-0.0016018439939861
0.0011469720927502
-0.0021161631659112
0.0071102633153993
-0.0119552963886317
-0.0077297647575781
0.0125056999855857
0.0236882101857317
-0.0142435449046491
-0.0555348372168869
0.11003993928544
-0.1525138733894216
0.3264627814974691
-1.5018383505611048
9.02988667123838
-25.87078536123337
26.144892199997045
-4.282851326605001
-6.907390099158877
3.9177710727077
0.1381666943617067
0.1614800033069904
0.6344702122689747
0.6774412905797915
-0.4403170001484977
1.23832188804511

