-0.4824205769006279
-0.0233667927066728
-0.1365247873446383
-0.3194012033616724
-0.2797532274322998
0.1241322300192697
0.3371922372741368
-0.0669590483430189
-0.3969056525723516
0.0276005794689259
-0.2114887402409743
-0.1851037188525402
-0.067989593935533
-0.0487184943964776
-0.2017438258214752
0.1187976838991482
0.105789610148876
-0.0557774301315531
0.0539929674995969
0.0914989848471014
0.130491204896777
0.0377256100584922
0.1042928895644904
0.0410530966237571
-0.0327393302947558
0.0930360127706927
0.1024848563377936
0.1511244618066191
0.2590283570781715
0.2712527238849522
-0.2367040537197695
0.8353835906891987
0.1685135522795456
-0.3333510927947414
-0.2604478893819542
-0.0451079652898333
-0.1053883401535518
-0.0418398909555309
-0.2059861278122915
-0.5024608447365045

0.2459918617950719
0.3822336317608789
-4.138148513282431
1.1605802072612614
8.453348774443313
-3.3686246760569816
-4.913355014879564
1.2295752606475214
2.4748837722040027
-0.9451706395859946
0.5936213191907342
0.3487879087314729
0.1945490824578232
0.2172305930460179
0.5841842367351605
-1.0616893110457353
0.4891531755436033
0.3499607960654709
0.082352818915155
0.46457937883571
0.5211395040985433
0.0282065557399661
0.8726296306217486
-0.1877500237750997
-0.7174040182377435
1.0269103479103947
-0.2701489147834697
0.1377050806615566
0.105656699131486
0.0878146594050364
-0.2007023314500918
0.4070494201281742
-0.0788377566952832
-0.2879266249627006
-0.037931719716402
0.2347156221940735
0.1238751874393243
-0.0820912687433525
0.1101256476680081
0.1243193872029376

-1.4926482443561375
1.3158081149484966
-1.684421555388801
-1.5953880016458195
1.4529793461703853
-0.797648337586762
0.1243547112340467
0.8002176186979074
-1.5976286590166149
-0.0264571816710308
-0.9221034434725218
-0.907833889019234
-0.3221930842071845
-0.8727016320413035
0.1388080960095866
0.1859704747915968
0.1516527673012147
-0.6811892421346576
-0.2077961306121511
-0.8529157800839664
-1.0058835212915131
-0.3180536712751528
-0.7586861402400665
-0.2702260596064263
0.3167303568717035
-0.6380684759940431
-0.5208093069524511
-0.7122418265800566
-1.155640163332528
-1.0901184292539638
0.217709469832826
-1.0386498593767952
-0.2938659924668312
0.0888816808946163
0.0628845436550438
-0.1708640906404994
-0.2897106777799422
-0.7833727717716105
-0.3202313915621016
-1.1806237286514771

-0.1533749117318161
0.3239680606863389
-0.4953487976839161
-0.4748504098767102
1.9142078706383272
-1.33448283946161
-0.4992909495061969
0.9748649838247766
-0.4077146809124001
0.0824651480520768
-0.0116112528270587
0.0010427340982275
0.0047940492862903
-0.0397032080543618
0.1305668117704444
-0.1891915516174252
0.1235825288222545
-0.0339345681936126
0.0049146138706334
-0.0001672486463222
-0.0020364227908062
0.0071433596877894
0.0476928968584605
-0.2145594070470499
0.2529423300293389
-0.0258523843823906
-0.160919054575643
0.1758986497228411
-0.3588723767185137
2.270808656233501
-11.148303355799792
17.43227914732723
-2.86749760682902
-5.424559835037337
-2.263093231461966
1.625594637425337
2.8769388879720563
-0.7835208438913213
0.1683117283663082
0.9239118288334562

