-0.8985520581361618
0.3008822355547829
-1.586397040924621
0.2479003558306185
0.9650931640227453
-0.4234696423122357
-0.0536080744188785
-0.3449982259041628
-0.2680590785142922
-0.124126681106375
-0.5601312288726153
-0.5766887852400403
-0.1862648883825206
-0.449132449867214
-0.2885002616395505
0.4878769327705601
-0.0964648438758876
-0.4790928782738303
-0.0286174346714149
-0.3958255116488669
-0.3773719246987055
-0.1425827190049628
-0.2631407254502594
0.0148756099633621
0.0968518467544828
-0.3275251572826677
-0.0287829373258714
-0.3464525947106
-0.4023526494526467
-0.4697104037269491
0.2534072170732511
-0.5173776849543232
-0.0886140933007508
-0.0228726253537344
0.0334848443442398
-0.0329423777194205
-0.2927983005983516
-0.4479820955321657
-0.2116123430252409
-0.8881558924739252

0.050535736624686
0.7762317676465665
-1.1519960481393912
-0.2146827107000175
0.5458937917273945
1.7950676194199842
-1.562676024384466
-0.2075168350921298
0.8115879739646377
-0.0325222773689976
0.463641248232067
0.5097707908473962
0.1570073372911011
0.3914880224852071
0.2092989732997801
-0.0747261296602107
-0.1858746405899766
0.4695651133835377
0.0767944462998709
0.3690359314970661
0.3796463240233199
0.2133500743085354
0.0538880321621446
0.2185725025977427
-0.0028739426608295
0.0828934936265537
0.1385329191481045
0.2462626669120718
0.3664692816127264
0.3653989325615079
0.0204358153940192
0.3002990262739479
0.2058174515230053
-0.1653617786021176
-0.0257674830605662
0.1603718049695873
-0.0663592163307249
0.2536372571401398
0.0290984180889107
0.2234556265603743

-0.839045794583737
0.1812864105326183
-1.635395278429549
0.2949815021833943
1.2316030249178491
-0.5239971187111405
-0.6319696804690914
-0.1740516728435542
-0.1362270054851899
-0.3918740314624234
-0.7329795623426114
-0.8722375405639969
-0.1472926439040819
-1.01027750020194
-0.2497725663314404
1.3007710166940494
-0.9345446039913158
-0.4780348339623793
-0.187192115659057
-0.8033419918661845
-0.8783369386223353
-0.40774627456425
-0.3084225452136815
-0.385854840458712
0.0394739387221854
-0.4921708310433934
-0.3191529565281193
-0.9424524376810284
-1.239837621413972
-1.276076465102477
0.2740125249975226
-1.7002384093414773
-0.1553586610661454
0.506112669780872
0.1915881302230979
-0.3178075136935272
-0.3503932620340391
-0.5666546432869118
-0.2355700397758457
-0.8718051775647553

-0.1777756147745582
0.4932963787289598
-1.1143979215346105
0.3959677272732115
1.0617459162876288
-0.5566938669619275
-0.5069969177512035
0.235117891448553
0.1632147724469446
-0.1050808618557867
0.0267617076993938
-0.0069160880426699
0.0108333455982271
0.0277364237517125
-0.376493531121557
0.8990135765711228
-0.8353555099685354
0.3497896183576384
-0.0897734549984775
0.0184808052063035
-0.0042479216344105
0.0041589168166069
0.0634392474499003
-0.2302722053755416
0.2451259103381301
-0.0045942937329055
-0.1732259400332527
0.1778499742859508
-0.3559485145815687
2.2480338041364885
-11.005694893673978
17.04873517276527
-2.686584395613858
-5.162606090795444
-2.329633031809421
1.4174572397898697
2.915227243601496
-0.7061205308135928
0.1283032706761707
0.9372507551708718

