-0.4309726199507979
-0.0013378454732935
-0.0223570270313045
-0.0630920694111683
0.0017867580859631
-0.1015966993034778
-0.1166046169031544
-0.0967042023450151
-0.1419506934294376
-0.1151192666291962
-0.0481218840698491
-0.0799547619090932
-0.0147776909891251
0.0040398067673723
-0.0048151818705351
0.0306928278311031
0.0149686921404739
0.0025918043164218
0.0665333163131422
0.0796223708443495
0.110820584783969
0.155457912347853
0.0506904086722182
0.0848627318016598
0.0982645930825556
0.0209805231089519
0.0235993797557877
0.0982172912797568
0.1317949294652971
0.1437990697241922
0.2275902805861466
0.2346504350726327
0.1072162332386043
0.1516636134140372
0.1494656846706182
-0.0845808964553586
-0.1875026578276009
-0.0436182294287998
0.2330950053227501
-0.5514679681694596

1.077003684768565
-2.2933197578322924
0.3561646587106035
2.264120269055838
-0.8391168216398476
-0.5814918444951245
0.816679295335222
0.0729227715808663
0.3992032307012882
0.4097599577508012
0.0426316982383948
0.216670346264365
0.6178269430101223
-0.3482256870952603
-0.3672474308722098
0.3471858454967427
0.4017742758898492
-0.5216623807655559
0.5003918728643858
0.1173862877639836
0.3165778796549498
0.3813623489955369
0.0953059683387179
0.2134712316069452
0.4604938949745752
-0.2125780125300393
-0.1307144629005439
0.3803710088817469
0.052778270976662
0.0974203329569652
0.1011541329655436
0.1119014343661553
0.1039718717050321
0.0036685012630947
0.1499336881442999
-0.0625798783996606
0.0161115975325207
0.1972239727594582
-0.1741482498918015
0.2574220819461243

-3.1399910855006894
3.0722055771983388
-0.0375043628135596
-2.436565962689436
0.2510769791508759
0.2973323573520727
-0.9014207988469468
-0.586893610353294
-0.796736446034092
-0.9348280811616444
-0.039752080634936
-0.7141184346247167
-1.046434196799596
0.6914226109983289
0.8839967046369157
-0.763400830329703
-0.9234848591444282
1.2208922772141018
-0.8808137400955413
-0.1802943284377614
-0.525867126459956
-0.6761759727150887
-0.2326253354407319
-0.2436563046245061
-0.7999903284694515
0.1623230588979305
0.0836842367178131
-0.6731535555293521
-0.3927252472418292
-0.4820370872496364
-0.7321557924949325
-0.8775273802317352
-0.766114036099598
-0.0965771541203596
-0.9849296408519228
0.4385749187454885
-0.2324048870027553
-1.468145915572658
1.3539941909502504
-2.014956150650298

0.0044167249223745
-0.0065308898738042
-0.0008300849504562
0.0043088722838702
0.001097922850428
-0.0039558090452157
0.0022889496163247
-0.0007419897049508
0.0002761799445861
-0.0002614194329235
2.8002639857494243e-05
0.0022030110781111
-0.0003826604966144
-0.005646094076269
-0.0014047238323292
0.0068422388142805
0.0062136524590219
-0.0093974623374932
-0.0067319595858018
0.0230702055405329
-0.0424562575176134
0.1205764163218856
-0.5632860697270593
1.7049154362779122
-0.3839630974685859
-3.1126184834817603
0.1831714459114548
7.881287642941412
-10.514490147273772
6.907075611155947
-1.965434596575934
1.4181724358991197
-0.0549145913048891
0.6888562202363027
0.2297380882173823
-0.4031672899187423
0.2479267281321475
0.9580747480419292
-0.918441458717522
1.2224481141282837

