-1.0435815092567078
-0.1623567292738233
0.4926878669938068
0.1861516814691058
-0.4656006798548515
-0.2961544999280163
-0.0812735769927747
-0.3679907091170556
-0.3362467132163679
-0.2317944930990361
-0.1381359597156107
-0.1959603761542113
-0.0366472841412629
0.0011475176430838
-0.091529984391955
-0.1209817314516592
-0.0885329893135572
-0.1528722418212689
-0.1739048826914331
-0.1585608430033193
-0.0452755443034519
-0.1602729388002631
-6.304767647602824e-05
0.0552894286855066
-0.0347785749257096
-0.0866485015243276
-0.0351967433941675
-0.0761269190485295
-0.0923654127491762
-0.1117184983027273
-0.0290352044795546
0.0425617656694118
-0.0962788637793318
-0.0681860017761188
-0.0099120649851448
-0.042375785818681
-0.2259096378097488
-0.3673291141867891
0.2646578114441087
-0.8784171948591646

0.4026795148329784
0.0973508188536474
-0.108372316883918
-0.0833300697683008
0.2076619022765122
0.2688733659351943
0.2108914881013952
0.3636140559495925
0.4582750789213806
0.3100184056001627
0.1763525404596841
0.2269981944115147
0.1305543033715306
0.1022130064210522
0.1617401964499663
0.2121055724538465
0.2265314778276589
0.3102762697731276
0.3757946953882858
0.3382868610213965
0.1465593608927374
0.1723520772724241
0.0700224675612447
0.0355813449367916
0.0836089363739392
0.13572496791882
0.1645414630442201
0.1925975296973822
0.2815015040460426
0.3308939895522613
0.1594895515476554
0.1822512193769951
0.1365449429138931
0.0247635844034472
0.0030715919061461
0.0719791913374179
0.1636371745747608
0.1598956071453081
-0.0276009360330293
0.4341333941987458

-1.6461201141632265
-0.0244510750134356
0.4348122202848742
0.1737180985984693
-0.8088196282067869
-0.5121819095368128
-0.3808039544429387
-0.8220229307512763
-0.8528877111986277
-0.5956217935495781
-0.2731648683703114
-0.6338533274535357
-0.0242120424586546
0.0318731460540164
-0.3496978436297088
-0.3264268229732033
-0.2922726808058526
-0.5358691086231874
-0.6252809472793769
-0.6741851336878463
-0.1334258152157227
-0.510259627727304
-0.1325745614142368
-0.0206787872057533
-0.2756748215509024
-0.4139096501665817
-0.4122752308408471
-0.6483026712732715
-0.868040689750905
-1.104212117727253
-0.3669987873413353
-0.6818893629420583
-0.7335996734108592
0.0469531001331629
0.2772681168491553
-0.0966737240840423
-0.7101560848508373
-0.9191348415553036
0.6273337719489664
-1.6518875563787594

0.0053417036836557
-0.0073292918469705
-0.0014866498951919
0.0048055122275605
0.001149073379341
-0.0038907755148393
0.002285415391848
-0.0007834928656552
0.0001507419234889
0.0004224486184238
-0.0021141230510273
0.0037671660569453
-0.0016392972987538
-0.001623690635622
0.0013096825817044
0.0004061511680779
-0.0006598763210265
0.0001379222001411
0.0004841987766765
-0.0028174624809549
0.0202944656968168
-0.0655017664095609
0.0117454650778139
0.1146047418638313
-0.0085341152182318
-0.275409321574903
0.4048910295121562
-0.3754370165281009
0.4156897762543167
-0.8751112021267635
1.9607985483131456
-2.0376235290332847
1.5662300924683734
0.596878957206303
-0.4180527774378987
-0.4499973640636466
0.3250419681022384
1.081191191905822
-0.7352700406250519
1.119979390504768

