-0.1972256357275002
-0.0882772443029532
-0.0627504801426
-0.0216005624086881
-0.0250164701628679
-0.0977930376848118
-0.0958036656204449
-0.0893430998994936
-0.0554743583939764
-0.056960471832055
-0.0192423891846123
0.0108371253588986
0.0184308539220017
0.0056388016638526
0.0022507132396535
0.0268250057418073
0.0438731025205647
0.0693506888011443
0.1201007700538299
0.1675743549952853
0.1167351692039973
0.0590625010764873
0.0876928814265369
0.0664981499583169
0.0589516817697952
0.0801237962110533
0.1211313202254681
0.1684967085754293
0.2339381305170951
0.3202973377778675
0.296151334634406
0.1595294404878984
0.1791340413175881
0.0673368412886936
-0.0095173256424029
-0.0049885129670059
0.0186774258378827
-0.0063920057248836
-0.0332585449071414
-0.2417627440539901

0.4531850168149348
-1.2430683850592557
0.6375143574655289
1.1216854759385435
-0.8468355194212639
0.6038536231895082
0.2099720030401887
0.4467994359830056
0.2255091325580231
0.2372343578739013
0.105448532880059
0.0619618587331223
0.2299366042151545
-0.116614485671339
-0.030267971892204
0.1775932199543205
0.1415104690686619
-0.015768843711121
0.255334726525864
0.238948253690819
0.2629642952142448
-0.0944842587314775
0.3479411196257113
0.1463167187751976
0.0118744035678552
0.0085876076555701
0.1970610224783265
0.1285001107624355
0.1702992464392186
0.1597979205013585
0.1180577624422262
-0.0335789240090191
0.0922322310246001
0.0661342673848268
0.0118126203423195
0.023002192859747
0.0253756898547913
0.1339537194727686
0.0178560571216889
0.1946148911236268

-1.5874465233496662
1.3691335469248571
-2.0296383902323454
0.5539022026188436
-0.5139677680732514
-0.7638965139278389
-0.78435167406822
-1.0135336581971832
-0.5828121900569795
-0.3047045646210706
-0.6859621828311135
-0.016552434121379
-0.140563482383036
0.1715988752244788
0.0201550812614481
-0.4115942141844451
-0.1488179618579754
0.0747790024626153
-0.3802903968251534
-0.35003584438794
-0.4781661275644688
0.270354867346227
-0.6765912021804461
-0.2540891818210475
-0.0344016463111367
-0.1526798235189305
-0.5005265007890176
-0.39142335481185
-0.6752213321811962
-0.7588618583662368
-0.8418738610872748
0.0288068506030355
-0.7827859582342892
-0.2517105343324241
-0.0090129412590427
-0.3632058256135377
-0.145114218059727
-1.0348324208060165
-0.1534368012591509
-1.5467323063973553

-0.0241737216112007
0.0327115639019367
-0.009461944002488
-0.0092920536562056
0.0082808916735916
-0.0028796646616565
0.000781571547591
-0.0004715847432291
0.0011192132588128
-0.0032330059244147
0.003761914743269
-0.0003947135150089
-0.001455429617467
0.0006256995193425
0.000281406735656
-0.0020773012155451
0.0033841482861888
-0.00265530201578
0.0012489503303562
0.0008052809497871
-0.0175460343028094
0.1332520334435534
-0.2536740993295917
-0.139875356388762
0.4504030843110664
0.3375574420583005
-1.3556318720212448
1.5426848190597504
-1.3211615316662964
1.4012691193029658
0.1486143234631774
0.5002128160862599
0.1859585309650006
0.1372113006815349
0.0481593979604396
0.2248920492564804
0.0640586745718775
0.5847637911069757
0.0808456447387178
0.8764160092244377

