0.0236068447627365
-0.2406536700889139
0.1104323887882895
0.0761478677133767
-0.0404206083193175
-0.0015443124865541
0.0265734192592567
0.0281688810845217
0.0280744883721534
-0.0013861315648138
0.0259508650733993
0.0108130008136008
0.0222841727119228
0.0299235543545359
0.0359198970791595
0.0590400227144126
0.0695603669213658
0.1249602237892422
0.1882424307906687
0.2402659120588394
0.1759965857119802
0.0744494007175647
0.1411166683667081
0.0765409278808137
0.0445609385834706
0.1053824348777442
0.1740479447891556
0.206019828946768
0.2846662151543981
0.4018868169753033
0.3294526999656283
0.2362990901967374
0.3454765412146358
0.0441620805885872
-0.0918074984706618
0.0108504962208914
0.1047595201163495
0.0175553508638634
0.011451776103648
-0.0682063538866999

0.2869129915616704
0.0850112536212756
0.0349071588407906
0.0195312712769196
0.0904360521611371
0.173468157874817
0.1950284260499265
0.2284102020224721
0.1369835667078231
0.0983055740362039
0.0879482985390787
0.0384730286621482
0.0368784398482904
0.0405367704881617
0.0545803901699859
0.1382299648131552
0.2052689752259301
0.2538432104809389
0.3595987085840224
0.4440695643145367
0.2869375958760055
0.1827505621313893
0.1789129512923758
0.1257342444078039
0.0995227971499289
0.130679557770649
0.1888272460268251
0.2362321752606045
0.288598301114984
0.3446373347751497
0.2985329999609201
0.1277117828998069
0.1150705610597482
0.0700361363208298
0.0420282110010201
0.0651372701903254
0.1169543444326986
0.1528203684732874
0.1151900779644722
0.3658224125497922

-1.760473880107778
0.6174968243862212
-1.070502115379551
0.530336057059264
-0.6280831749418867
-0.5869915415163274
-0.6545010708012826
-0.8052795700051905
-0.4236398667429266
-0.230442736081851
-0.7944037780462988
0.5432482970339443
-0.310131533594275
-0.3928473060170498
0.6145928313767449
-0.713188301233195
-0.3240102418050375
-0.3150624131730252
-0.64845596909043
-0.7270168820798331
-0.6604960993281966
0.1648234350553754
-1.002508909070685
-0.1226903627252147
0.1381454736529071
-0.4636108103972225
-0.648084551039057
-0.454265934432866
-0.94159541607093
-1.054091079896908
-1.228769904284274
0.0022718286613951
-1.3220253017595376
-0.1727051142659858
0.2004494231115481
-0.5058364339478316
-0.3248044094630974
-1.0290909553413718
-0.2314688805351837
-1.657254093262094

-0.0247352663689661
0.0346374961411409
-0.0113615997599218
-0.009336434766801
0.0094687068942641
-0.0039005270954853
0.0014781294796201
-0.0012223279688831
0.0017323726402802
0.0032950390612362
-0.0115744383119665
-0.0095222938111826
0.0124654131409264
0.025288289906941
-0.0025632668578357
-0.0486663441420485
0.0283906230768456
0.0284221458687862
-0.0830665006519964
0.2355340466230872
-1.3880072074889371
9.261984685028464
-26.47330721455732
26.34175785393328
-3.9619229515064736
-7.014693542460672
3.722420308588729
0.311997283782561
0.0673344254819854
0.7026477068469462
0.5121466180485614
0.0982522617840781
0.5605800594849328
0.0693390730275107
-0.0715625320009508
0.2597986089734083
0.1093919921305474
0.5532816212323644
0.0894607781538844
0.8748494409088917

