-0.420491766844201
-0.1836273119616953
0.0625538487590226
0.0763640927762621
-0.1242982600407397
-0.1759544911945133
-0.1495537512637832
-0.1962755288567453
-0.1149384636212968
-0.0795723572264548
-0.0685214847724028
-0.0327592819325996
-0.023786666420214
-0.0185679752911344
-0.0166785106012872
-0.0178560767947886
-0.0245311746697725
-0.0303665813806062
-0.0280481645920409
-0.0193856519487612
-0.0066840097006576
-0.0303228515503776
0.0123443136195868
0.0280865969540167
0.0213887861199261
0.0156714626364205
0.0244068372440807
0.0422505573308911
0.0663834638809865
0.1055353271453582
0.1069411802757624
0.0711336243149633
0.0819927642057595
-0.0036685673560854
-0.0519184349587616
-0.0488447820646246
-0.0572730455592712
-0.1237166074094978
-0.0919114934816411
-0.4273915070038021

0.3628151854504352
0.1214486965993542
0.0166448997967147
-0.0042046417522074
0.1944030605738537
0.3096739773760024
0.3653765581076897
0.4787817277646924
0.3014395038881949
0.1730240743361691
0.1894063449560631
0.1278202814352273
0.1067518906808298
0.1221790733246452
0.1424341316437239
0.1453236110009141
0.1557106676455098
0.2223206980086677
0.2762070639433697
0.2993524093243383
0.1926861624779568
0.1168765536711769
0.0889964692733413
0.0434769536424445
0.039970469312954
0.0749493149855173
0.1178937223832199
0.1306752524071844
0.1849117323464133
0.2711031041296797
0.2701636064515969
0.1255135827067808
0.1476600856352133
0.0938462009430033
0.0538301798761351
0.0793241213678368
0.1474595611070335
0.205957945534905
0.1391387148240386
0.4667410735620471

-1.249400230186264
-0.3314158019850989
-0.17353664771662
0.1605403321536227
-0.6087135919085576
-0.6941176584241995
-0.7728645390241328
-1.0051930310754829
-0.5571291851306989
-0.3667125331577031
-0.5358218090747019
-0.1350506809366998
0.0186261464756541
-0.1193960779661323
-0.2843678644999076
-0.2089080422732631
-0.2124882048623189
-0.3911798166898352
-0.475562788567403
-0.5802655769692744
-0.3944340535227624
-0.1987644994824523
-0.2557511653475866
-0.1143944030056326
-0.1184234757363156
-0.2506251860735826
-0.3769871584951632
-0.4195251195540491
-0.6651049475499684
-0.8801866418624205
-0.9501744610452638
-0.242658884508118
-0.6855580999840774
-0.3552382910121487
-0.0651842617323764
-0.1737829682565292
-0.4553571420940407
-0.8580560333070013
-0.2716923607254073
-1.5599153194109605

-0.021551967288275
0.0247760499560922
-0.0025345284646168
-0.0089208084297054
0.0048888782718415
-0.0007851627582934
-1.5776522724516242e-05
-0.0001277204273403
0.0007774081802134
-0.0030112191317079
0.0047990209370393
-0.0009067243344927
-0.0030724103449046
6.585217711591359e-05
0.0025220518340121
0.0001575649398628
-0.0027405327897921
0.0029272386581551
-0.0027335121054935
0.0041822940194424
-0.0089948283837516
-0.0040626656156728
0.0676255671819087
-0.0123064425077082
-0.1280447974331957
-0.0157017536174275
0.3433880060822835
-0.484388698735091
0.482632333770833
-0.6469385681175166
1.3179586443789677
-0.7439001325467564
1.1892471375757128
0.1087540761207999
-0.2580249417317888
0.1376817437990946
0.2939214862483045
0.4914495479365436
0.0928631998870721
0.8770699777301052

