0.7119742323887197
-1.065990459494936
0.5115403188932125
0.2278062579470556
-0.1624912087504106
0.0921799444804921
0.1051732872822986
0.1079264269964713
0.1496999016149779
0.0645000405545616
0.051775061616089
0.0793098145853623
0.0478010519049768
-0.010067508974755
-0.004924916967263
0.1528523626691356
0.09123132013614
0.1086125450431599
0.2455957560215143
0.2678075517351273
0.369077959099983
0.0718388915665695
0.1771091396154117
0.3188296467159975
-0.0586778595141041
-0.0912794761559205
0.1433427175256289
0.2521553526473586
0.1949469037438746
0.1678387665491083
0.3776441657168344
0.4646916874520524
0.4944549821110545
0.1028674103589881
0.4569430521470886
0.1600627041964517
-0.2282525895412282
0.0139858752672385
0.1624273127148561
0.0562369452970482

0.3707789315335268
0.0253149306518774
-0.0373953968984019
0.0458593004258264
0.1237994052185534
0.1351390501664099
0.1399255667494998
0.2014369588914702
0.214438416171402
0.1053661320586254
0.110944646473258
0.0764295690205311
0.0615292693675166
-0.000833406128584
-0.0463442759845887
0.1160210146218905
0.2096899241723776
0.1649969736695874
0.2356210660921898
0.3447556163813761
0.3607279570579826
0.1396544661469045
0.18193909901309
0.1744553630889233
0.0758708800659674
0.0328466103024065
0.0607823133689354
0.1167083519121877
0.1468966193035934
0.1411748760537653
0.1912723260966768
0.2347207164114841
0.2621890945058823
0.1054885905778248
0.1511242890405725
0.1350880738852363
0.0458613381033505
-0.0270185576004981
-0.0140034492265693
0.3990946501674853

-2.698990599165119
1.2108875893515
0.3841796541776352
-0.8803953536992911
-0.6396203675520152
-0.028651406860271
-0.7397567537308621
-0.6261203252320429
-0.7494640208918132
-0.3020521696318603
-0.3133612911021085
-0.1264026360264323
-0.7041496991663527
-0.0207037436185095
1.314519953770752
-0.8394831135791506
-0.8877952285299542
0.3771083741280026
-0.678588745813543
-0.4902812928430382
-0.7510191774774109
-0.1655220393274034
-0.2678044065299561
-0.698016855774782
0.0134299690815611
0.1584256354234134
-0.2404532288597115
-0.5385280745779534
-0.3776001833161438
-0.3702264144366664
-0.7903407653853618
-0.9017766489680372
-1.086723302734789
-0.4958125490520633
-0.3320298500705461
-0.5091652030451626
-0.5303710086571327
-0.6159248379184645
1.4820095964475604
-2.4466104983637487

0.0026350390258573
-0.0046976357040608
0.0013750993727888
0.0024529090197305
-0.0022923110076541
0.0010159544639583
-0.0007466216156499
0.0012077888031005
-0.0033334645462302
0.0119945118787743
-0.0161134843130291
-0.0311988557280851
0.0072362006426291
0.0634204928181925
0.0519726985153581
-0.0916642673597175
-0.1749554189059414
0.4236094299735656
-0.501189354603102
0.6685010227855843
-1.7184676794032974
7.737685670615846
-25.19285598257431
26.632573387543097
-0.3878290051774096
-7.612236954643014
-3.12874018698244
3.205683583211803
2.549972157657963
-2.033085405543678
1.1908866415549353
0.2842959708563664
0.6312353253025303
0.2238943472796921
0.191193613704256
0.2418785376707882
0.2749008264059061
0.3496866295596887
-0.8425035601069517
1.3258998688498032

