-0.795278798171731
0.2990661190023727
-0.7824140203961805
0.1680889947665258
0.2139786370970638
-0.1080559669143909
-0.286664166101518
-0.137446140146822
-0.0649834014114116
-0.2573591775356608
-0.2564554538203887
-0.3217656135287978
-0.1877006067479588
-0.0909682170096739
-0.3549786756197157
0.0970423148922066
0.1830960554785824
-0.196646495356926
-0.1499517807034134
-0.0061907156313386
-0.1523234451368961
-0.1230828172158642
-0.1314961061382683
-0.0113601079924125
-0.1322295047818725
-0.0005921201922539
0.0480359291704516
-0.0478965339900266
-0.1036575735062791
-0.0012251862847919
-0.0668865494291733
-0.1319226176855171
-0.2148912342576999
-0.1107749704077688
0.1563807370299676
-0.5217423657134678
-0.3254300889338203
0.3825958936529041
0.720995982788266
-1.4443148244171755

0.3741289030472273
0.0361789713782543
0.0943688968203038
-0.0861141375668613
0.0418706108664701
0.1771050705520847
0.1995910207669571
0.1216865593584774
0.1635918031293032
0.3251887192598761
0.401060924055896
0.5143898148879575
0.3176439275558732
0.2240361912954517
0.3143043790110196
0.1006124905331561
-0.032744426131486
0.0975178501238015
0.2265679422325598
0.1944855347554231
0.2444248336085358
0.3239300094282128
0.3019912727140474
0.1053407972178245
0.1993433605851176
0.095488306146993
0.0323020178805061
0.0342268767084369
0.120016224452508
0.2000848411368929
0.2235819838319441
0.3170636627140675
0.3587471292428138
0.1353437567572347
0.234608621528002
0.1879140145504211
-0.0147318438595761
-0.1267476003506114
-0.0212077747660334
0.4711024937194161

-1.5853955036461784
1.40055112764362
-2.4425360102253397
0.3764984394398675
0.6891002372786443
-0.2457663806086618
-0.7951192587373033
-0.2874604817028553
-0.1544732806498551
-0.6709781417078877
-0.6589042901628641
-0.8360245314338365
-0.565514527874206
-0.0018412025791394
-1.3197545154050152
0.4200152561699114
0.567167425948508
-0.7365491005642373
-0.4326977756558607
-0.1327999448717496
-0.6354548027202485
-0.6184938517272882
-0.7970433090982028
0.0473423886562454
-0.8615685226838152
-0.1432363793838823
0.117505860584923
-0.2673040133117708
-0.6298689237766492
-0.356420437211258
-0.8364856952409176
-0.967508904283366
-1.1718956579742397
-0.4881793646487473
-0.1193544798277234
-1.4176532685345051
-0.3729545508631041
0.8359171692791506
1.2082960327596008
-2.5235255239957888

0.0014069047190591
-0.0058829653564946
0.0088647562230269
-0.0013100916965553
-0.0048254224162997
-0.0004251677262296
0.0032350698070492
0.00056495753645
-0.0022820274124729
0.0012784759182857
-0.0004319653830151
0.0001637040031761
-0.0002525616593296
0.0003856313818988
0.0026050476330787
-0.0051340104970676
-0.0015451876640937
0.0070636624290108
0.0005566916108334
-0.0118995201843522
0.0195919594863292
-0.0357346825760925
0.1199198199980967
-0.5523308913516625
1.1774484570706505
0.4541967028290597
-2.206676779675937
-1.28070234063038
6.358391873143929
-6.941954380019619
4.426932554635753
-0.9488387018515492
1.1815963129807945
-0.2160624861436396
0.4984003789348542
0.6564878755693361
0.1551192152323602
-0.4959514991305113
-0.7995997322587487
1.65222210747054

