-1.069437054772837
-0.1985769944386782
0.5413115450465671
0.2881721616062394
-0.4497757116011087
-0.4098021672612693
0.0506425223596646
-0.3207796892244158
-0.3016592794868961
-0.3498375337345787
-0.1201509849041117
-0.215105105844812
-0.1578162324174785
0.0196981889950528
-0.0112860180467704
-0.1032639202984046
-0.1057528125061191
-0.1034097586173913
-0.153719753432321
-0.1715211194711492
-0.1098797652626433
-0.08481529518381
-0.0958608926494856
0.0383201840604706
0.0191504599951164
-0.0674677810502815
-0.0667647574561594
-0.0359727550473609
-0.0900012718875423
-0.0907888726392941
-0.094968652975114
-0.0247044537634352
-0.0372533397670795
-0.0080788775406617
0.0107606611738315
-0.1281881242340098
-0.3293104789048517
-0.2341337407102699
0.4703260767350962
-1.0039246815870624

0.4267689263102953
0.102601856412437
-0.1315841873706904
-0.1317412220252942
0.1818243482142787
0.2812206365831038
0.1797470896856689
0.2717021544344893
0.4186829365318683
0.4712734633144161
0.2075694283871083
0.238592366225199
0.2142633442179558
0.1044104581127765
0.1038368973844369
0.1642007779201916
0.1986657963587974
0.2460553691539823
0.3196472718087968
0.369536517667205
0.2658926916893355
0.1230092071749287
0.1541858003636359
0.0647291706534876
0.0392254436101672
0.0921206283559937
0.158155140262208
0.1517300740975826
0.2301805080343542
0.3159897474263283
0.3261616712679156
0.1028512123965868
0.1879500593153938
0.0969274859117077
0.0234097693520714
0.05822109741093
0.1268265149336239
0.0979133582016696
-0.0478834610732016
0.4376734729325363

-1.8840960580187356
0.1476402015098094
0.5140652141622105
0.4676863549551278
-1.0596849936299375
-0.6249027309261018
0.0303052200563261
-0.8459224179491915
-0.6888828083867687
-0.9382849972581389
-0.2199773013673083
-0.666086418768277
-0.426580719361661
0.2422918051566651
-0.2018065375416536
-0.3303139072347891
-0.2741260612127179
-0.3865934384613702
-0.5733486041098056
-0.6571653384606265
-0.6205679777144494
0.0819153984904563
-0.7666551191776259
-0.0445042617963134
0.0657921154345252
-0.3611604527689213
-0.5518897548307641
-0.3524000512625127
-0.8261180190507769
-0.9304664310795416
-1.1952963393035878
0.2379035017961701
-1.6515080147972263
-0.401998702860092
0.9187312657000618
0.3534922607998518
-1.1637032542022645
-1.40444137808602
1.7107190742603546
-2.065624165282488

0.0048630865349047
-0.006712644989588
-0.0013840349405882
0.0042020638135562
0.0016834148512454
-0.0037334679988741
0.0015664596594502
-0.0002016749518591
-6.140761078314666e-05
0.0001170509838158
-0.0002847366929005
0.0003047681694475
0.0010336262552671
-0.0021948128169075
0.000412870395436
0.0020205411564153
-0.0020776121493555
0.0008512383829186
0.0001064103894276
-0.0012730330214959
0.0078178941168193
-0.0478980452638845
0.0939903993745464
0.0390513947214364
-0.1606069627600892
-0.0985815740265923
0.4637441337431034
-0.5538505649381129
0.5065466546354168
-0.658577525809256
1.3697954868829485
-0.9980573536365136
1.6819995000709391
0.1312724320640915
-0.7690813777340995
-0.2727664729093104
0.7831135380680739
0.8980363814911049
-1.132801408942365
1.3062061991717568

