-0.2666705162866289
-0.1003951708742477
-0.2238220098368247
-0.0958645071225156
-0.1254241843076252
-0.054293145281475
0.0271052473002538
-0.0098924453120101
-0.0162072276085233
-0.0116251707911969
-0.0142323678093069
-0.0049142653871757
0.0058187957960778
0.0143432607389598
0.0322396120562738
0.0606433127002706
-0.0330472905358871
0.0052718130089601
0.1006346117013918
0.0812036075213065
0.0252595270947374
0.0778942674131065
0.1429243857499881
0.1797791792053001
0.2473278189178656
0.2597017441753115
0.0753992742191365
0.1754571488852283
0.0326848285748524
0.0320624232724819
0.2323204998767005
0.0903058006788313
0.0899313612036601
0.1709977584343037
0.1375677851839923
0.1413027606101544
-0.1099485630951239
0.4286961458824455
0.2293915103580228
-0.7656932577483597

0.1453730814309196
0.093605204611995
0.2614856951620559
0.2168256425011756
0.206707768633125
0.0262763237518756
-0.3147362483703394
0.3283610284296329
0.4940106256232878
0.0517845881796307
-0.2907473983823607
0.4271526543871115
0.1590451489370976
0.2286671741815541
0.2963996963767337
0.003944132727564
0.7799982201624678
-1.016621821495162
0.1414777661036178
0.7438784523839196
-0.1368901302708441
-0.0215783841966328
0.3345666112334195
0.2264455745899738
0.3290901916740447
0.3364840236324065
0.0002695299774995
0.1514749993987821
0.4009849155804054
0.1305866016767962
-0.7403434565697266
0.4412591161196154
0.0881691515938966
0.0074438399849323
0.1505929276556164
0.1151383482310214
0.0921805868973529
0.0369427022192114
-0.0892616615409357
0.2278880521920893

-1.36718333125886
-0.4639009563077627
-1.2952002919363186
-0.4547269728248427
-0.6427875333830235
-0.9139537497432414
0.5302933068269613
0.081329081615917
-0.5594254457297921
-0.5178432827485567
0.0637725473224832
-0.35689217136158
-0.4862163554442361
-0.3755215293419944
-0.6002197533334312
0.2089385511596741
-1.959381677153225
2.1749557546705223
0.2902653664497155
-1.6667974278954387
0.0177249271880515
0.3056563773800732
-0.717792766024065
-0.4677250070291111
-0.7320430564648497
-0.8416693864364733
0.0093010932422073
-0.5100640585078478
-0.8212063536505617
-0.1002244922691182
0.8786671739485516
-1.1785788188006974
-0.284717049233071
-0.6033379553986832
-0.9086345084022056
-0.9708810931207644
-0.6180937057547083
-0.354660049228599
0.7298008643354481
-1.8210839200068891

-0.0488277237112289
0.0332787241416247
-0.0152649950340016
0.012597170824585
-0.0164069871703035
0.0104283223974238
0.0028080537909419
-0.0034825198424742
-0.0021164503911886
0.0010803580507168
0.0009457726974808
-0.0002191843795316
-0.0005146583213356
0.0006486966993475
-0.000910878131223
0.0010713200017157
0.0079559114614188
-0.0264931086903837
-0.0090887011672658
0.0530173116086352
0.0264560313259763
-0.1519084132976564
0.1880705513262183
-0.174132275097345
0.2291080611131769
-0.5656537841104009
0.6233416709868311
8.013703893874164
-26.627781863987263
26.65982918060632
-5.017668364672062
-6.31996546091418
4.864813019880974
-1.0246471368914023
0.8827327404682918
0.4545686414139233
0.4209224403898656
0.2833697756005814
-0.7702947003255816
1.294154671629303

