0.6821054019797395
-1.0070957243702197
0.7159264825296784
-0.1538850100395047
0.1512382437798303
0.0964485139752662
0.1095897446529725
-0.0076839276561931
0.0825044642191893
0.0699892623548072
-0.0061735941269466
0.0216607568376198
0.1479728540969564
0.0685520073332983
0.1826224806958283
0.2064837058870742
0.2876870172516964
-0.0688014673037996
0.3619273912433792
0.0747305621687701
-0.0701189236879399
0.1146515476384713
0.2526407955377107
0.1419865119313307
0.3081223272313104
0.3855425412883892
0.4827279931433204
0.1334470093602696
0.6598428033646088
-0.4582610332171335
-0.6492957926609679
1.7868784448981736
-0.1737609964890096
-0.5741869240143542
0.3880447000426296
0.259638282394894
0.0984931521389672
0.2239203034271278
0.1555155090989822
0.0638709453363684

0.287623768898702
0.0330912840047017
0.0381923570987218
0.1888474696199395
0.1836404138205006
0.223607232231374
0.1589344004417237
0.0867530822819225
0.0647119104850992
0.0664328633778471
0.0347275887641232
0.0350743236957575
0.1297552821762802
0.1369741013345547
0.1724413714618784
0.2893503849023131
0.3063291325339046
0.1048309115862787
0.2252328459383828
0.1391370646639358
-0.0177632027367419
0.093504072065258
0.2076377833662212
0.2189311371036074
0.2598959416439654
0.370648956935823
0.3913194630117805
0.1642593797032687
0.2597058397448039
0.1701075227042098
-0.0177033535944058
-0.11919177708602
0.0379129010922821
0.1622260443138669
0.1439655827088065
0.1003486687850785
0.1665603332219953
0.2640910377173849
0.1748276280665307
0.2940781356925669

-1.728354430787678
0.4877667146848528
-0.3532606965003864
-0.8217527133731377
-0.6353415683019588
-0.8913806673039627
-0.5129654033484723
-0.3400030119581591
-0.42014120963802
-0.1299365057994852
0.0732536924605386
-0.0431324295402408
-0.5330238816121984
-0.1284796259658557
-0.3988506351876714
-0.4944395961619106
-0.5748168515267336
-0.0959152846299336
-0.3389084263671303
-0.4118765119765727
0.2855477661397572
-0.3134126366025423
-0.5210855269573246
-0.3067276942898497
-0.6663717913114641
-0.8278218740738773
-1.0291727465644664
-0.3728313980414934
-0.554434777198182
-0.5866975882054645
0.142590970014819
0.0299541824694816
-0.3728064243479894
-0.5300069947618515
-0.3275790955230916
-0.581394982143487
-0.7150611236924225
-1.108783566114799
-0.7870987501451261
-1.212555977130885

-0.7740487040997541
0.9422541274523556
-0.3756579910752254
0.0419903098336165
0.0120503754371084
-0.0096391765544496
0.0115101926568736
-0.0189177691240358
0.008846384843653
0.0064063837777209
0.0060337279060897
-0.0068946430441179
-0.0279722140519154
0.0575290527426172
-0.0703675636108967
0.1114605472994846
-0.3371539096670605
1.2423972313896792
-1.467984283171232
-3.049669991230708
3.487249564116345
8.198401748279045
-17.236821215428073
13.272658559926448
-4.826358498561914
2.130001692394236
0.010981591413605
0.708628007380663
-0.1944105678389244
0.5916205405904174
-0.0129551888016441
-0.1310976542193831
0.1872449165366071
0.319364352828365
0.0982379706588919
0.371011618444442
0.2986882983484801
0.6328160878975775
0.274332597015033
0.8884379457580688

