-0.0517254495498129
-0.0666887792552409
0.01151015809351
-0.0380091673490837
-0.053062095803959
0.0354048814589943
0.0911931596914109
-0.0383239605910183
-0.0458839501615571
0.0855359669242403
0.0180864763557272
0.0621686315953276
0.0871309026866708
0.1217148658291678
0.0148633547881268
0.1806683485906136
-0.1072081513934481
-0.1420207689186171
0.3277864280907052
0.080645829126971
0.0024699519435925
0.0710672737747945
0.1845444020632551
0.2078315536966338
0.2694162090742017
0.3698855803837018
0.0494994917396482
0.2218124198616512
0.5972776887784224
-0.4254638924504516
-0.5613474259282054
1.529271387625843
-0.6488024101824753
0.4114676844243407
0.154041493267179
0.1994770740157921
0.0798963060654444
0.02525443737648
0.409958108331082
-0.4805561268492577

0.3663407209843295
0.2069586850228711
0.1498132283401912
0.1178133573276094
0.0816873217147735
0.0391183074666192
0.028508605723069
0.0235585061561287
0.0536580743108641
0.1157724550208457
0.1307044184719211
0.1602081305316464
0.2475155777695512
0.2884187174030693
0.0883472145537864
0.0802562688289312
0.1312130146998728
0.1290925139445793
0.1159427368181339
0.1029910596043231
0.092214300930722
0.1674983037599366
0.247317018121798
0.3167756199682666
0.4160103898668454
0.424536355378431
0.2319356740904504
0.2239032108519281
0.1527662870192347
0.0496434827515311
0.0267186651358725
0.057652042202308
0.1484857530023784
0.1763831286074444
0.214649004736386
0.2784810727928188
0.2128066977672934
0.0333365652312117
0.0826209817323141
0.2745087548921354

-1.5935266827097725
-0.8814128454704313
-0.6272696257594688
-0.4516346490224495
-0.6783016789825265
0.136102954639275
0.0296459496550254
-0.0740774541868628
-0.2447821177822547
-0.5432539841797301
-0.0969366324321584
-0.5293710731654204
-0.508275802711943
-0.6677989508077844
-0.0952874811633342
-0.131619131471314
-0.8469287782274642
0.1238525482680815
0.5046675206497265
-0.5470044137946057
-0.3241396478178183
-0.3705686886906524
-0.3396416149472841
-0.7447451906089769
-0.8355745008650043
-1.0985851644523763
-0.2950951241353962
-0.6850739581354042
-0.7297099712799223
0.27870601793269
-0.0583679207224638
-0.8825324476483765
-0.436210932691546
-0.6786092002485267
-1.0434950420606943
-1.163307848651009
-0.988679459333527
-0.5062847341713259
0.6492115607058677
-1.894593820345073

0.0128679884431605
-0.0083568901085778
0.0017611193821283
0.0045777640738964
0.0045302280821473
-0.0058017787113014
-0.0071655073758371
-0.0006274338160544
0.0054745049772226
0.0038280446047488
-0.0027791730323544
-0.0024231978571996
0.0012290143649367
0.0057074868800124
-0.0096782712390053
0.0077634685277787
0.0066941000433224
-0.0046234296761993
-0.0071653548620744
-0.001487494186873
0.0046722520475276
0.0039110781071517
-0.0022836784566144
-0.0026040235670277
0.0011812004348506
0.0051295078485648
-0.0077673445455887
0.0069184343013711
0.0041670420035001
-0.0061269791942565
-0.0044853143626846
0.0034034775699439
0.0039611586201547
-0.0026660726222274
-0.0019652418421652
0.002803531980337
0.0167967475362283
-0.0327297409696809
-0.0217386516081002
0.0466832847817467

