-0.5963555029632106
-0.0965290047860322
-0.2169968979299028
-0.399499109779264
-0.3999237263631983
-0.2449127058234935
-0.187647562464471
-0.1897388346178802
-0.0483139139588086
0.0096267324070127
-0.0366631819628213
-0.1022775385877242
-0.1423123921960305
-0.116705363746394
-0.1387676583805743
-0.1909336217847624
-0.1994617680971136
-0.1226982934682965
-0.0944168054403432
-0.0813854853227142
-0.0275905530607088
-0.0050460375058276
-0.0225832138240904
-0.0613563848996544
-0.064504916728324
-0.0736712422389101
-0.1139232492830725
-0.070664616156465
-0.1199345415537022
-0.0719122136107799
0.1775776375968799
-0.0181869300589338
-0.1617919481997231
-0.1251095331686996
-0.115052860383865
-0.2522084922483005
-0.337758538378649
-0.4850214775070093
-0.0046852922981044
-0.6874019213749253

0.2524562980116095
0.1177647377817098
0.1375183568620634
0.2716760750796091
0.3485536395610911
0.2321192202667134
0.1500905966891321
0.1427160254402679
0.0915016435669942
0.0789040922293358
0.1050397903491495
0.1486970212151262
0.1970680483361279
0.2379433422752185
0.2979636259087892
0.3896138066865575
0.4235851561785919
0.2781033678477726
0.1942640893021509
0.1458908125835283
0.0499509835128424
0.0267359799194976
0.0889052021883565
0.1578446528908072
0.1836008874670602
0.2257361763088841
0.304365509202431
0.2787430792292817
0.1069689699066407
0.1293831622945206
0.1184851063983284
0.0809770479458737
0.0855313479927224
0.1307623676476687
0.1794602631228801
0.223696865654016
0.3075654912759564
0.3169536751803232
0.1298319281633734
0.3076180067565881

-1.008839730715874
-0.1144516241218362
-0.5926649632904019
-0.7710942926112477
-0.9249713384585686
-0.5473761762714271
-0.3647043936072106
-0.5597606864300426
-0.1001598675778047
0.0511050077624328
-0.1075915218326048
-0.3201459826956672
-0.3642136422162285
-0.2860958411872927
-0.4435165835492453
-0.5589964923601599
-0.6506639247357593
-0.4213733424925389
-0.2366983239574041
-0.4124535504883991
-0.0616199110006905
0.0093980400297183
-0.282385203579357
-0.4361046284836908
-0.3874288950854749
-0.6679835683118541
-0.835486091738723
-0.9360496681665026
-0.1549725122676626
-0.4845617790139211
-0.5887413926668853
-0.1750282393529724
-0.1266239691893778
-0.4804958416981096
-0.6086201487143419
-0.6944142208913053
-0.9382770517824076
-1.1092919039898923
-0.2022630634400301
-1.1643634564118468

-0.6976817475940028
0.8439575234076615
-0.4196327550847593
0.1405591216840692
-0.0517039899928299
0.0365261290532848
-0.0376140427517879
0.0151083841859866
0.0089971825220441
-0.0023506210092845
-0.0045884695269237
-0.0011016020773599
0.0017409812332975
0.0011292814813093
-0.0016963728746474
0.0015599449563523
-0.0025652445282377
0.0071090472925918
-0.009384117676827
-0.0215111613621044
0.0153059143994289
0.0561440871998658
-0.0122032808027288
-0.1577110575951701
0.2666632371065638
-0.3047151455380597
0.4758060293548714
-1.543343627953371
7.78239328752587
-23.99852860247883
25.777759745870807
-4.30686430974193
-6.977151668054591
3.0160106464188856
1.2700563429737548
-0.4863390352362998
0.8165577404050015
0.5882625798763614
-0.0698383742050736
1.0254595625449576

