0.4200930614150183
-0.4472008812069279
0.3431881334277978
-0.0015261726844126
0.1518455676392769
0.0478518636527035
0.0609584342774701
0.0846348195638211
-0.0476820250444096
0.0336440991266509
0.0458669279650529
0.0323813206242334
0.0999015443773057
0.0662684105311005
0.1353420773109658
0.1889593220893859
0.245786514034277
0.1979454117854369
0.0020413096620546
0.2957829216370625
0.0536301580234716
-0.0389728305946061
0.158562684159389
0.2390283827100362
0.1779305900621728
0.348288166612027
0.4313854957271837
0.437056883841549
0.2177399313262264
0.1650104589609761
-0.2655831107677621
0.972917291229969
-0.2123468007504238
-0.0464224304485375
0.4149265385376782
0.1290887049209726
0.2885857373606814
0.1843339954617888
0.1990680069000757
-0.0231457339240872

0.2713953547590855
0.0604853748841881
0.1221953354633293
0.224724399593282
0.2243473919893205
0.1426040896232351
0.1226850934711065
0.0798546575908405
0.0040332275913116
0.0247975524193622
0.0335966372037957
0.0454566263099132
0.1102775999555985
0.1142847292126304
0.1247514655323886
0.2460366605748116
0.3227664595509468
0.2203731521015766
0.1618267292352709
0.1672168821867041
0.0371175304279158
0.0629034166175784
0.1466447905273754
0.1984104743997396
0.2164507585093066
0.2944814305281006
0.3792225319357327
0.3256420207762143
0.1784986566720053
0.1960186166093303
0.0635262405072742
-0.0376466323690623
0.0562365035088197
0.1465258136480056
0.1498519106109067
0.1655758404899648
0.2470229065056797
0.2743060068522542
0.0719042080539509
0.2987909519393083

-1.574944808852767
0.3585496980920723
-0.8921567448880152
-0.7435318857753264
-0.9439137510689176
-0.471257816551701
-0.4330054437719091
-0.6071098243621398
0.1733651370016702
0.0091931436925294
-0.0839386512863403
-0.0694412009244995
-0.4213652048511044
-0.1547024475761962
-0.2255814640994959
-0.4758128995145385
-0.5251259377451808
-0.4439591939509099
0.01335971153684
-0.6113305498552302
0.0918968647086416
-0.0923256947632261
-0.391406842406392
-0.405934494366455
-0.4328641630749752
-0.7445424751765984
-0.9032373443884976
-0.9941299632657078
-0.1479092092423358
-0.8539087688018454
-0.2248025144732278
0.0483100778699729
-0.3297014494278032
-0.6251412426945802
-0.4680445044536054
-0.8143604830662546
-0.9900895670915812
-1.2561558097688406
-0.1786585995145333
-1.3633196536534784

-0.7088790445218691
0.8556087497224225
-0.4244953918534386
0.1421153403869221
-0.0528479734809444
0.0396844231639488
-0.0451357974518646
0.0117551574838156
0.0197136605491766
0.0120651886314965
-0.0077654612843007
-0.0326317601506464
-0.0125335829879743
0.0961082116887608
-0.1296219381014418
0.1487783379669959
-0.2727649275475176
0.8547742467699568
-1.7799885100326758
-2.0731093592965992
6.119036261245459
5.793294334269596
-22.50449068413221
21.31800388174999
-9.12186390967578
3.178031287062462
-0.2283438821017918
0.9312210586901096
-0.3210198718192301
0.9207510071645914
0.0723370836434148
-0.2930647604767135
0.2384379829998057
0.4785616166090586
0.0890494883437161
0.4906349149210197
0.4538019326213995
0.7258589230185676
-0.1667624069035184
1.082070566153495

