-0.3196915204769411
-0.0047768180741655
-0.1292712356095055
-0.2410009314028085
0.033626403826449
0.1087031584891709
-0.0857415788581546
-0.0886663178322363
-0.0449386284388072
-0.0632290886608671
-0.018693312901681
-0.0396437893641827
0.0088889405589491
-0.0036479775632935
-0.0151889140056016
0.0408498677396558
0.0409150486294292
0.0217313098811072
0.0798363141321389
0.1065799235286113
0.1478696500436555
0.2052285682400475
0.1439463208694824
0.0600007644353588
0.1524226290785425
0.0491243597243928
0.0171430268720065
0.1038074331849902
0.1631572553574536
0.1660917998121795
0.2614567207340887
0.2950944184659769
0.2347660329037317
0.1057502761809705
0.2372556618714497
-0.0150749958231599
-0.1508639442270412
-0.0074776245171023
0.2081028348702551
-0.3991181097422261

0.1399879251443549
0.1759100249610146
-0.4397743088167356
0.8826691991593465
-0.0192701588214388
-0.2540922661424563
0.3304843678491035
0.2780496983398413
0.3224178691307461
0.4249856315888371
0.2196505574552354
0.0711035201646714
0.4755745025085356
-0.1054176946125211
-0.1741293269284228
0.2000328978044524
0.2167894986312786
-0.4509379824438463
0.4647226501354643
0.0837283413871475
0.2543579910874987
0.3284650723121895
0.2252348897323857
0.0482084325314821
0.4412810367154058
-0.0375186844071229
-0.1622455407992585
0.1866887273139013
0.1894144857349619
0.0137764406076694
0.0812206927272334
0.0923041130679816
0.1158889964790591
0.0160011540800144
0.0795590799683166
0.0348673993153515
0.0504786767049816
0.0719599091827209
-0.1202053961037322
0.2553218196651401

-1.4922294675991763
-0.2632888284724451
-0.1962166026891821
-1.04117761714856
-0.8723234662867648
1.129725472038008
-1.05377876546656
-0.571489192089573
-0.7546742579240351
-0.9129073471408778
-0.4783197187458217
-0.1183699118815809
-1.367285833078362
0.5280851868195225
0.9058300400808754
-0.7968764096590033
-1.0165858228719828
1.7700113662411523
-1.2071020127839058
-0.0017979924866868
-0.4669223942532406
-0.5545845338689729
-0.5418243822899061
0.2249123995772096
-1.083935499824466
0.0044287882997887
0.3217396291510232
-0.5200173619758999
-0.5589154802395361
-0.2647835447304629
-0.6542129853959191
-0.770267159346252
-0.8908293042191716
-0.1444341571822651
-0.734496590979911
0.0974382183856161
-0.3794776469574237
-1.1244181756785423
1.4405648710659142
-2.1885224221220425

-0.0044613523547486
0.0049361631272802
-0.0057787597371539
0.0043458176065972
0.000905455552148
-0.0039203992481921
0.0029218288723896
-0.0012877532247452
0.0005620635034094
-0.0004834458500035
0.0007875445447176
-0.0003154981514966
0.0009102082039313
-0.004933688244468
-0.0015815377892286
0.0072018679620804
0.0076082551681367
-0.0093083912605713
-0.0165869990861802
0.0407701964109405
-0.0611968356482861
0.1319170245248206
-0.5063284096710542
1.7393555466117292
-1.1556518056661542
-3.3271794034140827
1.8836727164272804
8.456972859975787
-13.980212230104
9.837730657469823
-3.2295377370881777
1.7280994812359762
0.0236989756112744
0.6459607064360954
0.0911856012806959
-0.1042844778588192
0.2915768316838999
0.6993313915344239
-0.9048250166307712
1.26682740899005

