-0.4931573569488414
-0.0354193142363937
-0.1755443992593265
-0.1431651282638456
-0.0348393825827305
0.0381665223964987
-0.1070553578151704
-0.1439420733246006
-0.1371635078266725
-0.1810861413398853
-0.0979562012039823
-0.0424504988068614
-0.1230019429828268
-0.0646064549670978
0.0124854785807127
0.0605527439912952
0.0241445994395438
-0.0756082368753879
-0.0258616686954039
0.0140210382037157
-0.0190234394514666
0.0108536510861337
0.0163641349826181
-0.015038134464579
0.0351114357179304
0.0251404110980157
0.0135118535304425
0.0148539527689037
0.0338459474046429
0.0649673236963965
0.1045375591392881
0.0879826217475822
0.0252157150799773
0.0453830320499306
0.1161667173257157
-0.0968707941587919
-0.2056799714612173
-0.0446250997410811
0.2602835841099507
-0.6141111507431646

0.4676682456939685
0.1105256165417214
0.0949535018316327
0.0726037680669817
0.175545597813012
0.1302893633927665
0.1771190559533782
0.3160064857908299
0.4039617942200157
0.5208411503865515
0.3240344086493098
0.1362198975598924
0.2730379433808684
0.2058133561683927
0.1094926299452958
0.0201408366411054
-0.0011358907639767
0.1435500887796078
0.200274063414223
0.161357491422774
0.2262628585695077
0.258891352698487
0.1591984417008924
0.10144914218685
0.1210941785828247
0.0441064135095751
0.037604515208718
0.0539151805975768
0.1109124429608841
0.1654132500879699
0.2216559723080197
0.3015902598099484
0.3079300414866948
0.0810177692159992
0.1827370762540901
0.1467973806405227
0.0870570093127311
0.0214289980685177
-0.0441036751320892
0.5249275359618454

-1.5593378717059965
-0.2000240492021507
-0.4628447004294628
-0.629270037704236
-0.5229263872280333
0.4764341620638561
-0.7897738609148347
-0.5581749953016306
-0.7963642817281925
-0.9038363806778604
-0.7013472777487035
0.1723955691342651
-0.9786442347572242
-0.4171787702785454
-0.0103479756069026
0.5531003878079058
0.0240830827471277
-0.9228407117568684
0.0447921756683598
-0.3806187562529253
-0.4969670050712259
-0.5571605322011696
-0.4914301198312456
0.0872335711921139
-0.7270518921040044
-0.0043266756251581
-0.0081674192599421
-0.2914809740083004
-0.5108528298282367
-0.3952794306844311
-0.8091276780613226
-0.9467936389179952
-1.0520999192987557
-0.1492246335701686
-0.9576141692388808
0.1555807022173407
-0.2931651562707094
-1.1961700428439883
1.4244350344871892
-2.214719375786612

-0.0043215880152417
0.0048271189390407
-0.0057204003946965
0.0043268057211826
0.0009419510250843
-0.0038965836181205
0.0027546399232265
-0.0010561177148329
0.0003162744859653
-0.0001246883613431
0.0003738529956481
-0.0027889815438214
0.0063886345863144
-0.0005055394360468
-0.0052094719564732
-0.0027264599792672
0.003749607235317
0.0063851064227894
-0.0074628033840252
-0.0001899143420132
0.008418441003279
-0.0263675217018932
0.1295912087696981
-0.5956466520457974
0.7844604695659708
0.8052575824531698
-1.3643666367681433
-1.8633712469986616
4.952963845986793
-4.780378479630529
3.145897419005685
-0.4533576190178618
1.0601984420379504
-0.426497022126747
0.9899449197506524
-0.182673423442991
0.0103279162777789
0.6972435597058376
-0.7555535402977073
1.2043565186042915

