-0.4251962212863226
-0.2193027994248002
-0.1188165104665055
-0.3122585612414117
-0.0844804564376567
0.1189043301915898
0.0745889778988248
-0.094491863664825
-0.1177917543652267
-0.033639792783653
-0.0094378103658959
-0.0682758879176033
-0.0475096730935653
-0.0347890205516894
-0.0133843751944431
-0.0362024169617076
-0.0054196569286804
0.0155792525808228
0.0849887840165489
0.0498784520043915
0.0252749608379486
0.1117666092452809
0.1361306975983606
0.1869355327989381
0.1520057467223922
0.0506145675625444
0.1352714005552827
0.0345653640173767
-0.0032781955936591
0.0967913598181028
0.2184289807014392
0.0541971560804741
0.1535959910718643
0.1135716097729058
0.0899979270335498
-0.079218492760995
0.1378555340079612
0.2574373317761141
0.0671301207335254
-0.7700302365152554

0.1274468818184985
0.2389997277135938
-0.3318603715325564
0.9564600199267624
0.1096851774474947
-0.7259360100751621
-0.2369442555134679
0.7851220335250008
0.3890400074613508
-0.2596774875834258
0.2106087365673202
0.3092440918397902
0.2368600093338717
0.3699309740537628
-0.1417888599055949
0.7370854093896124
0.2329666869656249
-1.391702405151571
0.7599548957844221
0.6964340964299023
-0.4461207113042509
0.4584944936335198
0.2674705219254392
0.4107233570343819
0.2852625681184583
0.1464555247721497
0.2676680191203548
-0.1579906842903632
0.1317015001124469
0.3198139486045925
-0.3776938069453353
0.2834966161434401
0.0300151275108428
0.1373887826442491
0.1308165222822285
-0.0301148040852272
0.2966711957692431
-0.0939025102788769
-0.3028501687043233
0.3965731680093376

-1.3230382695110576
-0.8691505927606822
-0.0500680013125625
-1.3971443926007945
-0.7682572977141284
0.9430490357372944
0.5317295799214807
-0.9616652906122944
-0.8061359086007651
0.1085342055826672
-0.2862290825064467
-0.6449423627693539
-0.4664701196864048
-0.7144253373723582
0.2954315900965715
-1.307708192925615
-0.7825705559634534
2.746759160586277
-0.8978339445933915
-1.5788519489034032
0.8109288381660573
-0.7450701358959034
-0.5563093408314301
-0.7977040846154767
-0.7044601925180857
-0.0511456638799122
-0.7878936311299674
0.1086516757495892
-0.2253433061850453
-0.5888676601031706
0.0417549615092987
-0.6919882268304365
-0.6647061135208282
-0.9112742609885576
-1.038968065143412
0.2477139523642734
-2.1705424610434654
0.6386212193112173
2.2088015442327533
-2.9650384263608784

-0.0021929534937623
0.0013201190311289
-0.0010301884427726
-0.0002096266321283
0.0025328222539378
-0.0016105909847039
-0.0014463939732771
0.0010465322078672
0.001056089111541
-0.0011512769134933
0.0003116732512723
0.0001053396184707
-0.000296053129581
0.0008824304816674
-0.0038107214602805
0.0090844680655572
0.0012234651482616
-0.0139914544197327
-0.0042107539189579
0.0205621975691368
-0.0020138064527139
-0.0257035211391678
0.0493411550920189
-0.1181372220602513
0.5662486555946744
-3.278725104989348
6.821122917357799
4.38897502963853
-25.070622598138986
25.77474301768491
-9.808928805417072
1.3734184643083625
0.8406787762246875
0.3203881683103876
0.7315325557318766
-0.3055758035528534
1.5078428880380643
-0.4729389349732116
-1.5126013019896374
1.9200578118481173

