-0.754183723921022
-0.3630244071158049
-0.252697355032861
-0.2769146522870477
-0.0551206416394693
0.03872819356016
-0.1535375740126906
-0.211989273301131
-0.1310066710444465
-0.2588762863271552
-0.2960350093603518
-0.3515705011576118
-0.0773123939649805
-0.2568751292089327
-0.2916010289078138
0.1371140424643777
0.2467838595898442
-0.1115258771836843
-0.2373097866279169
-0.0240101209497954
-0.0129943607890478
-0.1345178468426817
-0.0985360544252471
-0.1120747206992649
-0.0748436809608381
0.0156295034737017
0.055156008835385
-0.1170997137306547
-0.2799722172692971
0.0683171520790489
0.4448212705708099
-0.3792688398905645
-0.1135888451941809
-0.1010934273518383
-0.3015230284974377
-0.2727308463730373
-0.3161702850225517
-0.0357954925037256
0.5605537827047297
-1.207484244991191

0.3934014581170696
0.2267427241021927
0.14445449079762
0.0564619522684506
0.086325716631701
0.119454746296737
0.1538638530641209
0.1661992801918521
0.2289877513833197
0.3400804158696906
0.4631748947133753
0.533196423470486
0.2336694799158092
0.2768736037779268
0.2639799282130983
0.0907288844992068
-0.0338523119928748
0.0134193219616611
0.1323522825889696
0.1885284562786139
0.1576853805183834
0.2059323756310231
0.2968935098526687
0.3005666970229951
0.1323910711029319
0.1927951741701355
0.1325868033863979
-0.0260709988994392
-0.0582914287149698
0.0752971195078818
0.1878880228428412
0.153506645524334
0.1322874540158071
0.2320900537284643
0.2980030056079881
0.3200846036366907
0.1756195192683411
0.0702321561716559
0.0590281358177383
0.3002868184632503

-1.3111361357861682
-0.7013439666769653
-0.4173320643148236
-0.5976650503574424
-0.1808844821230767
0.0898094862567856
-0.4303552461220023
-0.4595128369402841
-0.3282076162155364
-0.6747296650719863
-0.7536530950754002
-0.9321395799475584
-0.2290364699305086
-0.4581333881565243
-1.2471774448243274
0.5785187580240794
0.9064205299122922
-0.5201921209497493
-0.8646361767577524
0.0014698546181549
-0.1750016909457105
-0.6313744766174345
-0.5640657208880279
-0.8569832610360789
-0.0864440693009142
-0.4466911507229111
-1.0406458712870383
0.3201420467607573
0.7284999995061842
-0.3325827699663986
-1.430656024076851
0.0777538782602244
-0.3911174473886093
-0.8843272463438605
-0.8746175777219798
-1.0522355398254395
-0.4010989413315325
-1.069142861358509
1.3485102894273502
-1.868683818739083

-0.0003896553787785
0.0004043873905068
-0.0009759335043503
0.0016604589736469
-0.0003527827058927
-0.001632147798623
0.0010473358888558
0.0006688401347976
-0.0010587816801448
0.0006381867081258
-0.0003696465095088
0.0004378155874188
-0.0001236862266221
-0.0062760436575735
0.0108778817825477
0.0068845957857139
-0.0076339336432067
-0.0174045464345897
0.000431180127044
0.0395746032016041
-0.0420233410523426
0.0203127640363823
0.0013670565716904
-0.0707658235902752
0.8494859704390814
-4.391100158954509
3.0221512426141057
8.572578884822896
-0.1040271007873192
-28.276106143268542
28.806095038092028
-6.471844020449802
-2.879021873490998
2.739351190259649
-0.3793750558142488
0.9235094075465846
-0.0589652908812183
0.8641116772524428
-1.0747791910370916
1.3183028199899725

