-0.0514691387666431
-0.0685262710169494
0.0178941833291908
-0.0397219274991341
-0.0182754533765999
0.0281801116157734
0.0388908212383823
-0.0231223533833624
0.0306282067754574
0.0458578496806754
0.0612069127033407
0.0944364965093202
0.0346135310357252
0.0191774086984852
0.1355224919694081
0.0246024027072099
-0.1529916078666487
0.029115782125968
0.3157101506537441
-0.0132644916349645
0.1118757798539837
0.2244966655187555
0.2422865561685974
0.3243143409586102
0.1083982363767884
0.0451157169462868
0.2214948070944417
0.1762529809597686
0.1603257363033935
-0.2432956027123236
-0.237406004472292
1.1124221333470747
-0.4284774847269553
0.3971965992066312
0.1545868697536701
0.2140080034428765
-0.0258995906303376
0.2499334719763758
0.1417086588306139
-0.3800224853116258

0.3760135879342908
0.1825310225076722
0.1295713751384256
0.1197151682877044
0.0612418476953533
0.036308716517703
0.0615684604288591
0.0870124316249871
0.1165280579230751
0.1673297541818955
0.2281519897542646
0.2598478615506342
0.1528721567679221
0.0933499056453757
0.0281957383256475
0.0408741741791594
0.1007721075273093
0.1430346801244336
0.1607283320692988
0.1696158907690739
0.1991847259798751
0.3178035914555289
0.4302661798327334
0.4424701867825433
0.2224798530041562
0.2087350239300491
0.1630888408428482
0.0881485399992798
0.0482611744816
0.0415642012625597
0.0691065863126516
0.0907643296312312
0.1461948045243704
0.1808466850325353
0.2340194493597776
0.2691853178235193
0.1213270122205001
0.0410736928965305
0.0776960626272005
0.2666343888238316

-1.6162412681349003
-0.8077937170123903
-0.3213015949262878
-1.1854965835152165
0.0588709843531805
0.4531274176827236
-0.5822387528520352
-0.5278600264006451
-0.0959135458781855
-0.6151415250850895
-0.5670485219586932
-0.7143854616538683
-0.0893181438186554
-1.1876156617176226
0.8143681044211776
0.2846409724593023
-0.9069107068375264
-0.2610900778794904
0.3033324281179081
-0.6430847348300225
-0.2651134908322813
-0.6755966498963346
-0.7790801755057385
-1.0291700833031976
-0.2319519219072602
-0.49088458955803
-0.7860175282464414
0.039314726087138
0.1087232012869479
-0.1695209757251909
-0.5606584569596093
-0.6262641730912625
-0.3425695571586814
-0.910911268826403
-1.0114567265882797
-1.1570507138131905
-0.4900257222097734
-1.1811620884486616
1.6506978261336522
-2.311363744934237

0.01328420218262
-0.0096423608709322
0.0008800581191869
0.0094693525321968
-0.0012888488074752
-0.0080833584483161
-0.0018814761541261
0.0053034776607257
0.0018346988921312
-0.0038272938212997
0.0007737652503729
0.0054268784674022
-0.0075553868746816
0.006287766153842
0.0064453399289332
-0.0048362559588262
-0.007039127947876
-0.0010204903311557
0.0049634128638059
0.0035796946762866
-0.0026338856781788
-0.0022099862941884
0.0010600966817315
0.0054700466544508
-0.0096310432631464
0.0077753300679843
0.0067206539669118
-0.0045688636051498
-0.007120026488116
-0.0015098285915914
0.0045372776103615
0.0037316456868558
-0.0020961263401505
-0.0016405444116189
-0.0021408393147122
0.0100480870773925
0.0034327149947423
-0.0248477702367783
-0.0220908854595291
0.0457050274500373

