0.272795
0.0814541
0.190177
0.0631232
0.00228383
-0.0637243
0.000921072
-0.0152317
0.0542432
0.0601903
0.0676195
0.0418157
0.0624079
0.0508103
0.00684041
-0.0608486
-0.0400312
-0.0126039
-0.0302557
-0.0960331
-0.12216
-0.052365
-0.0476699
-0.026157
-0.0537755
-0.0842844
-0.0761898
-0.201677
-0.311193
-0.192184
0.0234649
-0.403467
-0.292013
-0.115203
0.0651165
0.232263
0.295817
0.066167
-0.0241272
0.409835

-0.0738638
-0.0456835
0.00191971
-0.0177897
0.0343381
-0.0272609
0.0304043
0.0540606
-0.0123852
-0.000352975
0.0410217
0.0432056
0.0222591
0.00830835
0.0188488
-0.0133889
0.0242799
0.02394
0.00177322
0.0447597
0.0286625
0.0319352
0.00169014
0.0262398
-0.0133024
-0.0320662
0.012246
-0.0238555
-0.0767659
0.13311
-0.606863
-0.433927
0.0709969
0.407338
0.582148
0.307318
0.0484726
-0.157258
0.150966
0.0680539

-0.428552
-0.113572
-0.123125
-0.0594847
-0.0966597
-0.105414
-0.120853
-0.112899
-0.188469
-0.311988
-0.58636
-0.69126
-0.266799
-0.371262
-0.199042
-0.0485011
-0.0829027
-0.238149
-0.378008
-0.62268
-0.675988
-0.324808
-0.284184
-0.175876
-0.0325424
-0.0959165
-0.217709
-0.386784
-0.48665
-0.559166
0.523933
0.374806
-0.2699
-0.630901
-0.61288
-0.399391
-0.0477493
0.0253098
-0.460198
-0.57548

0.00313987
-0.0131071
0.00655777
0.00410145
-0.0217252
0.041052
-0.0233877
0.0230964
-0.0382036
0.0223271
-0.00468147
-0.00155364
0.00189153
0.021767
-0.0402721
-0.00556135
0.0383467
-0.0146006
-0.00128058
0.00137298
-0.00136912
0.00892202
-0.0256029
0.0284577
-0.0224995
0.020922
-0.0111877
0.00177051
-0.00273471
0.0205058
-0.0650513
-0.034845
0.015091
0.0407066
0.0403317
0.0471571
0.00536034
-0.0300863
0.0404518
0.00566138

