-1.0434850782000582
-0.1623899839354395
0.4925412098528063
0.186153958008382
-0.4654040472986202
-0.296265191237854
-0.0812542015136401
-0.3679800190531689
-0.3362480780610345
-0.231792843805769
-0.1381636303702362
-0.1958989143586442
-0.0366523980531049
0.0010584658025599
-0.0914577302156909
-0.1210098149372279
-0.0885474288681458
-0.152881675252832
-0.1739146602877848
-0.1585844152790436
-0.0452606079337871
-0.1602484054042926
-0.0001677607136437
0.0553105023002587
-0.0347049289013281
-0.0866994031474867
-0.0352365474416028
-0.0761115268014437
-0.0923819642929523
-0.1117275541403719
-0.0290424464987786
0.0426016733971985
-0.0962414835683051
-0.0682615858657061
-0.0099894697389085
-0.0422991489142803
-0.2260158895297404
-0.3673046355365525
0.2646169288588039
-0.8785314244610584

0.4025669807052423
0.0973805699083138
-0.1082969355429549
-0.0832382186221952
0.2075368987480128
0.2688975725908728
0.2109839733914861
0.3636465804296198
0.4583465816126779
0.3100936030919759
0.1763351684475665
0.2270307580972112
0.1305761253497002
0.1023160814308143
0.1616971467054118
0.2121994511142937
0.2266299144995453
0.3104264692461136
0.3759743232004967
0.3384772066006335
0.1466509180305308
0.1724308056247316
0.0701362734641993
0.0355935096344298
0.0836319077705345
0.1358102174980527
0.1646541336191288
0.1926807795016691
0.2816402272341311
0.3310405321177437
0.1595577573370884
0.1822928001801754
0.1365527108231634
0.0248233672857026
0.0031294969619127
0.0719817137236525
0.1636764715467693
0.1598954664681057
-0.0275229888639489
0.4342513428852927

-1.6460831351184126
-0.0244908948248995
0.4349289453950671
0.1735449574735741
-0.8087835270784608
-0.5121997077994566
-0.3808734367346496
-0.8221111598918139
-0.8529511706410569
-0.5957884523996041
-0.2729241553161323
-0.6342173830286584
-0.0240740002708243
0.0317250759240132
-0.3495301608350589
-0.3266995671958552
-0.2922877906165026
-0.53609279559156
-0.6254787332793397
-0.6744589068146042
-0.1334300698123573
-0.5105067257973417
-0.1327553172299244
-0.0205118776035288
-0.2757417638177477
-0.4141271748059402
-0.4123387127335765
-0.6484569823498413
-0.8682198099820787
-1.104465034780649
-0.367008089406534
-0.6820196210131766
-0.7338016455833327
0.046880216690642
0.2773911696231848
-0.0964894081630327
-0.7104455639721927
-0.9193983822141728
0.627607109707814
-1.6522332873386352

0.0053417036836557
-0.0073292918469705
-0.0014866498951919
0.0048055122275605
0.001149073379341
-0.0038907755148393
0.002285415391848
-0.0007834928656552
0.0001507419234889
0.0004224486184238
-0.0021141230510273
0.0037671660569453
-0.0016392972987538
-0.001623690635622
0.0013096825817044
0.0004061511680779
-0.0006598763210265
0.0001379222001411
0.0004841987766765
-0.0028174624809549
0.0202944656968168
-0.0655017664095609
0.0117454650778139
0.1146047418638313
-0.0085341152182318
-0.275409321574903
0.4048910295121562
-0.3754370165281009
0.4156897762543167
-0.8751112021267635
1.9607985483131456
-2.0376235290332847
1.5662300924683734
0.596878957206303
-0.4180527774378987
-0.4499973640636466
0.3250419681022384
1.081191191905822
-0.7352700406250519
1.119979390504768

