-0.8747050818016321
0.2059405153740079
-0.5362207586969386
-0.3431957757167742
-0.4721812267445088
0.0617879317084467
-0.6105185390122159
0.0045616131679414
0.2266316481014701
-0.1762876162413196
-0.3110846335691774
-0.0211444264758707
-0.2578047182313406
-0.2418542328547332
-0.2732838261889692
-0.097990998377226
-0.1333006532259343
-0.1586570645382129
0.0684986261193242
0.0903029996448409
-0.1029194644629609
-0.1200731350879002
0.0133099559838941
-0.0444945200138772
-0.1036537893332202
-0.0629817392284928
-0.1769323029620457
0.2418253100685545
-0.6929308137484929
-0.2891703685286442
1.314658279508368
-0.0696294043737359
-0.8353787106155436
-0.1729614306736694
0.3813826875681577
-0.4286448852090908
-0.1609897314485992
-0.4580801040351585
-0.2608417777446166
-0.6590273401141271

0.326411014661873
0.0821690108354299
0.2179495234141781
0.3121284277812929
0.3177253102400633
0.1404120928512579
0.1885893419640033
0.1293737654901567
0.0872804436848515
0.133375577898879
0.210323178889164
0.2732490978252151
0.3548746498407255
0.4841161875963761
0.5039451181917185
0.2749745821278143
0.2330503544396442
0.1469712363568025
0.044576551695922
0.0116529404553488
0.0325310566445951
0.0923468545308573
0.1508894753327788
0.1674967409667184
0.2042618133824609
0.2790605849129947
0.2982558604714314
0.1265058917408963
0.0840697801974498
0.0970775256044652
0.0966717727657143
0.0699223443220782
0.0648257266376555
0.0924000285739322
0.1309891250579533
0.165298517770656
0.2068249811171724
0.305736335869704
0.2066146910891934
0.366882505695462

-1.4115112912429957
0.2222627101432728
-1.0038090262041115
-0.7784869188130134
-0.9843862269442234
-0.0503827330364811
-0.9833542873956818
-0.1891908340774928
0.2302687941687176
-0.2848422816312996
-0.5731880271326222
-0.3139910503724198
-0.5750190461431692
-0.7112572902698586
-0.7694713809086517
-0.3254260032840241
-0.3390487168652659
-0.311706951157062
0.0079888189800075
-0.0002448860622765
-0.1282502262657847
-0.2809163896144874
-0.3420191239664462
-0.3145327851927042
-0.5969005579810795
-0.7292023609886797
-0.8806400087881314
-0.3901355456433723
-0.1357068407372358
-0.2750288648113624
-0.6469994150435906
-0.2410263799174127
0.0513086675416883
-0.2477775119299345
-0.5327849249469937
-0.5704900929354049
-0.5635229836667185
-1.0383256252851965
-0.6293974361392893
-1.1973607113948257

-0.1668132829934228
0.1704192402896272
-0.0771127843160565
0.026455541491874
-0.0125015032775132
0.0123916752128009
-0.009258854490021
0.000173875605114
0.0020579146983792
0.0011952026794856
-0.0016510778786012
0.0005525369410412
-0.0003581180305595
0.0007144503425856
-0.0018762707934399
0.0045194222395195
0.0055255132354438
-0.0283406477918506
-0.0175569364070603
0.0374153199424947
0.0627687549829549
-0.0343601051287869
-0.1629936506845204
0.2703092469161886
-0.2577682287580616
0.285146185058631
-0.5658495606462853
0.8031634536910075
6.961383908736521
-29.533412581759737
29.20080533574188
0.7979197271186288
-8.541676350180019
-2.5745831812215707
4.609141936248294
-0.4168194888414097
-0.0502662988113044
0.8302610580751141
0.2218669884277288
0.8573123470019519

