-0.3596016583139935
-0.047186162886048
-0.2906711237364305
-0.2513817096173646
-0.1686240251024952
-0.090940541354744
-0.124489213459372
-0.0219692815825159
0.0283790286180804
-0.0416335380431117
-0.0741481683395176
-0.0200476816881691
-0.0486441123592235
-0.0356577749683099
-0.0185664089919759
0.0109609485147753
-0.0576235375374922
-0.0263938761316898
0.1412677897734071
0.0661578243092491
-0.0347831108710545
0.1177555407869917
0.1123230094440316
0.1653551615320367
0.2097369648764714
0.0653204119075907
0.2098124122893468
0.0411898827795458
-0.2450832458404599
0.0331001876238676
0.5642894260001854
-0.0286679542768465
-0.2059587458444654
0.2247710606725217
-0.0042801857261288
0.0166955276343364
-0.0507196371337212
-0.1922858515224606
0.806077379336055
-1.0268943420191974

0.1222490835771732
0.0291901080280993
0.2444050071219539
0.297181454265139
0.2590944734605904
0.0344334415962111
0.0397775868886126
0.2268682535286715
0.1955115055962723
0.1083207062466843
0.0045730030795382
0.3125318280432906
0.2100546398296008
0.304868300873738
0.2429219565564695
0.0155378937169357
0.8676438984862871
-1.2532971133546458
0.3950886522947061
0.7133951979939559
-0.2786848444332135
0.2475021085401601
0.2949897558328183
0.348999273994574
0.3709838704000605
0.3036803308918421
-0.2876553123594564
0.2418014958989341
0.8428949984880904
0.2504341130148785
-1.4639519301963635
0.2197037731114053
0.9299892588568682
-0.5130580514862622
0.2664310140012373
0.0683563285661722
0.1429987664234299
0.0540100010763826
-0.0300781243079748
0.1846848207835956

-1.3128364535266577
-0.010915084693099
-1.1147443854344097
-0.9724809077326092
-0.8126909961642943
-0.1068391823533411
-0.8964132796651675
-0.0277416028744163
0.0696510433789355
-0.4738765859172487
-0.3159448842923782
-0.3695102330058855
-0.5141347033873032
-0.5440466838427386
-0.4779417424957632
0.1471911782268492
-2.0523581248854432
2.4191968298841893
-0.0796883316368663
-1.5261269762419931
0.2300250519559024
-0.1742496144270326
-0.667328748386152
-0.6701253169728884
-0.8570629530931948
-0.5654619742289148
0.3264581825889305
-0.7089071427785303
-1.090225423674642
-0.147254388482252
1.4776107739491848
-0.7308047441589988
-1.2470900084036296
0.2095135517461115
-0.9157173516475704
-0.7982970217090155
-1.0218704621730643
-0.4064199588060374
0.0357422445109169
-1.2446360603827178

-0.2832479148149429
0.2629400895717024
-0.1157880294078633
0.0462970888207716
-0.0328721324994965
0.0349061367302811
-0.0161336978424405
-0.0083211987554802
0.0054320432252784
0.0052763397740594
-0.004492433807531
0.0009610351719182
-0.0001617792396927
0.0005314808441711
-0.0018257710492315
0.0036760024324174
0.0083706221738368
-0.0182778124541507
-0.0176611884748041
0.0302624885287144
0.0460567974362663
-0.1280365757261687
0.1610282391525667
-0.2204693853225651
0.5810232528968922
-2.7691423858832365
8.962549035944537
0.487062483271137
-31.269109340882235
30.89169536420741
0.9745230070182423
-9.016871288531426
-0.3130923323101595
3.666996773879734
-1.234735791882421
1.0505797863635464
0.2915200492130156
0.6873084165286798
-1.0036524057422471
1.4896246670636744

