-0.2371847410253849
-0.0639425000940781
-0.015981084288402
-0.037119829811511
-0.0757988183854689
-0.0984893798476291
-0.0968727689815552
-0.0877587753983133
-0.0501713306524883
-0.0624408334439312
-0.0162468864630568
0.0227304496866387
0.0282066912894168
0.0021132042695559
-0.0074691326015151
0.0288518609628569
0.0520999957385573
0.0760317983425088
0.1268366793794257
0.1683515228254025
0.0698031282466183
0.0752846270992493
0.0834963026007937
0.0567999555811439
0.0618948712061468
0.0923841621140009
0.1338331456435242
0.1806442267079877
0.2597306955127048
0.3313006683275521
0.2418113212662944
0.1765903133702654
0.1628744067460501
0.0247817271061359
-0.0194720876688191
0.025150595923483
0.041323044539848
-0.0410752144089276
-0.0241055089520768
-0.2493114836928115

0.8760241424821685
-1.5764004508809826
0.4798508859230161
1.182368375788486
-0.7401584397603054
0.6011973606469225
0.2148255039476478
0.4858673781208185
-0.0224731795163575
0.6547397195870779
-0.1648662317635918
-0.1276396164937767
0.3481765612038839
-0.0292583486115865
-0.002878225020106
0.1290954581801429
0.1179183268762874
0.0597425889128253
0.2270648031707897
0.2715678755375448
0.1280467146894539
0.036792872186339
0.281513011630069
0.0759917564804881
0.0566139928041833
0.0520637343356057
0.1881426313389149
0.134978591846275
0.1963041128118515
0.1609862546211623
0.1220392275381444
-0.1072794574286245
0.167610038384376
0.0426809218947056
-0.0170277289435041
0.0541930581485808
0.0375269640316625
0.1118130883504357
0.0521210696623471
0.1895916700696651

-2.656445274981214
1.988822435405312
-0.582649063932604
-0.8654530696233762
-0.3757281901398295
-0.7275375865924527
-0.8896254022904357
-1.0414571310647704
-0.1185097288858147
-1.0881594167161834
-0.1685364838489117
0.3368501236237826
-0.2646593867623299
-0.100599576985156
-0.0573899009250991
-0.2341328117541299
-0.1373001941666192
-0.0636983635119118
-0.3149330599997937
-0.4180527324278358
-0.2217128030905549
0.001716588207154
-0.5043083296388582
-0.161980673184149
-0.1412848320105482
-0.2267915443488083
-0.4564017294897124
-0.4659121851807102
-0.7278262075889008
-0.797709261804536
-0.7331018078846717
0.1948601987718545
-0.9960396889558504
-0.0226033314042665
0.0147523744110401
-0.5783375635100599
-0.1670026385753921
-0.9036475803076908
-0.4148343960483104
-1.5026857831539733

-0.0006920226420032
-0.0054380944550841
0.0028721259866183
0.0053426142118415
-0.0057002473025647
0.0024971187402977
-0.000877632882203
0.0005853278028838
-0.0009682706015423
0.0004363524679944
0.0024188868129781
-0.0019397022489866
-0.001659847891007
0.0010178036544005
0.0010342822109673
-0.0010504287427462
0.0016231285768955
-0.0030113333932754
0.0050595681721367
-0.0116568732481973
0.0260236052922552
0.0177347491822131
-0.1144807810923989
-0.0521679784905245
0.2150067108901726
0.1833737885628606
-0.7186633347875235
0.8693555099228134
-0.8877872855891775
1.2461566148947252
0.047492136272334
0.5244839409501622
0.2628801501163749
-0.0470998714860585
0.0675610631748165
0.3003456587780814
0.1543678127296349
0.4568303667703026
0.2508984899215614
0.8423507803618243

