-0.6499537224455045
-0.0589341250185168
0.3170094095322692
-0.0475329665719394
-0.3025329809240181
-0.0622387054908021
-0.2028308442787249
-0.186975566862879
-0.066808116387036
-0.1115442119099262
-0.074344285393652
0.0010443812562155
-0.0088344799690106
-0.0262951153034656
-0.0343284168492347
-0.0244945861377534
-0.0193703887240465
-0.0337982908083444
-0.0319177056289977
-0.017702206363766
-0.006125899195875
-0.0453060171054493
0.0202783310522418
0.0434889145649569
0.0200464904801072
0.0048421391517722
0.0298414900471515
0.0508097198759896
0.0702154971448323
0.1105999598284185
0.0801457200625274
0.1106949828363456
0.076697320196812
-0.0558359796374202
-0.0764178559365814
-0.0141174123871614
-0.0116529355177873
-0.2031976296262741
-0.08175410835005
-0.4420985558149715

0.4834378726520551
0.0786387388108935
-0.1210639338127766
0.0365302028786377
0.3370597803460107
0.2642285191125527
0.4064842619977178
0.4769662607867097
0.1731176267858622
0.2199672538128128
0.1980586974216967
0.0838296203904041
0.0841032884730719
0.137376624377388
0.1730572030258923
0.1588404168609259
0.1624423847995259
0.2565412620799057
0.2939611079941191
0.295144696067031
0.1425216952109761
0.1436564581617503
0.0667844177111688
0.0173595261511598
0.0466305040240163
0.098725579855599
0.1312960863642743
0.1310116815567234
0.2120597030772204
0.2796771927335402
0.221311431730537
0.1047070749850517
0.1588239678542266
0.0787378994940395
0.0492153273781912
0.0914277712256286
0.1486192307056553
0.2394799561047001
0.1617636336558254
0.4768541587626698

-2.104532623883216
0.3158913585686365
0.5923534049283339
-0.544975883040848
-0.8734157794516844
-0.4693728002679627
-0.9550575702449337
-0.9817224714757306
-0.2196111624548717
-0.6998166934312711
-0.5604004878703722
0.1869807607040242
0.1618196725249737
-0.290545372927953
-0.5017528097856634
-0.0951619462045793
-0.2005975971283328
-0.4890310224081528
-0.4774305833188371
-0.6080830607336343
-0.2006737816135582
-0.3701150150966784
-0.1857675065712385
0.0121226902898233
-0.1755779888323101
-0.3444712236878576
-0.3635221024646677
-0.4589483288990986
-0.7413015058467127
-0.9073195528145837
-0.8184711655801366
-0.0877622248628296
-0.8888549659307037
-0.1077635694256824
-0.0307356888885867
-0.4646004785227609
-0.3381423491291438
-0.8682937902884948
-0.4621193551865801
-1.5416217167386053

-0.0059749022243259
0.0013330656567183
0.0039499919806293
0.0001088105951844
-0.0028410356531232
0.0018250463243198
-0.0007487851085923
0.0004086398082738
-0.0004259250782211
-0.0002891994857812
0.002222344798476
-0.0014878246789617
-0.0013875842008432
0.0007847998620392
0.0010441281209356
-0.0003163526076548
-0.000747368148781
0.0007017703310195
-0.000303088756921
-0.0006840484110172
0.0113620249717809
-0.0624019728235147
0.06176987633781
0.0929330766217161
-0.1003803685977368
-0.2041980910658647
0.4528337911220361
-0.4599888910867062
0.4380783891820008
-0.6990073233633602
1.5395889213338416
-1.410112514263831
1.7516826214494616
-0.0447476687437264
-0.4487107006301504
0.3612763578697976
0.3095310194125789
0.3824798746890323
0.2656098875802065
0.8402824526175846

