0.4902331026622516
-1.1581317739513326
0.6776508489079462
0.0819511826476434
-0.2238854763972214
0.1094172822586683
-0.0160228578666174
0.0492878530323773
-0.0071916823745365
0.0189262997603034
0.0461707818116775
-0.0398043882620633
0.0468223996446158
0.050550994619877
0.0093921071457806
0.0826590548009476
0.0662876627479758
0.1449230749134101
0.1945023102719177
0.248519577500565
0.0959206373223163
0.1119153440598403
0.1708235320984847
0.0073216649886169
0.0282621166374102
0.1895966066960373
0.1495321983237555
0.2311410746678364
0.3126825356744061
0.4270673839453936
0.2330845099659411
0.1961978026061158
0.6321820166653195
-0.2723584226665348
-0.2097451105470387
0.2414120686952159
0.1313774202875282
-0.0958900854581567
0.0757535413228195
-0.085579013034458

0.4115892392655411
-0.0031107255475252
-0.073189761926603
0.0801983858799333
0.18613246656445
0.1409990789627651
0.2120783136462729
0.2314885480543974
0.060773294004098
0.1377961716502984
0.0939802117714147
-0.0085409568363393
0.0536100917618873
0.0660790591552061
0.0300961915217436
0.1664099303190923
0.2247828447018154
0.2693891501923329
0.3878659449689311
0.4468061589185665
0.1751986952180329
0.2107640420497667
0.1940078544497468
0.0962500947102554
0.0796556501066715
0.1592789980256097
0.2260805536486656
0.2408341630350457
0.3253984696313645
0.3508863119668271
0.2615305004415126
0.0987196932841764
0.1226829472173637
0.0567696056425219
0.0346402830571205
0.0756140075393523
0.119318627361377
0.1866716512906905
0.1253550750153852
0.3695251697499626

-3.568138454667212
2.2631730689196905
0.4400627972205997
-1.6221171191449677
-0.0683732212407051
-0.6416212297587442
-0.7338576746824407
-0.8353919319469476
-0.0321155074966866
-0.8775897024063629
-0.4028107513936178
0.849695627683419
-0.3865882188452496
-0.6185396115702452
0.5135768470597077
-0.6024607959024728
-0.2793849298621544
-0.4686587854766973
-0.621623973109332
-0.8064593377521646
-0.2689827867334886
-0.3300857312560693
-0.6182380769916025
0.0275408899455434
-0.109610665984333
-0.5740900366305325
-0.488806275995127
-0.6331642379568041
-0.9782719107827792
-1.1283568851525545
-1.015448700969792
0.0593659038574759
-1.433160855714137
0.1593207424809773
0.1260406113418244
-0.7908173918005341
-0.2516292976757923
-0.9446782134207896
-0.5011401115657818
-1.6142101223068843

-0.0058839518687937
0.0013517048656851
0.0037706076454693
-8.006428092718181e-05
-0.0021500822761802
0.0009349570382899
0.0004076100593097
-0.0020847269425515
0.0052216772642491
0.0030896364593046
-0.0215462693500524
-0.0137755706835017
0.0268524899340849
0.0466493570410987
-0.0213728504109671
-0.1147413810360684
0.1733500809542892
-0.1460264997779829
0.1336521959247934
-0.1876975526932652
-0.4931417389621108
8.802400969355144
-26.692386770968465
26.617273660313472
-4.435324782210791
-6.957877322204853
4.643076323314696
-0.5948090097075198
0.5595304941332021
0.573737839207911
0.4765710928643821
0.0259164112108858
0.6453125885284241
-0.1025271097672818
-0.0423139557667828
0.4064939163729905
0.078349250752944
0.4997440635594979
0.2343274580684864
0.8470045426293366

