-0.2652434276567961
0.0384190826384823
-0.1422200589970488
-0.1198091843516841
0.0407791615512395
0.0559470602249523
-0.0355650767179926
-0.0908184400948189
-0.0240576264523637
-0.0283690668862186
-0.0386792110840856
-0.0129239016498729
-0.0016384977916605
-0.0169270882904461
-0.0159282013472735
0.0163936638336081
0.0193816391988058
0.0262923909402226
0.0812179397592999
0.0681956482621026
0.0717716707487587
0.1507713886223321
0.192303069696107
0.2382510693368382
0.1008125036786058
0.133777828565207
0.1001507119433927
0.0311750802621487
0.0508011479434731
0.1369557374795454
0.2118900750976784
0.1440572889411911
0.226009823433781
0.220177933584405
0.1266598891035078
0.0692991236655383
0.0865806891785512
0.0686377798000404
0.0261140093578404
-0.4037986967709842

0.6260633526332773
-1.5591770155248834
0.2108092096657169
2.4565301195032805
-0.6647454095530454
-1.2282297975175394
0.2817734733305778
1.0402039093087925
-0.3227003964113556
0.4358587660841814
0.2944891146908507
0.37315439569204
0.1639519611988978
-0.1124631980724472
0.4096916513615153
0.6881277888727032
-0.1267475282685592
-1.7335752403857765
1.0451327495513745
0.8296454172977223
-0.6328767948419755
0.5447143404078553
0.1997005794319802
0.3991645578223731
0.0390820706995726
0.4542907204652513
-0.0410134186134696
-0.1981244338507352
0.2269843430341681
0.2989084590388336
-0.3563075916087431
0.2568543175297907
0.0362793019488023
0.1370719521541751
0.1089550858535351
-0.0588969586756213
0.3072984737102458
-0.0307178009827862
-0.3257889126560419
0.3973528960604474

-1.9611686988359596
2.324123103990309
-2.475731684547549
-0.6306941833391589
0.0701037377834231
0.8182585270985847
-0.4515068137997409
-1.1616923413618416
0.0496405647531654
-0.7733760090693002
-0.6721284993670384
-0.7503522736678727
-0.3239052276850639
0.0742835970784216
-0.4573578391892239
-1.407974856735375
-0.1501379247161929
3.468021888718395
-1.432529844258522
-1.8904099762076083
1.2351921338708964
-0.9642952438967664
-0.4085496032477525
-0.8000983137917587
-0.1724120143430699
-0.6271138583243888
-0.2191596849310404
0.2065872603109844
-0.4500362645461739
-0.5880336358901666
0.1096628672635918
-0.7356621220090679
-0.676882842437503
-0.9195882595684302
-0.8860649105880216
0.4903767313647765
-2.2722560643491065
0.1839882252549388
2.4139187896138328
-3.040960754626554

0.0013755309653197
-0.0057816512531411
0.0079303609061065
-0.001010091285296
-0.0038457217436853
-0.0001730364364443
0.0023895598836177
-3.6646492799639896e-05
-0.0012937052429733
0.0010492205937124
-0.0008713658514512
0.0015772314025921
-0.0038618041835873
0.0001673057899449
0.0138729167482119
0.0022676930762211
-0.0170168727243311
-0.0202680455849195
0.0159089533024671
0.0549016769657285
-0.0927573871048735
0.0831637073181269
-0.0806312816627533
0.1290510653476057
0.0361043546509386
-2.9067463539591847
6.605817412924282
4.458172643951472
-24.2634588703926
25.20419169479957
-10.717835553610682
2.702332464471724
0.1937829410601105
0.5943022592034412
0.5359590480591191
-0.3062652620144975
1.3903380234992744
-0.1607493675714234
-1.446681721086088
1.7808191162563505

