-0.7351190862655816
-0.3346099967723198
-0.4625257341915877
0.1177879007863594
-0.5557775871649091
0.0276048158689926
0.1070332939891303
-0.1828401375497609
-0.2476637919147682
-0.1111469214955279
-0.2892059049262895
-0.2894240847474535
-0.3269778336385843
0.0531600762985326
-0.5386939228663181
0.0594891163690421
0.3230048302111984
-0.2086270707743187
-0.2262745187308905
0.0628132582922337
-0.1621186323385652
-0.1100254178865533
-0.1435863996387556
-0.0170834756033216
-0.1832151178256832
0.0008189715238449
0.2091320525765
-0.0177261921773083
-0.3558851475548228
-0.0418260818359378
0.422519394834921
-0.4190414941928584
-0.0227092470468825
-0.2412534259804399
-0.3056656746763961
0.0185787949933091
-0.6829328155006337
0.2949847569559006
1.0679847881043152
-1.6710569886742508

0.3824277938289162
0.2093483889892819
0.2665818457721831
-0.020868994105289
0.1305380095351226
0.152507696400611
0.1362967336323418
0.114446046764233
0.180750122644139
0.2905045113745419
0.3774955369450601
0.5050654278508626
0.4891752728868016
0.1655499909020395
0.3796624679820085
0.1685877060270491
-0.0475129237032777
0.0469171317083612
0.2106668231975475
0.2069400548788918
0.2047960948837831
0.3076649499784257
0.3357400472971379
0.1325709071394265
0.1859438304075362
0.1704914066664748
0.0460673981264859
-0.0707585913000132
-0.0218342571933075
0.1682937445135576
0.2196428929515485
0.1214352968702643
0.2340986241545391
0.3119329011401893
0.3162557911406273
0.1676000423726069
0.146915615370993
0.0108824789831258
-0.0091990793539374
0.3280711922175928

-1.2817431733923226
-0.6261639551463699
-0.9512369101627566
0.3344298606195902
-1.16073188977417
-0.0687789327627426
0.1358403239948161
-0.3333022173314438
-0.5897680221268433
-0.3395140221562592
-0.7225287218720811
-0.7691216643593688
-0.8833734243475281
0.169746788423165
-1.4913418667092628
0.2112659953588625
0.7794866515672719
-0.6032619767061704
-0.6598215839759878
0.0331868274011589
-0.6161487316298163
-0.5943301235252455
-0.7903517300465107
-0.3517261080081856
-0.1040640613696136
-0.7789399014904396
-0.2100926163231628
0.3149531863705737
0.0378463172363885
-0.5836028330666587
-0.842773723432189
-0.1037950514992689
-0.9519381113062524
-0.8694363563855482
-1.168582301040682
0.002623608535443
-1.6974739109087966
0.1965591885240986
1.8879565918600851
-2.449504352135332

-0.0068053048862317
0.0038093475097339
-0.002317259186959
0.0007859362465856
0.0024811074534227
-0.0024917016359438
-0.0011178318721632
0.0020191301443157
-0.0002582626036376
-0.0006307788533606
0.0005514619201042
-0.0005227603932977
0.0011093633344652
-0.0019447597122392
-0.0037119325231523
0.0060763804242861
0.0106611068335197
-0.0092820213484027
-0.0307846668580676
0.0641571780438876
-0.071879462116245
0.0903640363808953
-0.2164271652078604
0.7709445399233961
-1.0361848513451382
-3.005787787543101
1.769455189056609
7.199728741129503
2.519580472971128
-24.462816395518036
25.209076237022984
-10.704470834387562
3.221381104399242
-0.1656743932166547
0.8429991771297359
-0.1830694894519451
1.1371810760131762
-0.2070742710837667
-1.3624149373415249
1.7557052748177124

