-0.14690740
-0.07145366
-0.42139601
-0.27088416
0.00676715
0.06842273
0.02178089
-0.06412186
-0.25455632
-0.09724788
-0.26186232
-0.25957107
-0.09989991
-0.09238161
-0.01807273
0.03050936
-0.09975473
-0.14943974
-0.11716119
-0.31296632
-0.35834134
-0.15875202
-0.15614795
-0.09601293
-0.04688332
-0.12396664
-0.18510729
-0.35889039
-0.51154759
-0.45850125
-0.07372648
-0.28669692
-0.11209542
0.00292998
0.01896937
-0.07277562
-0.21029253
-0.31795459
-0.23419288
-0.62754457
-0.53973672
-0.03822432
0.08326557
-0.35868101
0.06732209
0.19601977
0.21427693
0.25159830
0.21128719
-0.00994149
0.36441880
0.53455681
0.52896079
0.38034240
-0.03855713
0.16308953
0.03388452
0.05293546
0.18372006
0.15785422
0.34116068
0.37064471
0.15107117
0.20783605
0.03447127
0.00233457
0.10582553
0.11634095
0.20514239
0.27859232
0.22872397
0.04275880
0.15925295
0.09207295
-0.08678819
0.01939541
0.00973664
0.01403122
0.08469380
0.01879583
0.04527942
0.02477399
0.20326985
-0.47622355
0.17296412
0.12682310
-0.17813931
-0.28859561
-0.37024789
-0.39480332
-0.28040208
-0.55324234
-1.22469734
-1.32804681
-0.70335340
-0.54788725
-0.31543792
-0.01803501
-0.17598184
-0.67341538
-0.52019463
-1.13964299
-1.23658816
-0.53774851
-0.64246111
-0.15062049
-0.02246423
-0.34757931
-0.42359876
-0.74588097
-1.02870981
-0.86273229
-0.16393848
-0.59084303
-0.22005139
0.14184793
0.02059043
-0.09154163
-0.18754859
-0.38725625
-0.21965092
-0.52826802
-0.60615728
-0.59298042
0.14089832
-0.00916906
-0.02758562
-0.01860523
-0.00566962
0.00512675
0.01161950
0.00604360
-0.00504781
0.01220340
0.01556025
0.01128940
0.03083416
-0.03413351
-0.03695441
0.08683066
0.09474965
0.07657553
0.27955555
0.36426471
0.15829879
0.09501031
0.19819965
0.14398036
0.19249269
0.24945811
0.54264718
0.72075770
0.60734097
0.07291202
0.50299582
0.22389472
-0.09656685
-0.15243114
-0.05963656
0.03212100
0.20014588
0.02113519
0.04440033
0.58202207
