0.01341482
0.07847297
0.12172705
-0.02119153
-0.06509171
-0.07140176
0.05578710
0.16364743
0.13865838
0.09907875
0.35503431
0.41096706
0.21518900
0.18834638
0.08898376
0.06414757
0.14069449
0.24219057
0.27783346
0.56407506
0.63604752
0.29777924
0.26261243
0.15465539
0.07717267
0.14752895
0.22618146
0.41953660
0.55726992
0.44931596
0.14490270
0.23321366
0.10323623
-0.00213660
-0.01598580
0.00797855
0.06194989
0.14744970
0.08962439
0.15662892
0.11231779
0.12888136
0.06568845
-0.00088434
0.05090150
0.09693537
0.20602192
0.14805322
0.09173490
0.14165287
0.26992553
0.53761999
0.58778345
0.29368184
0.28427775
0.11964352
0.04050642
0.03644564
0.18053936
0.18983295
0.28423015
0.26766623
0.18395243
0.14697029
-0.15875066
-0.02390158
0.10576354
0.09422248
0.13303845
0.22616696
0.19965857
0.06533962
0.09170715
0.02512770
0.01715811
0.02432519
0.05573251
0.08609306
0.11908291
0.13133780
0.27992092
0.19595846
-0.38948045
-0.38850032
-0.50036949
-0.28731186
-0.09602603
-0.11482857
-0.17676520
-0.31113932
-0.51573732
-0.56479633
-1.20715932
-1.33984100
-0.64885405
-0.63084362
-0.29697760
-0.06961367
-0.12449317
-0.50500884
-0.52169226
-0.90716075
-0.95579079
-0.51862272
-0.44049587
0.07102563
-0.02232258
-0.30598389
-0.41889265
-0.69429651
-1.05398799
-0.91780430
-0.28158021
-0.41304323
-0.17648030
-0.05855279
-0.07133348
-0.20665426
-0.38097859
-0.57537817
-0.55596833
-1.27128244
-0.97804271
-0.16492393
0.02058831
0.00598284
-0.00091375
-0.00328433
-0.00296315
-0.00114385
0.00101095
0.00182703
-0.00064609
0.00000617
0.00007378
-0.00034133
0.00080419
-0.00017064
-0.00074544
-0.00000981
0.00086260
-0.00064909
0.00079373
0.00101378
0.00197215
0.00417914
0.00168909
-0.01722361
-0.00994917
0.09966666
0.20921020
0.40032916
0.48868985
-0.18545969
0.26462496
0.52997627
0.40803843
0.08345775
-0.21405436
-0.28396777
0.21110651
0.10891597
0.00240093
0.17775441
