-0.5198440080956462
0.1014297884663303
-0.0221359491851428
-0.2572994182972459
-0.1394336693002446
-0.2176925322231526
-0.1723923825848503
-0.07007057018398
-0.1485217325686889
-0.0213889162635201
0.0442693902747432
-0.0044517382277099
-0.0500422667681389
-0.0213275763550358
-0.0003027231415064
0.0024416268169365
0.0473130508290733
0.0058703179442523
0.0039349625643884
0.0775298273843661
0.0200438285576108
0.0131928045009239
0.0463449615470237
0.0725511499033133
0.0761975346284553
0.0922985665473982
0.1602521167312738
0.1915655022247677
0.2716634163627037
-0.0209349064122101
0.2870191830517827
0.2266808858514396
-0.0371493020833526
-0.1114342635957402
-0.0325244204380937
0.0680395478970357
0.0251201144825093
-0.1986768373120115
0.018293230169803
-0.4198963603847246

0.1490129990727982
-0.1460125933426237
0.1780887563363865
0.2813843491417905
0.1767487407979586
0.352231955076466
0.3389614219303625
0.0861278826009769
0.3215818969165286
0.1733757248267899
-0.0687531532364574
0.0611026424666352
0.21655148428091
0.131855639780806
0.1736010063463475
0.2193511180541034
0.2598078584371624
0.043929239129774
0.0482230176656198
0.1761614666169806
0.075257856279113
0.0531071380974168
0.1108542477719313
0.1434803920878214
0.1439374626028131
0.1545006982833946
0.2193857222888709
0.27247406082169
0.2046909961511181
0.2193402386295495
0.0060789657731033
-0.1014128615640692
0.0226167619250491
0.0734480575932639
0.0622274939498054
0.026070573661721
0.0235102216561171
0.0978080193074824
0.0355105615130171
0.1846103766091812

-2.648811517324559
2.269458768592723
-1.433072798959179
-0.6290158207922181
-0.686820895656642
-0.9954558958540513
-1.0322629720324372
0.1119762152662484
-1.4307340402097817
-0.2440581121785437
0.8681580136788009
-0.3982515665175117
-0.8763436717935793
0.1950165041178309
-0.4856079075912832
-0.3324551031935445
-0.3825768294427108
-0.2229444074825305
0.4528827220712022
-0.6104004951286433
-0.2084100585557976
0.0306125555769641
-0.179852705988676
-0.3213547994930423
-0.3416193526141819
-0.3744778865433871
-0.6264842026646659
-0.7963394190244446
-0.8644315164052758
-0.4382677746604678
-0.3485107369342324
-0.1694301101307974
-0.0613252688065992
-0.1628238375501801
-0.4643188104653084
-0.3278850299991796
0.1477054640821006
-1.207702717739382
-0.017948333800081
-1.524163097014104

-0.0007488599245177
-0.0030350489679158
0.0055092737963173
-0.0036059701713008
0.001414371484457
-0.0005472460428429
0.0005201185120183
-0.0013145237636549
0.0022254863737863
-0.0007613717174268
-0.001417395039174
0.0011360339914672
-0.0001679057967381
0.0003120664118188
-0.0007364224198774
0.0011259947690287
-0.0024206617193325
0.0032656195849895
0.0265097271932892
-0.062525199228083
-0.0493289027118891
0.0721605692691794
0.1434445754318418
-0.0569079054169407
-0.3662071901776757
0.5813764111002122
-0.5515947317778219
0.6175628090209754
-1.2389354126062149
2.5377160635876743
-2.4541834786336474
1.299640187067076
0.6494338897265974
-0.1533761831991262
-0.1338850020073388
0.1751455641277516
0.1404405887507039
0.622529727401853
-0.0058863943517824
0.9012935040511636

