-0.0503127698773892
-0.0613756340781572
-0.0042425925405736
-0.0169636397518382
-0.0094389593894202
0.0021840897326977
0.0132433612434137
0.0099392920395901
0.012617851983315
0.0262593961112436
0.0348056247649029
0.0576372982711744
0.0884205555677345
0.1150636371349393
0.0547260718134266
0.0499019934294204
0.0319461436406663
0.0372195186771312
0.0911380696959074
0.0960844119755507
0.1176546125235306
0.1681852360861455
0.2480845128690229
0.3188361000235923
0.2452540984074136
0.1117938176188891
0.1498999841618429
0.100722778818461
0.088657344043155
0.0974919833738028
0.154408168740824
0.3203278213680531
0.2428308242553302
0.3159870448666095
0.2038208198199647
0.130175768977885
0.1813726278905032
0.0491778532582572
-0.0897090453069335
-0.1840372971265554

0.3629579395089733
0.1811765183902215
0.1316315527916866
0.1242719746546539
0.0822186857033827
0.034871247885292
0.0324788448480744
0.0103191856640288
0.0423415197803714
0.1343082444006417
0.1246478468165174
0.1539620038099894
0.2407069848634053
0.2943615461273394
0.1000978659780173
0.0866830081106146
0.1606319200381958
0.1364229459571862
0.1258446575284232
0.1544405179530812
0.1766828503873507
0.2988575023274492
0.3901212659626483
0.4862755290638786
0.3492270915871679
0.1979395322568047
0.2254620750567199
0.0929953610766471
0.0425664696649521
0.0848602722573093
0.1604198387433764
0.1357697352988654
0.2114915539707205
0.2666775944141978
0.2496533574639671
0.1296689454843722
0.0928625128864027
-0.0285330041749923
0.0033110414268134
0.327686432709914

-1.5933779786513669
-0.776547132792889
-0.5349783614054141
-0.5330436948675799
-0.656893200585856
0.2207253133461936
0.0001481834042827
-0.076367144551824
-0.2106983113504971
-0.5942774391556485
-0.0515854953188223
-0.5308866590046453
-0.5030328352230151
-0.6457020415418137
-0.1882342794006964
-0.0520012758468648
-0.8845912507337683
0.1916793794538928
0.3528058789619936
-0.935894418833456
-0.1331489795761901
-0.5640001890775704
-0.7996127612935233
-0.9559998839557448
-0.9187908799824932
0.151901887102162
-1.2952753089155966
0.0061737926736981
0.1523706318918298
-0.5294301301216067
-0.6838160948176418
-0.506845025541889
-0.9868679978879776
-1.1114257279966415
-1.2842364441138596
0.2961592950652927
-2.612597202184708
0.7563118648136147
2.5539366792565388
-3.323894074319444

0.014060417276001
-0.0107673743297556
0.0012927339995317
0.0067808843301812
0.0044595492371888
-0.0060159433958851
-0.007547676074083
-0.0011530117500923
0.0052339619403715
0.004203957242628
-0.0023767983375196
-0.0026713743124835
0.0011465987157725
0.0050263870266964
-0.007764857490408
0.0068967619246482
0.0041559353032136
-0.0060972629850754
-0.0044080240223416
0.0034905164134211
0.003878084114679
-0.0032415582390457
-0.0008062736413816
0.003585935359736
0.0004250152781853
-0.0033730158040224
0.0077495284563864
-0.002934363258273
-0.0057084190946581
0.0012645810326467
0.0046167621408828
-0.0012854163306761
-0.0016714866944073
-0.0006100606252986
0.0081473261881819
0.0065225564693439
-0.0033814714866328
-0.0293793325437758
-0.0205242622332338
0.0519037585919011

