-0.4251893251273104
-0.219322538270218
-0.1187996064431058
-0.3121973900181062
-0.0846369795270192
0.1189400997851589
0.0745961069902602
-0.0944517095073699
-0.1178425534816635
-0.0336426225933304
-0.0094277259155263
-0.0682976252938272
-0.047520690314752
-0.0347930823462355
-0.0134184516528988
-0.0361948249979358
-0.0053556502570218
0.0155471926438298
0.0849145866813298
0.0499254797961168
0.0252490534046298
0.1117495671016331
0.1361019792954593
0.1869032909273181
0.1519752851938534
0.0506035470139491
0.135248040341151
0.0345867818337423
-0.0032953566203488
0.0967528303306227
0.2183809418845689
0.0541563601155375
0.1535471680445379
0.1135166860420897
0.0899706840121733
-0.079234352060584
0.1377846742689576
0.2573913362363542
0.0671977697598365
-0.7698674265974266

0.1274450868685455
0.2390025816147237
-0.3318189642845873
0.9561389424080202
0.1103951412095698
-0.7261412571594209
-0.2374036962855955
0.7850955867926949
0.3896169396927104
-0.2602103542167656
0.2107529742928899
0.3091295202864514
0.2367198253901125
0.3698701801900998
-0.1423269582324137
0.7380651026439976
0.2333501349918142
-1.3944920348314438
0.7610896365864359
0.6974233939617848
-0.4475003250492115
0.4588927146445664
0.2670346338495723
0.4105721499888984
0.2848745508267781
0.147063456316031
0.2662269666448333
-0.1572026364458648
0.1319923446211619
0.3192597754479294
-0.3775975448358205
0.2834349050573645
0.0299033516260613
0.1372984829579124
0.1306927610515146
-0.0300572782116926
0.2963833044071953
-0.0937351164164487
-0.3027104554371142
0.3963301701489672

-1.3230472622646618
-0.8691245242551653
-0.0501517635576937
-1.396692869628257
-0.7691288774913129
0.9432073987284276
0.532546295912899
-0.9617978873419416
-0.806843549179074
0.1092548533240033
-0.2864231611654357
-0.6447864575862534
-0.4662555016499229
-0.7143801588147094
0.2963486956234517
-1.3093465569589566
-0.7834401992012013
2.751687925072529
-0.8998558335188802
-1.580582616605258
0.8131966789598125
-0.7457643047112682
-0.5556960618109593
-0.7975177791091335
-0.703929887539903
-0.0519811262586713
-0.7859778309263987
0.1076962345852948
-0.2258443317099218
-0.5879950902816395
0.0416141721666804
-0.6918347917148094
-0.6644730623591327
-0.911048913787066
-1.038648517408246
0.2475355113304675
-2.1697767511285866
0.6383870113416472
2.208190596820845
-2.9643179283521213

-0.0021929534937623
0.0013201190311289
-0.0010301884427726
-0.0002096266321283
0.0025328222539378
-0.0016105909847039
-0.0014463939732771
0.0010465322078672
0.001056089111541
-0.0011512769134933
0.0003116732512723
0.0001053396184707
-0.000296053129581
0.0008824304816674
-0.0038107214602805
0.0090844680655572
0.0012234651482616
-0.0139914544197327
-0.0042107539189579
0.0205621975691368
-0.0020138064527139
-0.0257035211391678
0.0493411550920189
-0.1181372220602513
0.5662486555946744
-3.278725104989348
6.821122917357799
4.38897502963853
-25.070622598138986
25.77474301768491
-9.808928805417072
1.3734184643083625
0.8406787762246875
0.3203881683103876
0.7315325557318766
-0.3055758035528534
1.5078428880380643
-0.4729389349732116
-1.5126013019896374
1.9200578118481173

