-0.4742858766710443
0.3178598940532151
-0.3623317517681513
-0.313808156945741
0.1646303826558703
0.1657267662757065
-0.1026974548010994
-0.2073849490578891
0.0058694254836478
-0.0912592680055068
-0.0886735635023451
-0.0789849575422179
-0.0119485254146302
-0.074885372355453
-0.0440302170236749
0.0706877712482155
0.03563251020103
-0.0218496966603417
0.0692341593922072
0.0720640620111894
0.1094150601222157
0.1518378521269459
0.139373430636405
0.0019482558629273
0.1709403057099707
0.0345274422751698
-0.0145955970984798
0.0909078431914794
0.1411688324186082
0.1200758211199804
0.2157029792515211
0.2206733808495496
0.1548470672503301
0.087063114825613
0.2006051541772654
-0.1225415912372305
-0.1660702125630615
0.1325605947123081
0.327253805909412
-0.7552513254335779

0.6752994738261724
-1.7256119758030126
0.2995571840138392
2.439165855369934
-0.5585604655883107
-1.2987990475327484
0.2069254278369246
1.068986546546867
-0.308327232911953
0.3914711922569991
0.293393140447943
0.3547165936561881
0.1352615959292943
0.2358431666824217
0.0407457528584079
0.0933341420406137
0.129733898354883
-0.4540900361899034
0.6487968529970011
-0.015270724917324
0.3557107026918708
0.3453202279189391
0.3618655061456908
-0.1319900474464971
0.7447130971334804
-0.1192107593491106
-0.2949923202054381
0.3157089123689755
0.1976457827108683
-0.002648769874655
0.1174404061740452
0.0966743279128983
0.1404597775892279
-0.0229103060478329
0.0999410902953645
0.122147622134001
0.035009739862742
-0.0748360997555437
-0.1612389948667131
0.3335932501696943

-2.161351889331621
3.008731259269455
-1.9699351853957343
-2.7026325721759714
1.1021782641151825
1.4118125620821365
-0.6995559884098812
-1.433903263590902
0.2718445607982718
-0.7889734488312176
-0.6357018554970268
-0.7419202185632052
-0.2158370276488334
-0.6706041790209459
0.1556549641597939
-0.1465415091539818
-0.4233016470893695
1.0107661026398804
-1.0888364169746798
0.0247056506097704
-0.5907206355243965
-0.615324700793129
-0.7033375527973078
0.2879507413043476
-1.246720984560148
0.022839337525811
0.3657993557645425
-0.5731480614420901
-0.6219138332747918
-0.2614899984877691
-0.7458227915017863
-0.7906115407838767
-1.035856113832092
0.1231604338949106
-0.656891569133306
-0.9006056904951092
-0.3637109880223689
0.5229117796216763
1.2975291458005522
-2.5867029006193185

0.0014616086879897
-0.0058745979834356
0.007371407383209
-0.0003319467713889
-0.0035219193546
-0.0006101975019487
0.0020223274456245
0.0003309665635179
-0.0010902879245989
0.0004916003270195
7.347218785765066e-06
-0.0005339694948882
0.0021025784417941
-0.0030743833355824
-0.0029761931994104
0.0012904396260675
0.010392865920411
0.0002440776929949
-0.029689671235031
0.048135573508653
-0.0613788649106861
0.1218209118407469
-0.4467761910331324
1.5209476203751644
-0.895625192923828
-3.3145610334583653
1.6998615291054124
8.43625212463366
-13.758586591970303
9.644399491021575
-3.128839405471941
1.6783459680099673
0.0975501238885524
0.4805227780640048
0.0260018614685847
0.4834778066529962
0.2852448521236548
-0.2711886041737707
-0.8246430773960467
1.5484556455253131

