-0.3041787235050006
0.0044569583394337
-0.1744442703180398
-0.117463683426308
-0.0757336989463544
-0.0898244787970535
-0.007021087694803
0.015202558977787
-0.0272580983861052
-0.0479451999601526
-0.0238645438160999
-0.0194557829320113
0.0072204408465692
-0.0206785384805493
-0.0137153490428271
0.0131120726452469
0.0141153482710994
0.0250798047316592
0.0804900285509218
0.0700279099550694
0.059967111174024
0.1349095217547581
0.1823032195539712
0.2368642841321325
0.1652984601163986
0.0956841499484507
0.1215554265536386
0.0492122063340312
0.0384562275109005
0.119220608600678
0.2079879982771032
0.1310817859089969
0.1981550488941917
0.2144847797311558
0.1536676071557348
0.0371317985256283
0.1330395297270203
0.1011191915092302
-0.0058340860149877
-0.4098071298560127

0.1683943407466221
-0.0108218889222677
0.1955190275083499
0.3501633853270572
-0.1665393137699534
0.301877214021979
0.1536156206829985
0.0752320483730583
0.1653881029500355
0.2827229735617463
0.3067172113671017
0.336709823058596
0.3396749598542866
-0.3512875314383689
0.5918707289991318
0.8472248127589121
-0.2266666953069298
-1.96396979518383
1.054231474555734
1.138219823652434
-0.8607854269602253
0.5586477890274477
0.196565133143787
0.3716395135546558
0.1957622246959603
0.2086133102453612
0.1441286723254166
-0.1518878437506191
0.1858795116496394
0.2996463373236663
-0.4294324180281226
0.3085875175719885
0.0119725423852366
0.1323455001052857
0.1345884371787843
-0.0512194474321423
0.3033155441804978
-0.0181512935821869
-0.3481759402712261
0.4088565447238976

-1.8327857235963485
0.5865624911572945
-1.393567986386392
-0.5414280713626646
-0.0135615493088165
-1.4136969795686776
-0.0933060402813241
0.5910978535612699
-0.9344751222927884
-0.4318215733212355
-0.699573943116343
-0.6830378601549411
-0.6521929951503741
0.530180157096136
-0.7811550247987317
-1.7317660003932205
-0.0264302040712318
3.896578796304006
-1.3480967964221269
-2.432976002573513
1.5053966976052098
-0.886519666876463
-0.4486505950097929
-0.7183992811705883
-0.5387431355936138
-0.1367883534544084
-0.5758557626962993
0.0917436698321034
-0.3121641922828282
-0.5428843470824528
0.1577139734747663
-0.7203007842022277
-0.6152728406445744
-0.8597906765813117
-1.0717408966814064
0.413128153484633
-2.240253100003304
0.1123263085200106
2.5589666856591813
-3.11950460292188

-0.0008243351821283
0.0001570560313831
-7.340699407168077e-05
0.0004709902635552
-0.0014937234992315
0.0022892876290816
0.000105187025235
-0.003035482597176
0.0027167567527814
-0.0010746702260351
0.000116970683384
0.0004158849052327
-0.0009053520863039
-0.003355345016827
0.0145813554053084
0.0003580316431246
-0.0161825787857469
-0.013258472449177
0.0146304153980379
0.0324089223204179
-0.0470336874085262
0.0221868521848535
0.0058412664619612
-0.0565355913092551
0.4531379091456064
-3.2286637888590484
7.010964375951506
4.208261087042856
-25.201767470099085
25.8978934055725
-9.726683066770706
1.2528137618101496
0.902348622546838
0.2821470710347425
0.7742990654603429
-0.3938972362599995
1.4915868627949964
-0.1333538331824848
-1.5822633238227393
1.8535112243139729

