-0.311348454276604
0.0585241550947184
-0.0550196903770812
-0.0965620642970082
0.0064322122681628
-0.0541569717190872
-0.070848227375264
-0.0684826616626267
-0.0793015950997589
-0.0460093847147966
-0.0387349852757823
-0.0355792520749968
0.0369864262956281
0.0127465746365504
-0.0149698764159112
0.0413056034598416
0.0483282843396138
0.0781964033743213
0.1334579888852476
0.1780375974534619
0.0839858181005508
0.0436357096694039
0.102202864398931
0.059104377804167
0.0400966959610635
0.0418328227856061
0.08174210513246
0.1314814012550502
0.1544895268075139
0.2198682667381276
0.3010058527755277
0.2942875551717486
0.0761512485752207
0.2827425848146684
0.1030560651394674
-0.1308979426779088
-0.1223396172539635
0.0981881053491923
0.2438395690726407
-0.4992013154513023

0.7612605240360503
-1.5993127662048705
0.3533261507292577
1.8073377213286728
-1.0187510597332037
0.0090393973508982
0.5498138983644993
0.1814121745945839
0.4375761583261278
0.4254201638122571
-0.0228051430360425
0.4143853893045156
0.2965595895525371
-0.3300627073261153
0.0327747506128044
0.3054677993833773
0.0136157965085554
0.0958092244263032
0.2329330108835954
0.2766214075317629
0.1975127264426315
-0.1234741599314053
0.296228819517346
0.2521002222592123
0.1115847118133105
-0.1905037772404786
0.0072657013137601
0.3485212327286421
-0.0164684539426916
0.1484417942187522
0.0710693347078145
0.1020072498796001
0.0492968685048777
-0.0148795680330631
0.0835500885541622
0.0723595050645859
0.0749135184414244
-0.0116685645685745
-0.2025774442755054
0.3331923034279045

-2.0584903539526964
1.5416007780857923
-1.0353436196256294
-0.3049623258755266
-0.5280785084094711
-0.0911495008618434
-0.7319120341390157
-0.7293696711030375
-0.9033446222896392
-0.9441031542753048
0.0469550061451005
-1.0504649548291916
-0.3284372796786363
0.5812266701332133
-0.0229239868454222
-0.6207770185138314
0.0469232670656221
-0.1157616442364517
-0.3257478581364906
-0.4262650904869217
-0.3215188170146087
0.2138236073914834
-0.5166849891207271
-0.3416237139146508
-0.1740342356091025
0.0946916992938573
-0.1769851707177178
-0.6047691529682511
-0.268263504896559
-0.6139700623315608
-0.6641528175703967
-0.8252168560468187
-0.3782515669786264
-0.0616522468668476
-0.4438404025799823
-0.4081494760393143
-0.6589589172151235
-0.0366911489324117
1.578870972842059
-2.5750561676008394

0.0011458767693433
-0.0027173206158346
0.001652544396366
0.000643989676657
-0.0005444188991684
-0.0005718403262396
0.0006573499048488
-0.000271781539415
9.48139978074963e-06
0.0003386368777921
-0.0019835806309604
0.0051836906365952
-0.001386179362479
-0.0059892011530438
0.0009659686323891
0.0095016125482294
-0.0104351769422894
0.0051786317841595
-0.0002626700720625
-0.0110714347026701
0.1327229450073493
-0.7667164220438561
0.7031571838694901
1.2062498481238333
-0.3424214496290115
-2.3942619415731348
-0.7993635735173619
6.527824933809691
-7.337510090589451
4.705075526894246
-1.1561965730170352
1.328144316091064
-0.496975093387357
0.8564215638528506
0.1563220333663158
-0.0814203774396991
0.2769086226197554
0.1531283724566345
-0.7993222281680425
1.3818359020186135

