-0.5373950213027354
-0.1902013789888003
0.2712589264578426
0.1036721011126056
-0.2688710761164808
-0.1454301156888325
-0.0141534764718714
-0.1909951726033698
-0.1646898654750563
-0.1758737190341724
-0.0380859508320496
-0.132177668037641
-0.0523409780347174
0.0192434588028058
-0.0114495743072919
-0.0456985717712946
-0.0231151446574849
-0.0315176191647289
-0.0324106103718197
-0.0245342539526575
0.0115174565241286
-0.0804041168493371
0.0126372461417088
0.0651717959888121
0.0374710491698241
-0.0055521076894298
-0.0023150191950063
0.0282937472254848
0.0589835201431162
0.0625128670971734
0.1241241176059836
0.0796225264103682
-0.0050942781581606
0.2216484030786277
-0.0070199354776997
-0.2229353293634072
-0.1801105046964409
0.1255087931353026
0.3527134085331638
-0.7558529033853636

0.4671903866766629
0.1010177382461831
-0.0869043261229176
-0.0690907290259429
0.223872523645427
0.2742843168464669
0.2086514903522099
0.3668176061564976
0.4879705065931302
0.4888935882397156
0.1713261452282826
0.2856016057897847
0.1873883691988684
0.0961678558742605
0.1258331740766368
0.1799187584581125
0.1945163313889142
0.2510960433535285
0.3106234223098537
0.3153672841771567
0.1514251441767365
0.1436531166495499
0.0744050281371442
0.0101488381598347
0.0132436251878202
0.0546863241536529
0.1044958973594646
0.0849486483020144
0.1087935756320694
0.197680197167013
0.2600114068393276
0.3124956905480113
0.0871020079798218
0.1622089559362985
0.1835479254307763
0.0911907882921911
-0.0036437902983196
-0.0696720560128513
-0.0112277919933521
0.534559847011447

-1.6608892176165058
0.0308951643646285
-0.0371139272623366
0.3603989518301493
-0.9597317726237384
-0.3982547867237592
-0.3994543567091893
-0.8382138452545088
-0.8731574807857762
-0.9952175742343344
0.0253957959933849
-1.186664490945619
-0.0249623183101617
0.3526024975461346
-0.4594597190396151
-0.3768085455895684
-0.1337770655651451
-0.4926794048066167
-0.5142277668303954
-0.6376256361959999
-0.232106736006746
-0.3351350243725709
-0.3104794819854652
0.127399638781557
0.0217653804929244
-0.2726495092383396
-0.4601809325347608
-0.1458883292599297
-0.4322405726925939
-0.6661832700638437
-0.8433294318662872
-1.022617778599107
-0.3845414213868602
-0.2771392843933674
-0.5227459286793693
-0.287396237985662
-0.5862117633976874
-0.0944742750090436
1.5199643688205766
-2.5769243272000555

0.0011456802731086
-0.0027054254371078
0.0016478475300719
0.0006219308772897
-0.0005448821459362
-0.0005180178905333
0.0005903176130797
-0.0002240188020358
-1.9528648370470943e-05
0.000294002802169
-0.0009788621156437
0.0014076069077337
-0.000610189583695
-9.578541501134596e-05
0.0010435150688306
-0.0030423738608743
0.0040228538410169
-0.0034164401938013
0.0030124139982759
-0.004006937771354
-0.014218190319812
0.1909715945187454
-0.2771874777767535
-0.3021716124515061
0.2523756132037417
0.7144241286057958
-0.0778647423193502
-1.8141133225267776
2.5129959782349727
-2.1130209062394494
1.804455821817997
-0.0783231619388276
0.8496890700925467
-0.4486100637126105
0.4052061294864668
0.3118587121697303
0.3399369710885898
-0.0227979908134377
-0.9179915891398446
1.4885888402900054

