-0.4599341127852883
0.1553151641525129
-0.1789028223491267
-0.1702565228098306
0.0527896464469437
-0.0641593993575788
-0.1366206831522491
-0.1018374586081268
-0.1402919393497384
-0.1284045715883063
-0.0460843386529842
-0.093608749092726
-0.0092570218729048
0.0101360040511097
-0.0142965400950986
0.0367487729504539
0.0145998444823826
-0.0043139152676688
0.075169791393537
0.077820457418092
0.112372984730377
0.1600522230054307
0.0321574624926824
0.0777258973718939
0.1250985070103327
0.0153913236641803
-0.0202013972899159
0.0494576157365162
0.0974123185634189
0.1006745696704219
0.1690348846641623
0.1180106399897757
0.1723552453347354
0.1023361512898971
0.0776370108718823
0.0739108834293921
-0.1344585659043038
0.0327139818793423
0.2864075049042482
-0.6840681170391848

0.5600439837335824
-1.252221508618032
0.3361965807920809
1.5768389914934275
-0.8197249349604735
-0.2090472212847587
0.6615723923071429
0.0914532031997201
0.418582726577961
0.4128029859851482
0.1340099189100311
0.13140278536681
0.620186040637151
-0.2965474911078509
-0.3425325731607808
0.3105654829606342
0.3753519196931901
-0.459768845250016
0.4616290034926632
0.1389304769357084
0.3114757936947217
0.4008895861521352
0.0257824160038469
0.2265853553273836
0.6096128474923993
-0.1755701542676259
-0.4241967273893878
0.1595312930123835
0.4249871169667972
0.0659655934191217
-0.2272462161687668
0.2411286212506383
0.0435056279855005
0.1595613104756557
0.0067843226851507
0.0807423982373942
0.1784775949270672
-0.0454463177284892
-0.2281729740353526
0.3449905762662985

-1.994005555965453
1.9978137739259605
-1.2616749493091215
-1.641455200826424
0.8985561187794814
-0.2330013213369082
-0.9462108958098168
-0.4714458621330603
-0.8889289523617541
-0.9249238388199336
-0.2501334720307576
-0.4856065731754745
-1.1345144666034097
0.6244443947482263
0.8793178943411722
-0.7327973788315656
-0.910327396919811
1.182813434483043
-0.8646780249599078
-0.1932255987030725
-0.5256063446164572
-0.7038282575455235
-0.1239048106413173
-0.2464829803073768
-1.0194962142532369
0.1680468136255127
0.5609449684354534
-0.3527687234406307
-0.8645981529794524
-0.2424470257929462
-0.0518551276826182
-0.8482160742225626
-0.678392553638303
-1.0493186224852633
-0.198982950097288
-0.4043636600735034
-1.4586638582868283
0.2379593284335925
1.851660583851977
-2.6937809872535943

0.0008733631724668
-0.0031887961927475
0.0039714218661823
-0.0011374309075718
-0.0012266895212746
0.0008723711178821
8.083208710238349e-06
-0.0002494328326502
0.0003030246563156
-0.0007184176903516
0.0028161947173361
-0.0058197507694882
-0.0022563851528593
0.0023664000281662
0.0101911721932568
0.0069528885615286
-0.0172115549946692
-0.0260809499578611
0.0716587384188243
-0.0881562872489097
0.1184529597181204
-0.290069845260427
1.045626757483569
-1.6113236718613635
-2.799997644712505
2.179209117692292
7.242675082719327
2.128180430559368
-24.71039404915696
25.689747031455934
-10.82434469025261
3.1357227970531265
-0.1103685564994494
0.7942288018855259
0.021405929830269
0.2860346732564358
0.8817009592524346
-0.1744865313929206
-1.1586089541648097
1.643453768753712

