0.2069473225164868
-0.5701865282041567
0.3553685123120924
-0.022383437420571
-0.0577339465182871
0.037515357929554
0.006436874481521
0.0406546547583021
-0.0504967129252815
0.0563930377617306
0.0265119619666454
-0.0196968600450495
0.0385416643405139
0.0491250932976852
0.0303182138406779
0.0750736442637249
0.1042455828357839
0.1601563732132646
0.2241960433101159
0.1683370559483654
0.0408403040602729
0.1923853783565616
0.0335174690092002
0.0321018315776536
0.1190206914410252
0.1800573413601073
0.1630009977064968
0.3137411924970968
0.3315901910720265
0.5020077084864325
-0.3472007621237398
1.0210355964101567
0.0658065362320645
-0.4018031809012499
0.0391267512791526
0.3080288064640689
-0.0363125457850166
0.0326476454886059
0.030767131505916
-0.071740261579791

0.2935672981510392
0.0755475327786914
-0.008999876045606
0.0812216397088831
0.1851091169457125
0.1883145624857896
0.2367535860553005
0.1426426395800953
0.0705766643670155
0.1042042395551481
0.0481365926197283
0.0059437952647197
0.0576702030182455
0.0846697855510015
0.0840015158573659
0.1707171613778503
0.2483073611589389
0.3418508970020554
0.4310043226830108
0.3047299917266331
0.1563095006797859
0.170530648336948
0.1216991357540314
0.1085464902821043
0.1412596252611719
0.1975050275240679
0.2456853262364694
0.3108917049246299
0.3799381077600079
0.3193412891924882
0.1798009733457548
0.1130220740418622
0.0453271797050275
0.0364130683898714
0.0740832261503855
0.1164599617462388
0.134337798624454
0.1923657423725462
0.2030441707891483
0.3508768553765676

-2.437464721507249
0.8279602680782316
0.4627600147023617
-1.168581420925448
-0.3318560712153778
-0.7940834291245382
-0.8063737036521055
-0.5680877555876389
0.1179768434111988
-1.29516068552849
0.1086033982848203
0.9975814153987304
-0.5484242347354088
-0.8117894610107415
0.4558469867879248
-0.5027049220722307
-0.3989465680520066
-0.5714136829666949
-0.6813624432965784
-0.6552854635294224
0.1734593022932736
-0.8843288764962723
-0.1335651548604853
0.0555447322350589
-0.414151580644827
-0.6085040562531262
-0.463814258752096
-0.9195654016140272
-1.034224383296254
-1.2382375720808705
0.1219577176400469
-1.5194007648174437
-0.1619752399788789
0.4819366512345654
-0.5027678368152969
-0.981489768808803
-0.1360815773114501
-1.0495277798091556
-0.8419989710540807
-1.49695288222428

0.0366611512904364
-0.0110551145724419
-0.0276002212399518
-0.0013418425584902
0.0160897919167571
-0.0062721030922607
0.0042353242346841
-0.0027362859179091
-0.0006186068919239
0.0087169491513154
-0.0015442308016482
-0.0071327500571092
-0.0034252900698394
0.0033199277756296
0.0050579915841389
-0.0005771136684818
-0.003542642779223
0.0002648138312849
0.0040707501631123
-0.0022862061866202
-0.0006252119533581
0.0070727516587812
-0.0034191838650803
-0.0057507084254034
0.0012900556943485
0.004754791297004
-0.0011776197362376
-0.0026020454319252
0.0022295034519669
0.0045578068942996
-0.0089728419557516
0.0099778964094841
0.0010431691356372
-0.0063472472134553
-0.0016143458676935
0.0035154735488329
-0.0006941504016511
0.0041192842685125
-0.0099781565318768
0.0121770226856181

