-0.455641154041182
0.1552309374840266
-0.1513013577073909
-0.2021694138064138
0.1043771159944632
0.0395333361691293
-0.134524249064921
-0.1128823606000485
-0.0482519754398226
-0.1161037745681115
-0.0940369563005088
-0.052951656511467
-0.0378307214510036
-0.0497013067847029
-0.0147572972439251
0.0626802386549484
0.0191382521229996
-0.0118096439961111
0.0821644737560329
0.0842479020633902
0.1247596738283317
0.158298979707795
0.002132111323608
0.1352292202038608
0.0850169939575715
-0.006367648328254
0.0397859478030763
0.128299038109416
0.1226940457483597
0.1725978303483887
0.2449463106109586
0.2413918204721656
0.0306664455124932
0.3094087952153231
0.093582922909615
-0.2224403020017555
-0.2230517603507419
0.1154107008864251
0.4085375202529965
-0.749679201681677

0.8944172271058808
-2.224817331009372
0.3506293562193756
2.558017565956506
-0.5622120826882528
-1.1898965115835676
0.3989059785022931
0.7270922880977773
-0.1017392901407714
0.4379760451035946
0.3304950437237709
0.2136920470084897
0.205732206153552
0.310943163080508
-0.2739401836144828
0.0446367867898727
0.3554662987714861
-0.2809103323354703
0.376666513081211
0.1847884738164094
0.3380816460218369
0.3999673476136431
-0.0631601309703892
0.4790796569242144
0.2579713265025807
-0.2727823154471112
0.0046495114771591
0.4089399069705178
-0.0284641151188667
0.1732686494880077
0.094570794302858
0.1211449698829703
0.0664576376785006
0.0034227160519816
0.0899058140550831
0.0396275852229701
0.0606214780531717
0.0124991470967151
-0.1780828550607116
0.3067029645777345

-2.3855450821308275
2.7189173381431218
-0.7389754448742494
-2.554899280847208
0.5315036158361771
0.8801341544429747
-0.6750696143932895
-0.8548316258284226
-0.2663555126166753
-0.7930315640318076
-0.7701723888500445
-0.4066474102361281
-0.4550286092889688
-0.7157841115556198
0.7503115251020529
-0.093017289207921
-0.8086768053787967
0.7123524726830207
-0.6499403972031599
-0.2753159837594072
-0.5675279086284365
-0.7121217079899647
0.0755349557009174
-0.7328759011884302
-0.4556165316129145
0.2777530253008743
-0.1540159300549172
-0.7484677723499937
-0.2678554546459646
-0.6631669010971168
-0.7634670470734379
-0.9090231990594028
-0.5237646303121601
-0.0510513367171437
-0.5382974971591774
-0.3182220519385984
-0.5857697758014115
-0.1157516297624566
1.4467235576213096
-2.402426649865128

0.0009849363393689
-0.0024511615118571
0.0013715635794001
0.0006226336852932
2.0610782323535696e-05
-0.000572216277562
-0.0005380533657442
0.0010205632507495
-0.0006013551771719
0.0002314211031582
-7.173905412349949e-05
-0.0001256364682866
0.0003291076075342
0.0025611499695531
-0.0050982434317532
-0.0015179605541227
0.0070463968767913
0.0005551697594843
-0.0119094809021645
0.0196104916824803
-0.0357562531907094
0.1199325506103533
-0.5519559586070724
1.1755949821366911
0.4549404332344308
-2.203625566013955
-1.2813974542239304
6.351555461580385
-6.931937579243038
4.418343891970419
-0.9404733126075656
1.1657922812866888
-0.1900891668517196
0.6531126586373682
0.1414341558298064
-0.0410591900566156
0.3282706640024006
0.1774898385077929
-0.8462195358542752
1.390861449778084

