-0.4354302320708583
-0.2122932094089751
-0.1227503127351533
-0.3219835988773324
0.0047831316027378
0.1093239892846885
-0.049997124422909
-0.1645588347882512
-0.0399096897485259
-0.0790415323128572
-0.0969851048491175
-0.0812682003902806
-0.0216342724025491
-0.0580028998091222
-0.0458502151349677
0.0286616055687988
0.024466474387107
0.0081244622614747
0.0661886899866138
0.0422649300664299
0.0491866064157863
0.1181724008724436
0.1419419742050733
0.1869318342718266
0.0460807952278189
0.1505202231837914
0.0922647114179112
-0.0541633001450653
-0.0668568239787452
0.11165845939416
0.3026572058221844
-2.716048599698234e-05
0.0117669232242509
0.1328820717771547
0.0354009841163074
0.0386761103091334
-0.150288341482117
0.2950062467059164
0.2156400851005874
-0.7955784517012768

0.1355786205426432
0.2445664320173396
-0.427968739572622
1.0711806462571498
-0.1580681723323671
-0.4763461636368934
0.2424049457926271
0.5594190232750773
-0.0877264928565084
0.3772015165225306
0.3048124209914569
0.3787616616995438
0.1787169571238898
-0.0235819539085526
0.4280229019957974
0.4304110450216825
-0.3042592672985357
-1.1467787350910117
1.0370775265532708
0.4494162442436105
-0.3407356179093974
0.4860603106828224
0.2696179720509943
0.411619326992965
0.1059517239881389
0.38450677970456
-0.2144026352603203
-0.0572640803316778
0.5755990900617126
0.287398901194402
-0.9546614494084332
0.4304776067784335
0.1869649522983054
-0.0429515693499616
0.1657382431472942
0.1004980134837074
0.0774445345899722
0.1094574449217335
-0.1894394857633587
0.276156148666788

-1.3516790551221238
-0.8926470380026854
0.1990059660778159
-2.0070384845893616
0.1410329960966255
0.8332642451806485
-0.5565293050809216
-1.047694466377322
0.0453684207111949
-0.7724710365878831
-0.6744144147402806
-0.7714428575488144
-0.3618191473969043
-0.0557688145922341
-0.4946145515058131
-0.9934714300863744
0.1479172104275343
2.525416693688989
-1.470076841336835
-1.2436813656461772
0.7721662073872015
-0.88880387879842
-0.5115945981223584
-0.8443070097775731
-0.2239966624496985
-0.5468998457230678
-0.0199514933406727
0.0444002604534667
-0.7945264453634275
-0.4511582928692023
0.8520017207000554
-0.8674644630511142
-0.5083948489266576
-0.5333381039391139
-0.9033877040667752
-0.9276460014808872
-0.4586028900742773
-0.9496892585898092
1.4672995596337497
-2.1241734781153307

-0.0004010752030928
0.0004098191811231
-0.0009704093244543
0.0016350084114211
-0.0003612003333152
-0.0015973007077893
0.0010823875265245
0.0006159404419295
-0.0011155738977952
0.0008243161189599
-0.0007325346327619
0.001509656159891
-0.0046283831550108
0.0028933727812681
0.0185265735744558
-0.0017904360552123
-0.0280763392994415
-0.0249487554233929
0.0351049710362314
0.0791026307984689
-0.1713994767965553
0.1891559845143313
-0.2356587064140563
0.5423732016368734
-1.6940601028401738
1.092904444288321
8.37549268195541
-1.6012375958546088
-29.977565045582462
31.607318220965567
-1.8232632598444425
-9.495952977076932
4.884972283503019
-0.4832108396987248
0.5894538573728568
0.547136021936881
0.2217875508324792
0.6662375416850578
-1.0611701040830734
1.360903633320943

