-0.7541853006826834
-0.363020130263984
-0.25268917580874
-0.277018702559588
-0.0549527790701428
0.0386875180594893
-0.1535623021966041
-0.21200513803365
-0.1309646671135993
-0.2589046400421974
-0.2960257916146801
-0.3515804913133348
-0.0772951063597656
-0.2569415786242272
-0.2914902243841455
0.1370552880265531
0.2467409889329544
-0.1115416852849211
-0.2372294059448741
-0.0240823527449774
-0.0129678627806372
-0.1345423626369717
-0.0985480718915671
-0.1121022175493503
-0.0748265636910597
0.0156645974845591
0.0549975768147308
-0.1170348492595853
-0.2799373522908951
0.0681966560912033
0.4450580087352181
-0.3794324233183926
-0.1135831465610361
-0.1011175184545359
-0.3015893655794972
-0.2727801360398508
-0.3162264101286422
-0.0358507334416612
0.5606773983881289
-1.2076829060513583

0.3933968752617069
0.2267486646177612
0.1444771783058675
0.0564357978181987
0.0862911032924674
0.1194986992247964
0.1539269632344466
0.1662186700021489
0.228991302852129
0.3401716800829882
0.4632153359454573
0.5333351151392826
0.2336430517039574
0.2769737113094252
0.2640345945417818
0.0907571005756638
-0.0338957529893878
0.0134943958250659
0.1324182034482955
0.1886536971386046
0.1577580232150129
0.2060755762885469
0.2970905544771376
0.3007643797322246
0.1324140176520148
0.1929958811250956
0.1327527702147996
-0.0261760601007235
-0.0584095309197868
0.0753748806191107
0.1879848657937979
0.1535751443901652
0.1322972928442166
0.2322007843022825
0.2981151876970294
0.320183102463912
0.1757223955980077
0.0702595970724228
0.0589640441889221
0.3004627478047941

-1.3111209652361917
-0.7013943611210909
-0.4171989759979687
-0.5980192518117984
-0.1805313829961509
0.0897543502144267
-0.4305343766503608
-0.4595655022960481
-0.3281392395315497
-0.6748877489674613
-0.7536843618052508
-0.9323158897311636
-0.2289171444309953
-0.4587503747564513
-1.2465382485923566
0.5784696011404796
0.9064047529594116
-0.5210244483073925
-0.8640178689179905
0.0012716530487549
-0.1752533325185024
-0.6314882523216163
-0.5643168616290579
-0.8572567770485903
-0.0864221675226336
-0.4469976561952598
-1.0410512553216336
0.3207229407271238
0.7286484921327563
-0.3333939641502025
-1.4301219953465425
0.0774172556387995
-0.3911383439124708
-0.8844835455038362
-0.8747867354012401
-1.0524125219104177
-0.4011654584790172
-1.0694584138521317
1.3489696970822824
-1.869111789687144

-0.0003896553787785
0.0004043873905068
-0.0009759335043503
0.0016604589736469
-0.0003527827058927
-0.001632147798623
0.0010473358888558
0.0006688401347976
-0.0010587816801448
0.0006381867081258
-0.0003696465095088
0.0004378155874188
-0.0001236862266221
-0.0062760436575735
0.0108778817825477
0.0068845957857139
-0.0076339336432067
-0.0174045464345897
0.000431180127044
0.0395746032016041
-0.0420233410523426
0.0203127640363823
0.0013670565716904
-0.0707658235902752
0.8494859704390814
-4.391100158954509
3.0221512426141057
8.572578884822896
-0.1040271007873192
-28.276106143268542
28.806095038092028
-6.471844020449802
-2.879021873490998
2.739351190259649
-0.3793750558142488
0.9235094075465846
-0.0589652908812183
0.8641116772524428
-1.0747791910370916
1.3183028199899725

