-0.394872073713799
-0.1351127226653254
-0.3321938652404692
-0.1510236971336989
-0.1754335089083797
-0.1015919298236723
0.0425203966560151
-0.0191744913160262
-0.0735910152973107
-0.062399575529839
-0.0373909535214118
-0.062549535962303
-0.0576095650475154
-0.0290263877704544
-0.0309487226379819
-0.0225921815798406
0.0076663756132796
0.0132119175712436
0.0789427499298038
0.045642041722435
0.0442926408030824
0.1209282261828784
0.1469580551072543
0.1967104707213317
0.0689696502797043
0.1382830528941239
0.1024428986895634
-0.0504174307288628
-0.0686981416254328
0.1113888636431433
0.3055881968027488
-0.0076093101244485
0.0246851552747546
0.1284178146659799
0.0409053581378368
0.0337714686588371
-0.1670104535940113
0.4321488235754095
0.2041757659124351
-0.8826374233258337

0.1396443711719819
0.0881380688239917
0.2539337915321304
0.2237349769268352
0.1369435406917582
0.1491393521728094
-0.1645704094552521
0.275810253001522
0.2452944793420885
0.0658166906251813
0.1958742480448118
0.2934877846003875
0.3010709269997755
0.3451315646830977
-0.1723399017202315
0.8134722172711932
0.0460127344294599
-1.1589777038813955
0.7464817188204572
0.5023365013666194
-0.2594531057287911
0.4370387428645264
0.3031966726550281
0.4193197366145912
0.1657818635123225
0.3206362197596183
-0.1432703540905773
-0.0401935934139332
0.5068287582343235
0.2541331467800266
-0.843112697385975
0.3926094584146695
0.1648534729772144
-0.0203792518332648
0.1592979130459117
0.1028630543066391
0.0831487527843658
0.0356354891440697
-0.0779989249018614
0.2118177876168192

-1.303192893118
-0.4320325186170403
-1.199893733408184
-0.6457113023951635
-0.4010761924003075
-0.9561567265363832
0.4163136209312023
-0.0840346686083143
-0.6322722028051727
-0.3660541116446861
-0.2896020779164633
-0.6448539005464554
-0.5713444252318963
-0.6976233935440521
0.4357712377936152
-1.5900386535035202
-0.4440598509333121
2.607804783303844
-1.143880965821056
-1.2529973511284664
0.6562412545308894
-0.8295413016793631
-0.5657724643241048
-0.857676766782544
-0.3649472401156159
-0.4367281181190326
-0.114745250794586
0.0470787363625696
-0.7536954111559492
-0.4487360777099272
0.8093200026169278
-0.891645366531997
-0.4672889375319876
-0.5783037261048415
-0.9039386911790422
-0.9324478870822216
-0.490924109930775
-0.4090446058217747
0.6038324861581694
-1.6023036738438396

-0.0561400808468507
0.039067143544666
-0.0178058142214965
0.0137893258398276
-0.0171611250753103
0.0118646259787733
0.0008999243002895
-0.0042112989941806
4.7325692062841006e-05
0.0014315624596592
-0.00052567044774
-2.541804385897586e-05
0.000174179081719
-0.000199637523516
-0.0033560815425802
0.0200198355969379
-0.0119190644547839
-0.0333109542235647
0.0158491229333953
0.0762162995531015
-0.1330556738651275
0.1341879874637165
-0.1566995916630271
0.3558811688445863
-1.0964613318121508
0.0659288620327623
8.551544683697132
-0.9967066117536936
-29.75179212209985
31.262021177672803
-2.228754672508499
-9.226137664999204
5.056518505979179
-0.6677099338721026
0.6931999518516685
0.491143303548988
0.3105322059157719
0.3473878173165406
-0.8069581643040536
1.2952279294458702

