-1.0660888282743268
0.0307123796750629
0.4495322789571257
-0.1448478035330944
-0.5307274220445507
-0.0202374295085347
-0.3561915050695637
-0.3470337527869241
-0.3648171092917004
-0.0562510891054584
-0.3368847775729902
-0.0460739331528238
0.0470906114091617
-0.0843053445922767
-0.1655577452242276
-0.0756768670593069
-0.144901192147915
-0.1740723169125037
-0.1963755895600152
-0.0441908744966864
-0.1526579664152116
-0.1307044187948766
0.074621839259787
0.0927911232066373
-0.0351488274306187
-0.1109356073796157
-0.0447608128837928
-0.0131019452784885
-0.0923966247827694
-0.08127211467375
-0.0855495071261956
-0.0858478565481035
0.0356684044262671
0.013711917700061
-0.0198788034689333
-0.1919191809168534
-0.3541329865233005
-0.1341646007430128
0.5665914085254757
-1.087765401593773

0.3891704973867802
0.0702839396288258
-0.0708050349813783
0.0065612628694048
0.2453821345073687
0.2379703318141644
0.2967020965645746
0.4398355190315628
0.4341558431600944
0.1562919604562407
0.2571033233482963
0.158011283635919
0.0927202271694851
0.1407250502408619
0.2167252759801907
0.2456042997597595
0.2846097123749913
0.3827454868368101
0.3887657277242074
0.1961877374542472
0.1998678193187474
0.0933709176385649
0.0024378699725202
0.0215117629905885
0.0775303106712679
0.1156793701598937
0.1323420920642816
0.1250960655321171
0.207875365930307
0.2881174152967402
0.3333246399853115
0.1300518132822019
0.1529236992758453
0.1285992195496942
0.0645846056967656
0.0597350623044404
0.0781903996005726
0.0451605797384693
-0.0110218976599384
0.423692389055663

-1.9580817422606032
0.6679123895142346
0.186768305410069
-0.3666151386636843
-0.8555946070332067
-0.1680300758134366
-0.8542390900669482
-0.813391081536637
-0.9671614642047626
0.062016290188498
-1.1807335777322754
-0.0679641997776121
0.4000974039938155
-0.3577972919389763
-0.6518531833865646
-0.0392458984684369
-0.5631174034533892
-0.5658111369050227
-0.7229806756387459
-0.2364575043668503
-0.4601649699259155
-0.3697310259384861
0.2751051211810863
-0.0103656461725704
-0.4147499837511797
-0.3640297657020517
-0.2723778582112272
-0.3924196123178297
-0.7388824839452623
-0.847606782296636
-1.1576530117147092
-0.1366393561065665
-1.0148573359652735
-0.6798492810735329
0.6909866249890307
0.3149306828001657
-1.093043524854293
-1.1503264392521375
1.7126776871110063
-2.106959065113177

0.0037119937293271
-0.0065514257156356
0.0017054234278124
0.0038310279474665
-0.0035466414049717
0.0012544300650095
-0.0001964946771942
-6.912390355817676e-05
0.0003308024463076
-0.0013392390543453
0.0030023024305444
-0.0013815002733561
-0.0024374632389952
0.0017750091173176
0.0019648121858803
-0.0033473019422292
0.0026378098090587
-0.0022931033550328
0.0039472033986535
-0.0044262886030028
-0.0465764070931607
0.1054900014119753
0.0765924067491184
-0.1146387669071098
-0.2256848341826759
0.0844277789172102
0.5790909629801253
-0.9037632916533352
0.8402123300412663
-0.8990659765967143
1.468540994047948
-0.8306969215160297
1.4976528156849716
0.0876022766568544
-0.6956582473098916
-0.1719774049053844
0.8080674470315093
0.7297876960950384
-1.184954601538588
1.360474926473366

