-0.4957542439337676
0.0687600428585032
0.017393672414528
-0.1314100816609426
-0.1012395655397783
-0.1113307362227174
-0.1382969603270565
-0.1730813859244878
-0.1331256706187677
-0.0633059538635512
-0.1099846844749887
0.0045507054489488
0.0481100143928087
-0.0139061539675817
-0.0439388443492055
0.0269454319710026
0.0264815058070621
0.0553463564681016
0.0985329640062204
0.0563657382185181
0.0179056860618744
0.0515156825574795
0.0378152019907377
0.0444916245869618
0.0572606698974926
0.0544482146566582
0.0742533073786037
0.1242223477848445
0.1677942386802187
0.2249521114902807
0.265838756682242
0.0436015112196652
0.2495524776976565
0.1637087228424932
-0.0471032546018945
-0.1689436380176021
-0.1448914788888369
0.0482425576784668
0.2573696682231974
-0.6013165661512204

0.8520797804343802
-1.6023227011621175
0.458429055861888
1.4249407605659377
-1.0198267167447344
0.5759393281001615
0.2065679106931379
0.39614589977322
0.3868317476879938
0.1223925275712418
0.283616550010282
0.0312606004788162
0.1401867546579802
-0.0659209553494519
0.1803555650018283
0.1103595100889893
0.1503745497862831
0.1946337937192021
0.2867989448519559
0.1787162180568106
0.0249023295753565
0.1656407977569818
0.0945107567548517
0.1490251135150042
0.1529550082902103
-0.0420078178601336
0.1249969359072406
0.2009254116422769
0.1412183598218389
0.1794199996581188
0.1284787331339714
0.0023290730984125
0.0883788900154533
0.0952815217653498
-0.0592209323696523
-0.039464727310532
0.1248357505558237
0.1490004507030527
-0.2271801766684461
0.2871345844195955

-2.9588596388402744
2.680723021303443
-0.3669314620665269
-2.0872251962316
0.6152463911003918
-0.7371850324617272
-0.7768503354878398
-0.9006113397306376
-0.9404727553748206
-0.0996098887949573
-0.9942136167573232
0.0446035839096153
0.0756665329106852
-0.1060800809022221
-0.3523182126040877
-0.1138020720067689
-0.2626640019908691
-0.2541048844670215
-0.4156756949580114
-0.2760023481975757
0.0753867617845309
-0.3960453864878367
-0.1617735443200102
-0.1667507306254475
-0.2926526607050191
-0.1477027941816416
-0.3306495758283254
-0.4878920824082671
-0.6248433182478255
-0.7637289377526578
-0.9005881093538736
-0.1165197961883423
-0.7356483418836975
-0.5536547733065691
0.5484093423302946
0.1944143827311446
-1.0769978420437296
-1.0884483049851263
1.791623698481227
-2.258054858460381

0.0035051703694604
-0.0063184319866732
0.0017952039506113
0.0036660206179626
-0.0035769054110513
0.0013533510550129
-0.0002450592369391
-6.618285829620979e-05
0.0003500016604025
-0.0010968115202285
0.0015639804167494
-0.0006521790390555
-0.0001528066281755
0.0010564948937359
-0.0030154091034382
0.0040135350588321
-0.0034201283346155
0.0030117495660458
-0.0039789041753115
-0.0144766649528814
0.192031427759361
-0.2774909084028737
-0.3034816728225766
0.2517266819793938
0.7156680179398729
-0.0757831653281571
-1.815470149158296
2.509403812741801
-2.1054956536659226
1.791896879514333
-0.0436066109681114
0.6983407752771824
-0.064902708114892
0.4733246743065567
-0.2443263433995076
-0.1610454272955137
0.5894422326508046
0.6522553436065667
-1.0716808461274483
1.3410544597895924

