0.8501057890924504
-1.307770523380729
0.624433293529237
0.2641539481583244
-0.2299749069877874
0.1512640790532258
0.0886397106281331
0.1215576093787837
0.1451493657578067
-0.0018253921701474
0.1752020220303307
-0.0279823511994334
0.0172806003443012
0.0953777098373159
0.0767971512007012
0.1170707324504015
0.1795035079284364
0.2510080660609467
0.3299850177542121
0.1343721666361312
0.1196265309742301
0.2611822005828959
-0.0406268232244928
-0.0083957536914442
0.1109241481416964
0.20930913386094
0.168051584644772
0.1930938712968221
0.3632767448364501
0.4202765753869337
0.5183213019320705
0.1165173269234389
0.5021908994663994
0.3648905895447876
-0.2527000231437203
-0.2211709635083305
0.1816142486633675
0.2943653693716604
-0.1609879569055545
0.1449514870831551

0.3855473114934066
0.0134838266976679
-0.0490090111824885
0.0578640040465415
0.1417727735215393
0.1334191172845794
0.1590910770926621
0.2151842695490621
0.1909220719469524
0.0890157220135357
0.115186476235998
0.0314768377246526
0.0583681963395355
0.067570035201769
0.0546118875766968
0.1786571808053766
0.2321909871597143
0.3217640883831348
0.3759939522923297
0.2033011059704215
0.1161477368692652
0.1287988130092087
0.0905079046346581
0.0795073271827335
0.0859406788247762
0.1155904228132702
0.1493103434697956
0.1802383845781928
0.2340158907122003
0.2769625852960871
0.2934054091398387
0.0925497488906523
0.1133630230163001
0.1034471227788481
0.0556857021561656
0.0509318362450645
0.0620699656524799
0.0291040018275985
-0.0172309016319569
0.3865711379254068

-2.9047403369812925
1.4317871546497956
0.4456826239340444
-1.0671526544208478
-0.5303203917649781
-0.1503702193113775
-0.7722359292330042
-0.6650862827253115
-0.7242746112659321
-0.0235545597089788
-1.0607908244324744
0.5864770942935668
-0.118003612228309
-0.5607072438843538
0.2882004125480213
-0.529450679193296
-0.3180033301374498
-0.5523912172191539
-0.6044815968358511
-0.4071644311659302
0.0750456919531831
-0.606721607902655
-0.1188529544376808
0.0203903179338967
-0.1964653297917811
-0.4066549412217295
-0.3833157133298934
-0.411577261758061
-0.7575591998430566
-0.8587774386965826
-1.117018210701146
-0.1394609976437209
-0.9659269846716572
-0.645832113322091
0.7038422506861788
0.2709986155909312
-1.236097813259738
-1.245688363295995
2.004113996573752
-2.503598399486494

0.003463625063278
-0.0062590581322777
0.0018561492703668
0.0035849384775649
-0.0037361245469469
0.0017506801391147
-0.0007670726200452
0.0007703137704593
-0.001933832526804
0.0037556564295548
0.0083573194310717
-0.0183264312800882
-0.0176512571302388
0.0302979982509109
0.0460358940732096
-0.1280454369476088
0.1610578242586061
-0.2205302700544198
0.5812196276355819
-2.770104741479697
8.965225682759957
0.4872971504961263
-31.27208564614242
30.888873108899837
0.976050394517051
-9.010701247957323
-0.3126914248221509
3.652404482273388
-1.2115354216144272
1.01525849812938
0.3878711898284493
0.2349632785298268
0.4522845985294603
0.3244002925187202
-0.4076652323694086
-0.1594607911989206
0.6811192643924757
0.6879238126999232
-1.1376691120753584
1.36018048248089

