-0.7156196838226828
-0.217724793614617
-0.539792606312479
-0.2042780638958439
-0.1799113293407337
-0.285066374686979
-0.069833722821469
0.0691267002289059
0.0005695075768233
-0.145638102881217
-0.1870085850909398
-0.099743359747492
-0.1793461059282179
-0.2346522755646224
-0.2464652530263826
-0.1550416989641427
-0.0883385078197359
-0.118202505317535
-0.0097895737080322
0.0129568005497336
-0.0665329290918628
-0.0832396284023574
-0.0459116096448871
-0.0959147912448478
-0.1004731358316403
-0.1203908146223265
0.0211672917590304
-0.0882278453528442
-0.1732064406564973
0.0304458366896907
0.239786905307204
-0.2134408249125925
-0.1410473629076365
-0.1254307512480828
-0.2956720053353492
-0.314407566689295
-0.3367563198145143
0.2330411992780442
0.1294222590783239
-0.9756285242718582

0.3610793749788716
0.1631483576335957
0.3162786968184586
0.1694830842566626
0.094078834620976
0.1303235074083967
0.1126274410758444
0.080260875248441
0.0863562748718758
0.1328352285034461
0.1866619793348615
0.2373208327673497
0.3138127101346232
0.4280870926571473
0.4867915070874377
0.3302619326266349
0.2149319986136948
0.1551876956383418
0.0708890688580656
0.0478684904257145
0.0835980354854569
0.1438068693995702
0.1893557082246623
0.2379961735702394
0.3132461764374573
0.2869906697453309
0.1500109423214108
0.1131131073229884
0.052284539315149
0.0608625715966883
0.1145244188079784
0.147596593780216
0.175619905224186
0.2297955798216416
0.3134092252314698
0.3518177591333191
0.1621869778893198
0.081659838690705
0.1175428185580687
0.2251494403699409

-1.247076172460375
-0.4255759471648334
-1.074587902651479
-0.4817627555365197
-0.2185966550594275
-0.7156129230764872
-0.2751173249946904
0.1637422863859985
0.0322241568611099
-0.3902743786358855
-0.4643393333003067
-0.2666328324421375
-0.4914869289173286
-0.6453617690525443
-0.7113268659342623
-0.4827779695837423
-0.192416258267609
-0.3922200510965711
-0.0697340685988683
-0.0499812909192084
-0.2385762054199983
-0.3545950627438
-0.373855498128513
-0.6031812729370518
-0.7761405539026002
-0.8267656878375078
-0.1970775658129127
-0.7021884052923145
-0.0698247593799382
0.0519302458870338
-0.6279307899639257
-0.4882871001077982
-0.4252428333695306
-0.8021317192961174
-0.976049100248036
-1.0730317642804217
-0.6229733960983925
-0.2234674375418932
-0.0369713881999257
-1.059003220205649

-0.0473089874230594
0.0322706436395824
-0.014831815243447
0.0122980928530499
-0.0161142968952581
0.0103875802829897
0.0026552356691292
-0.0035831597552603
-0.0020392654639372
0.0013299373901359
0.0009915412845546
-0.0008998349915796
0.0004417976927341
-0.0004325509825576
0.0009044925164304
-0.0029233057677403
0.0051553580683551
0.0082494423550058
-0.0134988165655626
-0.0166862031653661
0.0167446580989896
0.0410230277887085
-0.090611359591728
0.1146878879483928
-0.1881012053886473
0.6150543374029609
-2.9336225337213677
6.685420068122397
4.16493616068194
-25.993779591284547
26.382387390645697
-8.2139236979193
-0.7765059718511924
1.8762570731405692
-0.0535603417573906
0.7999672763705958
0.1565542986499482
0.509498481592813
-0.8158955097096767
1.25541431166247

