-0.0381841883144758
-0.0608772927696725
-0.011833569673825
-0.0104845686053822
-0.0346483904631488
0.0060825305002481
0.0380062255915124
-0.005256976992811
-0.0119826038639308
0.0395794633858134
0.0336908976975056
0.0297188360306785
0.0770130737776109
0.0987913325840746
0.1277781640083362
0.082872442844072
-2.449658843940572e-05
0.0417074820627882
0.1451531345533981
0.0484130125381197
0.0737318635370461
0.1350731665916185
0.1848057965897242
0.2593860672960111
0.3281614899903927
0.2827027397754944
0.0099335494600067
0.3177750996658414
0.171500429881298
-0.1132233202871993
-0.0481569120641757
0.6338261491377856
-0.04754120127846
0.2998716652909914
0.2214321289012983
0.1856839199041136
-0.0167431620299018
0.3316208002806774
0.1005505137249233
-0.4319423425217765

0.3493403150850546
0.1569741457661061
0.2541567770296885
0.116707632564104
0.1092836772077873
0.0846215591523728
0.0414626733492186
0.0055987787099551
0.0188443950814733
0.0815299490117175
0.11131947959917
0.1206095849393581
0.1786374670043097
0.2600291976461727
0.291113506123709
0.1422575317414501
0.1466664832905915
0.155132783765381
0.1243934175965506
0.1142088658191107
0.1304670530251164
0.2159217732474943
0.2970476464386899
0.3964850915325308
0.4785102740953039
0.3448910904689999
0.2143528865666357
0.183184481747899
0.0958201203588228
0.0468625389693459
0.0685047511861583
0.1062223469894459
0.1657399634784662
0.2052553454655335
0.2678349182002236
0.2672850818932492
0.0717359987995005
0.0470299598339349
0.0918692569536129
0.2351492725600181

-1.577725546404558
-0.5279726857101797
-1.289287108048497
0.0066687330986311
-0.8670790634443348
-0.7491453917942522
0.0268496797030375
0.6122529265687532
0.1669895954792853
-1.0285508283483698
-0.251778125598874
0.0800919417483614
-0.6568852273552773
-0.4267896668304653
-0.6636601045650472
-0.061929921059979
-0.6065256564551879
-0.3667925522813605
0.5269776895901993
-0.5981107058066357
-0.2777427910877309
-0.3929741753914852
-0.5565378642202932
-0.8433825129919728
-0.9923622299065198
-0.9629061936431744
0.2096326178300214
-1.4143997215652802
-0.0746408634708625
0.3653598465170119
-0.5427136340571661
-0.8757259952936212
-0.3782766133388043
-1.0239151761605072
-1.1288891122271918
-1.158514188006181
-0.3375025219280546
-1.0148992704952875
1.3644384857824507
-2.055434605438918

-0.0261489942012822
0.0162209109330654
-0.0080420302461173
0.0074836021546465
-0.0084016083099993
0.0046653385163509
0.0018650629725105
-0.0018306594810665
-0.0026632661553396
7.92074715870282e-05
0.0052551492009555
-0.0042608146137745
-0.0002854062226689
0.0055902831401873
-0.0228302586559141
0.142828969210256
-0.5629037260092703
0.3738919979424848
0.8997266443010351
-0.5760401550100034
-2.006209383564358
3.605021318301743
-3.17146581223243
2.282321077648699
-0.1235666311890305
0.9458751616482312
-0.5804821494658826
1.100819127103467
-0.0248352480824541
-0.271747401806235
0.3080134363376334
0.4087542287735293
0.1898983009629282
0.4802488254173499
0.5487354648337422
0.5354925421960288
0.2311403802544238
0.4693988590750871
-0.9942950750978532
1.3724027795211713

