-0.5710801017375082
0.1147576866550413
-0.0932932636296124
-0.2319857495809545
-0.1937460739299412
-0.2117684699113969
-0.065089626534479
-0.1468965900071142
-0.0427312834996376
0.0110417115701933
-0.0427350824668092
-0.078007448363224
-0.0740814942727572
-0.0748634098540512
-0.0952133054360873
-0.08077782546646
-0.0271344491907782
-0.046552364827052
-0.0187344416024841
0.009015134943205
-0.0033149668058214
0.0032994842100191
0.0269138665181071
0.015052081824785
0.0129719072348892
0.0544445179694672
0.0404544778313144
0.1106806983834864
-0.0301436463482025
-0.1290425506645997
0.360842458955422
0.1622436416562743
-0.1137646640916075
-0.1463053677401373
-0.0349548778629959
0.0326872739353086
-0.0492156814125818
-0.2046778466978349
-0.1265137565406292
-0.4253143298436225

0.4820316799933632
-0.0362712618339211
0.1446868620514013
0.2995882229273312
0.3632638802335238
0.4101173426146708
0.1384689368201022
0.2610232594894221
0.1335488788250409
0.0750689787566155
0.152139003351589
0.2353608247492478
0.2865466437135829
0.3537300589962288
0.4626676827744486
0.4727015833504808
0.1861074276632103
0.252836400420417
0.1817374902717903
0.0132040837742925
-0.0817637256100377
-0.0120647423266024
0.1247180011579187
0.158125671620368
0.09062169873863
0.1662427230838873
0.2185918116597191
0.2487855524137865
0.0708243458248643
0.0735396937100977
0.1446112232017387
0.0846865631458265
0.0282822520779943
0.0515056345809806
0.1099454451294141
0.1404926085629277
0.1354413821337874
0.2688292001212894
0.2214228544481082
0.4602108134060196

-2.254728099968054
1.3257866966943657
-1.2769435215181546
-0.5849282658958791
-1.0037358727301162
-1.0238724235888497
-0.0458528967205289
-1.2133864713188562
-0.0267363445932062
0.313838637210593
-0.4169511193162656
-0.6222169481489549
-0.2179515792282911
-0.6147648409069902
-0.6494221557672616
-0.7152043515197417
-0.2541073001594831
-0.2449525612851197
-0.5028665260477705
-0.0598283888427354
0.2764499915527145
-0.025092281821498
-0.4273825601788729
-0.3566179702039909
-0.1691635455623685
-0.5973808377118365
-0.6371617355218964
-0.8404034461419841
-0.3019507817729856
0.0367283234565351
-0.960601652148394
-0.3373294874744347
0.3209852636803232
-0.0229108247410842
-0.6114249250326068
-0.6490121102049228
-0.1108101686891402
-1.031829426763335
-0.6490635988316596
-1.4792102291104057

-0.0947161678340921
0.1176991097310886
-0.0593536865456635
0.0182368578505713
-0.0052685062075797
0.0025007035173116
-0.003040464926736
0.0034392515956763
-0.0006596694821245
-0.0020132211231426
0.0010201235427802
0.0006329044937675
-0.0004485710730218
-0.0003644667483041
0.0011291181663256
-0.003314049222621
0.0119915323499253
-0.0161573639819804
-0.0310842207871145
0.0072469773122102
0.0632970123152386
0.051863823360672
-0.0915243949997612
-0.17466333255982
0.4229979403117822
-0.5005483179854575
0.6677627612220304
-1.716988661998663
7.734925696543865
-25.199017109149736
26.652455170265004
-0.3747436168688486
-7.635105874338753
-3.170296546863129
3.223855534363064
2.654924498354147
-2.197328892507065
1.3394576414120238
0.1326824742420865
0.8872516902338325

