-0.9173605384469434
0.0041328006398825
0.2989043218854864
-0.3235068396216945
-0.3285503212542562
-0.2701947623578491
-0.4128912593692808
-0.2247984915190916
-0.164996865849379
-0.2117360852658472
-0.0269279074807908
0.0111320572345528
-0.1257182390263474
-0.1591815578360354
-0.1101123780828037
-0.1778535569657594
-0.1974229611492702
-0.1858484521071172
-0.0519969186826363
-0.1386025336006775
-0.052505491848184
0.0183705230817175
0.0001641904378376
-0.0698880708463901
-0.066615297184253
-0.0581313658252206
-0.1098390523491986
-0.0913736990360747
-0.0707293300513517
-0.2368016547965596
0.3178681454788955
0.0932760637169133
-0.1716198392033741
-0.1960978162970966
-0.1003008369484156
-0.0700411178436653
-0.1587826002077644
-0.3816530257057205
-0.2969233993769861
-0.6889749318214099

0.3037454085885942
0.0931252990388517
-0.003794349575085
0.0929120883584818
0.2695632265339757
0.3070157347029364
0.4146651612327083
0.2856187911105481
0.1639694398210396
0.1824773323455533
0.126168392310622
0.1111874771573038
0.1679664857632149
0.2345441671671878
0.2814540845915796
0.3534679060814983
0.4313452993000396
0.370161486453995
0.1927621868099301
0.1987502353653581
0.0739764730647545
0.0088022821631618
0.0683286177923319
0.1524044285235432
0.176325061711889
0.1996966390125825
0.2836819991705321
0.3131544934940772
0.1312707067283747
0.1176029279631687
0.1443779308115918
0.081398077526749
0.0429351610991513
0.0588324992553988
0.1008867941966908
0.1348885459663978
0.1580137686328985
0.2341606507295349
0.2240302060682106
0.3907858380298497

-1.8563579273127648
0.69487189789164
0.1198559850328947
-0.9039694421314516
-0.3994746541645899
-0.800232320585933
-0.8871011716442648
-0.6779543227558051
-0.024829202523705
-1.0465913715591135
0.0991350934706709
0.2114439002406666
-0.4802668480260228
-0.4740099267562643
-0.2476461322853538
-0.5893280172507102
-0.5960126053707859
-0.7165465528622705
0.08263471861313
-0.9400460437250128
-0.0454721621549201
0.3992285986539262
-0.3783048280242568
-0.6191507963278557
-0.1713265004741851
-0.6718427470450979
-0.7870335575408877
-0.9515578375497078
-0.6010325116151539
0.5051468996721237
-1.6388161735652425
-0.3897979582791422
0.6431714056412811
0.0376464649404461
-0.7757665806522785
-0.6570487146894433
-0.0695623260996589
-0.9834364826732992
-0.636668099229559
-1.2829261532210932

-0.1962097100292723
0.1788501976111538
0.0323270694163967
-0.0898443338967376
0.0430787058342141
-0.0130151369071505
0.004167710300563
-0.0018943008098262
-0.0003478219006256
0.0035372596289879
-0.0023115977659159
-0.0017398042681453
0.0018389417364242
0.000567802087488
-0.0014968755044793
0.0013207566451822
-0.0015178339794241
0.0032371447048868
-0.0003538414252381
-0.0417517695926565
0.0381739943843828
0.0833434934945764
-0.0576091163297535
-0.2123557852937165
0.420379980396064
-0.4645021381115427
0.5892127344525224
-1.4818801757139957
6.657517708484056
-22.912931271445544
25.729537398449907
-1.3578088563728243
-7.5870870444838046
-2.5241068564491917
3.471315540331922
2.192602734656429
-2.089172789675432
1.3852724143987336
0.1137261160698783
0.9004572757871732

