0.6376793139468515
-0.8542188065995787
0.493880012756252
0.0101363958201953
0.046465859860262
0.1273830383764334
0.1254372947145638
0.0678216816022714
0.0091436163012305
0.1460538158980958
-0.0089156650337593
-0.0710571565875995
0.0943170301284908
0.1166765823082593
0.0383601961226907
0.118404514740841
0.1860445930684881
0.2343091854326722
0.3260877418071715
0.0661927690523724
0.1931089641075344
0.1934379570477981
-0.0242668718562249
0.0029528811419768
0.1021952715454565
0.1959949697794515
0.1775101764835192
0.1866517821432313
0.3525883559004769
0.419355993645054
0.5031524803660125
0.1867004227648859
0.462611579298829
0.2276045467729462
-0.1920429851064731
-0.0115628884183718
0.2354797688222357
0.1189550754669461
0.0142059722596753
0.1576190857964107

0.4290422841955031
-0.0547049385006441
-0.0242318524886774
0.1979499455661537
0.1569148574034911
0.2053514759027508
0.239418087626647
0.1028897947865337
0.0805401200873819
0.1206698479658051
0.0164449953358083
-0.039549368262623
0.0888191662472308
0.1068742904422132
0.0344058371417919
0.1698009220572554
0.2363140404151305
0.3089663236957149
0.3562127256730568
0.168777053146212
0.1120289031838397
0.1315169449765189
0.0912076367262415
0.0782929481349072
0.0805580592587945
0.1122018398703101
0.1489569654157926
0.176621496673886
0.2289501759923937
0.2726540347320452
0.2909337359991258
0.1010858402526494
0.1528089062596802
0.112386745294278
0.0142178429130936
0.018104398476128
0.1166860302697972
0.2012635455833331
0.0160713467578626
0.3835644399945449

-3.0080044770859766
1.955881973278288
-0.5058319350665219
-1.0781473268720785
-0.3076226505723509
-0.8947118912207567
-0.8252530151810523
-0.3359780237688958
-0.2864645513206559
-1.009886166381426
0.3666583330553613
0.9274337842043768
-0.7973550473483806
-0.7733970393277022
0.6845452193282577
-0.6374814104791103
-0.3207938138378964
-0.5204333649282527
-0.5867476764844176
-0.3038031656875746
-0.003116144459309
-0.5405150326437855
-0.1185242024162378
0.0034598125703022
-0.1897039489064452
-0.3927706079035471
-0.3854722321131291
-0.3995987594079107
-0.7400789421088927
-0.8536849323889507
-1.0810721440904405
-0.3519130591790013
-0.5018391250994901
-0.8098926580366823
0.0077057930706248
0.0578536046418146
-0.2309960921922401
-1.431536177423991
0.3162834020891691
-1.7899551994669234

0.0029665341135812
-0.0067333413167293
0.005860694212798
-0.0025781352839303
0.0007469074603824
-0.0003458342688165
0.0007563884700228
-0.0038583857323798
0.0109252875921247
0.0037841831573061
-0.0156101079557691
-0.0151424578888477
0.0081777460911509
0.032050942674152
0.0027391101077984
-0.0794913455396278
0.1287719900388564
-0.2016512144811198
0.5786166194415058
-2.999432745219998
9.79020913894392
-0.1445335127564906
-31.701067311398283
31.141684313537223
1.4690281436654038
-9.036769306548065
-0.8457041223615576
4.014912819469532
-1.3310786759412676
1.0321704156041938
0.3680126120412197
0.345184496374775
0.1909102956477835
0.4045195444009
-0.0088279945936538
-0.0202306486417058
0.1095524139418952
0.7429176895665554
-0.1765641668541346
0.944641017523077

