-1.02767190172775
0.1818953229800762
0.198139040550302
-0.4893799236774568
-0.2208979769318611
-0.3773934778765075
-0.4146059301486574
-0.1519242348305584
-0.2407798007936653
-0.1752502779878284
0.0151512861896791
0.045202439284689
-0.0864323574336899
-0.1478366038680136
-0.099682509137495
-0.0696878464914298
-0.1561419646336383
-0.1641334522912091
-0.1864828239129775
-0.0281805802602411
-0.1610962979631502
-0.1073306447269066
0.0581351487958908
0.078488358194289
-0.0206067513329094
-0.0951606330456927
-0.0572411178102298
-0.0141338157844856
-0.0882919553831057
-0.075974342858927
-0.1024266359513245
-0.0383654174922499
-0.0018185264966841
-0.143128824937083
-0.0981996239312403
-0.015626379673891
-0.1073855902773395
-0.4452983577550579
0.0622711915525948
-0.7995749530580705

0.3484435441013254
0.0662495877101184
0.0031775339808334
0.1501118291349712
0.2832208615158737
0.3449417159331535
0.4373159408949496
0.2169607304319898
0.1707713007123154
0.1576990802144057
0.0963454515148592
0.0824292396678207
0.1260688808900184
0.175712385417546
0.2025815689209082
0.2257112332129037
0.2892818781801971
0.3721491918481563
0.3590000505809255
0.1850418306696809
0.1736228369681302
0.0872265358597593
0.0204807052671281
0.0276986050446811
0.0673205745635074
0.1049569752083795
0.1303237264690798
0.1329043445432913
0.1953589166336397
0.2895238226442787
0.3220464398119067
0.1668350545893024
0.166087611678302
0.1161654404317356
0.0478386959822057
0.0588152345545992
0.1342484886154316
0.1842086145435132
0.0810092718618508
0.4081415378807574

-2.0687381627923296
1.0573962521357472
-0.3037782671012858
-0.8454254734954953
-0.4655295803003105
-0.9033378484574156
-0.9710789664185612
-0.3820716773076739
-0.431029134241488
-0.7293610056378463
0.137760127831436
0.2284127178200217
-0.248470834599832
-0.5044262616393344
-0.2749417971269543
-0.163533718630631
-0.5532169839710945
-0.5334158057057843
-0.7085644724102049
-0.1071516970178661
-0.589112127844212
-0.273952444357012
0.2651812049655696
-0.0138812220645579
-0.3906314253766161
-0.3745388977865021
-0.2851721382543913
-0.3599245468620053
-0.7336662955185521
-0.8379335390265638
-1.1275244160750824
-0.3250556442563252
-0.6543439267478713
-0.7311124509872718
0.1046861304859342
0.0558125568860799
-0.3402716837134371
-1.171960510968976
0.2292800187884958
-1.5224417266164956

0.0075016773363381
-0.0117227740672376
0.004151617498489
0.0023470321817507
-0.0024444194699033
0.0010519700840518
-0.0003302042463789
4.292485370078455e-05
-0.0006741203423745
0.0029184926472592
-0.0020367487633867
-0.0018916022347242
0.0012731843045013
0.0016399376023386
-0.0013032220765878
-0.0001599180597916
0.0007284087218401
-0.0013342416521081
0.0046599897152096
-0.022993748975849
0.0474661682265551
0.0392901755725686
-0.0429300577807142
-0.1015030993868154
-0.0420518763116102
0.1628814134427411
0.2099202478466013
-0.6123483844621819
0.7246973684100569
-0.8559739030229419
1.3859543811144674
-0.523168607098387
0.9180234926886298
0.2756433574016593
-0.1837690649176811
-0.0659682835442755
0.295100194909898
0.6307683391288663
-0.1392230584064646
0.9350213871060749

