-0.447272566748648
0.0488478186549162
-0.2502357302835959
-0.249698159511323
-0.2454740926635377
-0.102644568604763
-0.1160306877473528
-0.1084044407579445
-0.0157053037271776
0.0340443473842384
0.0138604181781326
-0.035892508463453
-0.0440723640482274
-0.0096692343051522
-0.0048877395366224
0.0012235022016355
0.0500157742467256
-0.0132386518341318
0.0173297805705
0.0703946037745266
0.022155590704624
0.0159340931244838
0.0436470462569196
0.0684432906393777
0.0763459026458952
0.0935715607762061
0.1521940592581668
0.1942714949241661
0.2583126142816446
0.0281863899825572
0.2635148846896561
0.1679356457473166
-0.0481613045134629
-0.0536358270970084
0.0383040258766592
0.0300283323246002
-0.0455003720121699
-0.1348871438068639
-0.1248090156670846
-0.3687103138331934

0.1277403497358181
-0.0073686765758432
0.2226867539119058
0.2924781367065566
0.3431173921055042
0.1421046424719233
0.0609004296187062
0.1971670684809453
0.1909395325875384
0.0848766718091407
-0.0212080251351266
0.0785179030905484
0.1802524935921291
0.1398934453863681
0.1732332263794158
0.2100072370813656
0.252948133437302
0.0052443754956795
0.0638135511348187
0.1528040792529546
0.0854861272495085
0.0682537731354716
0.1058674732209692
0.13228913437983
0.1404708537089345
0.1549136402203145
0.2149867030619445
0.2640076268305012
0.2164632341129842
0.1947798567084078
0.0170645257306565
-0.0577524356152298
0.0251488520788639
0.0655851405039754
0.0646806444489258
0.0517054737136331
0.0639104436044759
0.126606724050095
0.0990010567989733
0.1723060328594357

-1.65544822297214
0.556835493915176
-1.1859431523342223
-0.8741282340356606
-1.143215071670344
-0.4282847016062097
-0.3988179465432689
-0.6607494112889302
-0.2093115619659685
0.0936331781801662
0.1261636654721328
-0.3883749241218808
-0.4854819589464506
-0.0474654225324308
-0.4040328070586669
-0.3281812616494851
-0.3986114121320619
-0.0747215172750554
0.1893572018407824
-0.3124078874336167
-0.2186943189465804
-0.1237758296507818
-0.1811963370157089
-0.2475293225382397
-0.3221691308385742
-0.4084558419035676
-0.5914715494272762
-0.791852614480591
-0.8600789080790411
-0.4753445605090293
-0.3333640630712174
-0.2510330371703273
-0.1610160661708867
-0.2018567783452767
-0.3909563653460122
-0.5440233548639286
-0.4774344231067655
-0.971667395234884
-0.7882550397447328
-1.3147465185635197

-0.1418581555362046
0.1573905278754352
-0.0749001823975253
0.025013740360878
-0.0096973405047972
0.0084561627633771
-0.0096977599775233
0.0046669797037847
0.0010549261064136
-0.0008314276561052
0.0001087807020128
-0.0001993578478123
-0.0013050938262245
0.0024663727760353
-0.0024603034361539
0.002790808375426
-0.0057845040273964
0.013159335596992
0.0100734650740746
-0.0657469711148384
-0.0342679402281294
0.0857431826632898
0.1340371809409243
-0.0821397647687589
-0.350593646427505
0.5959861930399033
-0.5722246539123951
0.6220931766280198
-1.1899956976858903
2.3979169920143306
-2.2960904877100137
1.5121423008706647
0.4718309407301379
-0.370929332444977
0.0308754228389782
0.6331444617234245
0.1259755468086043
0.6057907968935149
0.4149921399979948
0.824779709339641

