-0.7185895643345777
-0.0186340740334866
-0.4779828688013418
-0.394303425431755
-0.2735185472565264
-0.1048958546945171
-0.3512287561891825
-0.0345044487282124
0.1131699805385595
-0.0166064712775748
-0.1887397468092385
-0.1546461346615453
-0.0823331973888815
-0.178649146800031
-0.20675448876485
-0.2250164055109234
-0.1291435422242587
-0.0851170635398167
-0.1355655460592244
0.0166043046534978
0.005014664762119
-0.0665549231146536
-0.0619542452807392
-0.0493629504500126
-0.0897611694609209
-0.0991890820873277
-0.1188614375348484
0.0663793835628065
-0.3312249154824316
-0.0400214035433592
0.4574905564388149
-0.1944431502953097
-0.2946898633942992
0.0224351896303348
-0.2521833679236096
-0.2996102453159517
-0.3972304437170728
-0.2838244450415793
0.4109230135351862
-0.977484402160451

0.3144507313653327
0.1138084223304024
0.2415428688112496
0.3160110099697833
0.19994376527113
0.1269496822170164
0.1486901927234177
0.0972397688635172
0.0693462435386916
0.0958790499037281
0.1449419269389273
0.1923816539804851
0.2409368521868095
0.3097318450201536
0.4142251003485316
0.4600923301491225
0.2983836114748818
0.2013917839187311
0.1536598467737317
0.0672721965910364
0.0333505693657136
0.0769868307231812
0.1512743059431111
0.190507496111093
0.2320888366595202
0.3063696514794322
0.2875039884101711
0.1238471798332348
0.1011580656719162
0.0870215049782356
0.0924603724880183
0.1022688888016004
0.1321589087579814
0.1762178796042329
0.2292743989919587
0.3089024681915391
0.3427526042055429
0.132952054539974
0.1396725749659076
0.2394052409522568

-1.2520080359405654
-0.0547482571017838
-0.9728248221474028
-0.8161670690373497
-0.721930822001333
0.2204528141019057
-1.3933448108863846
-0.0559667948977216
0.5885960954325646
-0.0915591359719511
-0.6513811921144634
-0.4101600366109078
-0.0973635883266303
-0.579964147114565
-0.5730520149322046
-0.6698048681309466
-0.4898600354620528
-0.0004622976628306
-0.7049007949100574
-0.0463522945040919
0.1763741486617617
-0.2940713833098299
-0.509806361897057
-0.2856836060131767
-0.6795702960755785
-0.7845324098413887
-0.9005328989884775
-0.1454209442940466
-0.7171630552594459
0.0946054292052288
-0.5247262356261801
-0.3266811596052582
-0.3105679559572608
-0.622782942792753
-0.7200746556521107
-0.9710385579277692
-1.0704638366132604
-0.5393452468808205
-0.1029251684141087
-1.038583029714402

-0.2505372225194115
0.2292661479779248
-0.0999182762557375
0.040369308015719
-0.0300561828834833
0.0318432812770345
-0.0109864348087775
-0.0098293189333535
1.2909914687260497e-05
0.0058240393669798
0.0028445717967016
-0.0034221533932982
-0.0004830618261489
0.0008857056620002
-4.528669398179807e-05
-0.0006330133458127
0.0008917511609686
0.0081137977241105
-0.0265370706295372
-0.0091406969247885
0.0530244926325828
0.0264976070878515
-0.1519170672889731
0.1880303685971482
-0.1740606436548555
0.2289740323871741
-0.5652252370290821
0.621773105333548
8.01582161906008
-26.62611530763044
26.65710069861004
-5.020960020185098
-6.314719659565307
4.864971412327063
-1.0304127584078389
0.8945055736721123
0.4175421479572782
0.6513378133693408
-0.9075237263096722
1.4455882391527768

