-0.908281120753373
-0.3711938425759536
0.4512523021656901
0.4252789946839677
-0.3298770590743929
-0.4878551928707464
-0.0466302240944722
-0.0312436652251896
-0.3499326430245639
-0.2568534491554259
-0.3615872912571655
-0.0741892252745263
-0.2503941384289267
-0.1768275746509412
0.047874313593945
0.0487908050411992
-0.1045274281691516
-0.1513919605848638
-0.0598823206793907
-0.1566521109350631
-0.152027396105302
-0.1099715778711823
-0.0553432704842366
-0.0955875657425308
0.0310773716511405
0.0126925937183709
-0.0642359730780588
-0.0661824592717766
-0.0348976085011462
-0.0862293049354466
-0.0798799328420907
-0.1564586979645321
-0.052066997764472
0.1080416419839821
-0.0544792333567549
-0.2800536251061998
-0.3687396716365972
0.0230671878521462
0.683721460259196
-1.223734032462184

0.4128828516820806
0.1142028375283375
-0.1120504401299765
-0.1571547646032307
0.1154763149482135
0.267417671591603
0.2077407711228642
0.1417220279176475
0.3256408336538866
0.4270809101615985
0.4922634781898304
0.2054540104160214
0.2596722121562397
0.2353042869957426
0.1065508917974568
0.0630773115580194
0.1147807353715668
0.2209110929026071
0.2289356296268324
0.2973227818151255
0.3505656172579174
0.2474592408927336
0.1194175986240387
0.1657491458307807
0.0649603061389696
0.0302855096563263
0.1015865458169963
0.1336953094726509
0.1614225192984074
0.2493024867258532
0.3323686005169113
0.3339517228418849
0.0787712212272329
0.1948340650871845
0.1501846535728015
0.0686685035943292
0.0204131926669791
-0.0205849393596192
-0.0040215573647783
0.4411668417533564

-1.5048540840930076
-0.1371325919794035
0.1094023729607794
0.745052423330349
-0.6237508251578743
-0.876756862397241
-0.0674890526139109
-0.3071495202450034
-0.7371824235848881
-0.7008267760639966
-0.9092189430657666
-0.2372798206285859
-0.5379909985619888
-0.5566358003689246
0.0621211236789024
0.2258337346978961
-0.4171427858257456
-0.440941339582912
-0.2697403796344457
-0.6260079189129678
-0.6485778267657609
-0.6563213074392763
0.1593696055879987
-0.9226321569652812
-0.0278387765581533
0.1764140704622079
-0.5114813595799705
-0.4742944757136083
-0.4206552796771381
-0.8521442490318583
-1.0115123220459608
-1.1556293316159512
-0.0073487803631532
-1.1359346873981198
-0.1064659977075985
0.2438520997074006
-0.6280891124651392
-0.6047350305664728
1.331619498010394
-2.075507157143313

0.0021546796374202
-0.0034576285750895
-0.0002252183632037
0.0017223783011151
0.0013702851314176
-0.0011264140662784
-0.0015107303148723
0.0017933932737968
-0.0008236562541747
0.0002460692583864
-2.298176579922845e-05
-4.807672596671377e-05
-0.0005813098016336
0.0017036933674233
-0.0010620798002393
-0.0002844408851691
-0.0001496432133657
0.0007629920984515
-0.000121546841756
-0.0011202751182649
0.0041240257050776
-0.0229450654543997
0.1324403475922981
-0.2407908033617531
-0.1365606278785233
0.4288966130729645
0.3222213426133306
-1.2943918603035642
1.4789502803237955
-1.2773978973982762
1.380889296894644
0.1562860417866377
0.5251981884493876
0.1035012487970479
0.0371740383427888
0.066483955362713
0.4604092659930918
0.2436931811273232
-0.9145209001679768
1.375621000053976

