-0.4895820782533736
-0.0304244338050094
-0.3368269532758839
-0.0018160572038319
0.0795953365269702
-0.0013168277798861
-0.0952849190513594
-0.1000864652393554
-0.0543980021937566
-0.0646394345995953
-0.1279837758529375
-0.1286294603269351
-0.1433607640547891
-0.0138548908240873
-0.1879309465187068
-0.0371710946160779
0.1281618317368844
0.0354251206033819
-0.0557801299366534
-0.0426578919568587
0.0045545718500892
0.0264398582473146
0.0072006638245934
0.0350374105576916
0.0510162965507963
-0.0008702773905556
0.101772926709763
0.0146940465545163
-0.1383240949002214
0.0252352842838011
0.3173864424210947
-0.1262143719153221
0.048166872219279
0.0035297110748589
-0.0519121921067531
-0.0543529777942267
-0.1303518152200801
0.1225728674383658
0.2804227880637348
-0.7706388394073503

0.4856292507148003
0.0616101596575939
0.3489500093045062
-0.1644077898901086
-0.0293875666655033
0.195636389954691
0.2644634674732147
0.1033559189680991
0.1046402689495791
0.302372594140703
0.3725520832852104
0.4620859439474475
0.5679141310822096
0.0610353363999758
0.5363100186749067
0.3726973782442603
-0.2325814145276737
-0.222232572687774
0.1089812390878987
0.2914011209257217
0.0997129483335472
0.0249209743595765
0.2173711590256537
0.2012611956841519
0.2556030547774715
0.0607236352393765
0.2468520404462867
0.0568709655346733
-0.1220120321023317
0.0738442445100888
0.2311040656999671
0.1138662517900852
0.1740984653376666
0.2844859115699865
0.3336268310719461
0.2388008201028357
0.2245457435516625
0.0593347408013993
-0.2549284847905757
0.6076307051067529

-1.6587449680866662
0.2053480368820753
-1.7297442878018758
0.2003935062421289
0.5098703004526791
-0.2115862249070442
-0.7540727983670888
-0.3159669823343595
-0.0916299616473743
-0.5490917749466285
-0.6553471440892292
-0.7233079903206845
-0.9559714442304664
0.1662685571367626
-1.45660742497051
-0.4686796358024619
1.2882579878395983
0.2688329947951224
-0.85723945935167
-0.6370148502913023
0.3102556752150543
-0.3451290302476098
-0.4915511143374754
-0.5131332138009294
-0.7432235314169633
-0.1533937503469995
-0.5366523275529594
-0.4649834860587653
0.2921415426803059
-0.0784388753886012
-0.9066048791296578
-0.199529695349629
-0.684138784286262
-0.8640819993872667
-1.1152354462661114
-0.7096431957678037
-0.6280986622040309
-1.1840544125659935
2.4541555950529816
-2.7810965963488266

5.523125548818439e-05
-0.000274443086593
0.0004279138135283
0.0008959372637914
-0.0017247250181747
-0.000521682246335
0.0015360853300946
0.0005203577117434
-0.0014902932379738
0.0006298541300819
0.0001489172237695
-0.0005630467584128
0.0014511248652768
-0.0037774706314568
0.0001413740605033
0.0138390350397426
0.0022740579817815
-0.0169953198479755
-0.0202649900261409
0.0158886747620962
0.0549034265120895
-0.0927204014814739
0.0830897257789932
-0.0805044992394342
0.1287285226318904
0.037131534425237
-2.9080194215188837
6.604015163436712
4.459518780687685
-24.259392658416445
25.203512808045858
-10.728356473214998
2.7198107951003143
0.171677457006508
0.6378512248264273
0.3723575680255521
0.3237259687586787
0.687310064466669
-1.437352504532154
1.585046050101058

