-0.0410031116413714
-0.0820670695500784
0.0136480101463094
0.0037909036664917
-0.0099022191014026
0.0022905198840557
0.0192199925751378
0.0081269729565546
0.0100446496836849
0.0355296129260921
0.0503143807381743
0.0739116009683464
0.100762860702639
0.0389603235436352
0.0588003026543985
0.0384286863854462
-0.0295776345643779
0.0159697332363018
0.128897256398565
0.0964678149200354
0.0782170572993994
0.1248642592349849
0.2122280549609485
0.2654865221488007
0.3262726108555049
0.1233291800492044
0.1666520608934003
0.1718799411201952
0.0857501467397734
0.0065561165209526
0.0851866221370076
0.4060976869168631
0.1165170718623125
0.2758533808986187
0.250528561072119
0.1173155224411506
0.1380365695499525
0.1210920976092999
-0.031013781805552
-0.2060225718720742

0.3907759323326629
0.0239160037385703
0.1846207406701401
0.1203497303533952
-0.0021828370186153
-0.0009539777900766
0.0735453500348216
0.0666302561272704
0.0695434136904573
0.1401686438494089
0.1639542604333582
0.2217881420125216
0.2647580373937044
0.1551351698643157
-0.0083507563321988
0.0485691712986298
0.1342669730926912
0.1586677028710955
0.1429225495763657
0.118936594288056
0.0879378851162353
0.263363577641417
0.3216893540794628
0.4101721171881566
0.4587562302530649
0.1881766054361126
0.2677070047596844
0.1849931721119227
0.0333915147468091
0.0147677917759135
0.1285342148636335
0.1241193959609341
0.1659209925944239
0.2282249792378097
0.2692599538097406
0.213103180107449
0.133105192196947
0.0215178476978618
-0.0566053873709267
0.3715991723185611

-1.8102384538156344
0.2749146513551117
-1.5463886141531142
-0.5814615902601329
0.7575456910079483
0.3191573433742313
-0.7933279813716791
-0.5117856476011333
0.1511821716938262
-0.4952674496555707
-0.4425078337311915
-0.5718241032774415
-0.5764273376759143
-0.441284345033307
0.2592161447621636
-0.3898827936445327
-0.6824162199347953
0.2370090120450351
0.4429242044470764
-0.8785168225293546
-0.2173327358250023
-0.3262691532042101
-0.7104030626879018
-0.806274078130204
-1.0526874631434369
-0.3287195540283411
-0.5519509868120788
-0.729908553487883
0.1135472972860094
-0.0385749294574595
-0.6840131064312965
-0.5734293203743931
-0.6556104216900069
-1.0180364529154655
-1.2384899649309082
-0.8006984913545723
-0.6680182551368741
-1.3198760400173524
2.5880283024865456
-2.8646918976759874

-4.456258100596486e-05
0.0001166655050962
-3.074767886698002e-05
-8.169401690903271e-05
-0.0015424123441345
0.0012008472243763
0.0030192513151214
-0.0016324147454774
-0.0061414291291492
0.0103750912472052
-0.0098946458484091
0.0106970040141103
-0.0203535259094001
0.0305077224596591
0.1313913023394913
-0.3145096042081689
-0.2575338469856665
0.3341366547639571
0.7253110571597349
-0.197722125650822
-1.8644924659638784
2.726000516777978
-2.3047315632895025
1.8967875685860425
-0.1008650725188914
0.8055663270105556
-0.2669630719574721
0.5553870407634969
-0.0019789850765171
0.0082826201811475
0.3168630944696656
0.2516929631851511
0.3388370843782438
0.4729608970377199
0.6005761524918286
0.3687049878046126
0.3637314301980237
0.6349615519455747
-1.425024005960032
1.5944361469367057

