-0.7616458217647217
-0.1771322653685345
0.2521704296839148
-0.1716721573735243
-0.3924617577324005
-0.2688128937581089
-0.4150538887978575
-0.2131361359525311
-0.1613219478607968
-0.1924052800404967
-0.0523119220069334
0.0196983358072921
-0.0405926604308157
-0.1027927701556358
-0.1111449775389767
-0.079326121751152
-0.1153720675988709
-0.161494227825555
-0.1777228896306982
-0.0975991995189525
-0.0999758090953847
-0.0904657206442638
0.01645577160401
0.0234810301137539
-0.0462832368025894
-0.0737220667825728
-0.0418801477074206
-0.0881195351506604
-0.0906152254280955
-0.1239347894526752
0.0308086484021005
0.0159028141415674
-0.0892372688120583
-0.1068987254729655
-0.1028566157967301
-0.122167196639962
-0.1706398904669877
-0.3540396686755707
-0.338532929296111
-0.690130376480333

0.2602178476189792
0.1217444434648326
0.0206124472088771
0.0779163490875832
0.2547012194822691
0.3299487102185987
0.4148449881335202
0.2717482885589179
0.1550053306644968
0.1555951463267826
0.1134241267131905
0.0920985084135808
0.1136483310235579
0.1520051546238171
0.1846160453756654
0.2076817086726326
0.2510332110313352
0.3366301670240102
0.3743571330446791
0.2524211760969604
0.1572471232871778
0.1090653259574039
0.0564706945422556
0.0575006644172022
0.0972032847481686
0.1399891574814642
0.1739558575798291
0.2193913808142586
0.3029361605639228
0.2908811440006381
0.1531698339678721
0.1547432444536051
0.0985027891926256
0.062718306712571
0.0824119621762291
0.1307960563249317
0.1738821406512671
0.2269225848946102
0.2428471538360091
0.4045908328109909

-1.2059089297767758
-0.2303614879670774
0.2534719222277623
-0.483986069972125
-0.6956773187461158
-0.7012847198909693
-0.9544665042091168
-0.5615790265998826
-0.1876053254376066
-0.7692135321306884
-0.1267390823885472
0.2002924612948306
-0.0435857889646531
-0.4020236742279787
-0.4058174020057585
-0.0997375925586621
-0.4566784699412711
-0.5278459509345863
-0.6499835275433732
-0.4554210300826966
-0.1997575824855419
-0.4182973412182779
-0.0176225453437774
-0.0896757715212425
-0.3652802940282614
-0.3898440091714238
-0.4448312398309246
-0.7280110083850643
-0.9111706912721972
-1.037704250407267
-0.0834474576877627
-1.1244058495745637
-0.2225268358396998
0.2216112213943154
-0.3390403436475676
-0.7305546387736933
-0.2859152852291829
-0.8377710491974099
-0.7433257482979355
-1.286920256550214

-0.2745958639662728
0.3054120119950614
-0.0185411744910366
-0.0932376962941434
0.0532880533075463
-0.0179719143228668
0.0062866460703533
-0.0034241614878674
0.0007807287144565
0.0034133836629981
-0.001729166799788
-0.0024693602686135
0.0006395276586063
0.0016997566104388
-0.0007481600446929
0.0001279431136488
-0.0003575041566902
0.000455203427524
-0.0003831809772768
-0.0025447381975412
0.0303623665340288
-0.0673062028324608
-0.0309588850511336
0.1253060420926241
0.0767532583562257
-0.366940031867062
0.442466897537955
-0.408631524157145
0.5431357470718039
-1.3591952049720946
2.8602084256200007
-2.3703664947776493
0.8736458561392552
0.6436704646855177
-0.0397637225731222
0.0547497473184235
0.3672450319796566
0.4457797961693323
0.410346146403898
0.8379617578181464

