-0.4209861100555327
-0.2616258793134117
-0.107790803059681
-0.3444076772223159
-0.1080090323171526
0.1696223590980845
0.0948574976522383
-0.1447064231369716
-0.1360710264532092
0.0010091773217777
-0.0154223074984621
-0.0776939942245407
-0.0413351718742166
-0.0426570257260665
0.0035712878444646
-0.0449655200585152
-0.0531669387057598
-0.0181434992412435
0.1444042733426057
0.0981837596101626
-0.0427219309181326
0.0254436743507367
0.1303705728651718
0.108739530459608
0.17433032012684
0.199277363503543
0.0972817547208013
0.1198060308896213
-0.0103153766348166
0.0087083868735685
0.3116943408057093
0.0103165478462507
-0.009987327861401
0.1419258355333396
0.0185531588089421
0.0442264690782775
-0.1385903404388178
0.1313297293719947
0.4208057877740176
-0.8833061410860491

0.1374957342092577
0.2208319823459645
-0.1877841351931674
0.7373288809536734
0.1842394132123654
-0.6436411160290543
-0.2249100939723092
0.7471838730522183
0.3551165661630399
-0.2399256784300349
0.2371562273187304
0.2963947179546696
0.2441307532591985
0.3896616148931272
-0.2813102270736353
1.150422951517925
0.1836590167598392
-1.9754442471557565
0.485181786760673
1.3222512680363547
-0.0928170857811137
-0.4637101469164357
0.5383238043732512
0.1884213489697796
0.3343845838588918
0.3539952683146258
0.1396373973570965
-0.0694030990728115
0.6281212862330235
0.2848668317640557
-1.0223935708778051
0.3974820683972321
0.3192199006054221
-0.1464839991191016
0.1932830055347806
0.1007772962501232
0.1199672216162685
0.0597125923924311
-0.1063682218607189
0.2429581437685828

-1.3362119376351147
-0.9241329460599688
-0.2911646094540164
-1.0492312502795809
-0.9414123272914698
0.8392572260647164
0.5307504814553632
-0.9227742221096056
-0.7741915809361982
0.0924368546128071
-0.3218010395352157
-0.642228481113045
-0.4641958955365663
-0.7794658718766189
0.6333595524380279
-2.117561225477964
-1.0228246618538306
3.862496887539976
0.1198640753660004
-2.559147940315784
-0.5230555261050763
1.0908630437922504
-0.8495839375311388
-0.5227871793448907
-0.6802105467092082
-0.88866589842671
-0.3232345012460416
-0.0616489365527624
-1.212972014832466
-0.2462595821400905
1.0800414578055937
-0.9406749464412464
-0.6483146401617232
-0.3227820551419288
-0.9271224365362964
-0.95321490318681
-0.8243769068987138
-0.542367070973241
0.8458510349064645
-1.88300307685069

-0.0009721015883099
0.0004211621239099
4.0340199415247685e-05
-0.0015747746799336
0.0032299113861789
-0.0013919113715346
-0.0015251053075487
0.0009481480637446
0.0008824390243646
-0.0012175792472645
0.0009433815526959
-0.0008517769529978
0.0010879228888632
-0.0023855954507214
0.0054496847867479
0.002998516684243
-0.0216392218767768
-0.0137535383445904
0.0269140711745823
0.0466661227561211
-0.0214082959921551
-0.1147434052762562
0.1733595657410644
-0.1460441802236813
0.1337010860365676
-0.1878710642961084
-0.4922717249957865
8.799774611110852
-26.691442022520327
26.62090685165086
-4.436155533295612
-6.964442206983337
4.650535188784348
-0.5979963231674903
0.558804561308685
0.5801138028340479
0.4291935555754079
0.4326067190917948
-0.7236913048830135
1.2405496023813305

