0.1695291743984009
0.0550207673174608
0.0949714299161417
0.0272196732085789
0.0530446634150058
-0.0057026116660068
0.0469236008882688
-0.0050376867735288
0.0266340400421533
0.1151804988609066
0.0421124674384987
0.1325753848229864
0.1555155764668542
0.2071893998394591
0.0402486060917184
0.1907250190630456
-0.0135751536759886
-0.1082013815564105
0.2403439458263858
0.1107290503472664
0.0598291958750392
0.1091614284812558
0.2058698861381468
0.2774050525088432
0.3422065448800044
0.4632599117261674
0.0735297678199303
0.3327512994046296
0.5241261931661662
-0.4419809290074629
-0.2736216384685681
1.26147391737503
-0.432805409325769
0.443050853750817
0.2834246300105142
0.3454466615469943
0.2010277141880585
0.1157365368413131
0.2882627597291755
-0.2043922429029038

0.3641576534089548
0.2062711237638196
0.1489752980787205
0.1179052227430399
0.0817946766603455
0.0385174810696178
0.0263854837106983
0.0190652057710776
0.0481423852164893
0.1077383556633597
0.115476485106158
0.1363799538776495
0.210747589540358
0.2440432741102634
0.0596894065683562
0.065592072952966
0.1259755614870084
0.1135823798919964
0.088397321160561
0.0785457811159044
0.0712957166963031
0.1478051612316549
0.2144419877554725
0.2697441002703286
0.3584423231486357
0.3688354150784608
0.198854218432024
0.1962952286768902
0.133536115455314
0.0410971770367979
0.0258266866749937
0.0643238899460653
0.1489404812008713
0.1708439958739737
0.2144546381000427
0.2764154031556876
0.2134960685014789
0.031370344731252
0.0789617771768443
0.2768045832316727

-1.560473639511997
-0.8884338949930332
-0.6106879137674939
-0.446485731258638
-0.69076569898875
0.1439664625871129
0.041818334065251
-0.0623649231760852
-0.2383076565864534
-0.5281656100961739
-0.0582376084491954
-0.4860173118290347
-0.4363413365554575
-0.5807453329292223
-0.0591652203670417
-0.01512014104558
-0.969841265356752
0.1633585787211018
0.6632350943231946
-0.5756803883641112
-0.2891010760406812
-0.3482710087842864
-0.2554618197405429
-0.6686576288977109
-0.7277660790769137
-0.9706166709735858
-0.2616218260542506
-0.6023148163921848
-0.6341658693726172
0.2407627757827098
-0.1037649618014486
-0.7231239966857635
-0.4399403489315564
-0.623040166564959
-0.9777602536173376
-1.1009862949859808
-0.9461844406393616
-0.5032367372078567
0.7489166134483672
-1.976526007294861

-0.0010442538775971
0.0007052000076375
-0.000838656765661
-0.0011801329715959
0.006164216840449
-0.0008251773036664
-0.0057234135533822
-0.0041264284737818
0.0051053809636184
0.0126263650581749
-0.0229084349964998
0.0207219560649871
-0.0199174474479477
0.0303124095803433
0.0293599165477153
-0.6584922398971326
0.8316499308203219
1.1389862083682123
-0.5625054899374614
-2.4957445964573224
-0.5221012738286492
6.788071813677006
-7.924529751554246
5.100619919649241
-1.3332521689917995
1.3967003535694948
-0.554954229007169
1.0780587798840409
0.1426309145663792
-0.3517020389854884
0.1318598266713711
0.4886982957577433
0.1512858112919672
0.3391826481759442
0.4946871109189457
0.5666160863118873
0.4533091413139392
0.381585112671896
-0.6637171420188235
1.2149862204735746

