-0.4529989677479627
-0.1944781800847061
-0.3083095586312772
0.0406694986625966
-0.3076005933772877
-0.0214894333110277
0.0838738345046593
-0.0662734717642914
-0.1529203163323007
-0.0354511119642071
-0.1314806154782359
-0.1306776859856995
-0.1596170821850559
7.045792805013653e-06
-0.2294354574440771
-0.0582303961093211
0.2244484095763228
0.0176143623471292
-0.123614330118407
-0.0317160369139754
0.0456616639079483
5.333859039277599e-05
0.0152893754561154
0.0312970138610125
0.0626723419112431
-0.0710483805984846
0.345182963136935
-0.063488456943116
-0.5797246063593341
-0.0189618566980128
1.0002243774666175
-0.2078274364392834
-0.4649109815130016
0.3136156696163539
-0.1188683058596373
-0.078944511500872
-0.0962023327818755
-0.3293395336764634
0.8430015386175909
-1.0687732588577286

0.447246922729169
0.2350490515508025
0.37146650865857
0.0256527252378011
0.1614132648943624
0.1753058761595373
0.1345082904931779
0.1090395507280231
0.1794793418016104
0.2885678569759169
0.363447595305157
0.4969978316574037
0.5585818483192604
0.228353768931748
0.3802782567341981
0.2569009724135315
-0.0542917556646175
-0.0925762771158979
0.0449055766750268
0.1658564489065726
0.1365134407142335
0.091309379378055
0.1713504683172843
0.2290436575244445
0.2322984196804125
0.1034752186451383
0.1760061959897023
0.0476309158623141
-0.0676990858107922
0.0091465931253186
0.1355145093842766
0.1494575274512192
0.1025091727674773
0.1337243362577219
0.2390735649150505
0.2785395782250231
0.3506922942916502
0.1082543040092577
0.0414250176772933
0.4281558989163032

-1.4452570966173468
-0.7139837336583583
-1.2111205652913617
0.1024356125648516
-1.0771604801995684
-0.2719644445675706
0.1451471690489322
-0.2156505646507933
-0.6198181613730313
-0.3755065356612218
-0.6512841526413261
-0.7847933815773944
-0.9386199778750328
-0.1157986166129364
-1.074579141252506
-0.4347375442157909
0.8444194481137747
0.240950037307166
-0.576068206512655
-0.5582043803416099
0.0696843105551085
-0.2417930989756549
-0.5223095405327143
-0.5181859449479413
-0.7546262480326713
-0.0687346449491974
-0.6605010784296028
-0.4140987243649903
0.37654595547391
0.1998046378984069
-0.7407695281606085
-0.5823775245603464
-0.0721616092155454
-0.5335910889311901
-0.7657832612014779
-0.9164463036852
-1.016584677191549
-0.7529674740196299
0.7328676843821663
-1.955472839208252

-0.008629315165068
0.0045997520210945
-0.0021151521515514
0.001362005702076
0.0003968856746267
-0.0010426803532946
-0.0010790979588643
0.0015702931260037
0.0002672897962868
-0.0011977201259171
0.0009530280852539
-0.0007919498454523
0.0015372494033169
-0.0046577800280083
0.0029241178030103
0.018535443344688
-0.0018026753654932
-0.0281001206401378
-0.0249609718886326
0.0351341385063659
0.079150098628441
-0.1715011214782497
0.1892503435784048
-0.2357443028629733
0.5424841160793207
-1.6938893921815008
1.0907471577520809
8.3772280665394
-1.5981633738828962
-29.977743257787143
31.602721525535472
-1.825985584358818
-9.487753646545544
4.882675055442929
-0.4889023759304713
0.6034346410103366
0.5018841632247317
0.495031083422393
-0.6271813484311259
1.2351102752752363

