-0.2800505975817749
-0.1468852735256023
-0.207407784234873
-0.0490827686250578
-0.2250029634597161
0.0571141738828531
0.0884008634252598
-0.0963264573465681
-0.0671088110239087
0.0158796919110058
-0.0379003471201295
-0.0116012448450608
-0.0010270396205516
0.01832530812276
-0.0461173836451368
0.0484781082415857
-0.0103253860079179
-0.0377336014229578
0.1392039497307361
0.0942903149516941
-0.0059762169693516
0.1274068595188681
0.1600191730223588
0.2072886446161747
0.2604972663011238
0.0661884261863875
0.2237979045085542
0.0635718841466916
-0.1757819355129355
0.0369378131242155
0.4671637788214692
0.0434651325048322
-0.1212211413638655
0.2122421312848528
0.0877922302105041
0.0932089941277721
0.0676198971329395
-0.1654429364644584
0.77353516268986
-0.8804847423141491

0.1539765585574717
0.1320039374688081
0.2389036512836394
0.0839020975910276
0.4293165477009277
-0.1476028522836713
-0.1882047301398011
0.4853820021942611
0.1785883226813464
0.0829553847221215
0.3244629616864302
0.3002585640448211
0.3989673197071766
0.0422774355123229
0.0286605587556138
1.1824662494531122
-0.0116132515792861
-2.206312228780487
0.801537683671782
1.418716555394395
-0.7102368279287212
0.1834080528246405
0.3511416590902187
0.2625277356500484
0.337376301836963
0.2417038243187892
-0.3282014761078773
0.2332413659346731
0.9304083589333726
0.2403270663204723
-1.5955482343207514
0.2422926140834365
0.997923787116742
-0.5549016961441005
0.2657145973172333
0.0729759670098522
0.1289523458646737
0.1069331412095899
-0.1360316763154927
0.2730056091716581

-1.4007791950857251
-0.6919360591429741
-1.353164535478547
0.4358245244453002
-2.166742267590505
0.3278034133867837
0.8126070173615174
-0.8570299361479953
-0.7817504283593845
-0.0108101003645169
-0.7309906820615637
-0.6143463810453272
-0.7641301932710491
-0.176998841454276
0.2379577732722345
-2.3636083514075272
-0.5292381981193621
4.34317906100934
-0.6752227729989336
-2.8854659079569305
0.871844559795305
0.0459518685812568
-0.8106243657350884
-0.4977970205249449
-0.8047917155750813
-0.3920618878423395
0.3395839988416016
-0.6485843004882317
-1.2579769366492066
-0.1484476524935567
1.7812775559971263
-0.770391378261774
-1.3742200718210054
0.3091302333018973
-0.8796133622757709
-0.8191242369026444
-0.9096346072341216
-0.8672567754349099
1.0783916959328064
-2.1627695561765

-0.0089481523161275
0.0047625662319201
-0.0021820107259265
0.0014062905752462
0.0003387524565344
-0.0010015978518563
-0.0010024098015415
0.0015046228788592
8.38099484676189e-05
-0.0008287103056838
0.0005791616853715
-0.0003964452836855
0.0008166362913672
-0.0039899468096513
0.0111890941245965
0.0036265558789562
-0.0156919757557475
-0.0151043604352334
0.0082349116302876
0.0320477212773499
0.0027173578516826
-0.0794769782891249
0.1287342491613674
-0.2015566330951158
0.5783142136010249
-2.998185205942718
9.787829907714183
-0.1461560169794722
-31.69898200086595
31.14603023280631
1.4703570021129844
-9.04386403041167
-0.8530569814704375
4.038881024624994
-1.360666076730814
1.070225124033622
0.2785757541798194
0.6991765368504541
-0.8314600165636791
1.3252059584208078

