-0.4684656752564378
-0.024699401613188
-0.2325394978382883
-0.3379328521257752
0.0571378038184947
0.1813044909108744
0.0242994531354794
-0.1729248792470375
-0.1137536429484161
0.0163150814582489
-0.0651559598427666
-0.0688206842814809
-0.056037092748608
-0.0139951403247033
-0.0647592420445446
0.0018825035816396
0.0243698720845716
0.01300279120027
0.0665172142330564
0.0444510820028772
0.0636792377202532
0.124244781317697
0.1573451093177598
0.1829604484821228
0.0334692839776692
0.1437744779869996
0.0587263984679959
0.0106976126646075
0.0568143953303458
0.1232708161648931
0.1777928301014869
0.1233174230942785
0.1718622595850742
0.1297702306619522
0.0431835025287294
0.004342653248721
0.065924803826106
0.1942998035688385
0.0936272546448552
-0.7327478908522626

0.1466655934423801
0.2433988975023814
-1.0040456071157344
1.8717600313721716
-0.0662749350590547
-0.9918326973997964
-0.1793669526529193
0.9047574701481016
0.2729693314684642
-0.2409400583260758
0.4032863623200984
0.2387242764771112
0.3405023713143867
0.2215163710377016
-0.1226484152891062
0.7735911137333994
-0.0167112883401403
-1.1318863565189743
0.913008701629313
0.257594025172042
-0.0855830409045753
0.4162426326523059
0.3234496113752677
0.4201155126230148
-0.0289084227193339
0.6383226308582848
-0.1684115224224006
-0.1895712749966228
0.260845815019417
0.2530739678330703
-0.2285969251898781
0.2112216186024531
0.0663212185180317
0.158744969150887
0.0077914620514227
0.1234172757117833
0.1932890637576738
-0.1586764782993904
-0.2498359848804604
0.4040768900558308

-1.4559188346984
-0.3718335491204545
0.430923243946272
-2.704221060603998
0.2192826627954886
1.389804281147931
0.0802591957922471
-1.3815134462876903
-0.5110836365574886
0.2489071656060325
-0.7594779607698035
-0.5161356330842055
-0.6541664481961921
-0.4653716291809598
0.3216979548672544
-1.4515035295145362
-0.2622278963856196
2.3248088346192435
-1.3022872477242098
-0.8013221727143655
0.3187355348382338
-0.7850653226389261
-0.6006333487075715
-0.8669002379181862
0.0659468329207128
-1.0979517302986703
0.0668727327040661
0.2535856417724948
-0.595917255153268
-0.5974981350603635
-0.0364840126478414
-0.8167630647072192
-0.7479194871066865
-1.1012354141737033
-0.1446923722040024
-0.8226382021215907
-1.4518321833115524
1.1053174571913351
1.863673022828093
-3.04624084695803

-0.0002446165134312
0.0004812018757779
-0.0015217487048531
0.0025568233907106
-0.000721105179906
-0.0016980392998871
0.0004455473597247
0.0012969686619755
-0.0004799055576152
-0.0005841094079038
0.0006268215760132
-0.0004153385848208
0.0004083315764473
-0.0002574145520018
-0.0051767519978499
0.0168274229384086
-0.0002943082625156
-0.0259632852156905
-0.0069085075128467
0.0672339275034641
-0.0872877953583385
0.0822184110513837
-0.1086218620317821
0.2679783952278223
-0.3288183278787293
-2.8950857389403035
6.264047094559868
5.248400722807335
-23.353806211310182
23.461458570550388
-10.36621293652632
3.315203907919093
-0.1937542168974013
0.8785765447947597
-0.0796689585690637
0.6422183948660257
0.876281344087227
-0.7628884208492417
-1.218782692648558
1.9326771660604465

