-0.5220121856950198
-0.1105737251410796
0.2201263835861995
-0.0899602807304298
-0.2358484929322209
-0.1307365903401299
-0.2195598395095963
-0.1104792324478995
-0.0895961743526184
-0.0878472403111649
-0.0278842029324245
0.0053132962515492
-0.0243194089362015
-0.0417537754656873
-0.0391007605496674
-0.0255514774174341
-0.029304085947
-0.0414488330653797
-0.0352709793717939
-0.0052309845831626
-0.0406838792962241
-0.0153363887110493
0.0318863969224928
0.0360887785016903
0.0122996606391551
0.0103108904102819
0.0457277324871112
0.0522187556962985
0.0933264593429518
0.0755727978730926
0.0744766791660006
0.1548871319268688
-0.002136229601279
-0.0745274984698593
-0.0434238635543271
-0.0114306168719989
-0.0587011634136694
-0.1787996873385313
-0.1673181848635767
-0.4078336758631982

0.3572139468514159
0.1334843375557098
-0.0306912661469936
0.0838414934446983
0.3176368614434632
0.3358725380596744
0.4595501702227824
0.2939973948195229
0.1564919815054058
0.1897618562213791
0.123270579606718
0.0828027503265764
0.1169596092447518
0.163365609571062
0.1862688667495312
0.1888493098203424
0.2257502491655432
0.3074871687340668
0.3232378670409757
0.214023661530393
0.148166051655028
0.0916716169947227
0.0171556767820991
0.0316685296599004
0.0873318407348397
0.1193124450380006
0.1353652155686739
0.1767114265756721
0.2492401407408754
0.2507352237435498
0.1036507009196047
0.154520006209035
0.0974801659799938
0.0559731760734423
0.0831816491744969
0.136158897977523
0.1708795098471753
0.2499263201050351
0.2593807052618854
0.4529727789659126

-1.4304443098226611
-0.2890129089265026
0.3840339794466452
-0.5225161282875904
-0.7987755865022529
-0.7349957728780431
-1.0430758586771487
-0.5782401788403216
-0.2827278105285451
-0.717380026555647
-0.1395965159280942
0.1634311313257385
-0.0701028272201629
-0.3797015445204812
-0.3875853095502607
-0.1192955809968874
-0.4006575796375342
-0.4909643729560366
-0.579246675008341
-0.3909550570079247
-0.2242404857744338
-0.324711864793413
0.0198000144654754
-0.0795085362739653
-0.3251320798547608
-0.3375147640897734
-0.3868056246735115
-0.6413353171124166
-0.8113487041015857
-0.9233508502161628
-0.1075217845068314
-0.8727373978331703
-0.2667172649742246
0.0797157597791423
-0.308586301351676
-0.6450664449508613
-0.3742747430961007
-0.8706224233600716
-0.8094645741545036
-1.4418063505649852

-0.2745958639662728
0.3054120119950614
-0.0185411744910366
-0.0932376962941434
0.0532880533075463
-0.0179719143228668
0.0062866460703533
-0.0034241614878674
0.0007807287144565
0.0034133836629981
-0.001729166799788
-0.0024693602686135
0.0006395276586063
0.0016997566104388
-0.0007481600446929
0.0001279431136488
-0.0003575041566902
0.000455203427524
-0.0003831809772768
-0.0025447381975412
0.0303623665340288
-0.0673062028324608
-0.0309588850511336
0.1253060420926241
0.0767532583562257
-0.366940031867062
0.442466897537955
-0.408631524157145
0.5431357470718039
-1.3591952049720946
2.8602084256200007
-2.3703664947776493
0.8736458561392552
0.6436704646855177
-0.0397637225731222
0.0547497473184235
0.3672450319796566
0.4457797961693323
0.410346146403898
0.8379617578181464

