-0.1969496324274576
-0.0859793791756888
-0.0322885825820161
-0.0484924127514366
-0.0991319890742327
-0.1138670885062441
-0.1044807848772596
-0.0632468175153954
-0.0702800224747964
-0.0362373358772286
0.0035679132478289
0.0242971573560521
0.0211911767950913
-0.0005363610981636
-0.0028565030729855
0.0343774434863951
0.0610797886361049
0.0894660304710242
0.1451558282866344
0.1082619794876116
0.0487494521428248
0.076607120837878
0.0596596563212004
0.0590330151434165
0.084659933863306
0.1148909029919537
0.1558991762091935
0.2225628041754724
0.3101017859101094
0.2818368487730988
0.1614067140712753
0.2147668174008147
0.0791893547295072
-0.0079830399476372
0.0104907357136837
0.0562897129332728
0.0343611025841462
-0.0375629723323481
-0.0492754343073286
-0.2342133432605609

0.0982260928070978
-0.2672965981495974
0.2600331880109322
0.3626432727877288
0.0275944002122196
0.353286016181954
0.3690711193443394
0.2222963955819177
0.1879784487967166
0.3485554318665684
-0.075539085645284
-0.0416806834043977
0.1476407783938881
0.0861771535487043
0.0779596186509049
0.0857999142246224
0.1355710782089128
0.1176350473337108
0.2324122780463854
0.2051670492141743
0.0085939469007736
0.1804175256166588
0.1363197943895344
0.0823326765308571
0.0994231070140715
0.1175744036490024
0.1617331358851302
0.2030159793569348
0.2083084419727467
0.1840795609483735
0.0361163465356526
-0.0414021779316601
0.0712146042562188
0.0568104844159094
0.0325866361701109
0.0425784633052579
0.0573007532371165
0.1088738733910842
0.0924828169916812
0.1843738960436085

-1.649902171679528
0.6634247450390462
-0.4897785303563096
-0.4694207627009131
-0.7294624423199978
-0.8263742462070146
-1.0363541975992734
-0.6037361323611253
-0.1389541084641846
-1.4839595244568642
0.5475418365140676
0.5142384472677792
-0.556946862938159
-0.3502160690756364
-0.0014899594045486
-0.1091751000315923
-0.2571903750988126
-0.1249906007847798
-0.3090664073144449
-0.3897651368684205
0.2607808693351576
-0.577602683962784
-0.2376444137965533
-0.0141331001218417
-0.2877800766815899
-0.3880074390789975
-0.3936428627779381
-0.674916632929754
-0.7713710068922328
-0.8830548937249401
-0.0039067209291615
-0.641178675432377
-0.3565028570408551
0.1633155257624046
-0.2902931982860122
-0.724832118952274
-0.202231338196173
-0.9039117756819424
-0.7468270657791718
-1.4060930906020932

-0.2451727953412635
0.2527252136053195
0.0083455740208973
-0.0910121654284739
0.0460429248426935
-0.0141960296730507
0.0045209896391223
-0.0018288003828274
-0.001345898140962
0.0048881041014326
-0.0013269183111439
-0.0033778891570126
2.778913817729962e-05
0.002729831982907
0.0004270685091079
-0.0030044410688647
0.0028151293167044
-0.0022538264806888
0.00288852194331
-0.0039156430412485
-0.0208054959540571
0.0816632197926668
0.0067586679519897
-0.1464203914395972
-0.0483211585571661
0.4013168099053682
-0.5240293829562438
0.5008512625614702
-0.6573927688969085
1.3366372467159373
-0.81865915870647
1.3810885974369929
0.0077755042284526
-0.4288565252936273
0.2275702013414733
0.5917546007264225
0.0016427370505276
0.5494713972049812
0.3891008312283092
0.8420393948307773

