-0.4808433631719032
0.0435447066452713
0.0205638243978886
-0.1435068638445714
-0.1399606808619897
-0.1256570654511135
-0.1800133609647505
-0.1767099447399864
-0.0663114960779596
-0.1340509563461336
-0.0532900064040148
0.0409077075790936
0.0486601359985099
-0.0153565344178502
-0.0490254200767322
0.0123728827085534
0.0365351579281569
0.0390037506519098
0.0820369063924276
0.1209843120571944
0.0351037299402045
0.0350243487302837
0.0688101096393212
0.0512990396551793
0.0378948682677627
0.0317093615265745
0.0556746161618348
0.0985710042866083
0.1260044840859556
0.1655837592928438
0.2393364468080126
0.216722717063522
0.0603925084099746
0.2101718883719696
0.0831140078771767
-0.0988024005857985
-0.1554288235597781
-0.0493971276512983
0.1817329737322109
-0.517326184258814

0.7920216939209049
-1.3597531456234249
0.4545435081939972
0.9982244545337609
-0.6094638049958863
0.5395058618424009
0.2362317709641643
0.4646151885549965
0.0734588647882392
0.529061610036991
-0.1305654413547993
-0.0867524447005452
0.3674453371310713
-0.0611253291446917
-0.0305413810486694
0.1810227723394291
0.0972596804456913
0.1197681714565167
0.2626703926932057
0.3118967173043342
0.1644222938231432
-0.076583014784298
0.2980118927343459
0.262093485404873
0.1169141774955234
-0.195645114990083
0.013481246847268
0.3675699723011257
-0.0089465833862417
0.1631804720865086
0.0857723060463681
0.123889158609323
0.0213663086045393
0.1074733962778089
0.0790994628002989
-0.0945567831359905
0.0318830508909128
0.2327655260420124
-0.1783713592826411
0.2538730518833084

-3.0233700125392606
2.6958923545077025
-0.5003008998801626
-1.965088080643676
0.5414754199146898
-1.059628519396573
-0.7903121447852577
-1.0726048449013297
-0.2691919373600527
-0.8793314497921291
-0.2323707815141155
0.2652949750948071
-0.3029319406324701
-0.0499215874057343
-0.0085470657463726
-0.3151475671289224
-0.1067926173230288
-0.1643722173094862
-0.3701206077041512
-0.4906346899793887
-0.2525687835005318
0.110885137635481
-0.50642762994839
-0.3340000683343458
-0.1810950534103423
0.0778441233722405
-0.1986849648010545
-0.6207160248363048
-0.2902063094971751
-0.6586231633669489
-0.692561652838119
-0.933788177209096
-0.1831263016468671
-0.8222753491144469
-0.4841390672310746
0.6683879926392732
-0.3317947806505931
-1.7298815861949457
1.3639136406231387
-1.978082117775163

0.0047206835680673
-0.0080758349131299
0.0022643008562388
0.0040867461899184
-0.0040935531609329
0.0018793159484126
-0.0007075675782194
0.000486399573781
-0.0007903492713966
-0.0008343017954071
0.00561511316886
-0.0008476747518676
-0.0054344579144688
-0.0039929376734611
0.0049304670082688
0.0124985980259973
-0.0227167000358097
0.0206151339199387
-0.0198588318476698
0.0302428788994162
0.0294470620543223
-0.6582211988468156
0.8312166069709658
1.1384705895246117
-0.5623151831985934
-2.4948002888541745
-0.5216999749621225
6.786370386791314
-7.924080374124189
5.102120492071878
-1.3369412469461213
1.4081454421390769
-0.6121771938283769
1.2677757655936257
0.052917020757429
-0.6589000754994417
0.2594533794806173
1.166241825804252
-0.9214871907619016
1.1910982805445098

