-0.5339440787885043
-0.3069097176759179
0.2909666656296604
0.2908928083061701
-0.1347304952999146
-0.2916422189241274
-0.0875651279236938
0.0540836319558594
-0.1757829958672416
-0.1246437032089551
-0.1694205787485267
-0.0889152745680194
-0.0673949814912414
-0.1246038568131925
-0.0076019705220939
0.0617090604222079
0.0062507795478351
-0.0837403583616451
0.0077447506824633
-0.0184202717706019
-0.0110175751450473
0.0139373197488393
-0.0188112820918334
0.0165831032431592
0.0362038421118972
0.0127635757200229
0.0126100138117779
0.0245271678239015
0.0507375602347681
0.0708863921733152
0.1210593961537115
0.0923322660423647
-0.0115466104927056
0.217739853073391
0.000698785598078
-0.2166072059833882
-0.1815684528362608
0.1163442891179142
0.3472265559293012
-0.7471934774004294

0.514293581404182
0.1834251647793682
-0.1781529865313753
-0.2974583737984358
0.1715719100615297
0.3813469098910554
0.215766003253712
0.058790261579274
0.3548023128238058
0.4153639515194943
0.5265607398975068
0.3471045286726483
0.1630877244388529
0.3604296187965009
0.1593259114779536
-0.0086715447303827
0.0243473739430052
0.2369315588768379
0.1811527190952449
0.2213305936151778
0.2753515309348551
0.2523045909739434
0.0660179717703525
0.1766149182419412
0.0657546391127653
-0.0057953636253603
0.0780997470290044
0.1022855408073539
0.1206655890764012
0.1949596347656736
0.2667414995171478
0.3332430052119201
0.1265228782856273
0.1174561267940477
0.1956151346205663
0.1202363212934037
0.0326063463983445
-0.0758422404709023
-0.0992590773629107
0.6006564337919416

-1.5005655320447109
-0.4936143920548291
0.0271456905062972
1.111573726010627
-0.5566964070221929
-1.1013726660723668
-0.2291591013808078
-0.0197987937701331
-0.8371970133049069
-0.6787695160564124
-0.9074486028876468
-0.6525305024725739
0.0491988970571863
-1.1048741308637005
-0.1874789013657627
0.5988216620330323
-0.1288036148172699
-0.8124676088373748
0.0177928141605762
-0.5751619081374532
-0.512303768009354
-0.6514382788415279
0.0358881490885842
-0.6645904470988876
-0.14563231408214
0.1797222480726618
-0.3792179078673483
-0.4210447950513113
-0.3429656232655352
-0.6703162501083972
-0.8902683165344282
-1.0467294574967976
-0.5656344323252854
-0.1490621408716598
-0.5885448303823996
-0.2720076189411451
-0.5946041012011357
-0.1512521816897894
1.534933449647658
-2.56540585527844

0.0009898963705869
-0.0024415640948556
0.0013632289679265
0.0006022696646109
1.2313664330883538e-05
-0.0005452253875317
-0.0005020329673577
0.0009541943431816
-0.000580042496255
0.000280104165788
-0.0002735488499035
0.0008325796857651
-0.0029802889961014
0.0043236616350913
-0.0006436112144477
-0.0021469690162712
-0.0003724374242959
0.0017890000241672
0.0003989181226569
-0.0031468648393947
0.007542994263001
-0.0285605346765788
0.1540860618597835
-0.4057854933474815
-0.0043721505903206
0.7084363502222328
0.0932737246496612
-1.7549757387927931
2.3148004037928303
-1.9294386902049103
1.66907440709042
0.1013792622192117
0.7442259236998627
-0.3716310672288502
0.4785324195675001
0.2475108081608709
0.303396087175213
0.0233485071844769
-0.8890260546284802
1.4624715235346444

