-0.272969021289473
0.0434365004591241
-0.1023765671099815
-0.113012650664004
0.0702115255479151
0.0372151219287283
-0.0838394756433613
-0.079056562401121
-0.0107254638193028
-0.0586741334263326
-0.0316299933513264
-0.0124154793486783
-0.0150596853867716
-0.0093632180382921
-0.0103940520924805
0.0511955745160973
0.0424269898922504
0.0227574851738737
0.1002082113697399
0.128077408908885
0.1766119831112556
0.2100121922872268
0.0228497137726073
0.1645052569397002
0.0998120800860169
0.0063150950980691
0.0544822779785756
0.1522453995056083
0.1639342347135025
0.2145137691007823
0.3117676923019009
0.3125881035333683
0.1020786651395361
0.2666293220648724
0.1089740289810956
-0.1234970715215452
-0.1187494362418086
0.0946462355509934
0.2369999875247551
-0.491509610641402

0.9449699121499604
-2.325367662370154
0.330518192550212
2.71761223030611
-0.6397098216617036
-1.2014167021651638
0.4128559313820105
0.7477086918399788
-0.1004776314744892
0.4523708779950891
0.3425153754576859
0.2156022178331307
0.2298914775547757
0.2967203813751109
-0.3045306434690503
0.0617117359536201
0.4646309305800343
-0.4778556283198139
0.441614848766579
0.1267320920928774
0.3039232022034916
0.3550870199062004
-0.0581840703042544
0.4264828064580913
0.2502475839033751
-0.2532156183683121
-0.0085339271569922
0.3807169746863215
-0.0300361762881781
0.1522158598634559
0.0761248204728844
0.1042954137911531
0.0689033510047855
-0.0261706533235831
0.089778414688785
0.0674567078550073
0.074962309987525
-0.0028134825267604
-0.202346483846259
0.3300644564390993

-2.1012576390352025
1.7815243538259034
-0.9356072090690352
-0.5311464206715112
-0.6404058305351346
0.3822040469075511
-0.2601971016647114
-0.8059944801993629
-0.403236794810269
-0.7620340706106935
-0.8126304185644231
-0.3953783573584424
-0.5106827765413372
-0.6851688418054712
0.8072334712987691
-0.1252679130176678
-0.9974264272992968
1.0515027366932486
-0.7651069286622928
-0.177167468873185
-0.5124693720769744
-0.6379556727244605
0.0696747004083041
-0.6508804048951136
-0.4468558786059725
0.2543967443198338
-0.12564284958433
-0.7007067354288029
-0.2503034724142516
-0.6094709890507539
-0.703907810912312
-0.8459046922417865
-0.5233388875197694
0.023819380942742
-0.4931445305071991
-0.3792968226238829
-0.6627476247462627
-0.0970899781414195
1.5852149892103755
-2.558348383118962

0.0009849363393689
-0.0024511615118571
0.0013715635794001
0.0006226336852932
2.0610782323535696e-05
-0.000572216277562
-0.0005380533657442
0.0010205632507495
-0.0006013551771719
0.0002314211031582
-7.173905412349949e-05
-0.0001256364682866
0.0003291076075342
0.0025611499695531
-0.0050982434317532
-0.0015179605541227
0.0070463968767913
0.0005551697594843
-0.0119094809021645
0.0196104916824803
-0.0357562531907094
0.1199325506103533
-0.5519559586070724
1.1755949821366911
0.4549404332344308
-2.203625566013955
-1.2813974542239304
6.351555461580385
-6.931937579243038
4.418343891970419
-0.9404733126075656
1.1657922812866888
-0.1900891668517196
0.6531126586373682
0.1414341558298064
-0.0410591900566156
0.3282706640024006
0.1774898385077929
-0.8462195358542752
1.390861449778084

