-0.2689816814783304
-0.0316118984894734
-0.0208546824052145
-0.1194398559026449
-0.1174365235797614
-0.1262494984222291
-0.0973436371515134
-0.0638105794070071
-0.0628342837593204
-0.0093803810458991
0.0180628042414632
0.01087449368772
-0.0042348869431803
0.002028631080405
0.0326947355465477
0.0545323400949587
0.0998387086963606
0.0292279796518311
0.0395011510241576
0.0758516851082986
0.0331071431791897
0.0263492579277137
0.0560431022328078
0.0868808261091112
0.1027319359345773
0.1276398320184416
0.1940870636685931
0.2612793702514219
0.3133730711739744
0.0656349145024741
0.2457152117489931
0.1994270113852506
0.0269262046853602
-0.0385792688471644
-0.0082052416805667
0.0450051792006591
0.0356107499917314
-0.0473219205790537
0.0001867724651369
-0.2576188745410743

0.1865600294692596
-0.200106314300239
0.1987020626398738
0.3010353573062613
0.1753609749887059
0.3696926355832033
0.3599069910885218
0.0674226296861792
0.367916906246431
0.1888655366335234
-0.1074383714809182
0.0628057180098383
0.2455207586797467
0.1186348259054666
0.1760292170974776
0.2074342001162775
0.2376035751451135
0.0276254160844523
-0.005859805699549
0.1924665646598359
0.0554725238050513
0.054198632595291
0.1082503833119528
0.1265792173126099
0.1251209871120521
0.1409697562211178
0.1950076155728843
0.2476751883407194
0.1718901954218465
0.2283161838538432
-0.0375194162330637
-0.1339253924483049
0.0484290615214843
0.1051316523692535
0.067853253493634
0.006855445838822
0.0101130629949373
0.1166721476085273
0.0286735610096536
0.1898175938420009

-2.642216413588484
2.211802518141044
-1.546481150796223
-0.444845383584672
-0.8332177886190462
-0.9884917210213302
-1.0908168084628918
0.1366631411725118
-1.5065550522780091
-0.2336188594134361
0.8918380602142433
-0.4091604126856183
-0.8922514689345379
0.1993222224051533
-0.4844119829667874
-0.3155843392135731
-0.3381183269967324
-0.2191708593940613
0.5983636335176714
-0.6980082024520169
-0.1073099553287711
-0.0494126039439265
-0.1689314460441297
-0.2474496656499482
-0.3233211790568309
-0.3617070874415979
-0.5634520406507575
-0.7491108594717169
-0.7762697149992056
-0.4808422914493671
-0.2031954630708652
-0.0968494140220663
-0.1477802889459835
-0.2219770732280681
-0.4365685211901354
-0.2766200142283098
0.1493499739441722
-1.2623967189354448
0.0069620617770112
-1.5899460541434671

-0.0007488599245177
-0.0030350489679158
0.0055092737963173
-0.0036059701713008
0.001414371484457
-0.0005472460428429
0.0005201185120183
-0.0013145237636549
0.0022254863737863
-0.0007613717174268
-0.001417395039174
0.0011360339914672
-0.0001679057967381
0.0003120664118188
-0.0007364224198774
0.0011259947690287
-0.0024206617193325
0.0032656195849895
0.0265097271932892
-0.062525199228083
-0.0493289027118891
0.0721605692691794
0.1434445754318418
-0.0569079054169407
-0.3662071901776757
0.5813764111002122
-0.5515947317778219
0.6175628090209754
-1.2389354126062149
2.5377160635876743
-2.4541834786336474
1.299640187067076
0.6494338897265974
-0.1533761831991262
-0.1338850020073388
0.1751455641277516
0.1404405887507039
0.622529727401853
-0.0058863943517824
0.9012935040511636

