0.471656778245863
-0.5311315964681249
0.3986136930479161
-0.0264299046199154
0.1596224370706027
0.0464127429837439
0.0685113682987022
0.0975785047002278
-0.0786214948283531
0.0649269922286958
0.0947370857717663
0.0425848775017035
0.1080219887899863
0.1572807217500184
0.1950916814914105
0.249348280855475
0.0117072522495135
0.1114278303345302
0.257320774212931
-0.0619596533604824
0.0715884980618594
0.2252646929862635
0.1523163547730505
0.2970959919207394
0.3606830582528275
0.4893236931906557
0.0625011875894049
0.4919951806697676
0.5663065069931228
-0.9307207668250168
-0.5121389916466046
1.9435200025667296
-0.3037246106251972
-0.494615309375461
0.6554614972011178
0.0626411276398815
0.3027030156772301
0.1466612268511339
0.2398226500897156
-0.0741384403012064

0.2519552501203879
0.0833085273186682
0.1100259881334892
0.2196338190342653
0.226242490444131
0.1543521017523687
0.1149814635670759
0.0746300880735425
0.0205125093920306
0.0428969172154368
0.0706277229794025
0.0926262369146859
0.1363614920141423
0.1768825120680206
0.2464335795974256
0.2600301359501296
0.1222351387832557
0.1600967513382155
0.1246226743383442
0.0821937369048198
0.0701704496514863
0.155136561610053
0.2251349708431303
0.2763093886163505
0.3744072529798036
0.3968207766056975
0.2088321829208615
0.2007670449050094
0.1491492094964482
0.0442925556753864
-0.009532175366681
-0.0070592783020062
0.0837406442824345
0.1413364872579114
0.1406888124191162
0.1648744039253236
0.2474767832423265
0.2402287586427892
0.0814938441684852
0.2748523407599764

-1.492014774134152
0.2696954063109024
-0.8336410740098752
-0.7484484989090469
-0.925103626762468
-0.5084950243186921
-0.477736833575019
-0.5334628741479703
0.2516823250367903
-0.0817562633312879
-0.3601529071032943
-0.197842507384257
-0.2898421974958626
-0.4021942945963197
-0.4609983390780861
-0.5101283421485544
-0.1365365351825661
-0.4651396985081535
0.0428038361930763
-0.1810753463890926
-0.1026330421354616
-0.4365984893345704
-0.3725380696849568
-0.6021892887914347
-0.8076415676049218
-0.9938147263817012
-0.3629215290810473
-0.5160973681670905
-0.609662164356815
0.0808294369131693
0.1178120937296013
-0.3381951685585036
-0.54985121481912
-0.4166729417081365
-0.429643804199319
-0.868113271189281
-0.9227344493747476
-1.225754264044986
-0.0083266855184725
-1.4180573529813918

-0.8132171812736377
0.9843225837768084
-0.4927434874878073
0.1643330838120051
-0.0588618881381165
0.038233596477206
-0.0358958037842302
0.0162763783504497
0.0033860302233425
-0.0048958158097662
0.0024831996360933
0.0024216610054197
-0.0110822309386466
0.0188788511862888
-0.035432100478058
0.1196739655862409
-0.5516036329072056
1.1760234949316029
0.4539729181395264
-2.20470850020714
-1.2799449127740754
6.354401774894494
-6.938666623101283
4.426030546812226
-0.9500701525135472
1.188492825863992
-0.2715882865050569
0.7915464012323015
0.341800763794826
-0.2759723288188967
-0.1610550594699619
0.2745228953679712
0.399551219478531
0.1532387352274314
0.163339654678507
0.5116634699728333
0.4009964652050982
0.7554162803850482
-0.3695313205590441
1.2207488009636325

