-0.2989919462667935
-0.1401242228318119
-0.0966020125421658
-0.2101569124101236
0.0025965650283516
0.0771788318752045
-0.0230570531122571
-0.1022128683222069
-0.0222402796653361
-0.0290563654607741
-0.0385634259246175
-0.0161868697179691
0.0027756353847154
-0.0203015511348804
-0.0170954643077189
0.0229311204670191
0.0193234084738042
0.0194814936886776
0.0862223836712529
0.0684711801051541
0.072365831820401
0.1557258167927049
0.1936685354088508
0.2413310478740011
0.077614874616073
0.1626761881737112
0.1022463595662324
-0.0271987162762374
-0.029016898711196
0.1162769714059033
0.2693813708713994
0.0635095822108956
0.0616815454477916
0.1789699710395789
0.1327591547383617
0.1215929440770938
-0.0652388098051902
0.3141585530753728
0.1671872735485056
-0.6282991159570671

0.1386357882876695
0.2566855157003179
-0.4674636272408554
1.1726280140454906
-0.2422394638203804
-0.4627319670409527
0.2698368706672018
0.5681404888473855
-0.0902014563690602
0.3909716648439278
0.31791981642287
0.3776347715176168
0.2327282978318088
-0.1596112048550613
0.4002736826620757
0.6862065186573668
-0.0928249955355846
-1.6907326114344658
1.027652298688961
0.7624324652066717
-0.564130323751103
0.5205186956117952
0.2192368646471364
0.3765981500534069
0.0955282468137989
0.366799300834144
-0.2724187050149174
-0.0484294001169604
0.6437007785031271
0.2804001974814655
-1.0651660055829608
0.5031456446440169
0.1669908486173573
-0.0479233500690693
0.1656788483073305
0.0992376463654055
0.0764133209379684
0.1227050515953975
-0.2191906898151344
0.2984651962112492

-1.4349294658620595
-0.8334733280734433
-0.2682067598767322
-0.8730660315730777
-0.8335924498350987
0.7840053294089553
-0.2051253211103309
-1.1129026455989552
-0.0660479100107966
-0.7290450638567321
-0.7197575856948478
-0.7629537844802288
-0.4510336384316163
0.1566588025318448
-0.4428828704999504
-1.3957927897440692
-0.2048264374869491
3.384873700166117
-1.4159008629315373
-1.7678260018544592
1.131355558441533
-0.9381578568478858
-0.4317179817670539
-0.7790633368633447
-0.218581483959415
-0.4887250190263629
0.0711839589958258
-0.0027035256729792
-0.900888620629282
-0.4069225709337905
1.055315476937766
-0.9779821351760488
-0.4758290942713473
-0.4986207852837156
-0.8940017638306935
-0.909470178290989
-0.4756658751374034
-0.9400495716122752
1.5838246653372805
-2.2941720172296125

-0.0004010752030928
0.0004098191811231
-0.0009704093244543
0.0016350084114211
-0.0003612003333152
-0.0015973007077893
0.0010823875265245
0.0006159404419295
-0.0011155738977952
0.0008243161189599
-0.0007325346327619
0.001509656159891
-0.0046283831550108
0.0028933727812681
0.0185265735744558
-0.0017904360552123
-0.0280763392994415
-0.0249487554233929
0.0351049710362314
0.0791026307984689
-0.1713994767965553
0.1891559845143313
-0.2356587064140563
0.5423732016368734
-1.6940601028401738
1.092904444288321
8.37549268195541
-1.6012375958546088
-29.977565045582462
31.607318220965567
-1.8232632598444425
-9.495952977076932
4.884972283503019
-0.4832108396987248
0.5894538573728568
0.547136021936881
0.2217875508324792
0.6662375416850578
-1.0611701040830734
1.360903633320943

