-0.4692737724155838
-0.2090223264140236
-0.1696580937575179
-0.1072972635239468
-0.0301963613550283
-0.009586849830639
-0.066797716022691
-0.0958381620490242
-0.084762504883342
-0.1189783981885346
-0.1512562194410809
-0.1630069412412237
-0.0402848636687022
-0.1423720695936341
-0.1018714871022935
0.056859152370386
0.1070224949361163
-0.0196337420781589
-0.0787309059730391
-0.0120211498802715
0.0271607583194697
-0.005978553654733
0.0228133451389554
0.0425463656214958
-0.0151460889554623
0.0927244984523138
0.0747993897076484
-0.0904635422411678
-0.1600191631977776
0.070307239745453
0.3526642607979547
-0.0784067610932159
-0.0764041391052633
0.0659915380191702
-0.0704523081455835
-0.0594294812833397
-0.1790304323295659
0.2035868618162677
0.188750514804311
-0.7431923723542768

0.4652614929902067
0.251632630328065
0.1886649980091868
0.0311757069210533
0.09682746187223
0.1437378554827861
0.1780260457997585
0.1655736278723496
0.2442698579192552
0.3715528593263301
0.4806415954476604
0.5750930552707605
0.2004339537649213
0.3277996560153872
0.3581237579025393
0.0618387739969536
-0.156314091805947
-0.0239860124569041
0.1837811608111138
0.2040184270350765
0.0763515154132109
0.1769492180837087
0.2292879785687458
0.2435198575313821
0.0735352188930371
0.1826758276021377
0.1473883420929079
-0.0580041572161269
-0.1017339323108334
0.0712336385112265
0.2072080829064808
0.141145170846979
0.0968217603163541
0.2385101831910934
0.2867636144312138
0.3147817235747567
0.2050108143543363
0.0326754113499567
-0.014800547153753
0.4537850163921423

-1.4984034964508894
-0.7795258179212032
-0.4946870421784253
-0.6097687897255281
-0.2089232026702311
0.0914880262740391
-0.4606760129458445
-0.4913945962956354
-0.3508859143298271
-0.7164132600259829
-0.7950772905089369
-0.978922869431292
-0.2302969982411056
-0.4519359920802175
-1.4334441987946078
0.582349990702224
1.1742251457729922
-0.5246436710443629
-0.9764978954980482
0.0473279060638803
-0.076515106931064
-0.5839903070974332
-0.4586122760260946
-0.7283445337912856
-0.0946463241482567
-0.3218789075915081
-0.8523397068763864
0.2151273653014178
0.4698093756109392
-0.2232228413349575
-1.0260673684819048
-0.1643138584882675
-0.3364060291438934
-0.8362358573852091
-0.884643466573652
-1.048286904092716
-0.4529531366702493
-1.0847750486319296
1.6525860529761238
-2.309864630730333

-0.0003896553787785
0.0004043873905068
-0.0009759335043503
0.0016604589736469
-0.0003527827058927
-0.001632147798623
0.0010473358888558
0.0006688401347976
-0.0010587816801448
0.0006381867081258
-0.0003696465095088
0.0004378155874188
-0.0001236862266221
-0.0062760436575735
0.0108778817825477
0.0068845957857139
-0.0076339336432067
-0.0174045464345897
0.000431180127044
0.0395746032016041
-0.0420233410523426
0.0203127640363823
0.0013670565716904
-0.0707658235902752
0.8494859704390814
-4.391100158954509
3.0221512426141057
8.572578884822896
-0.1040271007873192
-28.276106143268542
28.806095038092028
-6.471844020449802
-2.879021873490998
2.739351190259649
-0.3793750558142488
0.9235094075465846
-0.0589652908812183
0.8641116772524428
-1.0747791910370916
1.3183028199899725

