-0.7135677269771633
-0.2064711686692677
-0.5343778350320015
-0.2243723885008564
-0.1988915756418484
-0.2586090459375986
-0.034165394544046
0.0200590396526643
-0.1305797122954665
-0.2067031270608125
-0.1540962408682352
-0.245135736976375
-0.2971570468111772
-0.2579782487527026
-0.1056682860381164
-0.2260911545410746
0.0341137135119324
0.0375092718842063
-0.0791717891433624
-0.103452214656638
-0.0569286139991087
-0.0965648214811783
-0.1167530682579212
-0.1163702909403078
-0.0749125215673032
0.0062939709311915
-0.0003332174258975
-0.0975270671305464
-0.1624231290881644
0.0527128548445312
0.2570180131310017
-0.2294303801728813
-0.1402110591425727
-0.1244298215489704
-0.2829723749579166
-0.3026192932638978
-0.291055372310501
0.2341822841148064
0.1257155524309295
-0.9727992722283978

0.3744500770663477
0.1298037984042838
0.3344024265862873
0.1776783734496115
0.0517002906986267
0.202213300941513
0.1596608007675365
0.0618337295133876
0.1125665368505793
0.2397934563962224
0.2874206869062996
0.3820503768718058
0.5165145245788925
0.4793903230512495
0.1828067502088861
0.3998585483829229
0.0735111456156936
-0.0622627503281899
0.0858723241522411
0.2188454996564907
0.1619688771314019
0.2063884552764066
0.3024437448713712
0.3337892101894941
0.122395022434932
0.227932639745442
0.1914695989130766
-0.0739308424386187
-0.1294637808747068
0.102677378774648
0.2588628697419556
0.1343442909953132
0.1011329755720405
0.2648323696213356
0.2918915347158288
0.3266836431927021
0.145831253657511
0.0836585318083544
0.0785443832784725
0.2522353466513986

-1.2455344828428918
-0.4037940110238876
-1.0643270395660809
-0.519248399866777
-0.2807488435287737
-0.6794816723743904
-0.165185009746067
0.0757913528127924
-0.2993346436174247
-0.5548088483745011
-0.3774705714402434
-0.6630603775579635
-0.7855080165181476
-0.737699750350915
-0.2311194786416374
-0.7061609932133078
0.0969247226223281
0.1245982725227052
-0.3085345185340635
-0.4238249655176132
-0.2216164949589386
-0.52583375665226
-0.6519280358593028
-0.8367425078263456
-0.2802371722675933
-0.4429170379397412
-0.6330263688911224
0.1129886995053294
0.3128412057056265
-0.2662750173867156
-0.9097307889844656
-0.3142115062804435
-0.3355447409403063
-0.8773864992657974
-0.9063718566521376
-1.0385214130296283
-0.4852753571870342
-0.2846670436010396
-0.0176387722160423
-1.0331091414869602

-0.0542423824389565
0.0378149905001118
-0.0172898156433171
0.0134807029642916
-0.0169268350713713
0.0118583548173066
0.0008030149941598
-0.0042853224486458
0.0001210767925275
0.0016201761432724
-0.0009011634015345
0.000411941899541
-0.000476000166262
0.0014506654661388
-0.0056522520438297
0.0090121013762234
0.0035876095663572
-0.0098743521925205
-0.0086589360104219
0.0149431856395225
0.0046904071623122
-0.0261076622955036
0.0519172983789521
-0.1652294447239666
1.0159245649100996
-4.406565585287465
2.651033809092149
8.577784041217
0.2789304212441422
-27.99032831610185
28.49218342977481
-6.949438985286699
-2.2382976132253485
2.4395258979761367
-0.2681402306309088
0.8809959630460313
-0.0003175606618052
0.5673264313550224
-0.8032005003127428
1.23388696023498

