-0.2783601974271161
-0.1266433332745098
-0.2270670321893873
-0.073465625902587
-0.1718083642588251
-0.0218521720541241
0.0619997662482869
-0.016346242236884
-0.0383201302437199
-0.0215496123674706
-0.0058575315184795
-0.0016702564822875
0.0005703436423542
0.0159244032473821
0.0352874169771386
0.0401171054279878
-0.0447580339856084
-0.0249743117117786
0.1089997796034984
0.1065707333337477
0.0126849595230921
0.0228722716056804
0.0967293613812878
0.1331626845784053
0.1680931208904063
0.2318431713551494
0.2767082854044485
0.1389828359318049
0.0455383830423118
0.1196247630667487
0.2597214172950754
0.030373927205234
-0.0145752702308973
0.1502662566735833
0.0975174048571121
0.0747027262275863
0.0794978685772383
-0.1376671908114748
0.5324462118991882
-0.6760491503370858

0.151568043385618
0.1140118773990176
0.2755931570138545
0.1252595562149916
0.413586864631317
-0.0906339710165906
-0.4708043937239597
0.4159047579963096
0.5732684582823571
0.0131855141292472
-0.2913150506493696
0.5012994622732875
0.1289575013865589
0.2901104240885061
0.2689962575299754
-0.1098142229535664
1.3632539891317774
-1.767410133833205
-0.0897130089149633
1.1749703846761912
0.112006685097308
-0.2893636541358096
0.0833543164274822
0.3271343522940784
0.1779994744251838
0.2628580696369488
0.3494623187235809
-0.1336364108980592
0.5384580965310327
0.7274925912105941
-1.3501262793724331
0.0231361042587156
0.8982812908678705
-0.4216947775418799
0.1752197515686692
0.1068108793006866
0.1164630194386682
0.1534109084239025
-0.1270623128377957
0.2710099067509705

-1.3813395396071195
-0.6160230947779115
-1.3592090026753287
-0.0914145017969754
-1.363020993458704
-0.424988096908205
0.8661941019874527
-0.1185565065261026
-0.8299712146438698
-0.4740394766764632
0.2176475335402219
-0.5729202534073404
-0.4388995510050114
-0.4788241786115296
-0.5623846692489987
0.4851014682391927
-3.200674377352811
3.227805312843361
1.21026319211006
-2.0095506052124
-0.988722840959912
0.4317527759900604
0.3037159759792649
-0.8387097892374262
-0.3957126548656078
-0.6697852226790367
-0.8970832614271744
0.0078779475076637
-0.9105678840099002
-1.1824860820807512
1.665445586355435
-0.2809779742898365
-1.366493955994239
0.1214935156891796
-0.646403428519513
-0.8773270730937472
-0.8973999238398558
-1.187370691334936
0.9881718504211412
-2.1423101327987197

-0.0176272128437278
0.0103633645425414
-0.0045377627324009
0.0042140116027902
-0.005581015266357
0.0039468555298038
-0.0001071777053463
-0.0012642942403906
0.0003257172604833
0.0004281770270814
-0.000731926209021
0.0009362411996126
-0.0011077227187898
0.0016633175776207
-0.0044335581159708
0.0161296161108023
-0.0229082936029478
-0.0352708410433406
0.0130297558451299
0.0741669950017232
0.0540709496575106
-0.1095781646688396
-0.1892884621501387
0.4751025269601695
-0.5571341302517633
0.7114822410220043
-1.7002438321551896
7.021987080432836
-21.948510848548928
24.7773353261584
-4.200872409941653
-6.935795489919748
1.9305738674919184
2.7115997190168737
-1.3578591805558256
1.0941479217059842
0.3206299929549142
0.7934282274461988
-0.7146853169600761
1.307791754933214

