-0.4504472788864335
-0.1694979939436256
-0.3095241503942685
-0.0641187700139284
-0.1567176139443761
-0.1214806950678945
-0.0005403949216811
0.0350461952399659
-0.0247776748249112
-0.0900619293288486
-0.0890499298226813
-0.0422064153491306
-0.1060552777880277
-0.1067738632358889
-0.0951071797173185
-0.0429953577406566
-0.0466320147317733
-0.0219226339090583
0.0101940885567922
0.0208253537278258
-0.0135735704804495
-0.0096453006150206
0.0263105912449491
0.0192668195248366
0.0314229571087038
0.0531488341438645
0.0521957369824759
0.1009835515826508
-0.167686822871913
-0.0186880645256205
0.4071959594177855
-0.0114965886448403
-0.1837368139689409
0.0594895018338425
-0.0100032277114881
-0.1077273615427927
-0.1106085553445617
-0.2789325372955333
0.4751034037772996
-0.7952185338332048

0.4454331191003869
0.2013598836459982
0.3975029109394141
0.1050349888650204
0.0896639242182577
0.2078989113589058
0.1576683500656698
0.0420613972228168
0.0539907124592139
0.1785476298562166
0.2472564800064385
0.2535357707106967
0.3699820855570113
0.4753484878945662
0.4781417581845886
0.196814221564171
0.2861501211525427
0.152382235062857
-0.0099994768220214
-0.030322429260197
0.0034523940808681
0.0983979849070121
0.1420950332681006
0.1024744558573947
0.1626477219706101
0.2169143287030276
0.2384502620141459
0.1206125469629376
0.059475038665597
0.0793171256928041
0.1001442982457437
0.0904167991453732
0.0976741978128728
0.1509470295553185
0.2060599632693128
0.275939190606334
0.3375528848087366
0.2919085343590822
-0.0890225778307385
0.5161513677955609

-1.4277471902739174
-0.6339067303422757
-1.2296731722256375
-0.291807151979187
-0.5351311876789437
-0.6674402363096941
-0.108636449783031
0.1954947106968424
-0.0994500077011411
-0.5296164589749305
-0.4431177478814498
-0.2703747219286289
-0.6492349758079481
-0.6800781781147522
-0.7337603803704903
-0.2518735487178733
-0.3734351028973873
-0.2391072239089526
0.0182402809365656
-0.0128933247501834
-0.0720901511598591
-0.2395250759247579
-0.2889312768428549
-0.2631736637433534
-0.4961832789894677
-0.6212370998729626
-0.7693053271485629
-0.3323972439429554
-0.3272107945836265
-0.2712902124686763
-0.289592140206776
-0.259070191139604
-0.3136205546791172
-0.5483680720810772
-0.604633524792717
-0.9368796830409016
-1.0087612907984091
-1.1352628605268236
0.7371381616799548
-1.9887254852346536

-0.0170407968104151
0.0100281297198573
-0.0044070365186161
0.0041339459351729
-0.0055043277546326
0.0038727700130295
-0.0001544173957593
-0.0011982997715494
0.0004499653565679
0.0004100712554465
-0.0009979498438775
0.0011494508953256
-0.0010282181074434
0.0011622075452864
-0.0024197505395075
0.0054751811888678
0.0029948089560118
-0.0216475474546709
-0.0137651043572663
0.026907870329001
0.0466773714251122
-0.0213798579525313
-0.1147422042504349
0.1732750451483606
-0.1459076244657816
0.1335068706196104
-0.1874409495179185
-0.4933563652771712
8.799916963155452
-26.68774078312648
26.621321935730546
-4.443360477468527
-6.9679323668373785
4.672424507932433
-0.627720772927028
0.5929376571871312
0.5157671587325041
0.6709561605126076
-0.5835353808318281
1.2351188736255874

