-0.5833993939452117
0.0890423716131758
-0.0056346329896452
-0.2583453527231557
-0.1680769339416266
-0.2346064703817399
-0.0871992738756564
-0.1288321069176
-0.0825208478084188
0.0023066156249079
0.0061792374676071
-0.0248894882705758
-0.0722788198522416
-0.0541605258558626
-0.0314902880654038
-0.0549480681309585
-0.0521692329022616
-0.0462279896394843
-0.0117810840685626
-0.0306604497234096
-0.0366547000467946
-0.0063120205372161
0.0449979113551525
0.0441557482891628
0.0056859332963264
-0.0021330850771237
0.0438146344405996
0.0489953767857213
0.0794459586501729
0.0929970613606885
0.054875841674446
0.1627707339318213
0.02849205452912
-0.0780724230800386
-0.0641526948109047
-0.0075847768589185
-0.0264321328948059
-0.1964226142316936
-0.1186174874606558
-0.4356823331938406

0.4974198929831825
-0.0337509345165853
0.0837423629758185
0.3004432686641651
0.3358336149669212
0.4497316836614885
0.2131346489166146
0.2024057089482574
0.1722402315229774
0.0753051524032725
0.0698302832389517
0.1243731414027385
0.2042771250716965
0.2172134087499755
0.2285728946884655
0.3107015879217564
0.3617427691081896
0.3517446527549138
0.1320077195875631
0.269863212079506
0.1058742866748104
-0.0779077048794866
-0.0623765291886601
0.0711124237019528
0.1445501112656118
0.1053119981574333
0.0909133518291168
0.1655015296820967
0.2192931385760783
0.2683805305511013
0.1132774761638044
0.1570772191369125
0.1246559019942412
0.0476425959805104
0.0624713978178305
0.1234244483402606
0.1504773741706223
0.2431044600076803
0.2066341807283009
0.4727327675442871

-2.512656627699324
1.7338259869784896
-1.3959304529645522
-0.4859622818488852
-0.9567877792612104
-1.0701580558790826
-0.3845759715342128
-0.5938910010379783
-0.7131082723231851
0.2412360055616324
0.2013523108739781
-0.3303028901943785
-0.5701213126449743
-0.1818194658935188
-0.2788942288714621
-0.5210770688305294
-0.4916027723080548
-0.6690097894683665
0.0076533576490704
-0.6853582769109362
-0.4371022129732922
0.476386954448423
0.3132274411345767
-0.500351865997438
-0.5664013453262794
-0.0189855665491045
-0.3561875878180503
-0.6170045534854561
-0.6960825624992377
-0.9624212616018272
-0.2354145527976675
-0.7128965156056448
-0.565673256990787
0.3033777685312585
-0.2220511931842239
-0.8566927344152233
-0.0693377030491817
-0.9592220209191474
-0.6039877865559833
-1.522526580121848

-0.0211526588892868
0.0249873156672919
-0.0109986163193104
0.0023921128867364
-0.0003527447060123
-7.51675674001007e-06
0.0003869927593777
-0.0016125811571663
0.0026362865894088
-0.0012505895637862
-0.0009878708598606
0.0011840357001666
0.0003628472995288
-0.0018533774111441
0.002382673919363
-0.00230605601
0.0027279285442268
-0.0057738761644937
0.0131868559069947
0.0100900663855725
-0.0658902326831436
-0.0343412276838747
0.0858980750763706
0.1343013009523633
-0.0822176052469843
-0.3511970198286099
0.5966792707245403
-0.5725419321111934
0.622008023918978
-1.1888845690394494
2.388400376979817
-2.252090768244351
1.4743432143917434
0.4054731695362158
-0.3090302683673311
0.1718824081501646
0.3388862933222096
0.4159143761974413
0.3360747289673456
0.8352335169407159

