0.0499167743069236
-0.2232763667203765
0.143807692347464
-0.0576493605884561
0.0088639806600729
0.0064726775140864
0.0147704080099724
-0.0131670804499362
1.693188474517566e-05
0.0275901842472057
0.0204914302465421
0.0118844376028856
0.040276819927293
0.0466725311547448
0.0595800123414248
0.1125115528690123
0.1456714188994155
0.2015162203249658
0.0656095714857975
0.1029135748025956
0.1254878973255218
0.0203362163105123
0.0113200445570395
0.0830416976539187
0.1206256123806982
0.1311687630782379
0.1617892844388933
0.26583697927088
0.3143278317807745
0.4463225533182252
-0.0520646962708529
0.5878259365633826
0.2176785514484684
-0.1683409707126713
-0.0828448660052126
0.147197796749733
0.118827812670657
-0.0401846922450566
0.04768964523201
-0.0747979023366352

0.4371327291251232
-0.0943850128111861
0.0880037554271885
0.2279748987216155
0.1994934106188429
0.2508138839648976
0.1237275739160368
0.1194232958005106
0.0456441964735187
0.0537369269927768
0.0147241740369124
0.0013635379200657
0.1377140035231237
0.1433679583873658
0.0949041221797186
0.264803441904629
0.3439570821517535
0.4116053406886314
0.1574378709435985
0.2858503946533667
0.0931273956827321
0.0101750904873634
0.0682021124553907
0.151349050156508
0.1664715999272414
0.1612722012876667
0.199522141388861
0.2824418579735084
0.3424900553952464
0.3256943623875098
0.1887869373363464
0.1246256202071179
0.0688571002993395
0.0306412911128535
0.0582091054203159
0.1079801242687398
0.1125744529042992
0.189806278999206
0.1620295250630929
0.3654206026961532

-3.2118425389580074
2.700009191379085
-1.9654871923421768
-0.3018395141146678
-0.9369609403460496
-0.9193958770627016
-0.343706215813381
-0.5890622805291457
-0.2906893435476719
-0.1808245891979433
0.1841849091261518
0.3387581176257776
-0.7637205597885165
-0.364205272143501
0.1151396618706434
-0.668980141856534
-0.4916779223470933
-0.7931312693096234
-0.0158430654284273
-0.7685200360876727
-0.1315806369067193
0.1811074341570644
-0.1128807769203241
-0.4640964771339911
-0.4116233942096163
-0.2719161384111062
-0.5136586705421868
-0.8045138419727618
-0.9348548381385128
-1.2024436494201487
-0.276803767813104
-0.8741343616636501
-0.6628145728199407
0.4014482453422819
-0.2403050880668202
-0.974847473731265
-0.0757889590641488
-1.0200828609318044
-0.6538197982570015
-1.5938818139278832

-0.0210792549012636
0.0249279111353194
-0.0111576780568973
0.0027533550417877
-0.0009428303218331
0.0015013383857857
-0.0045199822576531
0.0026662735352034
0.0186397782064855
-0.0017040206936598
-0.0280953917952221
-0.025009559720071
0.0351015093437473
0.079154774848193
-0.1714723238706142
0.1892553812489079
-0.2358120466105545
0.5427401997082038
-1.695044794207025
1.093193415406012
8.378548582089465
-1.6004649511518236
-29.98182601435804
31.601974822431227
-1.8189168469256447
-9.48163002725493
4.85981766719808
-0.4595103706625185
0.5646005834633501
0.5950173385639695
0.1157233546500502
0.4977662711476349
0.2661236124435912
-0.2371618471772452
0.1371813498253625
0.5083145704199505
-0.01009077810896
0.5328065035193067
0.3126169835262876
0.8397170585697932

