0.185463366964949
-0.5326556483841135
0.3011631865345224
0.0624591632587732
-0.1214039014329973
0.0579786636412509
0.0043574732824878
0.039442699625
0.0121129560110439
0.0072179859270057
0.0337689031427554
-0.0082645917266181
0.031208243703311
0.0402456707578641
0.0300324592387926
0.0686963877862144
0.0751766014371228
0.145690178448747
0.1969806301606795
0.2528079706091899
0.0718866477961867
0.1211831996646162
0.1526310601838141
0.0351783045803881
-0.0208730590104548
0.0670681576457801
0.1698862563470957
0.1482136575075397
0.1588454721671425
0.2880503274836993
0.3296789716617951
0.4563256709676876
0.0827663669374715
0.409833126212436
0.1216505827280398
-0.1769358379131858
-0.078979145925095
0.0977500401523828
0.097719053563323
-0.1507975215637632

0.4081416236490514
-0.0140164928009834
-0.0518619184951881
0.1024061032030305
0.1763802324583688
0.1412116107283029
0.2209957248956378
0.2420956621851776
0.0899363193471131
0.1295360024982632
0.0931907327801596
-0.0034841876609715
0.0532233186883597
0.0675048467726709
0.0378989738511393
0.1652030211537254
0.2251729341420608
0.2780627054084946
0.3927432436130589
0.4505546775126639
0.1485306162842077
0.1913429415187801
0.1977663681769565
0.1079086348913425
0.0485653620202106
0.0692444032688866
0.1333667339834962
0.1772536362266486
0.1868768936785314
0.2202665056693188
0.2828988365372014
0.2691525133843909
0.1242823923214268
0.131569457976197
0.0856814211521202
0.0434936481285777
0.0866402454683353
0.1015780166471748
-0.0219969150958362
0.3877076419193431

-3.439016206687535
2.4082974344397434
-0.0391848837123048
-1.6088995656595446
0.1254371380728563
-0.7556388861047656
-0.728582280806692
-0.8688721263394168
-0.1820616727016008
-0.709867866519944
-0.4915334272177691
0.811732298654975
-0.3776534169544535
-0.6079762364854753
0.5079179219760419
-0.6122901819695827
-0.2741644672520253
-0.4885540114449627
-0.6240215105935297
-0.8236284684913235
-0.2001786949926983
-0.2819884687937666
-0.6956504036162998
-0.0282613055692192
0.1330153037823235
-0.2629723725381007
-0.554289341288217
-0.4159955687423974
-0.4302637726163856
-0.8612066509564408
-0.9524390738817912
-1.2565945713286484
-0.2230978641252914
-1.15504853050591
-0.5628434014535258
0.898560632694773
-0.387986718747915
-2.043505197668695
1.5720549647434938
-2.221684295131848

0.004764281366016
-0.0079799311005132
0.0021220337335995
0.0038091866171463
-0.0033870241357231
0.0010520918065766
0.0003099957745727
-0.0017305192681415
0.0044091812191113
0.0055877599762511
-0.0282508725003133
-0.0175901508860965
0.0372987604428377
0.062704905841176
-0.034224556606576
-0.1627907493620533
0.2698335347763105
-0.2572574036640805
0.2845489500052849
-0.5646243929430326
0.8005774026600541
6.958103063633922
-29.5183813510688
29.209041857633142
0.7793798514161895
-8.571747756510355
-2.5576981449421834
4.686789917199754
-0.5459685322411967
0.0724150148722438
0.6967633971178099
0.4884977926181305
0.2117167922635128
0.4719669357815763
0.2780047846150411
-0.4428528908029668
0.1948727276848685
1.051530499977058
-0.8486178899386027
1.1776291078100876

