0.7415764710606196
-1.241963231977946
0.589286842336459
0.3310777581322177
-0.136947596833199
-0.1164739767321403
0.126672099110303
0.0780648105751388
0.0770840222635858
0.1331241540812225
0.1643370536219739
0.0441757507233738
0.0993518924686252
0.1319909822269173
-0.0826522417723278
0.0851124555611543
0.1279193652539014
0.1123058556298789
0.196500779393394
0.2766540408450665
0.3385576342914115
0.3318195328495543
-0.0834304289973887
0.5170177464729382
-0.0265497117827937
-0.0904054943810914
0.2572025602233285
0.2644567762768733
0.1959570543428203
0.4189619676026664
0.4622853239942064
0.5925252039510979
-0.0986465833000095
0.7834430302242462
0.1252667502733909
-0.3450619843376613
-0.1075970223496746
0.2372446458367564
0.1042276305002446
0.0140518583123898

0.3854459494547134
0.0306753849979287
-0.0445207011331395
-0.0097556889937428
0.0417787093549917
0.1104248280651279
0.1222230696924735
0.0674526737873037
0.1387264461172467
0.1974254700653896
0.2115327550079116
0.0733304961564244
0.1769891481432876
0.0837180407885732
-0.1010392960938322
0.0661899792494256
0.2228167395929271
0.1695613797313883
0.1914759741326636
0.3286813937604047
0.3773989052336629
0.2943240268182415
0.1331696604303251
0.2251582899158511
0.0965961081854705
0.0440105900884893
0.1111605861631983
0.1812225386737423
0.1885594421825588
0.2320295310636978
0.2884142319006414
0.2622050690198111
0.0547869569975766
0.1551203634975821
0.1235636794690716
0.0585072266006017
0.0160065316434684
-0.0279588618625034
-0.0209175040044785
0.4126419182637503

-2.292464794214314
0.5118611577797717
0.3531291457657322
-0.0258071032083163
-0.4498370727194723
-0.5113077695327888
-0.1753474589822466
-0.2399126341787318
-0.5723656103743681
-0.5027765463454011
-0.7207521441148431
0.1119389436585138
-0.939176533693592
-0.6512011678139986
1.575076268928225
-0.4694502245034043
-1.172471506620553
0.4319657014521264
-0.5478713825323597
-0.5419474967182379
-0.6723600304906222
-0.702989772041807
0.2075780946845065
-1.0518086909356734
-0.0564214827434001
0.1682869530526336
-0.4552105596454584
-0.6077902119573235
-0.3966834212030025
-0.8642183948418312
-0.974610413916864
-1.127095809904998
-0.0477016653845038
-1.0007291674820789
-0.0751822433174235
0.1240870922065777
-0.8137336350883387
-0.6050457304475598
1.6696137918848095
-2.532142297572595

0.0019114397875358
-0.0029431758306749
-0.0001454870370102
0.0012443872965133
0.0009494635651643
-0.000636596475033
-0.0005571407607611
-0.0001001055933594
0.0010466666881136
-0.0017285306357963
0.0033678672188428
-0.0020101636285236
-0.0426899139300764
0.0793808446564749
0.0680922960116743
-0.1403882953767915
-0.1743656367838805
0.528871784327503
-0.6152613150415832
0.6510953619543226
-1.1709365914507903
4.062652222291941
-13.886693151571874
19.17796603984765
-5.919385186183322
-4.89563058701951
2.4496060234946406
2.1862100102252544
-1.4069656650034383
1.0826733963819986
0.3482472382601052
0.6743437652580845
-0.0382705615087618
0.5977909301117201
0.0108775700485976
-0.1123947611882534
0.4358748620952339
0.3515166387185749
-0.9464324626433251
1.3746969697944291

