-0.908228997854409
-0.3712887691421491
0.4512237543988998
0.4253323463347449
-0.3297566689315305
-0.4879873132235413
-0.0465842471364552
-0.031243742054444
-0.3499332841496642
-0.2568538211571551
-0.3615949471815949
-0.0741799915543289
-0.2503670175272252
-0.1769480517736862
0.0480102303339694
0.0487374029505238
-0.104559448640366
-0.1513837021205479
-0.0598852378793291
-0.1566685219424284
-0.1520430039256443
-0.1099604790053928
-0.0554172366195947
-0.0955978615221712
0.0312305808337673
0.0126178401879099
-0.0643749204124425
-0.0660699374816882
-0.0349267562562456
-0.086242812750156
-0.0798760895454401
-0.15647923061753
-0.0520689549764858
0.1080231320369886
-0.0544974661027522
-0.2798895747539946
-0.3690445624285884
0.0229970065033759
0.6840377755593527
-1.2240213225824028

0.4128633132167015
0.1142249614669363
-0.1120661568512612
-0.1571294066917644
0.1154350517112269
0.2674518099113354
0.207784985282719
0.1417621249183077
0.3256718732061792
0.4271676595294381
0.4923212807344573
0.2055156985478056
0.2596842301843062
0.23539874397258
0.1064911972276834
0.0631442481311051
0.1148455747373302
0.2210455538987913
0.2290060520928557
0.2975138076576312
0.3507778691701412
0.2476112122126705
0.1195362825718049
0.1658172668619338
0.0649854634464129
0.030330855075531
0.1016684105794249
0.1337278441231345
0.1615047936877978
0.2494211768328332
0.3324816760455588
0.3340834123160832
0.0787937693375155
0.194922391049501
0.150243808400045
0.0686563838289548
0.0204520239992197
-0.0205884419394431
-0.0040403480067876
0.4413354972644659

-1.5047310304208774
-0.1373201827180154
0.1096347615030765
0.7446719036971045
-0.6234207396989915
-0.8768557127481713
-0.0676162147136608
-0.3071549274040416
-0.7372374975336005
-0.7009375736553036
-0.909273038453145
-0.2374269429759166
-0.5377266822591571
-0.5572744621009771
0.0626868045264985
0.2254817032970319
-0.4170376005850643
-0.4412517060693108
-0.2697474407025776
-0.6262733316514429
-0.6488362618681889
-0.6565161810562893
0.1592497114793927
-0.9228269756716464
-0.027744594910072
0.1763690624526079
-0.5117120431567066
-0.4742562990740701
-0.4207983115983294
-0.8523218966084417
-1.0116785621879498
-1.155867380520301
-0.0072773518686708
-1.1363477182076802
-0.1064192070398264
0.2442818437756637
-0.6286132990656078
-0.604907703192091
1.3321338851476474
-2.075978705034664

0.0021546796374202
-0.0034576285750895
-0.0002252183632037
0.0017223783011151
0.0013702851314176
-0.0011264140662784
-0.0015107303148723
0.0017933932737968
-0.0008236562541747
0.0002460692583864
-2.298176579922845e-05
-4.807672596671377e-05
-0.0005813098016336
0.0017036933674233
-0.0010620798002393
-0.0002844408851691
-0.0001496432133657
0.0007629920984515
-0.000121546841756
-0.0011202751182649
0.0041240257050776
-0.0229450654543997
0.1324403475922981
-0.2407908033617531
-0.1365606278785233
0.4288966130729645
0.3222213426133306
-1.2943918603035642
1.4789502803237955
-1.2773978973982762
1.380889296894644
0.1562860417866377
0.5251981884493876
0.1035012487970479
0.0371740383427888
0.066483955362713
0.4604092659930918
0.2436931811273232
-0.9145209001679768
1.375621000053976

