0.501575190494514
-0.6047235528960815
0.2713367271927372
0.0932763348141793
0.014249610935881
0.1228478644981895
0.1144972473208643
0.0989878744873749
-0.0237734876341559
0.1483813173630551
0.0237598361943533
-0.0596639909614542
0.0582561837999263
0.0986052276478625
0.0571310381094494
0.1014471290242385
0.1582101099254143
0.2260814109763391
0.3017401120793093
0.2274530083335434
0.0505696493015024
0.2577938203795796
0.0449724350352556
0.0279502824402162
0.1538761933426199
0.2317797895537217
0.2062120422609854
0.3871193502679223
0.4284668064654124
0.585867203772431
-0.2759477211446561
1.0471154833516747
0.0482685811868992
-0.3539228935287634
0.1109508919555665
0.3702936785385982
0.0149894069800062
0.166156119017312
0.1459007236901407
0.1310076983764869

0.2861629299439765
0.0826711574284416
-0.0057988915224486
0.0752458077456758
0.1798731711998802
0.1839849641816767
0.2248997724239821
0.1335712900284892
0.0705224462876837
0.0982111001234913
0.0439678660915882
0.0042359342707286
0.0483426838756393
0.0642193181003688
0.0592679837582451
0.1472596803049685
0.2132200966931798
0.2835500977869047
0.3587188665988589
0.2544116210538603
0.1229895129594391
0.1427686111938508
0.1082565836077296
0.096740950913444
0.1219231479400381
0.169491847047438
0.2141448999369314
0.2733171199641222
0.336765330352981
0.2905457152393556
0.1506976981438223
0.105786916922913
0.0595264929575639
0.0445112784704434
0.0721030092501581
0.1109717565175342
0.1347096646476475
0.1914358560697386
0.2008155677444489
0.3500854174215069

-2.084337912666414
0.2963263507335052
0.6632237006737642
-1.0954721008975272
-0.3941056635970479
-0.7409803597672897
-0.7967654177580269
-0.5119791530643751
0.0233820530644895
-1.1542177821181454
0.1422052666771159
0.8911243720934168
-0.560474465630926
-0.690708028503376
0.5181581265596693
-0.5162857679212284
-0.3083524487824791
-0.4788483385117006
-0.5560219943246895
-0.5685641396405532
0.1891083133158552
-0.7303063300218356
-0.1735884177404431
0.0292399409125536
-0.3306113290639931
-0.5342277001072565
-0.4260420990224932
-0.8070138175412933
-0.929875031974104
-1.0914237379590286
0.0411446932469249
-1.2266890511084687
-0.1891622712794876
0.3424115184970237
-0.4351704612682516
-0.8723053780835968
-0.1837332312761997
-0.9990354863432598
-0.8239139133000145
-1.487444623923955

-0.2750414588513248
0.3053551908657637
-0.0181162241530184
-0.0934910112213923
0.0536838294437468
-0.0187760930432629
0.0082733703913909
-0.0105149574096455
0.0161982335218083
0.0155881685504474
-0.0241802656207143
-0.0401110413475864
0.0012863486557257
0.0766058045794249
0.045334675468985
-0.2306551785410347
0.2947948978983889
-0.3298341086446174
0.6002371535467685
-1.921324204300903
4.361106284264869
5.063589415406891
-27.07102412403277
27.484357254583564
-5.244628884295644
-5.692954142371175
4.454787899707141
-0.9208436404792304
0.9286474733298984
0.4373163906629836
0.1113464278415086
0.6545418891180214
0.0388524216838839
-0.2383465950070755
0.2674456793304078
0.5024606838693231
0.0074222460537996
0.56764490920392
0.3795188227362407
0.8455857635901983

