-0.4672228794953633
-0.0123119172921139
-0.1658219201493959
-0.3721698368595935
0.0497561147957877
0.1604976704745845
-0.1599535503515586
-0.133653673501469
-0.0987122388286585
-0.1350793227167302
-0.0513317189596869
-0.0722536543493903
-0.0308498330324187
-0.005306077972103
-0.0078993371338325
0.0413898382752243
0.0181404344314802
-0.0068631538556958
0.0654697516420342
0.0732172919952664
0.1038209354799554
0.1503744203358812
0.1100800995614607
0.0303431439066748
0.1344621453629374
0.037283999615215
0.0035838997956164
0.0840993280506923
0.1319023928161097
0.1283007406655271
0.2102813312723869
0.221344712468906
0.1543725704787812
0.0695433204816926
0.2398486207902214
-0.0620175914561791
-0.2386018736460882
-0.0499138787356092
0.3138758191754804
-0.6025866561605961

0.1441178465694225
0.1433246201986413
-0.3480546160787233
0.7337331559631525
0.0475761193234816
-0.2242552207665349
0.2726003007283454
0.2901747449930895
0.3014977450423109
0.4139935207280354
0.2092950595123821
0.0655400666396206
0.4438078619887867
-0.0326697616334538
-0.155289082175724
0.0963962173509854
0.1280349023477635
-0.1932475011463607
0.3709880545821419
0.1214532684269806
0.2944390666463768
0.3666268518796852
0.2454117533792269
0.0878925261648656
0.4247217764458052
-0.02013362027471
-0.1373516278874919
0.1774659193544091
0.2015127004102698
0.0336452085589125
0.0942162289000102
0.1078437871619368
0.1238384640578505
0.0209017824370584
0.0851001956892881
0.03475407850878
0.0423037155051784
0.0588688880525892
-0.093791100417427
0.2385324588596193

-1.397565402266541
-0.3854712740197246
0.366482223012825
-2.2693305272414057
0.1346589798376243
1.065870478449474
-1.2978422198543071
-0.4015643996448585
-0.7815780773224918
-0.8642031621696159
-0.5006685707267869
-0.0126676479216332
-1.4166202211628534
0.3980988690463122
0.9201184236180552
-0.6177747145611906
-0.8326188975700217
1.2386530828362017
-0.9727321554158918
-0.09285437745387
-0.5264876019159973
-0.6144610666914762
-0.5957451694442849
0.2318960325570945
-1.165810590437631
0.0095336801330073
0.3358012626033824
-0.555800654028799
-0.5989216490226333
-0.2907928773862931
-0.7140470617157654
-0.8199907961897467
-0.93943662313088
-0.1328224319702368
-0.8226188239652586
0.10352210107622
-0.310897306083135
-1.0921582158049443
1.330283476108726
-2.0710505436229494

-0.0044613523547486
0.0049361631272802
-0.0057787597371539
0.0043458176065972
0.000905455552148
-0.0039203992481921
0.0029218288723896
-0.0012877532247452
0.0005620635034094
-0.0004834458500035
0.0007875445447176
-0.0003154981514966
0.0009102082039313
-0.004933688244468
-0.0015815377892286
0.0072018679620804
0.0076082551681367
-0.0093083912605713
-0.0165869990861802
0.0407701964109405
-0.0611968356482861
0.1319170245248206
-0.5063284096710542
1.7393555466117292
-1.1556518056661542
-3.3271794034140827
1.8836727164272804
8.456972859975787
-13.980212230104
9.837730657469823
-3.2295377370881777
1.7280994812359762
0.0236989756112744
0.6459607064360954
0.0911856012806959
-0.1042844778588192
0.2915768316838999
0.6993313915344239
-0.9048250166307712
1.26682740899005

